%YAML:1.0
---
opencv_ml_svm:
   format: 3
   svmType: C_SVC
   kernel:
      type: POLY
      degree: 3.
      gamma: 3.
      coef0: 0.
   C: 1.
   term_criteria: { iterations:100 }
   var_count: 960
   class_count: 52
   class_labels: !!opencv-matrix
      rows: 52
      cols: 1
      dt: i
      data: [ 0, 1, 2, 3, 4, 5, 6, 7, 8, 9, 10, 11, 12, 13, 14, 15, 16,
          17, 18, 19, 20, 21, 22, 23, 24, 25, 26, 27, 28, 29, 30, 31, 32,
          33, 34, 35, 36, 37, 38, 39, 40, 41, 42, 43, 44, 45, 46, 47, 48,
          49, 50, 51 ]
   sv_total: 467
   support_vectors:
      - [ 191., 191., 191., 191., 191., 191., 191., 191., 191., 191.,
          191., 191., 191., 191., 191., 191., 191., 191., 191., 191.,
          191., 191., 191., 191., 191., 191., 191., 191., 191., 191.,
          191., 191., 191., 191., 191., 191., 191., 191., 191., 191.,
          191., 191., 191., 191., 191., 191., 191., 191., 191., 191.,
          191., 191., 193., 166., 157., 167., 193., 191., 192., 194.,
          180., 162., 157., 166., 186., 193., 191., 191., 191., 191.,
          191., 191., 191., 191., 191., 191., 192., 26., 8., 63., 198.,
          191., 194., 106., 17., 9., 8., 10., 38., 149., 194., 191.,
          191., 191., 191., 191., 191., 191., 194., 188., 86., 2., 2.,
          60., 199., 193., 92., 5., 2., 2., 2., 2., 2., 15., 148., 193.,
          191., 191., 191., 191., 191., 194., 118., 40., 2., 2., 2., 60.,
          199., 146., 2., 2., 6., 94., 137., 47., 2., 2., 26., 187.,
          191., 191., 191., 191., 191., 193., 18., 2., 2., 2., 2., 60.,
          197., 70., 2., 2., 75., 195., 194., 181., 30., 2., 2., 135.,
          191., 191., 191., 191., 191., 193., 43., 60., 70., 2., 2., 60.,
          193., 39., 2., 2., 131., 192., 191., 193., 65., 2., 2., 90.,
          193., 191., 191., 191., 191., 192., 185., 193., 102., 2., 2.,
          60., 189., 22., 2., 2., 162., 192., 191., 192., 91., 2., 2.,
          64., 198., 191., 191., 191., 191., 191., 191., 193., 102., 2.,
          2., 61., 187., 15., 2., 3., 171., 192., 191., 192., 108., 2.,
          2., 54., 198., 191., 191., 191., 191., 191., 191., 193., 102.,
          2., 2., 62., 184., 13., 2., 5., 173., 192., 191., 192., 113.,
          2., 2., 50., 198., 191., 191., 191., 191., 191., 191., 193.,
          102., 2., 2., 61., 185., 14., 2., 5., 173., 192., 191., 192.,
          111., 2., 2., 51., 198., 191., 191., 191., 191., 191., 191.,
          193., 102., 2., 2., 60., 189., 19., 2., 2., 165., 192., 191.,
          192., 96., 2., 2., 61., 198., 191., 191., 191., 191., 191.,
          191., 193., 102., 2., 2., 60., 192., 34., 2., 2., 141., 192.,
          191., 193., 75., 2., 2., 83., 196., 191., 191., 191., 191.,
          191., 191., 193., 102., 2., 2., 60., 196., 61., 2., 2., 92.,
          193., 193., 191., 39., 2., 2., 125., 191., 191., 191., 191.,
          191., 191., 191., 193., 102., 2., 2., 60., 199., 129., 2., 2.,
          20., 140., 177., 92., 5., 2., 18., 180., 191., 191., 191.,
          191., 191., 191., 191., 193., 102., 2., 2., 60., 199., 191.,
          64., 3., 2., 2., 6., 2., 2., 9., 129., 194., 191., 191., 191.,
          191., 191., 191., 191., 193., 96., 2., 2., 59., 198., 191.,
          189., 73., 2., 2., 2., 2., 9., 126., 192., 191., 191., 191.,
          191., 191., 191., 191., 191., 192., 180., 161., 162., 171.,
          193., 191., 192., 193., 166., 138., 131., 147., 178., 194.,
          191., 191., 191., 191., 191., 191., 191., 191., 191., 191.,
          191., 191., 191., 191., 191., 191., 191., 191., 191., 192.,
          193., 191., 191., 191., 191., 191., 191., 191., 191., 191.,
          191., 191., 191., 191., 191., 191., 191., 191., 191., 191.,
          191., 191., 191., 191., 191., 191., 191., 191., 191., 191.,
          191., 191., 191., 191., 191., 191., 191., 191., 191., 191.,
          191., 191., 191., 193., 153., 95., 187., 191., 191., 191.,
          191., 191., 191., 191., 191., 191., 191., 191., 191., 191.,
          191., 191., 191., 191., 191., 191., 192., 166., 36., 16., 81.,
          195., 191., 191., 191., 191., 191., 191., 191., 191., 191.,
          191., 191., 191., 191., 191., 191., 191., 191., 193., 168.,
          48., 13., 15., 15., 87., 183., 191., 191., 191., 191., 191.,
          191., 191., 191., 191., 191., 191., 191., 191., 191., 191.,
          191., 169., 24., 11., 13., 13., 13., 7., 78., 197., 191., 191.,
          191., 191., 191., 191., 191., 191., 191., 191., 191., 191.,
          191., 192., 188., 50., 9., 11., 11., 11., 11., 11., 9., 92.,
          191., 191., 191., 191., 191., 191., 191., 191., 191., 191.,
          191., 191., 191., 191., 75., 2., 2., 6., 6., 6., 6., 6., 3.,
          6., 131., 193., 191., 191., 191., 191., 191., 191., 191., 191.,
          191., 191., 191., 170., 11., 2., 2., 5., 6., 6., 6., 3., 2.,
          2., 52., 197., 191., 191., 191., 191., 191., 191., 191., 191.,
          191., 191., 191., 176., 18., 2., 2., 4., 5., 5., 5., 2., 2.,
          2., 69., 196., 191., 191., 191., 191., 191., 191., 191., 191.,
          191., 191., 191., 193., 140., 16., 2., 2., 11., 6., 7., 2., 2.,
          33., 169., 192., 191., 191., 191., 191., 191., 191., 191.,
          191., 191., 191., 191., 191., 195., 164., 110., 132., 107.,
          17., 138., 96., 116., 184., 193., 191., 191., 191., 191., 191.,
          191., 191., 191., 191., 191., 191., 191., 191., 191., 191.,
          193., 194., 61., 2., 114., 196., 194., 191., 191., 191., 191.,
          191., 191., 191., 191., 191., 191., 191., 191., 191., 191.,
          191., 191., 191., 191., 179., 119., 116., 136., 192., 191.,
          191., 191., 191., 191., 191., 191., 191., 191., 191., 191.,
          191., 191., 191., 191., 191., 191., 191., 191., 191., 195.,
          195., 194., 191., 191., 191., 191., 191., 191., 191., 191.,
          191., 191., 191., 191., 191., 191., 191., 191., 191., 191.,
          191., 191., 191., 191., 191., 191., 191., 191., 191., 191.,
          191., 191., 191., 191., 191., 191., 191., 191., 191., 191.,
          191., 191., 191., 191., 191., 191., 191., 191., 191., 191.,
          191., 191., 191., 191., 191., 191., 191., 191., 191., 191.,
          191., 191., 191., 191., 191., 191., 191., 191., 191., 191.,
          191., 191., 191., 191., 191., 191., 191., 191., 191., 191.,
          191., 191., 191., 191., 191., 191., 191., 191., 191., 191.,
          191., 191., 191., 191., 191., 191., 191., 191., 191., 191.,
          191., 191., 191., 191., 191., 191., 191., 191., 191., 191.,
          191., 191., 191., 191., 191., 191., 191., 191., 191., 191.,
          191., 191., 191., 191., 191., 191., 191., 191., 191., 191.,
          191., 191., 191., 191., 191., 191., 191., 191., 191., 191.,
          191., 191., 191., 191., 191., 191., 191., 191., 191., 191.,
          191., 191., 191., 191., 191., 191., 191. ]
      - [ 191., 191., 191., 191., 191., 191., 191., 191., 191., 191.,
          191., 191., 191., 191., 191., 191., 191., 191., 191., 191.,
          191., 191., 191., 191., 191., 191., 191., 191., 191., 191.,
          191., 191., 191., 191., 191., 191., 191., 191., 191., 191.,
          191., 191., 191., 191., 191., 191., 191., 191., 191., 191.,
          191., 191., 191., 191., 191., 191., 191., 191., 191., 191.,
          191., 191., 191., 191., 191., 191., 191., 191., 191., 191.,
          191., 191., 191., 191., 191., 191., 191., 191., 191., 191.,
          191., 193., 194., 192., 191., 191., 191., 191., 193., 194.,
          194., 194., 192., 191., 191., 191., 191., 191., 191., 191.,
          191., 191., 191., 191., 190., 99., 86., 143., 194., 191., 194.,
          194., 136., 95., 89., 123., 185., 194., 191., 191., 191., 191.,
          191., 191., 191., 191., 191., 194., 139., 6., 2., 99., 196.,
          193., 143., 36., 2., 2., 2., 2., 21., 120., 195., 191., 191.,
          191., 191., 191., 191., 192., 194., 152., 9., 2., 2., 101.,
          197., 188., 23., 2., 2., 7., 8., 3., 2., 2., 141., 193., 191.,
          191., 191., 191., 191., 154., 44., 11., 2., 2., 2., 101., 197.,
          74., 2., 2., 55., 164., 172., 80., 2., 2., 38., 186., 191.,
          191., 191., 191., 191., 140., 3., 12., 11., 2., 2., 101., 178.,
          3., 2., 7., 151., 194., 191., 168., 3., 2., 12., 163., 191.,
          191., 191., 191., 191., 165., 104., 157., 64., 2., 2., 101.,
          153., 2., 2., 18., 175., 191., 191., 188., 27., 2., 4., 130.,
          191., 191., 191., 191., 191., 193., 196., 197., 64., 2., 2.,
          101., 137., 2., 2., 23., 184., 191., 191., 195., 49., 2., 2.,
          109., 191., 191., 191., 191., 191., 191., 191., 195., 64., 2.,
          2., 103., 129., 2., 2., 28., 187., 191., 191., 195., 71., 2.,
          2., 91., 191., 191., 191., 191., 191., 191., 191., 195., 64.,
          2., 2., 103., 128., 2., 2., 28., 187., 191., 191., 195., 70.,
          2., 2., 89., 191., 191., 191., 191., 191., 191., 191., 195.,
          64., 2., 2., 101., 131., 2., 2., 28., 187., 191., 191., 195.,
          65., 2., 2., 98., 191., 191., 191., 191., 191., 191., 191.,
          195., 64., 2., 2., 101., 143., 2., 2., 21., 181., 191., 191.,
          193., 41., 2., 2., 118., 191., 191., 191., 191., 191., 191.,
          191., 195., 64., 2., 2., 101., 164., 2., 2., 14., 167., 191.,
          191., 183., 14., 2., 7., 147., 191., 191., 191., 191., 191.,
          191., 191., 195., 64., 2., 2., 101., 190., 24., 2., 3., 116.,
          197., 197., 143., 2., 2., 21., 177., 191., 191., 191., 191.,
          191., 191., 191., 195., 64., 2., 2., 101., 198., 136., 7., 2.,
          13., 92., 106., 28., 2., 2., 83., 192., 191., 191., 191., 191.,
          191., 191., 191., 195., 64., 2., 2., 101., 196., 198., 73., 2.,
          2., 2., 2., 2., 2., 45., 193., 192., 191., 191., 191., 191.,
          191., 191., 191., 194., 103., 63., 63., 129., 195., 191., 187.,
          121., 59., 33., 30., 52., 100., 178., 192., 191., 191., 191.,
          191., 191., 191., 191., 191., 191., 198., 198., 198., 196.,
          191., 191., 191., 193., 198., 194., 193., 198., 195., 191.,
          191., 191., 191., 191., 191., 191., 191., 191., 191., 191.,
          191., 191., 191., 191., 191., 191., 192., 191., 191., 192.,
          192., 191., 191., 191., 191., 191., 191., 191., 191., 191.,
          191., 191., 191., 191., 191., 191., 191., 191., 191., 192.,
          175., 176., 192., 191., 191., 191., 191., 191., 191., 191.,
          191., 191., 191., 191., 191., 191., 191., 191., 191., 191.,
          191., 191., 191., 198., 76., 67., 183., 191., 191., 191., 191.,
          191., 191., 191., 191., 191., 191., 191., 191., 191., 191.,
          191., 191., 191., 191., 191., 187., 96., 17., 15., 71., 180.,
          192., 191., 191., 191., 191., 191., 191., 191., 191., 191.,
          191., 191., 191., 191., 191., 191., 191., 198., 94., 11., 13.,
          13., 12., 58., 191., 191., 191., 191., 191., 191., 191., 191.,
          191., 191., 191., 191., 191., 191., 191., 191., 189., 90., 12.,
          12., 12., 12., 12., 10., 61., 180., 191., 191., 191., 191.,
          191., 191., 191., 191., 191., 191., 191., 191., 191., 194.,
          131., 7., 10., 10., 10., 10., 10., 10., 3., 88., 194., 191.,
          191., 191., 191., 191., 191., 191., 191., 191., 191., 191.,
          192., 171., 17., 2., 3., 6., 6., 6., 6., 5., 2., 8., 134.,
          194., 191., 191., 191., 191., 191., 191., 191., 191., 191.,
          191., 192., 137., 2., 2., 2., 6., 6., 6., 6., 2., 2., 2., 72.,
          194., 191., 191., 191., 191., 191., 191., 191., 191., 191.,
          191., 192., 177., 13., 2., 2., 2., 2., 2., 2., 2., 2., 2.,
          142., 193., 191., 191., 191., 191., 191., 191., 191., 191.,
          191., 191., 191., 194., 152., 53., 21., 44., 32., 24., 38.,
          13., 33., 124., 195., 191., 191., 191., 191., 191., 191., 191.,
          191., 191., 191., 191., 191., 191., 192., 196., 184., 199.,
          63., 32., 186., 173., 191., 194., 191., 191., 191., 191., 191.,
          191., 191., 191., 191., 191., 191., 191., 191., 191., 191.,
          191., 193., 168., 23., 11., 124., 195., 192., 191., 191., 191.,
          191., 191., 191., 191., 191., 191., 191., 191., 191., 191.,
          191., 191., 191., 191., 191., 185., 182., 182., 185., 191.,
          191., 191., 191., 191., 191., 191., 191., 191., 191., 191.,
          191., 191., 191., 191., 191., 191., 191., 191., 191., 191.,
          192., 192., 192., 191., 191., 191., 191., 191., 191., 191.,
          191., 191., 191., 191., 191., 191., 191., 191., 191., 191.,
          191., 191., 191., 191., 191., 191., 191., 191., 191., 191.,
          191., 191., 191., 191., 191., 191., 191., 191., 191., 191.,
          191., 191., 191., 191., 191., 191., 191., 191., 191., 191.,
          191., 191., 191., 191., 191., 191., 191., 191., 191., 191.,
          191., 191., 191., 191., 191., 191., 191., 191., 191., 191.,
          191., 191., 191., 191., 191., 191., 191., 191., 191., 191.,
          191., 191., 191., 191., 191., 191., 191., 191., 191., 191.,
          191., 191., 191., 191., 191., 191., 191., 191., 191., 191.,
          191., 191., 191., 191., 191., 191. ]
      - [ 191., 191., 191., 191., 191., 191., 191., 191., 191., 191.,
          191., 191., 191., 191., 191., 191., 191., 191., 191., 191.,
          191., 191., 191., 191., 191., 191., 191., 191., 191., 191.,
          191., 191., 191., 191., 191., 191., 191., 191., 191., 191.,
          191., 191., 191., 191., 191., 191., 191., 191., 191., 191.,
          191., 191., 191., 193., 164., 157., 169., 193., 191., 192.,
          194., 179., 161., 158., 167., 187., 193., 191., 191., 191.,
          191., 191., 191., 191., 191., 191., 192., 192., 24., 8., 73.,
          198., 191., 192., 98., 16., 9., 8., 10., 41., 155., 193., 191.,
          191., 191., 191., 191., 191., 191., 195., 186., 78., 2., 2.,
          70., 198., 193., 84., 4., 2., 2., 2., 2., 2., 20., 158., 193.,
          191., 191., 191., 191., 191., 189., 114., 36., 2., 2., 2., 70.,
          199., 139., 2., 2., 7., 100., 136., 43., 2., 2., 28., 188.,
          191., 191., 191., 191., 191., 180., 14., 2., 2., 2., 2., 70.,
          194., 57., 2., 2., 87., 197., 194., 173., 22., 2., 2., 145.,
          191., 191., 191., 191., 191., 181., 40., 66., 66., 2., 2., 70.,
          185., 30., 2., 2., 140., 191., 191., 191., 52., 2., 2., 103.,
          193., 191., 191., 191., 191., 191., 185., 194., 92., 2., 2.,
          70., 177., 17., 2., 2., 167., 191., 191., 192., 78., 2., 2.,
          77., 198., 191., 191., 191., 191., 191., 191., 193., 91., 2.,
          2., 71., 173., 12., 2., 3., 175., 191., 191., 193., 97., 2.,
          2., 64., 198., 191., 191., 191., 191., 191., 191., 193., 91.,
          2., 2., 72., 170., 10., 2., 6., 176., 191., 191., 193., 102.,
          2., 2., 60., 198., 191., 191., 191., 191., 191., 191., 193.,
          91., 2., 2., 71., 171., 11., 2., 6., 176., 191., 191., 193.,
          100., 2., 2., 62., 198., 191., 191., 191., 191., 191., 191.,
          193., 91., 2., 2., 70., 176., 15., 2., 2., 169., 191., 191.,
          193., 83., 2., 2., 73., 198., 191., 191., 191., 191., 191.,
          191., 193., 91., 2., 2., 70., 183., 26., 2., 2., 149., 191.,
          191., 192., 62., 2., 2., 96., 196., 191., 191., 191., 191.,
          191., 191., 193., 91., 2., 2., 70., 193., 48., 2., 2., 105.,
          193., 193., 184., 29., 2., 2., 136., 191., 191., 191., 191.,
          191., 191., 191., 193., 91., 2., 2., 70., 199., 120., 2., 2.,
          24., 146., 176., 84., 4., 2., 20., 183., 191., 191., 191.,
          191., 191., 191., 191., 193., 91., 2., 2., 70., 198., 191.,
          58., 2., 2., 2., 5., 2., 2., 12., 139., 194., 191., 191., 191.,
          191., 191., 191., 191., 193., 84., 2., 2., 68., 198., 191.,
          186., 64., 2., 2., 2., 2., 10., 133., 193., 191., 191., 191.,
          191., 191., 191., 191., 191., 192., 178., 161., 162., 173.,
          193., 191., 192., 193., 164., 137., 131., 148., 179., 194.,
          191., 191., 191., 191., 191., 191., 191., 191., 191., 191.,
          191., 191., 191., 191., 191., 191., 191., 191., 191., 193.,
          193., 191., 191., 191., 191., 191., 191., 191., 191., 191.,
          191., 191., 191., 191., 191., 191., 191., 191., 191., 191.,
          191., 191., 191., 191., 191., 191., 191., 191., 191., 191.,
          191., 191., 191., 191., 191., 191., 191., 191., 191., 191.,
          191., 191., 191., 194., 144., 97., 187., 191., 191., 191.,
          191., 191., 191., 191., 191., 191., 191., 191., 191., 191.,
          191., 191., 191., 191., 191., 191., 192., 162., 33., 17., 90.,
          198., 191., 191., 191., 191., 191., 191., 191., 191., 191.,
          191., 191., 191., 191., 191., 191., 191., 191., 193., 161.,
          42., 13., 15., 16., 93., 185., 191., 191., 191., 191., 191.,
          191., 191., 191., 191., 191., 191., 191., 191., 191., 191.,
          191., 164., 22., 11., 13., 13., 13., 7., 88., 197., 191., 191.,
          191., 191., 191., 191., 191., 191., 191., 191., 191., 191.,
          191., 192., 187., 43., 9., 11., 11., 11., 11., 11., 9., 100.,
          192., 191., 191., 191., 191., 191., 191., 191., 191., 191.,
          191., 191., 191., 190., 64., 2., 2., 6., 6., 6., 6., 6., 3.,
          10., 142., 193., 191., 191., 191., 191., 191., 191., 191.,
          191., 191., 191., 191., 163., 2., 2., 2., 5., 6., 6., 6., 3.,
          2., 2., 59., 196., 191., 191., 191., 191., 191., 191., 191.,
          191., 191., 191., 191., 171., 7., 2., 2., 4., 5., 5., 5., 2.,
          2., 2., 77., 196., 191., 191., 191., 191., 191., 191., 191.,
          191., 191., 191., 191., 194., 135., 13., 2., 2., 10., 6., 6.,
          2., 2., 41., 176., 192., 191., 191., 191., 191., 191., 191.,
          191., 191., 191., 191., 191., 191., 195., 160., 110., 135.,
          96., 18., 136., 94., 119., 185., 192., 191., 191., 191., 191.,
          191., 191., 191., 191., 191., 191., 191., 191., 191., 191.,
          191., 193., 194., 55., 2., 124., 196., 194., 191., 191., 191.,
          191., 191., 191., 191., 191., 191., 191., 191., 191., 191.,
          191., 191., 191., 191., 191., 177., 118., 116., 140., 193.,
          191., 191., 191., 191., 191., 191., 191., 191., 191., 191.,
          191., 191., 191., 191., 191., 191., 191., 191., 191., 191.,
          195., 195., 194., 191., 191., 191., 191., 191., 191., 191.,
          191., 191., 191., 191., 191., 191., 191., 191., 191., 191.,
          191., 191., 191., 191., 191., 191., 191., 191., 191., 191.,
          191., 191., 191., 191., 191., 191., 191., 191., 191., 191.,
          191., 191., 191., 191., 191., 191., 191., 191., 191., 191.,
          191., 191., 191., 191., 191., 191., 191., 191., 191., 191.,
          191., 191., 191., 191., 191., 191., 191., 191., 191., 191.,
          191., 191., 191., 191., 191., 191., 191., 191., 191., 191.,
          191., 191., 191., 191., 191., 191., 191., 191., 191., 191.,
          191., 191., 191., 191., 191., 191., 191., 191., 191., 191.,
          191., 191., 191., 191., 191., 191., 191., 191., 191., 191.,
          191., 191., 191., 191., 191., 191., 191., 191., 191., 191.,
          191., 191., 191., 191., 191., 191., 191., 191., 191., 191.,
          191., 191., 191., 191., 191., 191., 191., 191., 191., 191.,
          191., 191., 191., 191., 191., 191., 191., 191., 191., 191.,
          191., 191., 191., 191., 191., 191., 191. ]
      - [ 245., 245., 245., 245., 245., 245., 245., 245., 245., 245.,
          245., 245., 245., 245., 245., 245., 245., 245., 245., 245.,
          245., 245., 245., 245., 245., 245., 245., 245., 245., 245.,
          245., 245., 245., 245., 245., 245., 245., 245., 245., 245.,
          245., 245., 245., 245., 245., 245., 245., 245., 245., 245.,
          245., 245., 245., 245., 245., 245., 245., 245., 245., 245.,
          245., 245., 245., 245., 245., 245., 245., 245., 245., 245.,
          245., 245., 245., 245., 245., 245., 245., 245., 245., 245.,
          245., 248., 248., 246., 245., 245., 245., 245., 248., 248.,
          248., 248., 246., 245., 245., 245., 245., 245., 245., 245.,
          245., 245., 245., 245., 244., 127., 110., 183., 248., 245.,
          248., 248., 175., 122., 114., 157., 238., 249., 245., 245.,
          245., 245., 245., 245., 245., 245., 245., 249., 178., 8., 2.,
          127., 251., 248., 183., 46., 3., 2., 2., 2., 27., 153., 250.,
          245., 245., 245., 245., 245., 245., 246., 249., 194., 12., 2.,
          2., 129., 252., 241., 29., 2., 2., 9., 10., 3., 2., 2., 181.,
          247., 245., 245., 245., 245., 245., 198., 56., 14., 2., 2., 2.,
          129., 252., 94., 2., 2., 70., 210., 221., 103., 2., 2., 49.,
          239., 245., 245., 245., 245., 245., 179., 4., 15., 14., 2., 2.,
          129., 228., 3., 2., 10., 194., 248., 245., 216., 4., 2., 16.,
          209., 245., 245., 245., 245., 245., 211., 134., 202., 82., 2.,
          2., 129., 197., 3., 2., 23., 225., 245., 245., 240., 35., 2.,
          5., 167., 245., 245., 245., 245., 245., 247., 251., 252., 82.,
          2., 2., 129., 176., 2., 2., 29., 236., 245., 245., 249., 63.,
          2., 2., 139., 245., 245., 245., 245., 245., 245., 245., 250.,
          82., 2., 2., 132., 165., 2., 2., 35., 240., 245., 245., 249.,
          90., 2., 2., 117., 245., 245., 245., 245., 245., 245., 245.,
          250., 82., 2., 2., 132., 164., 2., 2., 36., 240., 245., 245.,
          249., 90., 2., 2., 114., 245., 245., 245., 245., 245., 245.,
          245., 250., 82., 2., 2., 129., 168., 2., 2., 35., 240., 245.,
          245., 249., 84., 2., 2., 126., 245., 245., 245., 245., 245.,
          245., 245., 250., 82., 2., 2., 129., 183., 3., 2., 27., 232.,
          245., 245., 247., 53., 2., 3., 151., 245., 245., 245., 245.,
          245., 245., 245., 250., 82., 2., 2., 129., 211., 3., 2., 17.,
          214., 245., 245., 235., 19., 2., 9., 188., 245., 245., 245.,
          245., 245., 245., 245., 250., 82., 2., 2., 129., 244., 31., 2.,
          4., 149., 252., 253., 183., 2., 2., 26., 226., 245., 245.,
          245., 245., 245., 245., 245., 250., 82., 2., 2., 129., 254.,
          175., 9., 2., 17., 118., 136., 36., 2., 2., 107., 246., 245.,
          245., 245., 245., 245., 245., 245., 250., 82., 2., 2., 129.,
          251., 254., 93., 2., 2., 2., 2., 2., 2., 58., 247., 246., 245.,
          245., 245., 245., 245., 245., 245., 249., 132., 80., 81., 165.,
          250., 245., 240., 155., 76., 43., 39., 66., 128., 228., 246.,
          245., 245., 245., 245., 245., 245., 245., 245., 245., 254.,
          254., 254., 251., 245., 245., 245., 248., 254., 249., 247.,
          254., 250., 245., 245., 245., 245., 245., 245., 245., 245.,
          245., 245., 245., 245., 245., 245., 245., 245., 245., 246.,
          245., 245., 246., 246., 245., 245., 245., 245., 245., 245.,
          245., 245., 245., 245., 245., 245., 245., 245., 245., 245.,
          245., 245., 246., 224., 226., 246., 245., 245., 245., 245.,
          245., 245., 245., 245., 245., 245., 245., 245., 245., 245.,
          245., 245., 245., 245., 245., 245., 254., 97., 86., 235., 245.,
          245., 245., 245., 245., 245., 245., 245., 245., 245., 245.,
          245., 245., 245., 245., 245., 245., 245., 245., 240., 123.,
          22., 20., 91., 231., 246., 245., 245., 245., 245., 245., 245.,
          245., 245., 245., 245., 245., 245., 245., 245., 245., 245.,
          253., 121., 14., 17., 17., 15., 74., 245., 245., 245., 245.,
          245., 245., 245., 245., 245., 245., 245., 245., 245., 245.,
          245., 245., 242., 115., 16., 15., 15., 15., 15., 12., 78.,
          231., 245., 245., 245., 245., 245., 245., 245., 245., 245.,
          245., 245., 245., 245., 249., 168., 10., 13., 13., 13., 13.,
          13., 13., 3., 112., 249., 245., 245., 245., 245., 245., 245.,
          245., 245., 245., 245., 245., 246., 219., 22., 2., 4., 8., 8.,
          8., 8., 7., 2., 10., 171., 248., 245., 245., 245., 245., 245.,
          245., 245., 245., 245., 245., 246., 175., 2., 2., 2., 8., 8.,
          8., 8., 2., 2., 2., 92., 249., 245., 245., 245., 245., 245.,
          245., 245., 245., 245., 245., 246., 226., 16., 2., 2., 3., 3.,
          3., 3., 2., 2., 2., 182., 248., 245., 245., 245., 245., 245.,
          245., 245., 245., 245., 245., 245., 249., 195., 68., 27., 57.,
          41., 30., 49., 17., 43., 158., 250., 245., 245., 245., 245.,
          245., 245., 245., 245., 245., 245., 245., 245., 245., 247.,
          251., 236., 255., 80., 41., 238., 221., 244., 248., 245., 245.,
          245., 245., 245., 245., 245., 245., 245., 245., 245., 245.,
          245., 245., 245., 245., 248., 215., 29., 15., 159., 250., 246.,
          245., 245., 245., 245., 245., 245., 245., 245., 245., 245.,
          245., 245., 245., 245., 245., 245., 245., 245., 238., 234.,
          234., 237., 245., 245., 245., 245., 245., 245., 245., 245.,
          245., 245., 245., 245., 245., 245., 245., 245., 245., 245.,
          245., 245., 245., 246., 246., 246., 245., 245., 245., 245.,
          245., 245., 245., 245., 245., 245., 245., 245., 245., 245.,
          245., 245., 245., 245., 245., 245., 245., 245., 245., 245.,
          245., 245., 245., 245., 245., 245., 245., 245., 245., 245.,
          245., 245., 245., 245., 245., 245., 245., 245., 245., 245.,
          245., 245., 245., 245., 245., 245., 245., 245., 245., 245.,
          245., 245., 245., 245., 245., 245., 245., 245., 245., 245.,
          245., 245., 245., 245., 245., 245., 245., 245., 245., 245.,
          245., 245., 245., 245., 245., 245., 245., 245., 245., 245.,
          245., 245., 245., 245., 245., 245., 245., 245., 245., 245.,
          245., 245., 245., 245., 245., 245., 245., 245., 245. ]
      - [ 245., 245., 245., 245., 245., 245., 245., 245., 245., 245.,
          245., 245., 245., 245., 245., 245., 245., 245., 245., 245.,
          245., 245., 245., 245., 245., 245., 245., 245., 245., 245.,
          245., 245., 245., 245., 245., 245., 245., 245., 245., 245.,
          245., 245., 245., 245., 245., 245., 245., 245., 245., 245.,
          245., 245., 245., 245., 245., 245., 245., 245., 245., 245.,
          245., 245., 245., 245., 245., 245., 245., 245., 245., 245.,
          245., 245., 245., 245., 245., 245., 245., 248., 211., 201.,
          217., 247., 245., 246., 248., 229., 207., 202., 214., 240.,
          247., 245., 245., 245., 245., 245., 245., 245., 245., 245.,
          246., 246., 31., 10., 93., 253., 245., 246., 126., 20., 11.,
          10., 13., 52., 198., 247., 245., 245., 245., 245., 245., 245.,
          245., 249., 238., 100., 2., 2., 90., 254., 248., 108., 5., 2.,
          2., 2., 2., 2., 25., 202., 247., 245., 245., 245., 245., 245.,
          243., 146., 47., 2., 2., 2., 90., 255., 178., 2., 2., 9., 128.,
          174., 55., 3., 2., 36., 241., 245., 245., 245., 245., 245.,
          230., 19., 2., 2., 2., 2., 90., 249., 73., 2., 2., 112., 252.,
          249., 221., 29., 2., 2., 185., 245., 245., 245., 245., 245.,
          232., 51., 84., 85., 2., 2., 90., 237., 38., 2., 2., 180.,
          245., 245., 244., 67., 2., 2., 132., 248., 245., 245., 245.,
          245., 245., 238., 248., 117., 2., 2., 90., 227., 22., 2., 2.,
          214., 245., 245., 246., 100., 2., 2., 99., 253., 245., 245.,
          245., 245., 245., 245., 248., 116., 2., 2., 91., 222., 15., 2.,
          4., 224., 245., 245., 247., 124., 2., 2., 83., 254., 245.,
          245., 245., 245., 245., 245., 248., 116., 2., 2., 92., 218.,
          13., 2., 7., 226., 245., 245., 247., 130., 2., 2., 77., 254.,
          245., 245., 245., 245., 245., 245., 248., 116., 2., 2., 91.,
          219., 14., 2., 7., 226., 245., 245., 247., 129., 2., 2., 79.,
          254., 245., 245., 245., 245., 245., 245., 248., 116., 2., 2.,
          90., 225., 19., 2., 2., 217., 245., 245., 247., 106., 2., 2.,
          94., 254., 245., 245., 245., 245., 245., 245., 248., 116., 2.,
          2., 90., 234., 34., 2., 2., 191., 245., 245., 246., 79., 2.,
          2., 123., 251., 245., 245., 245., 245., 245., 245., 248., 116.,
          2., 2., 90., 247., 61., 2., 2., 134., 247., 247., 236., 38.,
          2., 2., 174., 245., 245., 245., 245., 245., 245., 245., 248.,
          116., 2., 2., 90., 254., 154., 2., 2., 30., 187., 226., 108.,
          5., 2., 26., 234., 245., 245., 245., 245., 245., 245., 245.,
          248., 116., 2., 2., 90., 254., 245., 75., 3., 2., 2., 7., 2.,
          2., 15., 178., 248., 245., 245., 245., 245., 245., 245., 245.,
          248., 108., 2., 2., 88., 253., 245., 238., 82., 2., 2., 2., 2.,
          13., 171., 247., 245., 245., 245., 245., 245., 245., 245.,
          245., 246., 228., 207., 208., 221., 247., 245., 246., 247.,
          211., 175., 168., 190., 230., 248., 245., 245., 245., 245.,
          245., 245., 245., 245., 245., 245., 245., 245., 245., 245.,
          245., 245., 245., 245., 245., 247., 247., 245., 245., 245.,
          245., 245., 245., 245., 245., 245., 245., 245., 245., 245.,
          245., 245., 245., 245., 245., 245., 244., 245., 245., 245.,
          245., 245., 245., 245., 245., 245., 245., 245., 245., 245.,
          245., 245., 245., 245., 245., 245., 245., 245., 245., 248.,
          184., 125., 240., 245., 245., 245., 245., 245., 245., 245.,
          245., 245., 245., 245., 245., 245., 245., 245., 245., 245.,
          245., 245., 246., 207., 43., 21., 115., 253., 245., 245., 245.,
          245., 245., 245., 245., 245., 245., 245., 245., 245., 245.,
          245., 245., 245., 245., 248., 206., 54., 17., 19., 20., 120.,
          237., 245., 245., 245., 245., 245., 245., 245., 245., 245.,
          245., 245., 245., 245., 245., 245., 245., 210., 29., 15., 17.,
          17., 17., 9., 113., 252., 245., 245., 245., 245., 245., 245.,
          245., 245., 245., 245., 245., 245., 245., 247., 240., 55., 12.,
          14., 14., 14., 14., 14., 11., 129., 246., 245., 245., 245.,
          245., 245., 245., 245., 245., 245., 245., 245., 245., 244.,
          82., 2., 3., 8., 8., 8., 8., 8., 4., 13., 182., 247., 245.,
          245., 245., 245., 245., 245., 245., 245., 245., 245., 245.,
          209., 2., 2., 2., 7., 8., 8., 8., 3., 2., 2., 75., 252., 245.,
          245., 245., 245., 245., 245., 245., 245., 245., 245., 245.,
          219., 9., 2., 2., 5., 6., 6., 6., 2., 2., 2., 99., 251., 245.,
          245., 245., 245., 245., 245., 245., 245., 245., 245., 245.,
          248., 173., 17., 2., 2., 13., 7., 8., 2., 2., 53., 225., 245.,
          245., 245., 245., 245., 245., 245., 245., 245., 245., 245.,
          245., 245., 250., 205., 141., 173., 123., 23., 175., 121.,
          152., 237., 246., 245., 245., 245., 245., 245., 245., 245.,
          245., 245., 245., 245., 245., 245., 245., 245., 248., 249.,
          70., 3., 159., 251., 248., 245., 245., 245., 245., 245., 245.,
          245., 245., 245., 245., 245., 245., 245., 245., 245., 245.,
          245., 245., 227., 152., 149., 179., 247., 245., 245., 245.,
          245., 245., 245., 245., 245., 245., 245., 245., 245., 245.,
          245., 245., 245., 245., 245., 245., 245., 250., 250., 248.,
          245., 245., 245., 245., 245., 245., 245., 245., 245., 245.,
          245., 245., 245., 245., 245., 245., 245., 245., 245., 245.,
          245., 245., 245., 245., 245., 245., 245., 245., 245., 245.,
          245., 245., 245., 245., 245., 245., 245., 245., 245., 245.,
          245., 245., 245., 245., 245., 245., 245., 245., 245., 245.,
          245., 245., 245., 245., 245., 245., 245., 245., 245., 245.,
          245., 245., 245., 245., 245., 245., 245., 245., 245., 245.,
          245., 245., 245., 245., 245., 245., 245., 245., 245., 245.,
          245., 245., 245., 245., 245., 245., 245., 245., 245., 245.,
          245., 245., 245., 245., 245., 245., 245., 245., 245., 245.,
          245., 245., 245., 245., 245., 245., 245., 245., 245., 245.,
          245., 245., 245., 245., 245., 245., 245., 245., 245., 245.,
          245., 245., 245., 245., 245., 245., 245., 245., 245., 245. ]
      - [ 245., 245., 245., 245., 245., 245., 245., 245., 245., 245.,
          245., 245., 245., 245., 245., 245., 245., 245., 245., 245.,
          245., 245., 245., 245., 245., 245., 245., 245., 245., 245.,
          245., 245., 245., 245., 245., 245., 245., 245., 245., 245.,
          245., 245., 245., 245., 245., 245., 245., 245., 245., 245.,
          245., 245., 245., 248., 211., 201., 217., 247., 245., 246.,
          248., 229., 207., 202., 214., 240., 247., 245., 245., 245.,
          245., 245., 245., 245., 245., 245., 246., 246., 31., 10., 93.,
          253., 245., 246., 126., 20., 11., 10., 13., 52., 198., 247.,
          245., 245., 245., 245., 245., 245., 245., 249., 238., 100., 2.,
          2., 90., 254., 248., 108., 5., 2., 2., 2., 2., 2., 25., 202.,
          247., 245., 245., 245., 245., 245., 243., 146., 47., 2., 2.,
          2., 90., 255., 178., 2., 2., 9., 128., 174., 55., 3., 2., 36.,
          241., 245., 245., 245., 245., 245., 230., 19., 2., 2., 2., 2.,
          90., 249., 73., 2., 2., 112., 252., 249., 221., 29., 2., 2.,
          185., 245., 245., 245., 245., 245., 232., 51., 84., 85., 2.,
          2., 90., 237., 38., 2., 2., 180., 245., 245., 244., 67., 2.,
          2., 132., 248., 245., 245., 245., 245., 245., 238., 248., 117.,
          2., 2., 90., 227., 22., 2., 2., 214., 245., 245., 246., 100.,
          2., 2., 99., 253., 245., 245., 245., 245., 245., 245., 248.,
          116., 2., 2., 91., 222., 15., 2., 4., 224., 245., 245., 247.,
          124., 2., 2., 83., 254., 245., 245., 245., 245., 245., 245.,
          248., 116., 2., 2., 92., 218., 13., 2., 7., 226., 245., 245.,
          247., 130., 2., 2., 77., 254., 245., 245., 245., 245., 245.,
          245., 248., 116., 2., 2., 91., 219., 14., 2., 7., 226., 245.,
          245., 247., 129., 2., 2., 79., 254., 245., 245., 245., 245.,
          245., 245., 248., 116., 2., 2., 90., 225., 19., 2., 2., 217.,
          245., 245., 247., 106., 2., 2., 94., 254., 245., 245., 245.,
          245., 245., 245., 248., 116., 2., 2., 90., 234., 34., 2., 2.,
          191., 245., 245., 246., 79., 2., 2., 123., 251., 245., 245.,
          245., 245., 245., 245., 248., 116., 2., 2., 90., 247., 61., 2.,
          2., 134., 247., 247., 236., 38., 2., 2., 174., 245., 245.,
          245., 245., 245., 245., 245., 248., 116., 2., 2., 90., 254.,
          154., 2., 2., 30., 187., 226., 108., 5., 2., 26., 234., 245.,
          245., 245., 245., 245., 245., 245., 248., 116., 2., 2., 90.,
          254., 245., 75., 3., 2., 2., 7., 2., 2., 15., 178., 248., 245.,
          245., 245., 245., 245., 245., 245., 248., 108., 2., 2., 88.,
          253., 245., 238., 82., 2., 2., 2., 2., 13., 171., 247., 245.,
          245., 245., 245., 245., 245., 245., 245., 246., 228., 207.,
          208., 221., 247., 245., 246., 247., 211., 175., 168., 190.,
          230., 248., 245., 245., 245., 245., 245., 245., 245., 245.,
          245., 245., 245., 245., 245., 245., 245., 245., 245., 245.,
          245., 247., 247., 245., 245., 245., 245., 245., 245., 245.,
          245., 245., 245., 245., 245., 245., 245., 245., 245., 245.,
          245., 245., 244., 245., 245., 245., 245., 245., 245., 245.,
          245., 245., 245., 245., 245., 245., 245., 245., 245., 245.,
          245., 245., 245., 245., 245., 248., 184., 125., 240., 245.,
          245., 245., 245., 245., 245., 245., 245., 245., 245., 245.,
          245., 245., 245., 245., 245., 245., 245., 245., 246., 207.,
          43., 21., 115., 253., 245., 245., 245., 245., 245., 245., 245.,
          245., 245., 245., 245., 245., 245., 245., 245., 245., 245.,
          248., 206., 54., 17., 19., 20., 120., 237., 245., 245., 245.,
          245., 245., 245., 245., 245., 245., 245., 245., 245., 245.,
          245., 245., 245., 210., 29., 15., 17., 17., 17., 9., 113.,
          252., 245., 245., 245., 245., 245., 245., 245., 245., 245.,
          245., 245., 245., 245., 247., 240., 55., 12., 14., 14., 14.,
          14., 14., 11., 129., 246., 245., 245., 245., 245., 245., 245.,
          245., 245., 245., 245., 245., 245., 244., 82., 2., 3., 8., 8.,
          8., 8., 8., 4., 13., 182., 247., 245., 245., 245., 245., 245.,
          245., 245., 245., 245., 245., 245., 209., 2., 2., 2., 7., 8.,
          8., 8., 3., 2., 2., 75., 252., 245., 245., 245., 245., 245.,
          245., 245., 245., 245., 245., 245., 219., 9., 2., 2., 5., 6.,
          6., 6., 2., 2., 2., 99., 251., 245., 245., 245., 245., 245.,
          245., 245., 245., 245., 245., 245., 248., 173., 17., 2., 2.,
          13., 7., 8., 2., 2., 53., 225., 245., 245., 245., 245., 245.,
          245., 245., 245., 245., 245., 245., 245., 245., 250., 205.,
          141., 173., 123., 23., 175., 121., 152., 237., 246., 245.,
          245., 245., 245., 245., 245., 245., 245., 245., 245., 245.,
          245., 245., 245., 245., 248., 249., 70., 3., 159., 251., 248.,
          245., 245., 245., 245., 245., 245., 245., 245., 245., 245.,
          245., 245., 245., 245., 245., 245., 245., 245., 227., 152.,
          149., 179., 247., 245., 245., 245., 245., 245., 245., 245.,
          245., 245., 245., 245., 245., 245., 245., 245., 245., 245.,
          245., 245., 245., 250., 250., 248., 245., 245., 245., 245.,
          245., 245., 245., 245., 245., 245., 245., 245., 245., 245.,
          245., 245., 245., 245., 245., 245., 245., 245., 245., 245.,
          245., 245., 245., 245., 245., 245., 245., 245., 245., 245.,
          245., 245., 245., 245., 245., 245., 245., 245., 245., 245.,
          245., 245., 245., 245., 245., 245., 245., 245., 245., 245.,
          245., 245., 245., 245., 245., 245., 245., 245., 245., 245.,
          245., 245., 245., 245., 245., 245., 245., 245., 245., 245.,
          245., 245., 245., 245., 245., 245., 245., 245., 245., 245.,
          245., 245., 245., 245., 245., 245., 245., 245., 245., 245.,
          245., 245., 245., 245., 245., 245., 245., 245., 245., 245.,
          245., 245., 245., 245., 245., 245., 245., 245., 245., 245.,
          245., 245., 245., 245., 245., 245., 245., 245., 245., 245.,
          245., 245., 245., 245., 245., 245., 245., 245., 245., 245.,
          245., 245., 245., 245., 245., 245., 245., 245., 245., 245.,
          245., 245., 245., 245., 245., 245., 245., 245., 245., 245. ]
      - [ 245., 245., 245., 245., 245., 245., 245., 245., 245., 245.,
          245., 245., 245., 245., 245., 245., 245., 245., 245., 245.,
          245., 245., 245., 245., 245., 245., 245., 245., 245., 245.,
          245., 245., 245., 245., 245., 245., 245., 245., 245., 245.,
          245., 245., 245., 245., 245., 245., 245., 245., 245., 245.,
          245., 245., 245., 245., 245., 245., 245., 245., 245., 245.,
          245., 245., 245., 245., 245., 245., 245., 245., 245., 245.,
          245., 245., 245., 245., 245., 245., 245., 245., 245., 245.,
          248., 248., 246., 245., 245., 245., 245., 248., 248., 248.,
          248., 246., 245., 245., 245., 245., 245., 245., 245., 245.,
          245., 245., 245., 252., 131., 110., 175., 249., 245., 248.,
          252., 179., 123., 114., 153., 234., 249., 245., 245., 245.,
          245., 245., 245., 245., 245., 245., 248., 193., 9., 2., 114.,
          252., 248., 192., 50., 3., 2., 2., 2., 24., 144., 250., 245.,
          245., 245., 245., 245., 245., 246., 249., 202., 13., 2., 2.,
          116., 253., 241., 35., 2., 2., 8., 10., 4., 2., 2., 173., 248.,
          245., 245., 245., 245., 245., 210., 61., 16., 2., 2., 2., 116.,
          253., 108., 2., 2., 62., 208., 221., 114., 3., 2., 34., 234.,
          245., 245., 245., 245., 245., 196., 9., 13., 15., 2., 2., 116.,
          234., 20., 2., 5., 176., 249., 245., 223., 14., 2., 9., 194.,
          245., 245., 245., 245., 245., 220., 135., 198., 90., 2., 2.,
          116., 209., 13., 2., 10., 215., 245., 245., 242., 47., 2., 4.,
          150., 249., 245., 245., 245., 245., 247., 251., 252., 90., 2.,
          2., 116., 192., 8., 2., 13., 230., 245., 245., 249., 76., 2.,
          2., 123., 253., 245., 245., 245., 245., 245., 245., 249., 90.,
          2., 2., 119., 183., 6., 2., 19., 235., 245., 245., 249., 102.,
          2., 2., 104., 253., 245., 245., 245., 245., 245., 245., 249.,
          90., 2., 2., 119., 182., 6., 2., 19., 235., 245., 245., 249.,
          102., 2., 2., 102., 253., 245., 245., 245., 245., 245., 245.,
          249., 90., 2., 2., 116., 186., 7., 2., 19., 235., 245., 245.,
          249., 96., 2., 2., 112., 253., 245., 245., 245., 245., 245.,
          245., 249., 90., 2., 2., 116., 198., 9., 2., 12., 225., 245.,
          245., 247., 65., 2., 2., 135., 251., 245., 245., 245., 245.,
          245., 245., 249., 90., 2., 2., 116., 220., 16., 2., 8., 200.,
          245., 245., 238., 30., 2., 6., 172., 248., 245., 245., 245.,
          245., 245., 245., 249., 90., 2., 2., 116., 246., 48., 2., 3.,
          133., 252., 252., 196., 7., 2., 15., 216., 245., 245., 245.,
          245., 245., 245., 245., 249., 90., 2., 2., 116., 254., 181.,
          10., 2., 15., 114., 137., 42., 2., 2., 93., 246., 245., 245.,
          245., 245., 245., 245., 245., 249., 90., 2., 2., 116., 252.,
          253., 108., 2., 2., 2., 2., 2., 2., 50., 247., 246., 245.,
          245., 245., 245., 245., 245., 245., 249., 137., 80., 81., 156.,
          250., 245., 241., 161., 79., 44., 39., 64., 123., 224., 246.,
          245., 245., 245., 245., 245., 245., 245., 245., 245., 254.,
          254., 254., 251., 245., 245., 245., 247., 254., 249., 247.,
          254., 251., 245., 245., 245., 245., 245., 245., 245., 245.,
          245., 245., 245., 245., 245., 245., 245., 245., 245., 246.,
          245., 245., 246., 246., 245., 245., 245., 245., 245., 245.,
          245., 245., 245., 245., 245., 245., 245., 245., 245., 245.,
          245., 245., 245., 228., 224., 246., 245., 245., 245., 245.,
          245., 245., 245., 245., 245., 245., 245., 245., 245., 245.,
          245., 245., 245., 245., 245., 245., 253., 110., 75., 230.,
          245., 245., 245., 245., 245., 245., 245., 245., 245., 245.,
          245., 245., 245., 245., 245., 245., 245., 245., 245., 242.,
          132., 23., 19., 83., 229., 246., 245., 245., 245., 245., 245.,
          245., 245., 245., 245., 245., 245., 245., 245., 245., 245.,
          245., 253., 133., 16., 17., 17., 15., 63., 237., 245., 245.,
          245., 245., 245., 245., 245., 245., 245., 245., 245., 245.,
          245., 245., 245., 245., 126., 16., 15., 15., 15., 15., 12.,
          71., 227., 245., 245., 245., 245., 245., 245., 245., 245.,
          245., 245., 245., 245., 245., 249., 182., 14., 13., 13., 13.,
          13., 13., 13., 4., 99., 246., 245., 245., 245., 245., 245.,
          245., 245., 245., 245., 245., 245., 245., 224., 24., 2., 4.,
          8., 8., 8., 8., 7., 2., 9., 160., 249., 245., 245., 245., 245.,
          245., 245., 245., 245., 245., 245., 245., 185., 2., 2., 2., 7.,
          8., 8., 8., 2., 2., 2., 82., 250., 245., 245., 245., 245.,
          245., 245., 245., 245., 245., 245., 245., 229., 18., 2., 2.,
          3., 3., 3., 3., 2., 2., 2., 169., 248., 245., 245., 245., 245.,
          245., 245., 245., 245., 245., 245., 245., 248., 204., 74., 27.,
          54., 48., 25., 54., 16., 40., 151., 248., 245., 245., 245.,
          245., 245., 245., 245., 245., 245., 245., 245., 245., 245.,
          246., 251., 236., 253., 97., 25., 234., 221., 242., 249., 245.,
          245., 245., 245., 245., 245., 245., 245., 245., 245., 245.,
          245., 245., 245., 245., 245., 247., 218., 33., 11., 145., 250.,
          246., 245., 245., 245., 245., 245., 245., 245., 245., 245.,
          245., 245., 245., 245., 245., 245., 245., 245., 245., 238.,
          234., 234., 236., 245., 245., 245., 245., 245., 245., 245.,
          245., 245., 245., 245., 245., 245., 245., 245., 245., 245.,
          245., 245., 245., 245., 246., 246., 246., 245., 245., 245.,
          245., 245., 245., 245., 245., 245., 245., 245., 245., 245.,
          245., 245., 245., 245., 245., 245., 245., 245., 245., 245.,
          245., 245., 245., 245., 245., 245., 245., 245., 245., 245.,
          245., 245., 245., 245., 245., 245., 245., 245., 245., 245.,
          245., 245., 245., 245., 245., 245., 245., 245., 245., 245.,
          245., 245., 245., 245., 245., 245., 245., 245., 245., 245.,
          245., 245., 245., 245., 245., 245., 245., 245., 245., 245.,
          245., 245., 245., 245., 245., 245., 245., 245., 245., 245.,
          245., 245., 245., 245., 245., 245., 245., 245., 245., 245.,
          245., 245., 245., 245., 245., 245., 245., 245., 245., 245.,
          245. ]
      - [ 191., 191., 191., 191., 191., 191., 191., 191., 191., 191.,
          191., 191., 191., 191., 191., 191., 191., 191., 191., 191.,
          191., 191., 191., 191., 191., 191., 191., 191., 191., 191.,
          191., 191., 191., 191., 191., 191., 191., 191., 191., 191.,
          191., 191., 191., 191., 191., 191., 191., 191., 191., 191.,
          191., 191., 191., 191., 194., 163., 157., 171., 192., 191.,
          192., 194., 177., 161., 158., 168., 188., 193., 191., 191.,
          191., 191., 191., 191., 191., 191., 191., 192., 192., 21., 8.,
          82., 197., 191., 190., 90., 15., 9., 8., 11., 44., 160., 193.,
          191., 191., 191., 191., 191., 191., 192., 195., 183., 69., 2.,
          2., 80., 197., 193., 76., 2., 2., 2., 2., 2., 2., 24., 167.,
          193., 191., 191., 191., 191., 191., 185., 111., 32., 2., 2.,
          2., 80., 199., 132., 2., 2., 8., 104., 135., 39., 2., 2., 32.,
          190., 191., 191., 191., 191., 191., 166., 11., 2., 2., 2., 2.,
          80., 192., 44., 2., 2., 100., 197., 194., 164., 14., 2., 2.,
          154., 191., 191., 191., 191., 191., 170., 37., 71., 62., 2.,
          2., 80., 177., 21., 2., 2., 150., 191., 191., 188., 38., 2.,
          2., 116., 193., 191., 191., 191., 191., 191., 185., 194., 81.,
          2., 2., 80., 165., 12., 2., 2., 172., 191., 191., 193., 64.,
          2., 2., 90., 197., 191., 191., 191., 191., 191., 191., 194.,
          80., 2., 2., 81., 159., 8., 2., 3., 179., 191., 191., 193.,
          85., 2., 2., 75., 198., 191., 191., 191., 191., 191., 191.,
          194., 80., 2., 2., 82., 156., 7., 2., 6., 180., 191., 191.,
          193., 90., 2., 2., 70., 198., 191., 191., 191., 191., 191.,
          191., 194., 80., 2., 2., 81., 157., 8., 2., 6., 180., 191.,
          191., 193., 89., 2., 2., 72., 198., 191., 191., 191., 191.,
          191., 191., 194., 80., 2., 2., 80., 163., 10., 2., 2., 174.,
          191., 191., 193., 69., 2., 2., 85., 197., 191., 191., 191.,
          191., 191., 191., 194., 80., 2., 2., 80., 174., 18., 2., 2.,
          157., 191., 191., 191., 48., 2., 2., 109., 195., 191., 191.,
          191., 191., 191., 191., 194., 80., 2., 2., 80., 189., 35., 2.,
          2., 117., 193., 193., 177., 19., 2., 2., 146., 191., 191.,
          191., 191., 191., 191., 191., 194., 80., 2., 2., 80., 198.,
          111., 2., 2., 28., 149., 175., 76., 3., 2., 23., 185., 191.,
          191., 191., 191., 191., 191., 191., 194., 80., 2., 2., 80.,
          198., 191., 52., 2., 2., 2., 5., 2., 2., 15., 149., 193., 191.,
          191., 191., 191., 191., 191., 191., 194., 73., 2., 2., 78.,
          197., 191., 182., 55., 2., 2., 2., 2., 11., 141., 193., 191.,
          191., 191., 191., 191., 191., 191., 191., 192., 176., 161.,
          162., 174., 193., 191., 193., 193., 163., 136., 131., 150.,
          181., 193., 191., 191., 191., 191., 191., 191., 191., 191.,
          191., 191., 191., 191., 191., 191., 191., 191., 191., 191.,
          191., 193., 193., 191., 191., 191., 191., 191., 191., 191.,
          191., 191., 191., 191., 191., 191., 191., 191., 191., 191.,
          191., 191., 191., 191., 191., 191., 191., 191., 191., 191.,
          191., 191., 191., 191., 191., 191., 191., 191., 191., 191.,
          191., 191., 191., 191., 191., 194., 134., 100., 188., 191.,
          191., 191., 191., 191., 191., 191., 191., 191., 191., 191.,
          191., 191., 191., 191., 191., 191., 191., 191., 193., 158.,
          31., 17., 99., 197., 191., 191., 191., 191., 191., 191., 191.,
          191., 191., 191., 191., 191., 191., 191., 191., 191., 191.,
          193., 154., 36., 13., 15., 17., 100., 187., 191., 191., 191.,
          191., 191., 191., 191., 191., 191., 191., 191., 191., 191.,
          191., 191., 192., 158., 21., 12., 13., 13., 13., 8., 98., 196.,
          191., 191., 191., 191., 191., 191., 191., 191., 191., 191.,
          191., 191., 191., 193., 178., 37., 9., 11., 11., 11., 11., 11.,
          9., 109., 193., 191., 191., 191., 191., 191., 191., 191., 191.,
          191., 191., 191., 191., 190., 59., 2., 3., 6., 6., 6., 6., 6.,
          3., 13., 154., 193., 191., 191., 191., 191., 191., 191., 191.,
          191., 191., 191., 191., 156., 2., 2., 2., 6., 6., 6., 6., 3.,
          2., 2., 66., 196., 191., 191., 191., 191., 191., 191., 191.,
          191., 191., 191., 191., 166., 7., 2., 2., 4., 5., 5., 5., 2.,
          2., 2., 86., 195., 191., 191., 191., 191., 191., 191., 191.,
          191., 191., 191., 191., 194., 126., 11., 2., 2., 10., 6., 5.,
          2., 2., 49., 183., 191., 191., 191., 191., 191., 191., 191.,
          191., 191., 191., 191., 191., 191., 194., 157., 110., 138.,
          84., 20., 134., 95., 121., 186., 192., 191., 191., 191., 191.,
          191., 191., 191., 191., 191., 191., 191., 191., 191., 191.,
          191., 193., 194., 48., 2., 134., 196., 194., 191., 191., 191.,
          191., 191., 191., 191., 191., 191., 191., 191., 191., 191.,
          191., 191., 191., 191., 192., 175., 118., 116., 144., 193.,
          191., 191., 191., 191., 191., 191., 191., 191., 191., 191.,
          191., 191., 191., 191., 191., 191., 191., 191., 191., 191.,
          195., 195., 194., 191., 191., 191., 191., 191., 191., 191.,
          191., 191., 191., 191., 191., 191., 191., 191., 191., 191.,
          191., 191., 191., 191., 191., 191., 191., 191., 191., 191.,
          191., 191., 191., 191., 191., 191., 191., 191., 191., 191.,
          191., 191., 191., 191., 191., 191., 191., 191., 191., 191.,
          191., 191., 191., 191., 191., 191., 191., 191., 191., 191.,
          191., 191., 191., 191., 191., 191., 191., 191., 191., 191.,
          191., 191., 191., 191., 191., 191., 191., 191., 191., 191.,
          191., 191., 191., 191., 191., 191., 191., 191., 191., 191.,
          191., 191., 191., 191., 191., 191., 191., 191., 191., 191.,
          191., 191., 191., 191., 191., 191., 191., 191., 191., 191.,
          191., 191., 191., 191., 191., 191., 191., 191., 191., 191.,
          191., 191., 191., 191., 191., 191., 191., 191., 191., 191.,
          191., 191., 191., 191., 191., 191., 191., 191., 191., 191.,
          191., 191., 191., 191., 191., 191., 191., 191., 191., 191.,
          191., 191., 191., 191., 191., 191. ]
      - [ 191., 191., 191., 191., 191., 191., 191., 191., 191., 191.,
          191., 191., 191., 191., 191., 191., 191., 191., 191., 191.,
          191., 191., 191., 191., 191., 191., 191., 191., 191., 191.,
          191., 191., 191., 191., 191., 191., 191., 191., 191., 191.,
          191., 191., 191., 191., 191., 191., 191., 191., 191., 191.,
          191., 191., 191., 191., 191., 191., 191., 191., 191., 191.,
          191., 191., 191., 191., 191., 191., 191., 191., 191., 191.,
          191., 191., 191., 191., 191., 191., 191., 191., 191., 191.,
          193., 194., 192., 191., 191., 191., 191., 193., 194., 194.,
          194., 192., 191., 191., 191., 191., 191., 191., 191., 191.,
          191., 191., 191., 197., 102., 86., 137., 194., 191., 193.,
          196., 140., 96., 89., 120., 183., 195., 191., 191., 191., 191.,
          191., 191., 191., 191., 191., 194., 151., 7., 2., 89., 196.,
          193., 149., 39., 2., 2., 2., 2., 19., 112., 195., 191., 191.,
          191., 191., 191., 191., 192., 194., 157., 10., 2., 2., 90.,
          197., 188., 27., 2., 2., 7., 8., 3., 2., 2., 135., 194., 191.,
          191., 191., 191., 191., 164., 47., 12., 2., 2., 2., 90., 197.,
          84., 2., 2., 48., 162., 173., 89., 3., 2., 26., 182., 191.,
          191., 191., 191., 191., 153., 7., 10., 12., 2., 2., 90., 182.,
          15., 2., 4., 138., 194., 191., 174., 11., 2., 7., 151., 191.,
          191., 191., 191., 191., 172., 105., 154., 70., 2., 2., 90.,
          163., 10., 2., 8., 168., 191., 191., 189., 37., 2., 3., 117.,
          194., 191., 191., 191., 191., 193., 196., 196., 70., 2., 2.,
          90., 150., 6., 2., 10., 180., 191., 191., 194., 59., 2., 2.,
          96., 197., 191., 191., 191., 191., 191., 191., 195., 70., 2.,
          2., 93., 143., 5., 2., 15., 183., 191., 191., 194., 80., 2.,
          2., 81., 197., 191., 191., 191., 191., 191., 191., 195., 70.,
          2., 2., 93., 142., 4., 2., 15., 184., 191., 191., 194., 79.,
          2., 2., 79., 197., 191., 191., 191., 191., 191., 191., 195.,
          70., 2., 2., 90., 145., 5., 2., 15., 183., 191., 191., 194.,
          75., 2., 2., 87., 197., 191., 191., 191., 191., 191., 191.,
          195., 70., 2., 2., 90., 155., 7., 2., 9., 175., 191., 191.,
          193., 51., 2., 2., 105., 196., 191., 191., 191., 191., 191.,
          191., 195., 70., 2., 2., 90., 172., 12., 2., 6., 156., 191.,
          191., 186., 24., 2., 5., 134., 194., 191., 191., 191., 191.,
          191., 191., 195., 70., 2., 2., 90., 192., 38., 2., 2., 103.,
          197., 197., 153., 6., 2., 12., 169., 191., 191., 191., 191.,
          191., 191., 191., 195., 70., 2., 2., 90., 199., 142., 8., 2.,
          12., 89., 107., 33., 2., 2., 73., 192., 191., 191., 191., 191.,
          191., 191., 191., 195., 70., 2., 2., 90., 196., 198., 85., 2.,
          2., 2., 2., 2., 2., 39., 193., 192., 191., 191., 191., 191.,
          191., 191., 191., 194., 107., 63., 63., 122., 195., 191., 188.,
          125., 62., 34., 30., 50., 96., 175., 192., 191., 191., 191.,
          191., 191., 191., 191., 191., 191., 198., 198., 198., 196.,
          191., 191., 191., 193., 198., 195., 192., 198., 195., 191.,
          191., 191., 191., 191., 191., 191., 191., 191., 191., 191.,
          191., 191., 191., 191., 191., 191., 192., 191., 191., 192.,
          192., 191., 191., 191., 191., 191., 191., 191., 191., 191.,
          191., 191., 191., 191., 191., 191., 191., 191., 191., 192.,
          178., 175., 192., 191., 191., 191., 191., 191., 191., 191.,
          191., 191., 191., 191., 191., 191., 191., 191., 191., 191.,
          191., 191., 191., 197., 86., 58., 179., 191., 191., 191., 191.,
          191., 191., 191., 191., 191., 191., 191., 191., 191., 191.,
          191., 191., 191., 191., 191., 189., 103., 18., 15., 65., 179.,
          192., 191., 191., 191., 191., 191., 191., 191., 191., 191.,
          191., 191., 191., 191., 191., 191., 191., 197., 104., 13., 13.,
          13., 12., 49., 185., 191., 191., 191., 191., 191., 191., 191.,
          191., 191., 191., 191., 191., 191., 191., 191., 191., 98., 13.,
          12., 12., 12., 12., 9., 56., 178., 191., 191., 191., 191.,
          191., 191., 191., 191., 191., 191., 191., 191., 191., 194.,
          142., 11., 10., 10., 10., 10., 10., 10., 3., 77., 192., 191.,
          191., 191., 191., 191., 191., 191., 191., 191., 191., 191.,
          191., 174., 19., 2., 3., 6., 6., 6., 6., 6., 2., 7., 125.,
          194., 191., 191., 191., 191., 191., 191., 191., 191., 191.,
          191., 191., 145., 2., 2., 2., 6., 6., 6., 6., 2., 2., 2., 64.,
          195., 191., 191., 191., 191., 191., 191., 191., 191., 191.,
          191., 191., 179., 14., 2., 2., 2., 2., 2., 2., 2., 2., 2.,
          132., 194., 191., 191., 191., 191., 191., 191., 191., 191.,
          191., 191., 191., 194., 159., 57., 21., 42., 37., 19., 42.,
          13., 31., 118., 193., 191., 191., 191., 191., 191., 191., 191.,
          191., 191., 191., 191., 191., 191., 192., 196., 184., 198.,
          76., 19., 183., 172., 189., 194., 191., 191., 191., 191., 191.,
          191., 191., 191., 191., 191., 191., 191., 191., 191., 191.,
          191., 193., 170., 26., 9., 113., 195., 192., 191., 191., 191.,
          191., 191., 191., 191., 191., 191., 191., 191., 191., 191.,
          191., 191., 191., 191., 191., 186., 182., 182., 185., 191.,
          191., 191., 191., 191., 191., 191., 191., 191., 191., 191.,
          191., 191., 191., 191., 191., 191., 191., 191., 191., 191.,
          192., 192., 192., 191., 191., 191., 191., 191., 191., 191.,
          191., 191., 191., 191., 191., 191., 191., 191., 191., 191.,
          191., 191., 191., 191., 191., 191., 191., 191., 191., 191.,
          191., 191., 191., 191., 191., 191., 191., 191., 191., 191.,
          191., 191., 191., 191., 191., 191., 191., 191., 191., 191.,
          191., 191., 191., 191., 191., 191., 191., 191., 191., 191.,
          191., 191., 191., 191., 191., 191., 191., 191., 191., 191.,
          191., 191., 191., 191., 191., 191., 191., 191., 191., 191.,
          191., 191., 191., 191., 191., 191., 191., 191., 191., 191.,
          191., 191., 191., 191., 191., 191., 191., 191., 191., 191.,
          191., 191., 191., 191., 191., 191., 191. ]
      - [ 191., 191., 191., 191., 191., 191., 191., 191., 191., 191.,
          191., 191., 191., 191., 191., 191., 191., 191., 191., 191.,
          191., 191., 191., 191., 191., 191., 191., 191., 191., 191.,
          192., 192., 191., 191., 191., 191., 191., 192., 192., 192.,
          192., 191., 191., 191., 191., 191., 191., 191., 191., 191.,
          191., 191., 192., 170., 119., 120., 174., 191., 191., 192.,
          194., 154., 125., 122., 143., 186., 194., 191., 191., 191.,
          191., 191., 191., 191., 191., 191., 190., 100., 49., 49., 156.,
          191., 193., 162., 78., 51., 49., 49., 49., 67., 140., 192.,
          191., 191., 191., 191., 191., 191., 191., 196., 138., 53., 49.,
          49., 157., 191., 180., 60., 49., 49., 49., 49., 49., 49., 55.,
          165., 193., 191., 191., 191., 191., 192., 174., 78., 51., 49.,
          49., 49., 157., 193., 106., 49., 49., 85., 168., 172., 107.,
          51., 49., 76., 188., 191., 191., 191., 191., 192., 167., 52.,
          56., 51., 49., 49., 157., 186., 71., 49., 49., 150., 191.,
          191., 180., 63., 49., 49., 163., 191., 191., 191., 191., 192.,
          177., 132., 158., 61., 49., 49., 158., 174., 59., 49., 51.,
          177., 191., 191., 189., 77., 49., 49., 138., 192., 191., 191.,
          191., 191., 191., 194., 179., 62., 49., 49., 158., 163., 52.,
          49., 59., 188., 191., 191., 192., 88., 49., 49., 121., 193.,
          191., 191., 191., 191., 191., 191., 179., 62., 49., 49., 158.,
          151., 50., 49., 70., 190., 191., 191., 192., 100., 49., 49.,
          111., 195., 191., 191., 191., 191., 191., 191., 179., 62., 49.,
          49., 158., 149., 50., 49., 70., 190., 191., 191., 192., 99.,
          49., 49., 109., 195., 191., 191., 191., 191., 191., 191., 179.,
          62., 49., 49., 158., 155., 50., 49., 70., 190., 191., 191.,
          192., 99., 49., 49., 112., 193., 191., 191., 191., 191., 191.,
          191., 179., 62., 49., 49., 158., 167., 54., 49., 54., 185.,
          191., 191., 190., 84., 49., 49., 126., 193., 191., 191., 191.,
          191., 191., 191., 179., 62., 49., 49., 158., 179., 63., 49.,
          49., 170., 191., 191., 187., 72., 49., 49., 148., 191., 191.,
          191., 191., 191., 191., 191., 179., 62., 49., 49., 157., 189.,
          79., 49., 49., 128., 195., 194., 166., 56., 49., 52., 176.,
          191., 191., 191., 191., 191., 191., 191., 179., 62., 49., 49.,
          157., 193., 137., 50., 49., 62., 128., 134., 70., 49., 50.,
          111., 193., 191., 191., 191., 191., 191., 191., 191., 179.,
          62., 49., 49., 157., 191., 193., 104., 49., 49., 49., 49., 49.,
          49., 77., 188., 191., 191., 191., 191., 191., 191., 191., 191.,
          182., 98., 90., 88., 167., 191., 191., 187., 132., 88., 70.,
          69., 81., 119., 179., 191., 191., 191., 191., 191., 191., 191.,
          191., 191., 191., 196., 196., 196., 193., 191., 191., 191.,
          193., 196., 193., 192., 196., 194., 191., 191., 191., 191.,
          191., 191., 191., 191., 191., 191., 191., 191., 191., 191.,
          191., 191., 191., 191., 191., 191., 191., 191., 191., 191.,
          191., 191., 191., 191., 191., 191., 191., 191., 191., 191.,
          191., 191., 191., 191., 192., 192., 192., 191., 191., 191.,
          193., 192., 191., 191., 191., 191., 191., 191., 191., 191.,
          191., 191., 191., 191., 191., 191., 191., 195., 156., 127.,
          160., 194., 193., 172., 118., 137., 188., 191., 191., 191.,
          191., 191., 191., 191., 191., 191., 191., 191., 191., 191.,
          191., 122., 60., 58., 60., 131., 166., 72., 58., 58., 93.,
          184., 191., 191., 191., 191., 191., 191., 191., 191., 191.,
          191., 191., 191., 164., 57., 56., 56., 56., 72., 88., 56., 56.,
          56., 57., 137., 194., 191., 191., 191., 191., 191., 191., 191.,
          191., 191., 191., 193., 140., 55., 55., 55., 55., 56., 55.,
          55., 55., 55., 55., 112., 194., 191., 191., 191., 191., 191.,
          191., 191., 191., 191., 191., 193., 157., 53., 53., 53., 53.,
          53., 53., 53., 53., 53., 54., 133., 194., 191., 191., 191.,
          191., 191., 191., 191., 191., 191., 191., 191., 188., 80., 52.,
          52., 52., 52., 52., 52., 52., 52., 65., 178., 191., 191., 191.,
          191., 191., 191., 191., 191., 191., 191., 191., 191., 192.,
          176., 63., 51., 51., 51., 51., 51., 51., 55., 136., 193., 191.,
          191., 191., 191., 191., 191., 191., 191., 191., 191., 191.,
          191., 191., 192., 151., 52., 49., 49., 49., 49., 49., 126.,
          194., 191., 191., 191., 191., 191., 191., 191., 191., 191.,
          191., 191., 191., 191., 191., 191., 194., 150., 59., 48., 48.,
          53., 116., 191., 191., 191., 191., 191., 191., 191., 191.,
          191., 191., 191., 191., 191., 191., 191., 191., 191., 191.,
          194., 153., 46., 46., 121., 196., 191., 191., 191., 191., 191.,
          191., 191., 191., 191., 191., 191., 191., 191., 191., 191.,
          191., 191., 191., 191., 194., 143., 116., 190., 191., 191.,
          191., 191., 191., 191., 191., 191., 191., 191., 191., 191.,
          191., 191., 191., 191., 191., 191., 191., 191., 191., 192.,
          193., 191., 191., 191., 191., 191., 191., 191., 191., 191.,
          191., 191., 191., 191., 191., 191., 191., 191., 191., 191.,
          191., 191., 191., 191., 191., 191., 191., 191., 191., 191.,
          191., 191., 191., 191., 191., 191., 191., 191., 191., 191.,
          191., 191., 191., 191., 191., 191., 191., 191., 191., 191.,
          191., 191., 191., 191., 191., 191., 191., 191., 191., 191.,
          191., 191., 191., 191., 191., 191., 191., 191., 191., 191.,
          191., 191., 191., 191., 191., 191., 191., 191., 191., 191.,
          191., 191., 191., 191., 191., 191., 191., 191., 191., 191.,
          191., 191., 191., 191., 191., 191., 191., 191., 191., 191.,
          191., 191., 191., 191., 191., 191., 191., 191., 191., 191.,
          191., 191., 191., 191., 191., 191., 191., 191., 191., 191.,
          191., 191., 191., 191., 191., 191., 191., 191., 191., 191.,
          191., 191., 191., 191., 191., 191., 191., 191., 191., 191.,
          191., 191., 191., 191., 191., 191., 191., 191., 191., 191.,
          191., 191., 191., 191., 191., 191., 191., 191., 191., 191.,
          191., 191., 191., 191., 191., 191., 191., 191., 191., 191.,
          191., 191., 191., 191., 191., 191., 191., 191., 191., 191. ]
      - [ 191., 191., 191., 191., 191., 191., 191., 191., 191., 191.,
          191., 191., 191., 191., 191., 191., 191., 191., 191., 191.,
          191., 191., 191., 191., 191., 191., 191., 191., 191., 191.,
          191., 191., 191., 191., 191., 191., 191., 191., 191., 191.,
          191., 191., 191., 191., 191., 191., 191., 191., 191., 191.,
          191., 191., 191., 191., 191., 191., 191., 191., 191., 191.,
          191., 191., 191., 191., 191., 191., 191., 191., 191., 191.,
          191., 191., 191., 191., 191., 191., 191., 191., 191., 191.,
          193., 194., 194., 191., 191., 191., 191., 193., 195., 195.,
          195., 195., 193., 191., 191., 191., 191., 191., 191., 191.,
          191., 191., 191., 194., 132., 83., 93., 182., 191., 191., 188.,
          147., 102., 85., 86., 105., 153., 189., 191., 191., 191., 191.,
          191., 191., 191., 191., 191., 179., 58., 49., 64., 181., 191.,
          196., 102., 50., 49., 49., 49., 49., 51., 118., 195., 191.,
          191., 191., 191., 191., 192., 181., 146., 80., 49., 49., 64.,
          181., 193., 137., 52., 49., 55., 97., 95., 53., 49., 53., 147.,
          192., 191., 191., 191., 191., 193., 134., 48., 49., 49., 49.,
          64., 181., 185., 57., 49., 51., 139., 196., 196., 120., 49.,
          49., 77., 188., 191., 191., 191., 191., 193., 134., 52., 85.,
          49., 49., 64., 181., 161., 50., 49., 61., 179., 191., 191.,
          168., 49., 49., 60., 175., 191., 191., 191., 191., 192., 177.,
          177., 166., 49., 49., 64., 181., 140., 49., 49., 71., 188.,
          191., 191., 184., 54., 49., 54., 160., 191., 191., 191., 191.,
          191., 191., 191., 164., 49., 49., 64., 181., 127., 49., 49.,
          81., 191., 191., 191., 189., 62., 49., 50., 147., 191., 191.,
          191., 191., 191., 191., 191., 164., 49., 49., 64., 181., 120.,
          49., 49., 90., 192., 191., 191., 191., 73., 49., 50., 139.,
          191., 191., 191., 191., 191., 191., 191., 164., 49., 49., 64.,
          181., 120., 49., 49., 89., 192., 191., 191., 191., 72., 49.,
          50., 137., 191., 191., 191., 191., 191., 191., 191., 164., 49.,
          49., 64., 181., 128., 49., 49., 81., 191., 191., 191., 189.,
          64., 49., 51., 148., 191., 191., 191., 191., 191., 191., 191.,
          164., 49., 49., 64., 181., 143., 49., 49., 70., 187., 191.,
          191., 183., 52., 49., 54., 161., 191., 191., 191., 191., 191.,
          191., 191., 164., 49., 49., 64., 181., 164., 50., 49., 60.,
          177., 191., 191., 165., 49., 49., 62., 177., 191., 191., 191.,
          191., 191., 191., 191., 164., 49., 49., 64., 181., 185., 66.,
          49., 51., 128., 188., 187., 111., 49., 49., 85., 190., 191.,
          191., 191., 191., 191., 191., 191., 164., 49., 49., 64., 181.,
          193., 156., 51., 49., 52., 65., 64., 51., 49., 51., 163., 192.,
          191., 191., 191., 191., 191., 191., 191., 163., 49., 49., 63.,
          181., 191., 194., 125., 59., 49., 49., 49., 49., 61., 137.,
          194., 191., 191., 191., 191., 191., 191., 191., 191., 181.,
          136., 137., 142., 188., 191., 191., 194., 180., 123., 96., 96.,
          129., 186., 193., 191., 191., 191., 191., 191., 191., 191.,
          191., 191., 191., 193., 193., 193., 191., 191., 191., 191.,
          192., 193., 193., 193., 193., 191., 191., 191., 191., 191.,
          191., 191., 191., 191., 191., 191., 191., 191., 191., 191.,
          191., 191., 191., 191., 191., 191., 191., 191., 191., 191.,
          191., 191., 191., 191., 191., 191., 191., 191., 191., 191.,
          191., 191., 191., 191., 195., 194., 194., 191., 191., 194.,
          193., 195., 192., 191., 191., 191., 191., 191., 191., 191.,
          191., 191., 191., 191., 191., 191., 192., 170., 108., 93.,
          128., 185., 186., 125., 84., 106., 170., 191., 191., 191.,
          191., 191., 191., 191., 191., 191., 191., 191., 191., 191.,
          182., 71., 57., 57., 58., 126., 119., 58., 57., 57., 81., 193.,
          191., 191., 191., 191., 191., 191., 191., 191., 191., 191.,
          191., 192., 130., 56., 56., 56., 56., 70., 68., 56., 56., 56.,
          56., 147., 193., 191., 191., 191., 191., 191., 191., 191.,
          191., 191., 191., 192., 109., 55., 55., 55., 55., 55., 55.,
          55., 55., 55., 54., 132., 193., 191., 191., 191., 191., 191.,
          191., 191., 191., 191., 191., 192., 155., 53., 53., 53., 53.,
          53., 53., 53., 53., 53., 62., 176., 192., 191., 191., 191.,
          191., 191., 191., 191., 191., 191., 191., 191., 194., 96., 51.,
          52., 52., 52., 52., 52., 52., 52., 104., 196., 191., 191.,
          191., 191., 191., 191., 191., 191., 191., 191., 191., 191.,
          191., 175., 65., 50., 50., 50., 50., 50., 50., 73., 179., 191.,
          191., 191., 191., 191., 191., 191., 191., 191., 191., 191.,
          191., 191., 191., 191., 167., 71., 48., 49., 49., 48., 74.,
          176., 193., 191., 191., 191., 191., 191., 191., 191., 191.,
          191., 191., 191., 191., 191., 191., 191., 193., 170., 51., 47.,
          47., 67., 178., 191., 191., 191., 191., 191., 191., 191., 191.,
          191., 191., 191., 191., 191., 191., 191., 191., 191., 191.,
          193., 170., 66., 68., 171., 193., 191., 191., 191., 191., 191.,
          191., 191., 191., 191., 191., 191., 191., 191., 191., 191.,
          191., 191., 191., 191., 193., 160., 170., 192., 191., 191.,
          191., 191., 191., 191., 191., 191., 191., 191., 191., 191.,
          191., 191., 191., 191., 191., 191., 191., 191., 191., 191.,
          191., 191., 191., 191., 191., 191., 191., 191., 191., 191.,
          191., 191., 191., 191., 191., 191., 191., 191., 191., 191.,
          191., 191., 191., 191., 191., 191., 191., 191., 191., 191.,
          191., 191., 191., 191., 191., 191., 191., 191., 191., 191.,
          191., 191., 191., 191., 191., 191., 191., 191., 191., 191.,
          191., 191., 191., 191., 191., 191., 191., 191., 191., 191.,
          191., 191., 191., 191., 191., 191., 191., 191., 191., 191.,
          191., 191., 191., 191., 191., 191., 191., 191., 191., 191.,
          191., 191., 191., 191., 191., 191., 191., 191., 191., 191.,
          191., 191., 191., 191., 191., 191., 191., 191., 191., 191.,
          191., 191., 191., 191., 191., 191., 191., 191., 191., 191.,
          191., 191., 191., 191., 191., 191., 191., 191., 191., 191.,
          191., 191., 191., 191., 191., 191., 191., 191., 191. ]
      - [ 191., 191., 191., 191., 191., 191., 191., 191., 191., 191.,
          191., 191., 191., 191., 191., 191., 191., 191., 191., 191.,
          191., 191., 191., 191., 191., 191., 191., 191., 191., 191.,
          191., 191., 191., 191., 191., 191., 191., 191., 191., 191.,
          191., 191., 191., 191., 191., 191., 191., 191., 191., 191.,
          191., 191., 191., 191., 191., 191., 191., 191., 191., 191.,
          191., 191., 191., 191., 191., 191., 191., 191., 191., 191.,
          191., 191., 191., 191., 191., 191., 191., 191., 191., 193.,
          194., 194., 191., 191., 191., 191., 193., 195., 195., 195.,
          195., 193., 191., 191., 191., 191., 191., 191., 191., 191.,
          191., 191., 193., 137., 83., 89., 177., 191., 191., 188., 151.,
          105., 85., 85., 103., 150., 188., 191., 191., 191., 191., 191.,
          191., 191., 191., 191., 181., 59., 49., 59., 173., 191., 196.,
          110., 51., 49., 49., 49., 49., 51., 110., 196., 191., 191.,
          191., 191., 191., 191., 182., 148., 84., 49., 49., 59., 173.,
          193., 142., 53., 49., 54., 96., 96., 54., 49., 53., 142., 192.,
          191., 191., 191., 191., 192., 145., 49., 49., 49., 49., 59.,
          173., 187., 68., 49., 50., 130., 196., 196., 129., 50., 49.,
          68., 185., 191., 191., 191., 191., 192., 145., 52., 85., 49.,
          49., 59., 173., 169., 55., 49., 54., 173., 191., 191., 173.,
          54., 49., 55., 168., 191., 191., 191., 191., 192., 179., 176.,
          170., 49., 49., 59., 173., 150., 51., 49., 61., 186., 191.,
          191., 186., 61., 49., 51., 150., 193., 191., 191., 191., 191.,
          191., 191., 169., 49., 49., 59., 173., 138., 50., 49., 71.,
          190., 191., 191., 190., 71., 49., 50., 136., 193., 191., 191.,
          191., 191., 191., 191., 169., 49., 49., 59., 173., 130., 50.,
          49., 80., 191., 191., 191., 191., 80., 49., 50., 129., 194.,
          191., 191., 191., 191., 191., 191., 169., 49., 49., 59., 173.,
          130., 50., 49., 79., 191., 191., 191., 191., 79., 49., 50.,
          128., 194., 191., 191., 191., 191., 191., 191., 169., 49., 49.,
          59., 173., 139., 50., 49., 71., 190., 191., 191., 190., 71.,
          49., 50., 137., 193., 191., 191., 191., 191., 191., 191., 169.,
          49., 49., 59., 173., 152., 52., 49., 59., 185., 191., 191.,
          185., 59., 49., 52., 152., 192., 191., 191., 191., 191., 191.,
          191., 169., 49., 49., 59., 173., 171., 56., 49., 53., 171.,
          191., 191., 171., 53., 49., 56., 170., 191., 191., 191., 191.,
          191., 191., 191., 169., 49., 49., 59., 173., 188., 76., 49.,
          50., 119., 188., 188., 120., 50., 49., 76., 188., 191., 191.,
          191., 191., 191., 191., 191., 169., 49., 49., 59., 173., 192.,
          160., 51., 49., 52., 64., 64., 52., 49., 51., 160., 192., 191.,
          191., 191., 191., 191., 191., 191., 168., 49., 49., 58., 173.,
          191., 194., 131., 60., 49., 49., 49., 49., 59., 131., 194.,
          191., 191., 191., 191., 191., 191., 191., 191., 183., 135.,
          137., 139., 185., 191., 191., 194., 183., 126., 96., 96., 126.,
          183., 194., 191., 191., 191., 191., 191., 191., 191., 191.,
          191., 191., 193., 193., 193., 191., 191., 191., 191., 192.,
          193., 193., 193., 193., 192., 191., 191., 191., 191., 191.,
          191., 191., 191., 191., 191., 191., 191., 191., 191., 191.,
          191., 191., 191., 191., 191., 191., 191., 191., 191., 191.,
          191., 191., 191., 191., 191., 191., 191., 191., 191., 191.,
          191., 191., 191., 195., 194., 194., 191., 191., 194., 193.,
          195., 192., 191., 191., 191., 191., 191., 191., 191., 191.,
          191., 191., 191., 191., 191., 192., 173., 111., 92., 126.,
          184., 189., 129., 84., 104., 166., 191., 191., 191., 191.,
          191., 191., 191., 191., 191., 191., 191., 191., 191., 184.,
          73., 57., 57., 58., 117., 126., 58., 57., 57., 77., 188., 192.,
          191., 191., 191., 191., 191., 191., 191., 191., 191., 191.,
          192., 137., 56., 56., 56., 56., 68., 68., 56., 56., 56., 56.,
          140., 194., 191., 191., 191., 191., 191., 191., 191., 191.,
          191., 191., 193., 120., 55., 55., 55., 55., 55., 55., 55., 55.,
          55., 54., 126., 194., 191., 191., 191., 191., 191., 191., 191.,
          191., 191., 191., 191., 160., 53., 53., 53., 53., 53., 53.,
          53., 53., 53., 60., 169., 193., 191., 191., 191., 191., 191.,
          191., 191., 191., 191., 191., 191., 193., 101., 52., 52., 52.,
          52., 52., 52., 52., 52., 96., 194., 191., 191., 191., 191.,
          191., 191., 191., 191., 191., 191., 191., 191., 191., 180.,
          72., 50., 50., 50., 50., 50., 50., 71., 177., 191., 191., 191.,
          191., 191., 191., 191., 191., 191., 191., 191., 191., 191.,
          191., 191., 170., 74., 48., 49., 49., 49., 69., 169., 193.,
          191., 191., 191., 191., 191., 191., 191., 191., 191., 191.,
          191., 191., 191., 191., 191., 193., 175., 58., 47., 47., 65.,
          176., 192., 191., 191., 191., 191., 191., 191., 191., 191.,
          191., 191., 191., 191., 191., 191., 191., 191., 191., 192.,
          173., 70., 63., 166., 193., 191., 191., 191., 191., 191., 191.,
          191., 191., 191., 191., 191., 191., 191., 191., 191., 191.,
          191., 191., 191., 193., 165., 167., 193., 191., 191., 191.,
          191., 191., 191., 191., 191., 191., 191., 191., 191., 191.,
          191., 191., 191., 191., 191., 191., 191., 191., 191., 191.,
          191., 191., 191., 191., 191., 191., 191., 191., 191., 191.,
          191., 191., 191., 191., 191., 191., 191., 191., 191., 191.,
          191., 191., 191., 191., 191., 191., 191., 191., 191., 191.,
          191., 191., 191., 191., 191., 191., 191., 191., 191., 191.,
          191., 191., 191., 191., 191., 191., 191., 191., 191., 191.,
          191., 191., 191., 191., 191., 191., 191., 191., 191., 191.,
          191., 191., 191., 191., 191., 191., 191., 191., 191., 191.,
          191., 191., 191., 191., 191., 191., 191., 191., 191., 191.,
          191., 191., 191., 191., 191., 191., 191., 191., 191., 191.,
          191., 191., 191., 191., 191., 191., 191., 191., 191., 191.,
          191., 191., 191., 191., 191., 191., 191., 191., 191., 191.,
          191., 191., 191., 191., 191., 191., 191., 191., 191., 191.,
          191., 191., 191., 191., 191., 191., 191., 191., 191. ]
      - [ 191., 191., 191., 191., 191., 191., 191., 191., 191., 191.,
          191., 191., 191., 191., 191., 191., 191., 191., 191., 191.,
          191., 191., 191., 191., 191., 191., 191., 191., 191., 191.,
          191., 192., 192., 191., 191., 191., 191., 191., 192., 192.,
          192., 192., 191., 191., 191., 191., 191., 191., 191., 191.,
          191., 191., 191., 192., 167., 119., 122., 178., 191., 191.,
          192., 193., 151., 125., 123., 146., 189., 194., 191., 191.,
          191., 191., 191., 191., 191., 191., 191., 189., 91., 49., 53.,
          164., 191., 193., 156., 73., 50., 49., 49., 49., 69., 145.,
          193., 191., 191., 191., 191., 191., 191., 192., 196., 130.,
          51., 49., 54., 165., 191., 179., 59., 49., 49., 49., 49., 49.,
          49., 56., 174., 193., 191., 191., 191., 191., 192., 165., 76.,
          51., 49., 49., 54., 165., 191., 97., 49., 49., 90., 169., 171.,
          101., 50., 49., 79., 188., 191., 191., 191., 191., 192., 157.,
          51., 56., 50., 49., 54., 165., 180., 64., 49., 49., 157., 191.,
          191., 173., 58., 49., 50., 169., 191., 191., 191., 191., 192.,
          171., 134., 154., 54., 49., 54., 166., 165., 56., 49., 52.,
          180., 191., 191., 186., 68., 49., 49., 146., 192., 191., 191.,
          191., 191., 191., 194., 174., 54., 49., 54., 166., 153., 51.,
          49., 59., 189., 191., 191., 191., 77., 49., 49., 131., 193.,
          191., 191., 191., 191., 191., 191., 174., 54., 49., 54., 166.,
          140., 50., 49., 73., 191., 191., 191., 192., 90., 49., 49.,
          120., 194., 191., 191., 191., 191., 191., 191., 174., 54., 49.,
          54., 166., 139., 50., 49., 72., 191., 191., 191., 192., 89.,
          49., 49., 119., 194., 191., 191., 191., 191., 191., 191., 174.,
          54., 49., 54., 166., 145., 50., 49., 72., 191., 191., 191.,
          192., 89., 49., 49., 122., 193., 191., 191., 191., 191., 191.,
          191., 174., 54., 49., 54., 166., 157., 53., 49., 55., 186.,
          191., 191., 188., 73., 49., 49., 137., 193., 191., 191., 191.,
          191., 191., 191., 174., 54., 49., 54., 166., 171., 59., 49.,
          49., 174., 191., 191., 183., 63., 49., 50., 155., 191., 191.,
          191., 191., 191., 191., 191., 174., 54., 49., 54., 165., 185.,
          70., 49., 49., 137., 195., 194., 156., 53., 49., 53., 179.,
          191., 191., 191., 191., 191., 191., 191., 174., 54., 49., 54.,
          165., 193., 131., 50., 49., 64., 129., 132., 68., 49., 50.,
          117., 193., 191., 191., 191., 191., 191., 191., 191., 174.,
          54., 49., 54., 165., 191., 193., 98., 49., 49., 49., 49., 49.,
          49., 83., 193., 191., 191., 191., 191., 191., 191., 191., 191.,
          179., 93., 90., 92., 173., 191., 191., 185., 128., 86., 70.,
          70., 83., 122., 181., 191., 191., 191., 191., 191., 191., 191.,
          191., 191., 191., 196., 196., 196., 192., 191., 191., 191.,
          193., 196., 193., 192., 196., 194., 191., 191., 191., 191.,
          191., 191., 191., 191., 191., 191., 191., 191., 191., 191.,
          191., 191., 191., 191., 191., 191., 191., 191., 191., 191.,
          191., 191., 191., 191., 191., 191., 191., 191., 191., 191.,
          191., 191., 191., 191., 192., 192., 192., 191., 191., 191.,
          193., 192., 191., 191., 191., 191., 191., 191., 191., 191.,
          191., 191., 191., 191., 191., 191., 191., 194., 153., 128.,
          163., 194., 193., 169., 118., 140., 189., 191., 191., 191.,
          191., 191., 191., 191., 191., 191., 191., 191., 191., 191.,
          191., 117., 60., 58., 60., 138., 164., 69., 58., 58., 99.,
          187., 191., 191., 191., 191., 191., 191., 191., 191., 191.,
          191., 191., 191., 158., 57., 56., 56., 56., 76., 87., 56., 56.,
          56., 57., 146., 194., 191., 191., 191., 191., 191., 191., 191.,
          191., 191., 191., 193., 130., 55., 55., 55., 55., 56., 55.,
          55., 55., 55., 55., 119., 194., 191., 191., 191., 191., 191.,
          191., 191., 191., 191., 191., 193., 150., 53., 53., 53., 53.,
          53., 53., 53., 53., 53., 54., 142., 194., 191., 191., 191.,
          191., 191., 191., 191., 191., 191., 191., 191., 186., 78., 52.,
          52., 52., 52., 52., 52., 52., 52., 72., 183., 191., 191., 191.,
          191., 191., 191., 191., 191., 191., 191., 191., 191., 193.,
          168., 60., 51., 51., 51., 51., 51., 51., 56., 141., 193., 191.,
          191., 191., 191., 191., 191., 191., 191., 191., 191., 191.,
          191., 191., 191., 145., 51., 49., 49., 49., 49., 51., 133.,
          194., 191., 191., 191., 191., 191., 191., 191., 191., 191.,
          191., 191., 191., 191., 191., 191., 194., 144., 55., 48., 48.,
          53., 122., 191., 191., 191., 191., 191., 191., 191., 191.,
          191., 191., 191., 191., 191., 191., 191., 191., 191., 191.,
          194., 148., 46., 46., 130., 195., 191., 191., 191., 191., 191.,
          191., 191., 191., 191., 191., 191., 191., 191., 191., 191.,
          191., 191., 191., 191., 194., 136., 119., 191., 191., 191.,
          191., 191., 191., 191., 191., 191., 191., 191., 191., 191.,
          191., 191., 191., 191., 191., 191., 191., 191., 191., 192.,
          193., 191., 191., 191., 191., 191., 191., 191., 191., 191.,
          191., 191., 191., 191., 191., 191., 191., 191., 191., 191.,
          191., 191., 191., 191., 191., 191., 191., 191., 191., 191.,
          191., 191., 191., 191., 191., 191., 191., 191., 191., 191.,
          191., 191., 191., 191., 191., 191., 191., 191., 191., 191.,
          191., 191., 191., 191., 191., 191., 191., 191., 191., 191.,
          191., 191., 191., 191., 191., 191., 191., 191., 191., 191.,
          191., 191., 191., 191., 191., 191., 191., 191., 191., 191.,
          191., 191., 191., 191., 191., 191., 191., 191., 191., 191.,
          191., 191., 191., 191., 191., 191., 191., 191., 191., 191.,
          191., 191., 191., 191., 191., 191., 191., 191., 191., 191.,
          191., 191., 191., 191., 191., 191., 191., 191., 191., 191.,
          191., 191., 191., 191., 191., 191., 191., 191., 191., 191.,
          191., 191., 191., 191., 191., 191., 191., 191., 191., 191.,
          191., 191., 191., 191., 191., 191., 191., 191., 191., 191.,
          191., 191., 191., 191., 191., 191., 191., 191., 191., 191.,
          191., 191., 191., 191., 191., 191., 191., 191., 191., 191.,
          191., 191., 191., 191., 191., 191., 191., 191., 191. ]
      - [ 245., 245., 245., 245., 245., 245., 245., 245., 245., 245.,
          245., 245., 245., 245., 245., 245., 245., 245., 245., 245.,
          245., 245., 245., 245., 245., 245., 245., 245., 245., 246.,
          246., 245., 245., 245., 245., 245., 246., 247., 246., 246.,
          245., 245., 245., 245., 245., 245., 245., 245., 245., 245.,
          245., 245., 220., 153., 153., 218., 245., 245., 245., 248.,
          201., 162., 156., 181., 236., 249., 245., 245., 245., 245.,
          245., 245., 245., 245., 245., 245., 139., 62., 62., 190., 245.,
          247., 213., 105., 65., 63., 63., 63., 83., 173., 245., 245.,
          245., 245., 245., 245., 245., 245., 252., 187., 70., 63., 63.,
          192., 245., 233., 79., 63., 63., 63., 63., 63., 63., 69., 200.,
          248., 245., 245., 245., 245., 246., 233., 102., 64., 63., 63.,
          63., 192., 248., 147., 63., 63., 101., 212., 221., 144., 65.,
          63., 94., 239., 245., 245., 245., 245., 246., 229., 67., 72.,
          65., 63., 63., 192., 246., 100., 63., 63., 183., 245., 245.,
          240., 88., 63., 63., 202., 245., 245., 245., 245., 246., 234.,
          167., 207., 87., 63., 63., 192., 235., 80., 63., 66., 223.,
          245., 245., 246., 111., 63., 63., 165., 247., 245., 245., 245.,
          245., 245., 249., 237., 89., 63., 63., 192., 224., 68., 63.,
          74., 240., 245., 245., 246., 127., 63., 63., 142., 248., 245.,
          245., 245., 245., 245., 245., 237., 89., 63., 63., 192., 205.,
          64., 63., 88., 242., 245., 245., 247., 141., 63., 63., 129.,
          250., 245., 245., 245., 245., 245., 245., 237., 89., 63., 63.,
          192., 204., 64., 63., 87., 243., 245., 245., 247., 140., 63.,
          63., 127., 250., 245., 245., 245., 245., 245., 245., 237., 89.,
          63., 63., 192., 213., 65., 63., 87., 243., 245., 245., 247.,
          140., 63., 63., 131., 247., 245., 245., 245., 245., 245., 245.,
          237., 89., 63., 63., 192., 227., 71., 63., 69., 235., 245.,
          245., 246., 121., 63., 63., 149., 248., 245., 245., 245., 245.,
          245., 245., 237., 89., 63., 63., 192., 240., 87., 63., 63.,
          212., 245., 245., 245., 104., 63., 63., 180., 245., 245., 245.,
          245., 245., 245., 245., 237., 89., 63., 63., 192., 247., 113.,
          63., 63., 152., 250., 248., 224., 75., 63., 66., 222., 245.,
          245., 245., 245., 245., 245., 245., 237., 89., 63., 63., 192.,
          247., 184., 64., 63., 75., 159., 173., 93., 63., 64., 135.,
          248., 245., 245., 245., 245., 245., 245., 245., 237., 89., 63.,
          63., 192., 245., 247., 143., 63., 63., 63., 64., 63., 63., 89.,
          233., 245., 245., 245., 245., 245., 245., 245., 245., 239.,
          133., 116., 114., 207., 245., 245., 241., 175., 114., 90., 89.,
          103., 149., 227., 245., 245., 245., 245., 245., 245., 245.,
          245., 245., 245., 250., 251., 251., 247., 245., 245., 245.,
          247., 251., 248., 246., 251., 249., 245., 245., 245., 245.,
          245., 245., 245., 245., 245., 245., 245., 245., 245., 245.,
          245., 245., 245., 245., 245., 245., 245., 245., 245., 245.,
          245., 245., 245., 245., 245., 245., 245., 245., 245., 245.,
          245., 245., 245., 245., 246., 246., 246., 245., 245., 245.,
          248., 247., 245., 245., 245., 245., 245., 245., 245., 245.,
          245., 245., 245., 245., 245., 245., 245., 250., 204., 162.,
          201., 249., 247., 225., 154., 172., 241., 246., 245., 245.,
          245., 245., 245., 245., 245., 245., 245., 245., 245., 245.,
          245., 163., 78., 74., 77., 160., 216., 94., 74., 74., 110.,
          231., 245., 245., 245., 245., 245., 245., 245., 245., 245.,
          245., 245., 245., 218., 80., 72., 72., 72., 87., 116., 72.,
          72., 72., 73., 164., 249., 245., 245., 245., 245., 245., 245.,
          245., 245., 245., 245., 247., 191., 73., 70., 70., 70., 71.,
          71., 70., 70., 70., 70., 135., 250., 245., 245., 245., 245.,
          245., 245., 245., 245., 245., 245., 247., 211., 74., 69., 69.,
          69., 69., 69., 69., 69., 69., 69., 159., 250., 245., 245.,
          245., 245., 245., 245., 245., 245., 245., 245., 245., 242.,
          114., 66., 67., 67., 67., 67., 67., 67., 67., 76., 220., 245.,
          245., 245., 245., 245., 245., 245., 245., 245., 245., 245.,
          245., 246., 228., 84., 65., 65., 65., 65., 65., 65., 70., 165.,
          247., 245., 245., 245., 245., 245., 245., 245., 245., 245.,
          245., 245., 245., 245., 246., 201., 67., 63., 63., 63., 63.,
          62., 150., 248., 245., 245., 245., 245., 245., 245., 245.,
          245., 245., 245., 245., 245., 245., 245., 245., 247., 201.,
          79., 61., 61., 66., 142., 243., 245., 245., 245., 245., 245.,
          245., 245., 245., 245., 245., 245., 245., 245., 245., 245.,
          245., 245., 248., 203., 60., 59., 144., 250., 245., 245., 245.,
          245., 245., 245., 245., 245., 245., 245., 245., 245., 245.,
          245., 245., 245., 245., 245., 245., 248., 193., 146., 243.,
          245., 245., 245., 245., 245., 245., 245., 245., 245., 245.,
          245., 245., 245., 245., 245., 245., 245., 245., 245., 245.,
          245., 246., 248., 245., 245., 245., 245., 245., 245., 245.,
          245., 245., 245., 245., 245., 245., 245., 245., 245., 245.,
          245., 245., 245., 245., 245., 245., 245., 245., 245., 245.,
          245., 245., 245., 245., 245., 245., 245., 245., 245., 245.,
          245., 245., 245., 245., 245., 245., 245., 245., 245., 245.,
          245., 245., 245., 245., 245., 245., 245., 245., 245., 245.,
          245., 245., 245., 245., 245., 245., 245., 245., 245., 245.,
          245., 245., 245., 245., 245., 245., 245., 245., 245., 245.,
          245., 245., 245., 245., 245., 245., 245., 245., 245., 245.,
          245., 245., 245., 245., 245., 245., 245., 245., 245., 245.,
          245., 245., 245., 245., 245., 245., 245., 245., 245., 245.,
          245., 245., 245., 245., 245., 245., 245., 245., 245., 245.,
          245., 245., 245., 245., 245., 245., 245., 245., 245., 245.,
          245., 245., 245., 245., 245., 245., 245., 245., 245., 245.,
          245., 245., 245., 245., 245., 245., 245., 245., 245., 245.,
          245., 245., 245., 245., 245., 245., 245., 245., 245., 245.,
          245., 245., 245., 245., 245., 245., 245., 245., 245., 245.,
          245., 245., 245., 245., 245., 245., 245., 245., 245., 245.,
          245., 245., 245. ]
      - [ 191., 191., 191., 191., 191., 191., 191., 191., 191., 191.,
          191., 191., 191., 191., 191., 191., 191., 191., 191., 191.,
          191., 191., 191., 191., 191., 191., 191., 191., 191., 191.,
          191., 191., 191., 191., 191., 191., 191., 191., 191., 191.,
          191., 191., 191., 191., 191., 191., 191., 191., 191., 191.,
          191., 191., 191., 191., 191., 191., 191., 191., 191., 191.,
          191., 191., 191., 191., 191., 191., 191., 191., 191., 191.,
          191., 191., 191., 191., 191., 191., 191., 191., 191., 193.,
          194., 194., 191., 191., 191., 191., 193., 195., 195., 195.,
          195., 193., 191., 191., 191., 191., 191., 191., 191., 191.,
          191., 191., 193., 137., 83., 89., 177., 191., 191., 188., 151.,
          105., 85., 85., 103., 150., 188., 191., 191., 191., 191., 191.,
          191., 191., 191., 191., 181., 59., 49., 59., 173., 191., 196.,
          110., 51., 49., 49., 49., 49., 51., 110., 196., 191., 191.,
          191., 191., 191., 191., 182., 148., 84., 49., 49., 59., 173.,
          193., 142., 53., 49., 54., 96., 96., 54., 49., 53., 142., 192.,
          191., 191., 191., 191., 192., 145., 49., 49., 49., 49., 59.,
          173., 187., 68., 49., 50., 130., 196., 196., 129., 50., 49.,
          68., 185., 191., 191., 191., 191., 192., 145., 52., 85., 49.,
          49., 59., 173., 169., 55., 49., 54., 173., 191., 191., 173.,
          54., 49., 55., 168., 191., 191., 191., 191., 192., 179., 176.,
          170., 49., 49., 59., 173., 150., 51., 49., 61., 186., 191.,
          191., 186., 61., 49., 51., 150., 193., 191., 191., 191., 191.,
          191., 191., 169., 49., 49., 59., 173., 138., 50., 49., 71.,
          190., 191., 191., 190., 71., 49., 50., 136., 193., 191., 191.,
          191., 191., 191., 191., 169., 49., 49., 59., 173., 130., 50.,
          49., 80., 191., 191., 191., 191., 80., 49., 50., 129., 194.,
          191., 191., 191., 191., 191., 191., 169., 49., 49., 59., 173.,
          130., 50., 49., 79., 191., 191., 191., 191., 79., 49., 50.,
          128., 194., 191., 191., 191., 191., 191., 191., 169., 49., 49.,
          59., 173., 139., 50., 49., 71., 190., 191., 191., 190., 71.,
          49., 50., 137., 193., 191., 191., 191., 191., 191., 191., 169.,
          49., 49., 59., 173., 152., 52., 49., 59., 185., 191., 191.,
          185., 59., 49., 52., 152., 192., 191., 191., 191., 191., 191.,
          191., 169., 49., 49., 59., 173., 171., 56., 49., 53., 171.,
          191., 191., 171., 53., 49., 56., 170., 191., 191., 191., 191.,
          191., 191., 191., 169., 49., 49., 59., 173., 188., 76., 49.,
          50., 119., 188., 188., 120., 50., 49., 76., 188., 191., 191.,
          191., 191., 191., 191., 191., 169., 49., 49., 59., 173., 192.,
          160., 51., 49., 52., 64., 64., 52., 49., 51., 160., 192., 191.,
          191., 191., 191., 191., 191., 191., 168., 49., 49., 58., 173.,
          191., 194., 131., 60., 49., 49., 49., 49., 59., 131., 194.,
          191., 191., 191., 191., 191., 191., 191., 191., 183., 135.,
          137., 139., 185., 191., 191., 194., 183., 126., 96., 96., 126.,
          183., 194., 191., 191., 191., 191., 191., 191., 191., 191.,
          191., 191., 193., 193., 193., 191., 191., 191., 191., 192.,
          193., 193., 193., 193., 192., 191., 191., 191., 191., 191.,
          191., 191., 191., 191., 191., 191., 191., 191., 191., 191.,
          191., 191., 191., 191., 191., 191., 191., 191., 191., 191.,
          191., 191., 191., 191., 191., 191., 191., 191., 191., 191.,
          191., 191., 191., 195., 194., 194., 191., 191., 194., 193.,
          195., 192., 191., 191., 191., 191., 191., 191., 191., 191.,
          191., 191., 191., 191., 191., 192., 173., 111., 92., 126.,
          184., 189., 129., 84., 104., 166., 191., 191., 191., 191.,
          191., 191., 191., 191., 191., 191., 191., 191., 191., 184.,
          73., 57., 57., 58., 117., 126., 58., 57., 57., 77., 188., 192.,
          191., 191., 191., 191., 191., 191., 191., 191., 191., 191.,
          192., 137., 56., 56., 56., 56., 68., 68., 56., 56., 56., 56.,
          140., 194., 191., 191., 191., 191., 191., 191., 191., 191.,
          191., 191., 193., 120., 55., 55., 55., 55., 55., 55., 55., 55.,
          55., 54., 126., 194., 191., 191., 191., 191., 191., 191., 191.,
          191., 191., 191., 191., 160., 53., 53., 53., 53., 53., 53.,
          53., 53., 53., 60., 169., 192., 191., 191., 191., 191., 191.,
          191., 191., 191., 191., 191., 191., 193., 101., 52., 52., 52.,
          52., 52., 52., 52., 52., 96., 194., 191., 191., 191., 191.,
          191., 191., 191., 191., 191., 191., 191., 191., 191., 180.,
          72., 50., 50., 50., 50., 50., 50., 71., 177., 191., 191., 191.,
          191., 191., 191., 191., 191., 191., 191., 191., 191., 191.,
          191., 191., 170., 74., 48., 49., 49., 49., 69., 169., 193.,
          191., 191., 191., 191., 191., 191., 191., 191., 191., 191.,
          191., 191., 191., 191., 191., 193., 175., 58., 47., 47., 65.,
          176., 192., 191., 191., 191., 191., 191., 191., 191., 191.,
          191., 191., 191., 191., 191., 191., 191., 191., 191., 192.,
          173., 70., 63., 166., 193., 191., 191., 191., 191., 191., 191.,
          191., 191., 191., 191., 191., 191., 191., 191., 191., 191.,
          191., 191., 191., 193., 165., 167., 193., 191., 191., 191.,
          191., 191., 191., 191., 191., 191., 191., 191., 191., 191.,
          191., 191., 191., 191., 191., 191., 191., 191., 191., 191.,
          191., 191., 191., 191., 191., 191., 191., 191., 191., 191.,
          191., 191., 191., 191., 191., 191., 191., 191., 191., 191.,
          191., 191., 191., 191., 191., 191., 191., 191., 191., 191.,
          191., 191., 191., 191., 191., 191., 191., 191., 191., 191.,
          191., 191., 191., 191., 191., 191., 191., 191., 191., 191.,
          191., 191., 191., 191., 191., 191., 191., 191., 191., 191.,
          191., 191., 191., 191., 191., 191., 191., 191., 191., 191.,
          191., 191., 191., 191., 191., 191., 191., 191., 191., 191.,
          191., 191., 191., 191., 191., 191., 190., 189., 189., 189.,
          189., 188., 186., 186., 185., 183., 183., 181., 181., 180.,
          179., 178., 177., 177., 177., 191., 191., 191., 191., 190.,
          190., 189., 189., 189., 189., 187., 185., 185., 183., 183.,
          181., 180., 180., 178., 177., 175., 175., 174., 173. ]
      - [ 191., 191., 191., 191., 191., 191., 191., 191., 191., 191.,
          191., 191., 191., 191., 191., 191., 191., 191., 191., 191.,
          191., 191., 191., 191., 191., 191., 191., 191., 191., 191.,
          191., 191., 192., 192., 191., 191., 191., 191., 191., 192.,
          192., 192., 192., 191., 191., 191., 191., 191., 191., 191.,
          191., 191., 191., 191., 193., 164., 119., 125., 181., 191.,
          191., 193., 192., 149., 124., 124., 148., 192., 193., 191.,
          191., 191., 191., 191., 191., 191., 191., 191., 188., 85., 49.,
          58., 173., 191., 193., 151., 71., 50., 49., 49., 49., 71.,
          151., 193., 191., 191., 191., 191., 191., 191., 192., 196.,
          122., 49., 49., 59., 173., 191., 177., 58., 49., 49., 49., 49.,
          49., 49., 58., 176., 192., 191., 191., 191., 191., 192., 157.,
          74., 50., 49., 49., 59., 173., 191., 88., 49., 49., 96., 169.,
          169., 96., 49., 49., 88., 189., 191., 191., 191., 191., 192.,
          146., 51., 56., 49., 49., 59., 173., 175., 56., 49., 53., 164.,
          191., 191., 165., 53., 49., 56., 174., 191., 191., 191., 191.,
          192., 166., 136., 151., 49., 49., 59., 173., 156., 53., 49.,
          59., 183., 191., 191., 183., 59., 49., 53., 155., 192., 191.,
          191., 191., 191., 192., 194., 169., 49., 49., 59., 173., 143.,
          50., 49., 67., 190., 191., 191., 190., 67., 49., 50., 142.,
          193., 191., 191., 191., 191., 191., 191., 169., 49., 49., 59.,
          173., 131., 50., 49., 79., 191., 191., 191., 191., 79., 49.,
          50., 130., 194., 191., 191., 191., 191., 191., 191., 169., 49.,
          49., 59., 173., 130., 50., 49., 79., 191., 191., 191., 191.,
          79., 49., 50., 128., 194., 191., 191., 191., 191., 191., 191.,
          169., 49., 49., 59., 173., 134., 50., 49., 79., 191., 191.,
          191., 191., 79., 49., 50., 133., 193., 191., 191., 191., 191.,
          191., 191., 169., 49., 49., 59., 173., 147., 51., 49., 62.,
          188., 191., 191., 188., 62., 49., 51., 146., 193., 191., 191.,
          191., 191., 191., 191., 169., 49., 49., 59., 173., 164., 54.,
          49., 55., 178., 191., 191., 179., 55., 49., 54., 163., 191.,
          191., 191., 191., 191., 191., 191., 169., 49., 49., 59., 173.,
          182., 62., 49., 51., 146., 194., 194., 147., 51., 49., 62.,
          182., 191., 191., 191., 191., 191., 191., 191., 169., 49., 49.,
          59., 173., 193., 124., 50., 49., 66., 130., 130., 66., 49.,
          50., 124., 193., 191., 191., 191., 191., 191., 191., 191.,
          169., 49., 49., 59., 173., 191., 193., 91., 49., 49., 49., 49.,
          49., 49., 90., 193., 191., 191., 191., 191., 191., 191., 191.,
          191., 175., 89., 90., 95., 178., 191., 191., 183., 126., 85.,
          70., 70., 85., 125., 182., 191., 191., 191., 191., 191., 191.,
          191., 191., 191., 192., 196., 196., 196., 192., 191., 191.,
          191., 193., 196., 193., 193., 196., 193., 191., 191., 191.,
          191., 191., 191., 191., 191., 191., 191., 191., 191., 191.,
          191., 191., 191., 191., 191., 191., 191., 191., 191., 191.,
          191., 191., 191., 191., 191., 191., 191., 191., 191., 191.,
          191., 191., 191., 191., 191., 192., 192., 191., 191., 191.,
          191., 193., 192., 191., 191., 191., 191., 191., 191., 191.,
          191., 191., 191., 191., 191., 191., 191., 191., 192., 149.,
          128., 166., 194., 192., 166., 118., 142., 190., 191., 191.,
          191., 191., 191., 191., 191., 191., 191., 191., 191., 191.,
          191., 190., 112., 59., 58., 60., 145., 159., 67., 58., 58.,
          106., 191., 191., 191., 191., 191., 191., 191., 191., 191.,
          191., 191., 191., 191., 152., 57., 56., 56., 56., 80., 85.,
          56., 56., 56., 58., 154., 193., 191., 191., 191., 191., 191.,
