%YAML:1.0
---
opencv_ml_svm:
   format: 3
   svmType: C_SVC
   kernel:
      type: POLY
      degree: 3.
      gamma: 3.
      coef0: 0.
   C: 1.
   term_criteria: { iterations:100 }
   var_count: 1020
   class_count: 52
   class_labels: !!opencv-matrix
      rows: 52
      cols: 1
      dt: i
      data: [ 0, 1, 2, 3, 4, 5, 6, 7, 8, 9, 10, 11, 12, 13, 14, 15, 16,
          17, 18, 19, 20, 21, 22, 23, 24, 25, 26, 27, 28, 29, 30, 31, 32,
          33, 34, 35, 36, 37, 38, 39, 40, 41, 42, 43, 44, 45, 46, 47, 48,
          49, 50, 51 ]
   sv_total: 252
   support_vectors:
      - [ 241., 241., 241., 242., 242., 243., 243., 243., 243., 245.,
          245., 245., 246., 246., 247., 247., 248., 248., 249., 250.,
          240., 241., 241., 242., 242., 242., 243., 243., 243., 245.,
          245., 245., 246., 246., 247., 247., 248., 248., 249., 250.,
          240., 240., 241., 241., 242., 242., 243., 243., 243., 245.,
          245., 245., 246., 246., 247., 247., 248., 248., 249., 250.,
          240., 240., 241., 241., 242., 242., 243., 243., 243., 245.,
          245., 245., 246., 246., 247., 247., 248., 248., 248., 249.,
          240., 240., 241., 241., 242., 242., 243., 243., 243., 244.,
          245., 245., 246., 246., 246., 247., 247., 248., 248., 249.,
          240., 240., 241., 232., 229., 229., 237., 243., 243., 243.,
          233., 210., 187., 201., 230., 243., 247., 248., 248., 248.,
          240., 240., 245., 117., 79., 82., 166., 240., 238., 188., 88.,
          40., 26., 35., 73., 157., 230., 247., 248., 248., 239., 240.,
          246., 61., 6., 10., 131., 239., 215., 54., 7., 1., 0., 1., 5.,
          44., 162., 243., 248., 248., 239., 240., 246., 56., 0., 5.,
          129., 227., 100., 7., 1., 17., 44., 29., 3., 2., 77., 202.,
          248., 248., 239., 239., 246., 56., 0., 5., 128., 206., 31., 0.,
          21., 124., 218., 170., 53., 0., 37., 160., 241., 248., 239.,
          239., 246., 56., 0., 5., 128., 195., 25., 0., 48., 205., 246.,
          215., 94., 2., 10., 126., 234., 248., 239., 239., 246., 56.,
          0., 5., 128., 195., 25., 0., 54., 222., 247., 216., 99., 4.,
          10., 126., 234., 247., 239., 239., 246., 56., 0., 5., 128.,
          194., 25., 0., 54., 221., 246., 216., 99., 4., 10., 126., 234.,
          247., 238., 239., 246., 56., 0., 5., 128., 194., 25., 0., 54.,
          221., 245., 215., 99., 4., 10., 126., 234., 247., 238., 239.,
          246., 56., 0., 5., 128., 194., 25., 0., 53., 220., 245., 215.,
          99., 4., 10., 126., 233., 247., 238., 238., 246., 56., 0., 5.,
          127., 194., 25., 0., 53., 220., 245., 215., 99., 4., 10., 125.,
          233., 246., 238., 238., 245., 56., 0., 5., 127., 194., 25., 0.,
          53., 220., 244., 215., 99., 4., 10., 125., 233., 246., 237.,
          238., 245., 56., 0., 5., 127., 193., 25., 0., 53., 219., 244.,
          215., 99., 4., 10., 125., 232., 245., 237., 238., 245., 56.,
          0., 5., 127., 193., 25., 0., 53., 219., 244., 215., 99., 4.,
          10., 125., 232., 244., 237., 237., 245., 56., 0., 5., 126.,
          193., 25., 0., 53., 218., 244., 215., 99., 4., 10., 125., 232.,
          244., 237., 237., 245., 56., 0., 5., 126., 193., 25., 0., 53.,
          218., 243., 215., 99., 4., 10., 125., 231., 244., 236., 237.,
          245., 56., 0., 5., 126., 193., 25., 0., 53., 218., 243., 215.,
          99., 4., 10., 124., 230., 243., 236., 236., 245., 56., 0., 5.,
          126., 192., 25., 0., 53., 218., 242., 214., 99., 4., 10., 124.,
          230., 243., 235., 236., 244., 56., 0., 5., 126., 192., 25., 0.,
          50., 209., 242., 213., 97., 3., 11., 125., 230., 242., 234.,
          236., 244., 56., 0., 5., 126., 198., 28., 0., 33., 162., 236.,
          191., 67., 1., 22., 139., 232., 242., 234., 235., 244., 56.,
          0., 5., 126., 216., 61., 2., 8., 53., 99., 71., 17., 1., 54.,
          176., 238., 241., 234., 234., 243., 56., 0., 5., 126., 229.,
          157., 29., 1., 4., 10., 5., 0., 20., 117., 218., 241., 240.,
          234., 234., 242., 55., 0., 5., 126., 233., 221., 135., 18., 0.,
          0., 0., 11., 94., 203., 237., 239., 239., 233., 234., 236.,
          178., 161., 161., 202., 235., 235., 222., 175., 123., 106.,
          117., 157., 210., 236., 239., 239., 239., 233., 233., 234.,
          230., 229., 229., 233., 236., 236., 236., 233., 224., 221.,
          223., 230., 237., 238., 238., 238., 238., 233., 233., 233.,
          234., 234., 234., 234., 234., 235., 236., 236., 236., 237.,
          237., 237., 237., 238., 238., 238., 238., 232., 233., 233.,
          233., 234., 234., 234., 234., 234., 235., 236., 236., 236.,
          236., 237., 237., 237., 237., 237., 237., 232., 232., 233.,
          233., 233., 234., 234., 234., 234., 234., 235., 236., 236.,
          236., 236., 236., 237., 237., 237., 237., 232., 232., 232.,
          233., 233., 233., 233., 234., 234., 234., 234., 234., 235.,
          235., 236., 236., 236., 236., 236., 237., 231., 232., 232.,
          232., 232., 233., 233., 233., 234., 231., 226., 232., 234.,
          234., 234., 235., 236., 236., 236., 236., 231., 231., 232.,
          232., 232., 232., 233., 233., 228., 173., 105., 196., 233.,
          234., 234., 234., 234., 234., 235., 235., 231., 231., 231.,
          231., 232., 232., 232., 230., 197., 60., 16., 99., 209., 234.,
          234., 234., 234., 234., 234., 234., 230., 231., 231., 231.,
          231., 232., 229., 193., 88., 6., 0., 25., 121., 211., 232.,
          234., 234., 234., 234., 234., 229., 230., 231., 231., 231.,
          230., 194., 79., 4., 0., 0., 1., 25., 116., 209., 233., 233.,
          233., 234., 234., 229., 229., 230., 231., 230., 199., 86., 4.,
          0., 0., 0., 0., 1., 29., 124., 211., 232., 233., 233., 233.,
          229., 229., 229., 230., 206., 87., 6., 0., 0., 0., 0., 0., 0.,
          1., 31., 126., 213., 233., 233., 233., 228., 229., 229., 225.,
          112., 6., 0., 0., 0., 0., 0., 0., 0., 0., 1., 42., 153., 226.,
          233., 232., 228., 228., 232., 165., 20., 0., 0., 0., 0., 0.,
          0., 0., 0., 0., 0., 8., 82., 192., 232., 232., 227., 228.,
          229., 72., 1., 0., 0., 0., 0., 0., 0., 0., 0., 0., 0., 0., 34.,
          148., 226., 232., 227., 227., 217., 44., 0., 0., 0., 0., 1.,
          4., 2., 5., 0., 0., 0., 0., 13., 124., 221., 232., 227., 227.,
          217., 46., 0., 0., 0., 0., 7., 29., 14., 35., 3., 0., 0., 0.,
          14., 125., 221., 232., 227., 227., 226., 108., 6., 0., 0., 1.,
          25., 71., 27., 72., 18., 0., 0., 2., 48., 161., 226., 230.,
          227., 227., 228., 199., 101., 12., 3., 37., 126., 92., 23.,
          98., 107., 24., 2., 42., 141., 213., 229., 229., 226., 226.,
          227., 227., 204., 159., 154., 172., 190., 56., 13., 90., 187.,
          168., 155., 175., 214., 229., 229., 229., 226., 226., 226.,
          226., 226., 227., 227., 222., 126., 14., 3., 47., 163., 227.,
          228., 228., 228., 228., 228., 228., 225., 226., 226., 226.,
          226., 226., 227., 225., 197., 174., 173., 181., 208., 227.,
          227., 227., 228., 228., 228., 228. ]
      - [ 240., 240., 241., 228., 225., 225., 235., 243., 243., 242.,
          229., 210., 199., 206., 226., 242., 247., 248., 248., 248.,
          240., 240., 244., 148., 119., 120., 185., 241., 240., 208.,
          128., 65., 46., 57., 110., 188., 237., 248., 248., 248., 240.,
          240., 246., 56., 0., 5., 129., 238., 211., 95., 5., 0., 0., 0.,
          2., 60., 180., 242., 248., 248., 239., 240., 246., 56., 0., 5.,
          129., 230., 126., 14., 1., 14., 36., 24., 3., 9., 94., 211.,
          247., 248., 239., 240., 246., 56., 0., 5., 129., 212., 40., 0.,
          14., 88., 161., 120., 33., 0., 41., 164., 242., 247., 239.,
          239., 246., 56., 0., 5., 128., 198., 26., 0., 41., 187., 245.,
          207., 85., 2., 18., 136., 236., 248., 239., 239., 246., 56.,
          0., 5., 128., 195., 25., 0., 53., 219., 246., 216., 99., 4.,
          10., 126., 234., 247., 239., 239., 246., 56., 0., 5., 128.,
          195., 25., 0., 54., 221., 246., 216., 99., 4., 10., 126., 234.,
          247., 238., 239., 246., 56., 0., 5., 128., 194., 25., 0., 54.,
          221., 245., 215., 99., 4., 10., 126., 234., 247., 238., 238.,
          246., 56., 0., 5., 127., 194., 25., 0., 53., 221., 245., 215.,
          99., 4., 10., 126., 234., 247., 238., 238., 246., 56., 0., 5.,
          127., 194., 25., 0., 53., 220., 245., 215., 99., 4., 10., 126.,
          233., 246., 238., 238., 246., 56., 0., 5., 127., 194., 25., 0.,
          53., 220., 245., 215., 99., 4., 10., 125., 233., 246., 237.,
          238., 245., 56., 0., 5., 127., 193., 25., 0., 53., 219., 244.,
          215., 99., 4., 10., 125., 232., 245., 237., 238., 245., 56.,
          0., 5., 126., 193., 25., 0., 53., 219., 244., 215., 99., 4.,
          10., 125., 232., 244., 237., 237., 245., 56., 0., 5., 126.,
          193., 25., 0., 53., 218., 244., 215., 99., 4., 10., 125., 232.,
          244., 237., 237., 245., 56., 0., 5., 126., 193., 25., 0., 53.,
          218., 243., 215., 99., 4., 10., 125., 232., 244., 236., 237.,
          245., 56., 0., 5., 126., 193., 25., 0., 53., 218., 243., 215.,
          99., 4., 10., 124., 230., 243., 236., 236., 245., 56., 0., 5.,
          126., 192., 25., 0., 53., 218., 242., 214., 99., 4., 10., 124.,
          230., 243., 236., 236., 244., 56., 0., 5., 126., 192., 25., 0.,
          52., 214., 242., 214., 99., 4., 10., 124., 230., 243., 234.,
          236., 244., 56., 0., 5., 126., 192., 25., 0., 41., 184., 239.,
          206., 87., 1., 15., 131., 231., 242., 234., 235., 244., 56.,
          0., 5., 127., 212., 46., 1., 13., 86., 168., 119., 24., 0.,
          44., 164., 236., 241., 234., 234., 243., 56., 0., 5., 126.,
          228., 137., 16., 1., 4., 11., 5., 0., 11., 98., 211., 241.,
          240., 234., 234., 242., 67., 15., 19., 133., 233., 220., 96.,
          21., 8., 5., 7., 16., 72., 183., 240., 239., 240., 234., 234.,
          238., 150., 124., 125., 184., 235., 235., 211., 141., 87., 72.,
          82., 123., 191., 234., 239., 239., 239., 233., 234., 234.,
          233., 233., 233., 236., 236., 236., 237., 236., 235., 235.,
          235., 237., 238., 238., 238., 238., 239., 233., 233., 234.,
          234., 234., 234., 234., 235., 236., 236., 236., 237., 237.,
          237., 237., 238., 238., 238., 238., 238., 233., 233., 233.,
          234., 234., 234., 234., 234., 234., 235., 236., 236., 236.,
          237., 237., 237., 237., 237., 237., 238., 232., 233., 233.,
          233., 233., 234., 234., 234., 234., 234., 235., 236., 236.,
          236., 236., 237., 237., 237., 237., 237., 232., 232., 233.,
          233., 233., 233., 234., 234., 234., 234., 234., 235., 235.,
          235., 236., 236., 236., 236., 237., 237., 231., 232., 232.,
          233., 233., 233., 233., 234., 234., 229., 216., 231., 234.,
          234., 235., 235., 236., 236., 236., 236., 231., 231., 231.,
          232., 232., 232., 233., 233., 229., 185., 122., 206., 234.,
          234., 234., 234., 234., 235., 235., 236., 231., 231., 231.,
          231., 232., 232., 232., 232., 202., 86., 27., 124., 215., 235.,
          234., 234., 234., 234., 234., 235., 230., 231., 231., 231.,
          231., 231., 231., 204., 98., 16., 3., 36., 133., 221., 234.,
          234., 234., 234., 234., 234., 229., 230., 231., 231., 231.,
          232., 206., 101., 14., 1., 0., 3., 40., 137., 217., 234., 233.,
          234., 234., 234., 229., 229., 230., 231., 232., 212., 97., 18.,
          0., 0., 0., 0., 4., 41., 138., 219., 234., 233., 233., 233.,
          229., 229., 229., 230., 221., 104., 15., 0., 0., 0., 0., 0.,
          0., 4., 41., 142., 223., 233., 233., 233., 228., 228., 229.,
          236., 125., 18., 0., 0., 0., 0., 0., 0., 0., 0., 4., 57., 168.,
          229., 233., 232., 228., 228., 230., 188., 28., 1., 0., 0., 0.,
          0., 0., 0., 0., 0., 0., 8., 90., 202., 234., 232., 228., 228.,
          231., 83., 2., 0., 0., 0., 0., 0., 0., 0., 0., 0., 0., 0., 39.,
          155., 227., 232., 227., 227., 216., 46., 0., 0., 0., 0., 0.,
          0., 0., 0., 0., 0., 0., 0., 14., 125., 221., 232., 227., 227.,
          213., 42., 0., 0., 0., 0., 5., 18., 9., 23., 2., 0., 0., 0.,
          11., 120., 219., 232., 227., 227., 228., 67., 0., 0., 0., 1.,
          17., 62., 27., 66., 6., 0., 0., 0., 34., 147., 224., 230.,
          227., 227., 228., 210., 39., 6., 3., 14., 65., 100., 28., 94.,
          61., 8., 3., 17., 105., 209., 231., 229., 226., 226., 227.,
          228., 198., 141., 134., 157., 194., 68., 15., 98., 188., 151.,
          134., 161., 210., 229., 229., 229., 226., 226., 226., 227.,
          227., 227., 227., 226., 176., 25., 14., 67., 187., 230., 228.,
          228., 228., 228., 228., 228., 226., 226., 226., 226., 226.,
          227., 227., 224., 155., 115., 114., 128., 183., 226., 228.,
          228., 228., 228., 228., 228., 225., 225., 226., 226., 226.,
          226., 226., 227., 227., 227., 227., 227., 227., 227., 227.,
          227., 227., 227., 227., 228., 225., 225., 225., 225., 226.,
          226., 226., 226., 226., 227., 227., 227., 227., 227., 227.,
          227., 227., 227., 227., 227., 224., 224., 225., 225., 225.,
          225., 225., 226., 226., 226., 226., 226., 226., 227., 227.,
          227., 227., 227., 227., 227., 224., 224., 224., 224., 225.,
          225., 225., 225., 225., 226., 226., 226., 226., 226., 226.,
          226., 227., 227., 227., 227., 223., 223., 224., 224., 224.,
          224., 224., 225., 225., 225., 225., 225., 225., 226., 226.,
          226., 226., 226., 226., 226. ]
      - [ 241., 241., 241., 242., 242., 243., 243., 243., 245., 245.,
          245., 246., 246., 246., 247., 248., 248., 249., 250., 250.,
          240., 241., 241., 242., 242., 242., 243., 243., 245., 245.,
          245., 246., 246., 246., 247., 248., 248., 248., 249., 250.,
          240., 241., 241., 242., 242., 242., 243., 243., 245., 245.,
          245., 246., 246., 246., 247., 247., 248., 248., 249., 250.,
          240., 241., 241., 242., 242., 242., 243., 243., 245., 245.,
          245., 246., 246., 246., 247., 247., 248., 248., 249., 250.,
          240., 241., 241., 242., 242., 242., 243., 243., 244., 245.,
          245., 246., 246., 246., 246., 247., 248., 248., 248., 249.,
          240., 241., 239., 230., 230., 233., 242., 243., 243., 240.,
          222., 196., 193., 220., 239., 246., 248., 248., 248., 249.,
          240., 240., 220., 87., 81., 121., 226., 245., 225., 134., 57.,
          29., 28., 50., 119., 207., 245., 248., 248., 248., 239., 240.,
          210., 16., 9., 67., 220., 228., 113., 14., 3., 0., 0., 2., 11.,
          98., 214., 247., 248., 248., 239., 240., 209., 11., 3., 63.,
          213., 178., 32., 0., 5., 29., 38., 10., 0., 21., 140., 236.,
          248., 248., 239., 240., 209., 11., 3., 63., 209., 135., 7., 6.,
          72., 197., 212., 116., 13., 9., 102., 221., 249., 247., 239.,
          240., 209., 11., 3., 63., 208., 122., 5., 28., 147., 244.,
          249., 172., 37., 3., 75., 206., 249., 247., 239., 239., 209.,
          11., 3., 63., 208., 122., 5., 33., 162., 249., 249., 175., 41.,
          3., 75., 206., 249., 247., 239., 239., 209., 11., 3., 63.,
          208., 122., 5., 33., 162., 249., 248., 175., 41., 3., 75.,
          206., 249., 246., 239., 239., 209., 11., 3., 63., 208., 122.,
          5., 33., 162., 249., 247., 175., 41., 3., 75., 206., 249.,
          246., 238., 239., 209., 11., 3., 63., 208., 122., 5., 33.,
          162., 248., 247., 175., 41., 3., 75., 206., 249., 246., 238.,
          239., 209., 11., 3., 62., 207., 122., 5., 33., 162., 247.,
          247., 175., 41., 3., 75., 206., 248., 246., 238., 238., 209.,
          11., 3., 62., 207., 121., 5., 33., 161., 247., 247., 175., 41.,
          3., 75., 206., 248., 245., 238., 238., 209., 11., 3., 62.,
          207., 121., 5., 33., 160., 247., 247., 175., 41., 3., 75.,
          206., 248., 245., 237., 238., 209., 11., 3., 62., 206., 121.,
          5., 33., 160., 247., 247., 175., 41., 3., 75., 206., 247.,
          243., 237., 238., 209., 11., 3., 62., 206., 121., 5., 33.,
          160., 246., 246., 175., 41., 3., 75., 206., 247., 243., 237.,
          237., 209., 11., 3., 62., 206., 121., 5., 33., 160., 246.,
          246., 175., 41., 3., 74., 205., 246., 243., 236., 237., 209.,
          11., 3., 62., 206., 120., 5., 33., 160., 246., 246., 175., 41.,
          3., 74., 204., 245., 242., 236., 236., 209., 11., 3., 62.,
          205., 120., 5., 33., 160., 245., 246., 175., 41., 3., 74.,
          204., 245., 242., 236., 236., 209., 11., 3., 62., 205., 120.,
          5., 30., 151., 242., 246., 174., 39., 3., 75., 205., 245.,
          241., 235., 236., 209., 11., 3., 62., 205., 127., 6., 16.,
          107., 225., 229., 134., 22., 5., 86., 209., 244., 241., 234.,
          235., 209., 11., 3., 61., 207., 155., 15., 3., 29., 84., 90.,
          38., 4., 14., 118., 222., 242., 240., 234., 234., 208., 11.,
          3., 61., 211., 201., 73., 4., 1., 6., 8., 1., 2., 58., 175.,
          235., 240., 240., 234., 234., 208., 11., 3., 61., 213., 234.,
          188., 72., 4., 0., 0., 3., 57., 166., 229., 239., 239., 239.,
          234., 234., 226., 164., 162., 180., 229., 237., 233., 199.,
          142., 108., 108., 133., 188., 229., 239., 239., 239., 239.,
          233., 234., 233., 229., 229., 230., 235., 236., 236., 235.,
          228., 221., 221., 226., 234., 238., 238., 238., 238., 238.,
          233., 233., 234., 234., 234., 234., 234., 235., 236., 236.,
          236., 237., 237., 237., 237., 238., 238., 238., 238., 238.,
          233., 233., 233., 233., 234., 234., 234., 234., 234., 235.,
          236., 236., 236., 236., 237., 237., 237., 237., 237., 238.,
          232., 233., 233., 233., 233., 234., 234., 234., 234., 234.,
          235., 236., 236., 236., 236., 237., 237., 237., 237., 237.,
          232., 232., 233., 233., 233., 233., 233., 234., 234., 234.,
          234., 234., 235., 235., 236., 236., 236., 236., 236., 237.,
          231., 232., 232., 232., 233., 233., 233., 233., 233., 229.,
          230., 234., 234., 234., 235., 236., 236., 236., 236., 236.,
          231., 231., 232., 232., 232., 233., 233., 233., 211., 141.,
          158., 228., 234., 234., 234., 234., 235., 235., 235., 236.,
          231., 231., 231., 232., 232., 232., 232., 214., 117., 17., 52.,
          170., 228., 234., 234., 234., 234., 234., 234., 234., 231.,
          231., 231., 231., 232., 232., 217., 140., 27., 0., 2., 58.,
          178., 229., 234., 234., 234., 234., 234., 234., 230., 231.,
          231., 231., 231., 217., 139., 30., 1., 0., 0., 9., 72., 178.,
          228., 233., 233., 234., 234., 234., 229., 230., 230., 231.,
          222., 141., 18., 0., 0., 0., 0., 0., 3., 67., 178., 227., 233.,
          233., 233., 234., 229., 229., 229., 228., 151., 35., 1., 0.,
          0., 0., 0., 0., 0., 11., 80., 184., 230., 233., 233., 233.,
          228., 229., 228., 178., 25., 0., 0., 0., 0., 0., 0., 0., 0.,
          0., 12., 97., 200., 231., 232., 232., 228., 228., 219., 73.,
          1., 0., 0., 0., 0., 0., 0., 0., 0., 0., 0., 32., 141., 221.,
          233., 232., 228., 229., 191., 19., 0., 0., 0., 0., 0., 0., 0.,
          0., 0., 0., 0., 8., 95., 206., 234., 232., 227., 230., 164.,
          8., 0., 0., 0., 0., 3., 5., 5., 2., 0., 0., 0., 3., 75., 197.,
          234., 231., 227., 230., 165., 8., 0., 0., 0., 5., 26., 34.,
          33., 13., 0., 0., 0., 3., 75., 197., 234., 231., 227., 228.,
          198., 38., 0., 0., 0., 19., 80., 53., 66., 51., 4., 0., 0.,
          14., 108., 210., 231., 230., 227., 227., 223., 151., 43., 1.,
          12., 87., 139., 32., 67., 136., 58., 3., 18., 93., 186., 225.,
          229., 229., 226., 226., 227., 220., 175., 154., 160., 181.,
          114., 10., 44., 158., 181., 156., 163., 198., 225., 229., 229.,
          229., 226., 226., 226., 226., 227., 227., 224., 180., 47., 1.,
          14., 96., 206., 228., 228., 228., 228., 228., 228., 228., 225.,
          226., 226., 226., 226., 226., 226., 213., 180., 173., 174.,
          191., 220., 227., 227., 228., 228., 228., 228., 228. ]
      - [ 240., 242., 228., 225., 226., 236., 243., 243., 241., 228.,
          209., 199., 207., 228., 243., 247., 248., 248., 248., 249.,
          240., 245., 142., 119., 126., 190., 241., 239., 201., 121.,
          63., 46., 60., 117., 194., 239., 248., 248., 248., 249., 240.,
          247., 45., 0., 15., 140., 237., 201., 85., 4., 0., 0., 0., 2.,
          71., 190., 244., 248., 248., 248., 240., 247., 45., 0., 15.,
          140., 221., 114., 13., 1., 17., 36., 21., 2., 11., 108., 219.,
          247., 248., 248., 240., 247., 45., 0., 15., 139., 195., 35.,
          0., 20., 97., 161., 111., 28., 0., 48., 179., 243., 247., 247.,
          239., 247., 45., 0., 15., 137., 181., 23., 0., 56., 195., 245.,
          198., 72., 2., 21., 153., 239., 247., 247., 239., 247., 45.,
          0., 15., 137., 178., 22., 0., 72., 223., 246., 209., 84., 3.,
          11., 144., 237., 247., 247., 239., 247., 45., 0., 15., 137.,
          178., 22., 0., 73., 224., 246., 209., 84., 3., 11., 144., 237.,
          247., 246., 239., 247., 45., 0., 15., 137., 178., 22., 0., 73.,
          224., 245., 208., 84., 3., 11., 144., 237., 247., 246., 238.,
          247., 45., 0., 15., 136., 177., 22., 0., 72., 224., 245., 208.,
          84., 3., 11., 144., 237., 247., 246., 238., 247., 45., 0., 15.,
          136., 177., 22., 0., 72., 224., 245., 208., 84., 3., 11., 144.,
          236., 246., 245., 238., 246., 45., 0., 15., 136., 177., 22.,
          0., 72., 223., 245., 208., 84., 3., 11., 143., 236., 246.,
          245., 238., 246., 45., 0., 15., 136., 177., 22., 0., 72., 223.,
          244., 208., 84., 3., 11., 143., 235., 245., 245., 238., 246.,
          45., 0., 15., 135., 176., 22., 0., 72., 222., 244., 208., 84.,
          3., 11., 143., 235., 244., 244., 237., 246., 45., 0., 15.,
          135., 176., 22., 0., 71., 222., 244., 208., 84., 3., 11., 143.,
          235., 244., 243., 237., 246., 45., 0., 15., 135., 176., 22.,
          0., 71., 222., 243., 208., 84., 3., 11., 143., 235., 244.,
          243., 237., 246., 45., 0., 15., 135., 176., 22., 0., 71., 222.,
          243., 208., 84., 3., 11., 142., 233., 243., 242., 236., 246.,
          45., 0., 15., 135., 175., 22., 0., 71., 221., 242., 207., 84.,
          3., 11., 142., 233., 243., 242., 236., 245., 45., 0., 15.,
          134., 175., 22., 0., 70., 218., 242., 207., 84., 3., 11., 142.,
          233., 243., 242., 236., 245., 45., 0., 15., 135., 175., 23.,
          0., 55., 191., 239., 198., 73., 0., 18., 148., 234., 242.,
          241., 235., 245., 45., 0., 15., 137., 196., 41., 1., 18., 96.,
          167., 108., 20., 0., 52., 177., 237., 241., 241., 234., 244.,
          45., 0., 15., 137., 221., 125., 14., 1., 5., 10., 5., 0., 13.,
          111., 218., 241., 240., 240., 234., 243., 56., 15., 29., 142.,
          234., 209., 88., 20., 7., 5., 7., 18., 81., 193., 240., 239.,
          240., 240., 234., 239., 145., 124., 130., 189., 235., 234.,
          205., 136., 85., 72., 84., 128., 197., 235., 239., 239., 239.,
          239., 234., 234., 233., 233., 234., 236., 236., 236., 237.,
          236., 235., 235., 235., 237., 238., 238., 238., 239., 239.,
          239., 233., 234., 234., 234., 234., 234., 235., 236., 236.,
          236., 237., 237., 237., 237., 238., 238., 238., 238., 238.,
          238., 233., 233., 234., 234., 234., 234., 234., 234., 235.,
          236., 236., 236., 237., 237., 237., 237., 237., 237., 238.,
          238., 233., 233., 233., 233., 234., 234., 234., 234., 234.,
          235., 236., 236., 236., 236., 237., 237., 237., 237., 237.,
          237., 232., 233., 233., 233., 233., 234., 234., 234., 234.,
          234., 235., 235., 235., 236., 236., 236., 236., 237., 237.,
          237., 232., 232., 233., 233., 233., 233., 234., 234., 227.,
          218., 231., 234., 234., 235., 235., 236., 236., 236., 236.,
          236., 231., 231., 232., 232., 232., 233., 233., 227., 175.,
          131., 209., 234., 234., 234., 234., 234., 235., 235., 236.,
          236., 231., 231., 231., 232., 232., 232., 231., 191., 77., 35.,
          134., 217., 235., 234., 234., 234., 234., 234., 235., 235.,
          231., 231., 231., 231., 232., 230., 195., 89., 14., 5., 43.,
          144., 223., 234., 234., 234., 234., 234., 234., 234., 230.,
          231., 231., 231., 230., 197., 93., 13., 1., 0., 4., 47., 147.,
          220., 234., 233., 234., 234., 234., 234., 229., 230., 231.,
          230., 202., 89., 16., 0., 0., 0., 0., 5., 48., 148., 222.,
          234., 233., 233., 233., 233., 229., 229., 229., 211., 96., 13.,
          0., 0., 0., 0., 0., 0., 5., 48., 154., 225., 233., 233., 233.,
          233., 228., 229., 231., 116., 17., 0., 0., 0., 0., 0., 0., 0.,
          0., 5., 66., 179., 230., 232., 232., 232., 228., 231., 179.,
          25., 1., 0., 0., 0., 0., 0., 0., 0., 0., 0., 9., 102., 209.,
          233., 232., 232., 228., 231., 72., 2., 0., 0., 0., 0., 0., 0.,
          0., 0., 0., 0., 0., 46., 169., 228., 232., 232., 227., 215.,
          36., 0., 0., 0., 0., 0., 0., 0., 0., 0., 0., 0., 0., 16., 141.,
          224., 232., 231., 227., 212., 33., 0., 0., 0., 0., 6., 16.,
          12., 21., 2., 0., 0., 0., 13., 137., 223., 232., 231., 227.,
          229., 57., 0., 0., 0., 1., 23., 55., 35., 59., 6., 0., 0., 0.,
          40., 161., 226., 230., 231., 227., 228., 202., 36., 6., 4.,
          18., 72., 89., 36., 93., 54., 7., 4., 19., 118., 214., 231.,
          229., 229., 226., 227., 227., 193., 140., 135., 163., 182.,
          60., 20., 111., 185., 148., 135., 166., 214., 229., 229., 229.,
          229., 226., 226., 227., 227., 227., 227., 224., 160., 24., 16.,
          80., 193., 230., 228., 228., 228., 228., 228., 228., 228.,
          226., 226., 226., 226., 227., 228., 217., 151., 115., 114.,
          132., 189., 226., 228., 228., 228., 228., 228., 228., 228.,
          225., 226., 226., 226., 226., 226., 227., 227., 227., 227.,
          227., 227., 227., 227., 227., 227., 227., 228., 228., 228.,
          225., 225., 225., 226., 226., 226., 226., 226., 227., 227.,
          227., 227., 227., 227., 227., 227., 227., 227., 227., 227.,
          224., 225., 225., 225., 225., 225., 226., 226., 226., 226.,
          226., 226., 227., 227., 227., 227., 227., 227., 227., 227.,
          224., 224., 224., 225., 225., 225., 225., 225., 226., 226.,
          226., 226., 226., 226., 226., 227., 227., 227., 227., 227.,
          223., 224., 224., 224., 224., 224., 225., 225., 225., 225.,
          225., 225., 226., 226., 226., 226., 226., 226., 226., 226. ]
      - [ 240., 241., 241., 242., 242., 242., 243., 243., 245., 245.,
          245., 246., 246., 246., 247., 247., 248., 248., 249., 250.,
          240., 241., 241., 242., 242., 242., 243., 243., 245., 245.,
          245., 245., 246., 246., 247., 247., 248., 248., 249., 250.,
          240., 241., 241., 242., 242., 242., 243., 243., 243., 245.,
          245., 245., 246., 246., 246., 247., 248., 248., 248., 249.,
          240., 240., 235., 190., 189., 202., 238., 244., 242., 221.,
          163., 122., 119., 156., 209., 242., 247., 248., 248., 249.,
          240., 240., 211., 28., 20., 76., 221., 244., 204., 69., 10.,
          1., 0., 7., 60., 172., 240., 248., 248., 248., 239., 240.,
          209., 11., 3., 63., 217., 210., 75., 1., 1., 6., 8., 2., 0.,
          62., 186., 244., 248., 248., 239., 240., 209., 11., 3., 63.,
          211., 159., 17., 1., 22., 79., 95., 36., 3., 13., 121., 229.,
          248., 248., 239., 240., 209., 11., 3., 63., 208., 128., 6.,
          14., 104., 231., 242., 147., 22., 6., 92., 215., 249., 247.,
          239., 240., 209., 11., 3., 63., 208., 122., 5., 31., 155.,
          247., 249., 174., 39., 3., 75., 206., 249., 247., 239., 239.,
          209., 11., 3., 63., 208., 122., 5., 33., 162., 249., 248.,
          175., 41., 3., 75., 206., 249., 247., 239., 239., 209., 11.,
          3., 63., 208., 122., 5., 33., 162., 249., 248., 175., 41., 3.,
          75., 206., 249., 246., 238., 239., 209., 11., 3., 63., 208.,
          122., 5., 33., 162., 248., 247., 175., 41., 3., 75., 206.,
          249., 246., 238., 239., 209., 11., 3., 63., 207., 122., 5.,
          33., 162., 247., 247., 175., 41., 3., 75., 206., 248., 246.,
          238., 239., 209., 11., 3., 62., 207., 122., 5., 33., 162.,
          247., 247., 175., 41., 3., 75., 206., 248., 245., 238., 238.,
          209., 11., 3., 62., 207., 121., 5., 33., 161., 247., 247.,
          175., 41., 3., 75., 206., 248., 245., 237., 238., 209., 11.,
          3., 62., 207., 121., 5., 33., 160., 247., 247., 175., 41., 3.,
          75., 206., 247., 244., 237., 237., 209., 11., 3., 62., 206.,
          121., 5., 33., 160., 247., 247., 175., 41., 3., 75., 206.,
          247., 243., 237., 237., 209., 11., 3., 62., 206., 121., 5.,
          33., 160., 246., 246., 175., 41., 3., 74., 206., 247., 243.,
          237., 237., 209., 11., 3., 62., 206., 121., 5., 33., 160.,
          246., 246., 175., 41., 3., 74., 205., 246., 243., 236., 237.,
          209., 11., 3., 62., 206., 120., 5., 33., 160., 246., 246.,
          175., 41., 3., 74., 204., 245., 242., 236., 236., 209., 11.,
          3., 62., 205., 120., 5., 33., 159., 245., 246., 175., 41., 3.,
          74., 204., 245., 242., 235., 236., 209., 11., 3., 62., 205.,
          120., 5., 27., 142., 239., 246., 171., 36., 4., 77., 205.,
          244., 241., 235., 236., 209., 11., 3., 62., 205., 134., 7., 6.,
          78., 214., 214., 100., 10., 7., 94., 212., 243., 241., 234.,
          235., 209., 11., 3., 61., 208., 172., 27., 0., 9., 35., 39.,
          12., 1., 22., 135., 228., 241., 240., 234., 234., 208., 11.,
          3., 61., 213., 220., 110., 7., 0., 1., 1., 0., 4., 89., 205.,
          239., 240., 240., 234., 234., 212., 55., 48., 95., 217., 239.,
          221., 125., 39., 17., 17., 33., 106., 204., 239., 239., 239.,
          239., 234., 234., 232., 217., 217., 222., 234., 236., 236.,
          231., 206., 185., 186., 201., 227., 238., 238., 238., 239.,
          239., 233., 234., 234., 234., 234., 234., 236., 236., 236.,
          236., 237., 237., 237., 237., 237., 238., 238., 238., 238.,
          238., 233., 233., 234., 234., 234., 234., 234., 234., 236.,
          236., 236., 236., 237., 237., 237., 237., 237., 238., 238.,
          238., 232., 233., 233., 233., 234., 234., 234., 234., 234.,
          235., 236., 236., 236., 236., 237., 237., 237., 237., 237.,
          238., 232., 232., 233., 233., 233., 234., 234., 234., 234.,
          234., 235., 235., 236., 236., 236., 236., 237., 237., 237.,
          237., 232., 232., 232., 233., 233., 233., 233., 234., 234.,
          232., 232., 234., 234., 235., 236., 236., 236., 236., 236.,
          237., 231., 232., 232., 232., 233., 233., 233., 234., 228.,
          197., 204., 234., 234., 234., 234., 235., 235., 236., 236.,
          236., 231., 231., 232., 232., 232., 232., 233., 229., 180.,
          84., 115., 211., 233., 234., 234., 234., 234., 234., 235.,
          235., 231., 231., 231., 232., 232., 232., 230., 188., 76., 4.,
          27., 126., 212., 234., 234., 234., 234., 234., 234., 234.,
          230., 231., 231., 231., 231., 231., 196., 88., 13., 0., 1.,
          34., 134., 218., 234., 234., 234., 234., 234., 234., 229.,
          230., 231., 231., 230., 193., 92., 8., 0., 0., 0., 2., 40.,
          137., 212., 232., 233., 234., 234., 234., 229., 229., 229.,
          231., 210., 90., 9., 0., 0., 0., 0., 0., 2., 39., 138., 218.,
          234., 233., 233., 233., 228., 229., 230., 213., 103., 13., 0.,
          0., 0., 0., 0., 0., 0., 4., 49., 153., 222., 233., 232., 233.,
          228., 228., 227., 133., 12., 0., 0., 0., 0., 0., 0., 0., 0.,
          0., 6., 65., 175., 229., 232., 232., 228., 228., 210., 44., 0.,
          0., 0., 0., 0., 0., 0., 0., 0., 0., 0., 18., 119., 216., 233.,
          232., 227., 230., 178., 11., 0., 0., 0., 0., 0., 0., 0., 0.,
          0., 0., 0., 5., 84., 201., 234., 231., 227., 230., 159., 8.,
          0., 0., 0., 1., 6., 9., 9., 3., 0., 0., 0., 2., 72., 195.,
          234., 231., 227., 229., 176., 12., 0., 0., 0., 8., 42., 48.,
          48., 19., 0., 0., 0., 5., 84., 200., 233., 231., 227., 227.,
          214., 65., 0., 0., 1., 28., 109., 47., 75., 81., 8., 0., 0.,
          22., 131., 218., 230., 229., 227., 227., 226., 192., 95., 53.,
          64., 131., 143., 21., 60., 162., 109., 55., 69., 141., 211.,
          229., 229., 229., 226., 226., 226., 225., 214., 209., 211.,
          198., 85., 4., 31., 139., 213., 210., 212., 221., 227., 228.,
          228., 228., 226., 226., 226., 226., 227., 227., 223., 173.,
          50., 26., 30., 90., 200., 228., 228., 228., 228., 228., 228.,
          228., 225., 225., 226., 226., 226., 226., 226., 226., 223.,
          222., 222., 224., 226., 227., 227., 227., 227., 227., 228.,
          228., 225., 225., 225., 226., 226., 226., 226., 226., 227.,
          227., 227., 227., 227., 227., 227., 227., 227., 227., 227.,
          227., 224., 225., 225., 225., 225., 226., 226., 226., 226.,
          226., 226., 227., 227., 227., 227., 227., 227., 227., 227.,
          227. ]
      - [ 241., 241., 241., 243., 243., 243., 243., 244., 244., 245.,
          245., 246., 247., 247., 247., 248., 249., 249., 249., 250.,
          241., 241., 241., 243., 243., 243., 243., 244., 244., 245.,
          245., 246., 246., 247., 247., 248., 249., 249., 249., 250.,
          241., 241., 241., 243., 243., 243., 243., 244., 244., 245.,
          245., 246., 246., 247., 247., 248., 249., 249., 249., 249.,
          240., 234., 202., 202., 215., 239., 243., 242., 222., 179.,
          150., 151., 180., 222., 243., 247., 248., 249., 249., 249.,
          240., 209., 77., 77., 125., 228., 243., 203., 106., 65., 58.,
          58., 64., 109., 199., 243., 248., 249., 249., 249., 240., 207.,
          65., 63., 115., 225., 208., 108., 59., 59., 63., 63., 60., 54.,
          110., 209., 245., 248., 249., 249., 240., 207., 65., 63., 115.,
          217., 167., 68., 59., 78., 123., 126., 81., 60., 65., 161.,
          237., 248., 248., 245., 240., 207., 65., 63., 115., 212., 145.,
          60., 70., 147., 236., 241., 156., 71., 59., 138., 230., 248.,
          247., 223., 240., 207., 65., 63., 115., 212., 141., 59., 86.,
          183., 246., 248., 180., 83., 58., 124., 225., 248., 247., 203.,
          239., 207., 65., 63., 115., 212., 141., 59., 88., 188., 248.,
          248., 181., 84., 58., 124., 225., 248., 247., 200., 239., 207.,
          65., 63., 115., 212., 141., 59., 88., 187., 247., 248., 180.,
          84., 58., 124., 225., 248., 246., 201., 239., 207., 65., 63.,
          115., 212., 141., 59., 88., 187., 247., 248., 180., 84., 58.,
          124., 225., 247., 246., 216., 239., 207., 65., 63., 115., 211.,
          141., 59., 88., 187., 246., 248., 180., 84., 58., 123., 224.,
          247., 245., 237., 238., 207., 65., 63., 115., 211., 141., 59.,
          88., 186., 246., 247., 180., 84., 58., 123., 224., 247., 245.,
          245., 238., 206., 65., 63., 115., 211., 140., 59., 88., 186.,
          246., 247., 180., 84., 58., 123., 224., 246., 244., 244., 238.,
          206., 65., 63., 115., 211., 140., 59., 88., 186., 245., 247.,
          180., 84., 58., 123., 223., 246., 244., 244., 237., 206., 65.,
          63., 115., 210., 140., 59., 88., 186., 245., 246., 180., 84.,
          58., 123., 223., 245., 244., 244., 237., 206., 65., 63., 114.,
          210., 140., 59., 88., 186., 244., 246., 180., 83., 58., 123.,
          223., 244., 243., 243., 237., 206., 65., 63., 114., 210., 140.,
          59., 88., 186., 244., 246., 180., 83., 58., 123., 222., 244.,
          243., 243., 236., 206., 65., 63., 114., 210., 140., 59., 88.,
          186., 244., 246., 180., 83., 58., 123., 222., 244., 243., 243.,
          236., 205., 65., 63., 114., 210., 140., 59., 88., 185., 244.,
          245., 180., 83., 58., 123., 222., 243., 241., 242., 235., 205.,
          65., 63., 114., 210., 140., 59., 81., 172., 239., 245., 176.,
          80., 58., 124., 222., 243., 241., 241., 235., 205., 65., 63.,
          114., 211., 148., 60., 64., 128., 223., 214., 124., 65., 61.,
          138., 226., 243., 241., 241., 234., 204., 64., 63., 113., 215.,
          177., 77., 58., 66., 87., 86., 66., 57., 73., 171., 234., 241.,
          240., 241., 234., 204., 64., 63., 113., 221., 218., 133., 62.,
          58., 59., 59., 58., 60., 135., 218., 239., 240., 240., 240.,
          234., 210., 98., 97., 138., 224., 239., 219., 144., 85., 71.,
          71., 84., 145., 218., 239., 239., 239., 239., 239., 234., 232.,
          221., 222., 226., 235., 236., 236., 231., 212., 198., 199.,
          212., 232., 238., 238., 238., 239., 239., 239., 234., 234.,
          234., 234., 234., 236., 236., 236., 236., 236., 236., 237.,
          237., 238., 238., 238., 238., 238., 238., 239., 233., 234.,
          234., 234., 234., 234., 234., 236., 236., 236., 236., 236.,
          236., 237., 237., 237., 238., 238., 238., 238., 233., 233.,
          234., 234., 234., 234., 234., 234., 235., 236., 236., 236.,
          236., 236., 237., 237., 237., 237., 238., 238., 232., 233.,
          233., 234., 234., 234., 234., 234., 234., 235., 235., 236.,
          236., 236., 236., 236., 237., 237., 237., 237., 232., 232.,
          233., 233., 230., 226., 226., 230., 234., 234., 234., 231.,
          228., 227., 231., 235., 236., 236., 236., 236., 232., 232.,
          232., 226., 190., 165., 165., 185., 219., 234., 225., 194.,
          168., 165., 183., 218., 234., 236., 236., 236., 231., 232.,
          228., 175., 95., 69., 69., 90., 157., 217., 182., 105., 71.,
          68., 85., 153., 220., 235., 235., 235., 231., 231., 203., 86.,
          59., 58., 58., 59., 97., 158., 114., 61., 58., 58., 58., 84.,
          184., 233., 235., 234., 230., 229., 161., 63., 58., 58., 58.,
          58., 75., 98., 73., 58., 58., 58., 58., 58., 146., 224., 235.,
          234., 230., 228., 142., 59., 58., 58., 58., 58., 63., 68., 62.,
          58., 58., 58., 58., 53., 131., 219., 234., 234., 230., 228.,
          154., 62., 58., 58., 58., 58., 58., 58., 58., 58., 58., 58.,
          58., 58., 146., 223., 234., 233., 229., 229., 193., 78., 58.,
          58., 58., 58., 58., 58., 58., 58., 58., 58., 57., 79., 176.,
          230., 234., 233., 228., 229., 222., 141., 64., 58., 58., 58.,
          58., 58., 58., 58., 58., 58., 60., 121., 208., 232., 232.,
          233., 228., 228., 229., 203., 105., 59., 58., 58., 58., 58.,
          58., 58., 58., 57., 88., 176., 226., 232., 232., 228., 227.,
          228., 228., 224., 173., 82., 58., 58., 58., 58., 58., 58., 58.,
          78., 155., 218., 231., 231., 235., 177., 227., 227., 228.,
          228., 220., 167., 71., 58., 58., 58., 58., 58., 67., 137.,
          211., 230., 230., 234., 193., 99., 227., 227., 227., 227.,
          229., 215., 139., 68., 58., 58., 58., 61., 114., 197., 229.,
          230., 231., 219., 126., 65., 227., 227., 227., 227., 227.,
          227., 199., 116., 61., 58., 59., 104., 188., 226., 229., 229.,
          232., 182., 83., 59., 227., 227., 227., 227., 227., 227., 227.,
          190., 101., 59., 84., 167., 223., 229., 229., 229., 235., 143.,
          69., 58., 226., 226., 227., 227., 227., 227., 227., 221., 167.,
          88., 131., 212., 228., 228., 228., 230., 222., 114., 62., 58.,
          225., 226., 226., 227., 227., 227., 227., 228., 203., 164.,
          197., 227., 227., 227., 228., 231., 202., 100., 61., 58., 225.,
          225., 225., 225., 226., 226., 227., 227., 225., 224., 226.,
          227., 227., 227., 227., 231., 191., 95., 60., 58., 225., 225.,
          225., 225., 225., 225., 226., 227., 227., 227., 227., 227.,
          227., 227., 227., 231., 191., 95., 60., 58., 225., 225., 225.,
          225., 225., 225., 225., 225., 226., 226., 227., 227., 227.,
          227., 227., 230., 194., 96., 61., 58. ]
      - [ 241., 239., 229., 230., 234., 242., 243., 244., 238., 223.,
          212., 213., 225., 239., 246., 248., 249., 249., 249., 249.,
          240., 224., 152., 152., 178., 234., 243., 230., 182., 122.,
          95., 96., 123., 181., 231., 246., 248., 249., 249., 249., 240.,
          207., 65., 63., 115., 226., 231., 167., 80., 58., 58., 58.,
          58., 82., 164., 232., 247., 248., 249., 249., 240., 207., 65.,
          63., 115., 222., 191., 89., 58., 63., 79., 80., 63., 56., 87.,
          187., 242., 248., 248., 248., 240., 207., 65., 63., 115., 215.,
          156., 62., 63., 100., 164., 169., 105., 63., 61., 149., 234.,
          248., 247., 237., 240., 207., 65., 63., 115., 212., 143., 59.,
          78., 165., 241., 245., 168., 77., 59., 130., 227., 248., 247.,
          213., 239., 207., 65., 63., 115., 212., 141., 59., 88., 186.,
          247., 248., 181., 83., 58., 124., 225., 248., 247., 201., 239.,
          207., 65., 63., 115., 212., 141., 59., 88., 188., 247., 248.,
          181., 84., 58., 124., 225., 248., 246., 199., 239., 207., 65.,
          63., 115., 212., 141., 59., 88., 187., 247., 248., 180., 84.,
          58., 124., 225., 247., 246., 205., 239., 207., 65., 63., 115.,
          211., 141., 59., 88., 187., 247., 248., 180., 84., 58., 123.,
          224., 247., 245., 224., 239., 207., 65., 63., 115., 211., 141.,
          59., 88., 187., 246., 248., 180., 84., 58., 123., 224., 247.,
          245., 242., 238., 206., 65., 63., 115., 211., 140., 59., 88.,
          186., 246., 247., 180., 84., 58., 123., 224., 246., 245., 245.,
          238., 206., 65., 63., 115., 211., 140., 59., 88., 186., 246.,
          247., 180., 84., 58., 123., 224., 246., 244., 244., 238., 206.,
          65., 63., 115., 210., 140., 59., 88., 186., 245., 247., 180.,
          84., 58., 123., 223., 246., 244., 244., 237., 206., 65., 63.,
          115., 210., 140., 59., 88., 186., 245., 246., 180., 84., 58.,
          123., 223., 245., 243., 243., 237., 206., 65., 63., 114., 210.,
          140., 59., 88., 186., 244., 246., 180., 83., 58., 123., 222.,
          244., 243., 243., 236., 206., 65., 63., 114., 210., 140., 59.,
          88., 186., 244., 246., 180., 83., 58., 123., 222., 244., 243.,
          243., 236., 206., 65., 63., 114., 210., 140., 59., 88., 186.,
          244., 245., 180., 83., 58., 123., 222., 243., 243., 243., 235.,
          205., 65., 63., 114., 210., 140., 59., 87., 183., 243., 245.,
          180., 83., 58., 123., 222., 243., 241., 241., 235., 205., 65.,
          63., 114., 210., 140., 59., 77., 162., 235., 244., 171., 77.,
          58., 126., 223., 243., 241., 241., 235., 205., 65., 63., 114.,
          212., 157., 65., 60., 101., 174., 166., 97., 60., 63., 148.,
          229., 242., 241., 241., 234., 204., 64., 63., 113., 218., 192.,
          92., 59., 59., 64., 64., 59., 58., 89., 187., 237., 240., 240.,
          240., 234., 205., 75., 74., 121., 223., 229., 165., 87., 66.,
          63., 63., 66., 85., 168., 230., 239., 239., 240., 240., 234.,
          220., 155., 154., 178., 229., 237., 228., 186., 136., 114.,
          115., 135., 186., 229., 239., 239., 239., 239., 239., 234.,
          234., 234., 234., 235., 236., 236., 236., 236., 236., 236.,
          236., 237., 238., 238., 238., 238., 239., 239., 239., 234.,
          234., 234., 234., 234., 235., 235., 236., 236., 236., 236.,
          237., 237., 237., 238., 238., 238., 238., 238., 239., 233.,
          233., 234., 234., 234., 234., 234., 235., 236., 236., 236.,
          236., 236., 236., 237., 237., 237., 238., 238., 238., 233.,
          233., 233., 234., 234., 234., 234., 234., 234., 235., 236.,
          236., 236., 236., 236., 237., 237., 237., 237., 238., 232.,
          233., 233., 233., 234., 234., 234., 234., 234., 234., 235.,
          235., 236., 236., 236., 236., 236., 236., 236., 237., 232.,
          232., 233., 232., 221., 203., 203., 217., 233., 234., 234.,
          222., 207., 203., 218., 232., 236., 236., 236., 236., 232.,
          232., 232., 218., 144., 112., 112., 138., 197., 234., 213.,
          154., 116., 112., 133., 196., 232., 236., 236., 236., 231.,
          232., 220., 142., 70., 58., 59., 68., 129., 198., 154., 79.,
          59., 58., 63., 122., 207., 235., 235., 235., 230., 231., 183.,
          75., 58., 58., 58., 59., 87., 129., 93., 60., 58., 58., 58.,
          70., 167., 229., 235., 234., 230., 229., 149., 60., 58., 58.,
          58., 58., 69., 82., 67., 58., 58., 58., 58., 54., 137., 220.,
          234., 234., 230., 228., 144., 60., 58., 58., 58., 58., 60.,
          63., 60., 58., 58., 58., 58., 53., 135., 220., 234., 234.,
          229., 228., 168., 65., 58., 58., 58., 58., 58., 58., 58., 58.,
          58., 58., 58., 64., 158., 227., 234., 233., 229., 229., 208.,
          94., 59., 58., 58., 58., 58., 58., 58., 58., 58., 58., 58.,
          94., 192., 231., 233., 232., 228., 229., 227., 182., 69., 58.,
          58., 58., 58., 58., 58., 58., 58., 58., 62., 142., 219., 232.,
          232., 233., 228., 228., 229., 216., 132., 63., 58., 58., 58.,
          58., 58., 58., 58., 58., 110., 197., 230., 232., 233., 217.,
          227., 227., 228., 227., 200., 99., 59., 58., 58., 58., 58.,
          58., 57., 97., 186., 228., 231., 231., 237., 142., 227., 227.,
          227., 228., 228., 196., 91., 59., 58., 58., 58., 58., 80.,
          165., 224., 230., 230., 232., 167., 77., 227., 227., 227.,
          227., 227., 223., 170., 78., 58., 58., 58., 67., 141., 215.,
          229., 230., 231., 208., 102., 60., 227., 227., 227., 227.,
          227., 228., 216., 144., 68., 58., 63., 130., 214., 231., 229.,
          229., 234., 165., 73., 58., 227., 227., 227., 227., 227., 227.,
          229., 210., 129., 64., 101., 190., 228., 228., 229., 229.,
          234., 130., 65., 58., 226., 226., 227., 227., 227., 227., 227.,
          226., 186., 112., 154., 223., 228., 228., 228., 231., 212.,
          107., 61., 58., 225., 226., 226., 227., 227., 227., 227., 228.,
          214., 193., 212., 227., 227., 227., 228., 231., 197., 97., 60.,
          58., 225., 225., 225., 225., 226., 226., 227., 227., 227.,
          227., 227., 227., 227., 227., 227., 231., 191., 95., 60., 58.,
          225., 225., 225., 225., 225., 225., 226., 227., 227., 227.,
          227., 227., 227., 227., 227., 231., 192., 95., 60., 58., 224.,
          225., 225., 225., 225., 225., 225., 225., 225., 226., 226.,
          227., 227., 227., 227., 230., 201., 100., 61., 58., 223., 224.,
          224., 225., 225., 225., 225., 225., 225., 225., 225., 225.,
          226., 226., 226., 227., 222., 117., 63., 58., 223., 223., 223.,
          224., 224., 224., 225., 225., 225., 225., 225., 225., 225.,
          225., 225., 225., 232., 145., 69., 58. ]
      - [ 240., 241., 241., 242., 243., 243., 243., 244., 244., 245.,
          245., 246., 246., 247., 247., 248., 249., 249., 249., 250.,
          240., 241., 241., 242., 243., 243., 243., 244., 244., 244.,
          245., 245., 246., 247., 247., 248., 249., 249., 249., 249.,
          240., 241., 241., 242., 243., 243., 243., 243., 244., 244.,
          245., 245., 246., 247., 247., 247., 248., 249., 249., 249.,
          240., 242., 209., 200., 203., 226., 243., 243., 236., 202.,
          162., 145., 161., 201., 236., 246., 248., 249., 249., 249.,
          240., 245., 104., 70., 79., 170., 240., 229., 158., 76., 60.,
          58., 60., 72., 144., 226., 247., 248., 249., 249., 240., 246.,
          93., 56., 65., 165., 235., 180., 76., 58., 62., 65., 63., 59.,
          74., 164., 237., 248., 249., 249., 240., 246., 93., 56., 65.,
          165., 215., 101., 59., 64., 100., 137., 109., 68., 55., 106.,
          207., 246., 248., 249., 239., 246., 93., 56., 65., 163., 198.,
          76., 55., 86., 189., 244., 202., 103., 54., 80., 183., 242.,
          247., 248., 239., 246., 93., 56., 65., 162., 194., 75., 53.,
          103., 224., 246., 217., 122., 59., 66., 169., 240., 247., 247.,
          239., 245., 93., 56., 65., 162., 194., 75., 53., 105., 229.,
          246., 218., 124., 59., 66., 169., 240., 247., 247., 239., 245.,
          93., 56., 65., 162., 194., 75., 53., 105., 229., 245., 218.,
          124., 59., 66., 169., 239., 246., 246., 239., 245., 93., 56.,
          65., 162., 194., 75., 53., 105., 229., 245., 217., 124., 59.,
          66., 168., 239., 246., 246., 239., 245., 93., 56., 65., 162.,
          193., 75., 53., 105., 228., 244., 217., 124., 59., 66., 168.,
          239., 246., 245., 238., 245., 93., 56., 65., 162., 193., 75.,
          53., 105., 228., 244., 217., 124., 59., 66., 168., 238., 245.,
          245., 238., 244., 93., 56., 65., 162., 193., 75., 53., 105.,
          228., 244., 217., 124., 59., 66., 168., 238., 245., 244., 238.,
          244., 93., 56., 65., 162., 192., 75., 53., 105., 227., 244.,
          217., 124., 59., 66., 168., 238., 244., 244., 237., 244., 93.,
          56., 65., 161., 192., 75., 53., 105., 227., 243., 217., 124.,
          59., 66., 168., 237., 244., 244., 237., 244., 93., 56., 65.,
          161., 192., 75., 53., 104., 227., 243., 217., 123., 59., 66.,
          167., 236., 243., 243., 236., 244., 93., 56., 66., 161., 192.,
          75., 53., 104., 226., 243., 216., 123., 59., 66., 166., 236.,
          243., 243., 236., 243., 93., 56., 66., 161., 192., 75., 53.,
          104., 226., 243., 216., 123., 59., 66., 166., 235., 243., 243.,
          236., 242., 93., 56., 66., 161., 192., 75., 53., 104., 226.,
          242., 215., 123., 59., 66., 166., 235., 242., 241., 236., 242.,
          93., 56., 66., 160., 191., 75., 53., 97., 212., 241., 212.,
          119., 58., 68., 168., 235., 242., 241., 236., 242., 93., 56.,
          66., 161., 199., 77., 56., 79., 168., 233., 179., 86., 55.,
          82., 181., 237., 242., 241., 234., 242., 93., 56., 66., 162.,
          218., 122., 61., 60., 76., 93., 78., 61., 58., 119., 212.,
          240., 240., 240., 234., 241., 92., 56., 66., 161., 233., 198.,
          92., 58., 59., 59., 59., 57., 88., 181., 236., 240., 240.,
          240., 234., 240., 121., 92., 100., 176., 234., 231., 187.,
          106., 76., 71., 74., 100., 176., 232., 239., 239., 239., 239.,
          234., 234., 223., 221., 223., 231., 236., 236., 236., 225.,
          205., 197., 204., 223., 237., 238., 238., 239., 239., 239.,
          234., 234., 234., 234., 234., 234., 236., 236., 236., 236.,
          236., 237., 237., 237., 238., 238., 238., 238., 238., 239.,
          233., 233., 234., 234., 234., 234., 234., 235., 236., 236.,
          236., 236., 236., 236., 237., 237., 238., 238., 238., 238.,
          233., 233., 233., 234., 234., 234., 234., 234., 235., 236.,
          236., 236., 236., 236., 236., 237., 237., 237., 237., 238.,
          232., 233., 233., 233., 234., 234., 234., 234., 234., 234.,
          235., 236., 236., 236., 236., 236., 236., 237., 237., 237.,
          232., 232., 233., 233., 233., 228., 225., 227., 232., 234.,
          234., 233., 230., 227., 229., 233., 236., 236., 236., 236.,
          232., 232., 232., 231., 210., 176., 163., 171., 201., 230.,
          233., 214., 180., 165., 170., 201., 229., 236., 236., 236.,
          231., 232., 231., 213., 128., 77., 68., 74., 117., 195., 211.,
          143., 82., 68., 72., 111., 188., 230., 235., 235., 231., 231.,
          231., 159., 65., 58., 58., 58., 65., 121., 150., 77., 57., 58.,
          58., 56., 120., 210., 234., 234., 230., 231., 235., 105., 60.,
          58., 58., 58., 56., 76., 98., 62., 58., 58., 58., 57., 85.,
          187., 233., 234., 230., 230., 236., 84., 58., 58., 58., 58.,
          58., 63., 69., 59., 58., 58., 58., 58., 75., 178., 231., 234.,
          229., 229., 234., 98., 59., 58., 58., 58., 58., 58., 58., 58.,
          58., 58., 58., 57., 85., 187., 232., 234., 229., 229., 230.,
          146., 63., 58., 58., 58., 58., 58., 58., 58., 58., 58., 58.,
          55., 113., 205., 233., 233., 228., 229., 228., 196., 88., 58.,
          58., 58., 58., 58., 58., 58., 58., 58., 56., 75., 161., 223.,
          232., 232., 228., 228., 229., 223., 158., 68., 58., 58., 58.,
          58., 58., 58., 58., 58., 66., 131., 209., 232., 232., 234.,
          227., 227., 228., 228., 214., 134., 66., 58., 58., 58., 58.,
          58., 58., 58., 104., 191., 229., 232., 232., 214., 227., 227.,
          227., 228., 227., 200., 110., 58., 58., 58., 58., 58., 56.,
          92., 175., 224., 230., 230., 229., 149., 227., 227., 227.,
          227., 227., 225., 185., 95., 60., 58., 58., 59., 82., 159.,
          221., 230., 230., 235., 189., 94., 227., 227., 227., 227.,
          227., 227., 222., 176., 83., 58., 58., 68., 136., 213., 229.,
          229., 231., 223., 133., 68., 227., 227., 227., 227., 227.,
          227., 227., 215., 148., 68., 61., 116., 201., 228., 229., 229.,
          232., 194., 95., 60., 226., 226., 227., 227., 227., 227., 227.,
          227., 204., 124., 99., 182., 227., 228., 228., 228., 229.,
          164., 76., 57., 225., 225., 226., 226., 227., 227., 227., 227.,
          230., 200., 162., 219., 228., 227., 227., 228., 224., 148.,
          70., 57., 225., 225., 225., 225., 226., 226., 227., 227., 227.,
          225., 224., 227., 227., 227., 227., 227., 221., 140., 69., 58.,
          225., 225., 225., 225., 225., 225., 226., 226., 227., 227.,
          227., 227., 227., 227., 227., 227., 221., 140., 68., 58., 225.,
          225., 225., 225., 225., 225., 225., 225., 226., 226., 227.,
          227., 227., 227., 227., 227., 221., 142., 69., 58. ]
      - [ 239., 240., 241., 240., 230., 230., 232., 241., 243., 244.,
          241., 226., 213., 211., 223., 237., 246., 247., 248., 249.,
          239., 240., 240., 230., 158., 149., 166., 233., 243., 237.,
          194., 129., 96., 93., 115., 169., 224., 245., 248., 248., 239.,
          240., 240., 219., 76., 58., 91., 223., 239., 187., 86., 59.,
          58., 58., 58., 74., 145., 223., 247., 248., 239., 239., 240.,
          219., 76., 58., 91., 221., 212., 97., 58., 60., 75., 84., 65.,
          57., 78., 166., 238., 248., 239., 239., 240., 219., 76., 58.,
          91., 220., 179., 64., 60., 88., 155., 177., 119., 66., 60.,
          125., 223., 248., 239., 239., 240., 219., 76., 58., 91., 221.,
          163., 60., 67., 143., 239., 245., 194., 85., 58., 111., 212.,
          249., 239., 239., 239., 219., 76., 58., 91., 221., 160., 60.,
          72., 167., 248., 247., 204., 94., 58., 107., 208., 249., 238.,
          239., 239., 219., 76., 58., 91., 221., 160., 60., 72., 169.,
          248., 246., 204., 95., 58., 107., 208., 249., 238., 238., 239.,
          219., 76., 58., 91., 221., 160., 60., 72., 168., 248., 246.,
          204., 95., 58., 106., 207., 249., 238., 238., 239., 219., 76.,
          58., 91., 221., 160., 60., 72., 168., 248., 246., 204., 95.,
          58., 106., 206., 248., 238., 238., 239., 219., 76., 58., 91.,
          220., 160., 60., 72., 168., 247., 246., 204., 95., 58., 106.,
          206., 248., 238., 238., 238., 219., 76., 58., 91., 220., 160.,
          60., 72., 167., 247., 245., 204., 95., 58., 106., 206., 248.,
          237., 237., 238., 218., 76., 58., 91., 220., 160., 60., 72.,
          167., 246., 245., 204., 95., 58., 106., 206., 248., 237., 237.,
          238., 218., 76., 58., 91., 220., 160., 60., 72., 167., 246.,
          245., 204., 95., 58., 106., 206., 247., 236., 237., 237., 218.,
          76., 58., 91., 219., 160., 60., 72., 167., 246., 245., 204.,
          95., 58., 106., 206., 246., 236., 236., 237., 218., 76., 58.,
          90., 219., 160., 60., 72., 167., 245., 245., 204., 94., 58.,
          105., 205., 246., 236., 236., 236., 218., 76., 58., 90., 219.,
          160., 60., 72., 167., 245., 245., 204., 94., 58., 105., 205.,
          245., 236., 236., 236., 218., 76., 58., 91., 219., 160., 60.,
          72., 167., 244., 244., 203., 94., 58., 105., 205., 245., 235.,
          236., 236., 217., 76., 58., 91., 219., 160., 60., 71., 164.,
          243., 244., 203., 94., 58., 105., 205., 245., 234., 235., 236.,
          217., 76., 58., 91., 219., 159., 60., 67., 141., 234., 242.,
          197., 86., 58., 107., 206., 244., 234., 235., 236., 217., 76.,
          58., 90., 217., 179., 66., 59., 84., 167., 177., 110., 61.,
          62., 126., 218., 243., 234., 234., 234., 216., 75., 58., 90.,
          217., 213., 101., 59., 58., 62., 65., 59., 58., 80., 166.,
          234., 240., 234., 234., 234., 218., 85., 69., 100., 219., 237.,
          183., 92., 68., 63., 63., 65., 80., 147., 225., 240., 239.,
          234., 234., 234., 225., 160., 152., 167., 227., 237., 234.,
          197., 142., 115., 114., 130., 175., 224., 239., 239., 239.,
          233., 234., 234., 234., 234., 234., 235., 236., 236., 236.,
          236., 236., 236., 236., 237., 238., 238., 238., 238., 238.,
          233., 233., 234., 234., 234., 234., 234., 235., 235., 236.,
          236., 236., 236., 237., 237., 237., 238., 238., 238., 238.,
          232., 233., 233., 233., 234., 234., 234., 234., 234., 235.,
          235., 236., 236., 236., 236., 236., 237., 237., 237., 238.,
          232., 232., 233., 233., 233., 234., 234., 234., 234., 234.,
          234., 235., 236., 236., 236., 236., 236., 237., 237., 237.,
          232., 232., 232., 233., 233., 233., 234., 234., 234., 234.,
          234., 234., 235., 235., 235., 236., 236., 236., 236., 236.,
          231., 231., 232., 232., 233., 233., 225., 203., 201., 213.,
          233., 234., 234., 225., 208., 203., 214., 231., 236., 236.,
          231., 231., 231., 232., 232., 230., 152., 113., 111., 127.,
          187., 233., 222., 165., 118., 111., 127., 182., 229., 236.,
          230., 231., 231., 232., 228., 157., 72., 58., 59., 62., 110.,
          198., 171., 86., 59., 58., 61., 107., 192., 234., 230., 230.,
          230., 232., 199., 81., 58., 58., 58., 59., 73., 132., 103.,
          60., 58., 58., 58., 66., 144., 223., 230., 230., 230., 233.,
          166., 63., 58., 58., 58., 58., 63., 85., 69., 58., 58., 58.,
          58., 55., 115., 209., 229., 229., 230., 233., 161., 62., 58.,
          58., 58., 58., 59., 63., 60., 58., 58., 58., 58., 54., 113.,
          207., 229., 229., 229., 231., 184., 69., 58., 58., 58., 58.,
          58., 58., 58., 58., 58., 58., 58., 62., 134., 218., 228., 229.,
          229., 229., 222., 104., 59., 58., 58., 58., 58., 58., 58., 58.,
          58., 58., 58., 84., 171., 230., 228., 228., 228., 229., 230.,
          202., 71., 58., 58., 58., 58., 58., 58., 58., 58., 58., 61.,
          121., 209., 233., 227., 228., 228., 228., 229., 229., 147.,
          64., 58., 58., 58., 58., 58., 58., 58., 58., 95., 182., 228.,
          232., 227., 227., 227., 227., 228., 228., 219., 109., 60., 58.,
          58., 58., 58., 58., 57., 84., 168., 226., 231., 231., 227.,
          227., 227., 227., 227., 228., 228., 218., 99., 59., 58., 58.,
          58., 58., 73., 145., 220., 231., 230., 232., 227., 227., 227.,
          227., 227., 227., 227., 227., 190., 84., 57., 58., 58., 63.,
          119., 208., 229., 230., 231., 214., 227., 227., 227., 227.,
          227., 227., 227., 227., 225., 163., 70., 58., 61., 108., 207.,
          232., 229., 229., 233., 182., 225., 226., 227., 227., 227.,
          227., 227., 227., 228., 222., 146., 66., 83., 177., 228., 228.,
          228., 229., 233., 155., 225., 225., 226., 226., 227., 227.,
          227., 227., 227., 227., 205., 115., 133., 221., 228., 228.,
          228., 230., 217., 131., 225., 225., 225., 226., 226., 227.,
          227., 227., 227., 227., 222., 190., 207., 227., 227., 227.,
          227., 230., 206., 118., 225., 225., 225., 225., 225., 225.,
          226., 226., 227., 227., 227., 226., 227., 227., 227., 227.,
          227., 230., 202., 114., 224., 225., 225., 225., 225., 225.,
          225., 225., 226., 227., 227., 227., 227., 227., 227., 227.,
          227., 230., 203., 115., 223., 224., 224., 225., 225., 225.,
          225., 225., 225., 225., 225., 226., 226., 227., 227., 227.,
          227., 229., 208., 122., 223., 223., 223., 224., 224., 225.,
          225., 225., 225., 225., 225., 225., 225., 225., 226., 226.,
          226., 227., 223., 142., 222., 222., 223., 223., 223., 224.,
          224., 224., 225., 225., 225., 225., 225., 225., 225., 225.,
          225., 225., 230., 167. ]
      - [ 240., 241., 231., 229., 230., 238., 244., 244., 242., 232.,
          218., 209., 216., 232., 244., 247., 248., 248., 249., 249.,
          240., 244., 167., 148., 153., 204., 242., 240., 212., 151.,
          106., 93., 104., 147., 207., 241., 248., 248., 248., 249.,
          240., 246., 93., 56., 65., 165., 239., 211., 122., 62., 58.,
          58., 58., 59., 110., 202., 244., 248., 248., 249., 240., 246.,
          93., 56., 65., 165., 227., 144., 68., 59., 71., 86., 74., 60.,
          64., 139., 225., 247., 248., 248., 240., 246., 93., 56., 65.,
          165., 207., 85., 56., 71., 132., 181., 144., 79., 55., 93.,
          195., 245., 247., 247., 239., 246., 93., 56., 65., 162., 196.,
          75., 54., 95., 207., 245., 210., 113., 57., 73., 176., 241.,
          247., 247., 239., 246., 93., 56., 65., 162., 194., 75., 53.,
          104., 228., 245., 218., 124., 60., 66., 168., 240., 247., 247.,
          239., 245., 93., 56., 65., 162., 194., 75., 53., 104., 228.,
          245., 218., 124., 60., 66., 168., 240., 247., 246., 239., 245.,
          93., 56., 65., 162., 193., 75., 53., 104., 228., 245., 218.,
          124., 60., 66., 168., 239., 246., 246., 239., 245., 93., 56.,
          65., 162., 193., 75., 53., 104., 228., 245., 217., 124., 60.,
          66., 168., 239., 245., 246., 239., 245., 93., 56., 65., 162.,
          194., 75., 53., 104., 227., 244., 217., 124., 60., 66., 168.,
          238., 245., 245., 239., 245., 93., 56., 65., 162., 193., 75.,
          53., 104., 227., 244., 217., 124., 60., 66., 168., 238., 245.,
          235., 238., 245., 93., 56., 65., 161., 193., 75., 53., 105.,
          227., 244., 217., 124., 60., 66., 168., 238., 245., 219., 237.,
          244., 93., 56., 65., 161., 193., 75., 53., 105., 227., 244.,
          217., 124., 60., 66., 167., 237., 244., 237., 237., 244., 93.,
          56., 65., 161., 192., 75., 53., 105., 227., 243., 216., 123.,
          60., 66., 167., 237., 244., 244., 237., 243., 93., 56., 65.,
          161., 192., 75., 53., 105., 227., 243., 216., 123., 60., 66.,
          167., 236., 243., 244., 236., 243., 93., 56., 65., 161., 192.,
          75., 53., 105., 226., 243., 216., 123., 60., 66., 166., 236.,
          243., 243., 236., 243., 93., 56., 65., 161., 192., 75., 53.,
          105., 226., 242., 216., 123., 60., 66., 166., 235., 243., 243.,
          236., 243., 93., 56., 65., 160., 192., 75., 53., 103., 223.,
          242., 216., 123., 60., 66., 166., 235., 242., 242., 236., 243.,
          93., 56., 65., 160., 191., 75., 54., 92., 203., 239., 209.,
          114., 57., 71., 170., 236., 242., 241., 235., 243., 93., 56.,
          65., 162., 206., 89., 58., 71., 132., 185., 140., 73., 55.,
          94., 192., 239., 241., 241., 235., 242., 93., 56., 65., 162.,
          226., 153., 68., 59., 62., 66., 62., 59., 66., 141., 224.,
          241., 240., 240., 234., 241., 102., 68., 76., 166., 235., 216.,
          124., 73., 64., 63., 64., 70., 118., 203., 239., 239., 240.,
          240., 234., 237., 168., 151., 155., 200., 235., 234., 213.,
          161., 122., 113., 121., 154., 207., 236., 239., 239., 239.,
          239., 234., 234., 234., 235., 235., 235., 236., 236., 236.,
          236., 236., 236., 236., 237., 239., 239., 239., 239., 239.,
          239., 233., 234., 234., 234., 235., 235., 235., 236., 236.,
          236., 236., 236., 237., 237., 237., 237., 238., 238., 238.,
          239., 233., 233., 234., 234., 234., 234., 235., 235., 236.,
          236., 236., 236., 236., 236., 237., 237., 237., 237., 237.,
          238., 233., 233., 233., 233., 234., 234., 234., 235., 235.,
          235., 236., 236., 236., 236., 236., 236., 237., 237., 237.,
          237., 232., 233., 233., 233., 233., 234., 234., 234., 235.,
          235., 235., 235., 235., 236., 236., 236., 236., 236., 236.,
          236., 232., 232., 233., 233., 233., 233., 234., 234., 230.,
          222., 230., 235., 235., 235., 236., 236., 236., 236., 236.,
          236., 231., 231., 232., 232., 232., 233., 233., 233., 208.,
          156., 195., 234., 234., 235., 235., 235., 235., 235., 235.,
          236., 231., 231., 231., 232., 232., 232., 233., 222., 154.,
          82., 132., 214., 235., 234., 234., 235., 235., 235., 235.,
          235., 230., 231., 231., 231., 231., 232., 229., 183., 92., 60.,
          80., 155., 224., 234., 234., 234., 234., 234., 234., 234.,
          230., 230., 231., 231., 231., 229., 193., 104., 62., 58., 59.,
          89., 169., 225., 234., 233., 234., 234., 234., 234., 229.,
          230., 230., 230., 229., 197., 112., 62., 58., 58., 58., 62.,
          100., 181., 229., 234., 233., 233., 233., 233., 229., 229.,
          230., 229., 199., 107., 65., 58., 58., 58., 58., 58., 63.,
          100., 178., 227., 233., 233., 233., 233., 229., 229., 230.,
          188., 108., 63., 58., 58., 58., 58., 58., 58., 58., 61., 98.,
          172., 223., 232., 232., 232., 228., 231., 176., 86., 63., 58.,
          58., 58., 58., 58., 58., 58., 58., 58., 63., 75., 156., 223.,
          232., 232., 228., 229., 216., 126., 66., 58., 58., 58., 58.,
          58., 58., 58., 58., 58., 65., 113., 192., 229., 232., 232.,
          227., 228., 228., 213., 147., 64., 58., 58., 58., 58., 58.,
          58., 58., 59., 119., 199., 227., 231., 231., 231., 227., 227.,
          228., 228., 221., 154., 71., 58., 58., 58., 58., 58., 65.,
          123., 203., 229., 230., 231., 231., 231., 227., 227., 227.,
          227., 228., 215., 137., 62., 58., 58., 58., 64., 120., 203.,
          229., 230., 230., 230., 230., 230., 227., 227., 227., 227.,
          227., 229., 215., 121., 63., 58., 58., 101., 190., 229., 229.,
          229., 229., 229., 229., 230., 226., 227., 227., 227., 227.,
          227., 227., 202., 107., 60., 91., 176., 227., 228., 228., 229.,
          229., 229., 229., 229., 226., 226., 227., 227., 227., 227.,
          227., 223., 173., 95., 146., 222., 228., 228., 228., 228.,
          228., 228., 229., 229., 226., 226., 226., 226., 227., 227.,
          227., 228., 214., 182., 205., 227., 227., 228., 228., 228.,
          228., 228., 228., 228., 225., 226., 226., 226., 226., 226.,
          227., 227., 227., 226., 227., 227., 227., 227., 227., 227.,
          227., 228., 228., 228., 225., 225., 225., 226., 226., 226.,
          226., 226., 227., 227., 227., 227., 227., 227., 227., 227.,
          227., 227., 227., 227., 224., 224., 225., 225., 225., 225.,
          226., 226., 226., 226., 226., 226., 227., 227., 227., 227.,
          227., 227., 227., 227., 223., 223., 224., 224., 225., 225.,
          225., 225., 226., 226., 226., 226., 226., 226., 226., 227.,
          227., 227., 227., 227., 222., 223., 223., 223., 224., 224.,
          225., 225., 225., 225., 225., 225., 226., 226., 226., 226.,
          226., 226., 226., 226. ]
      - [ 240., 241., 240., 229., 230., 233., 242., 244., 244., 239.,
          225., 212., 212., 224., 239., 247., 248., 248., 248., 249.,
          240., 240., 230., 153., 150., 173., 234., 244., 233., 188.,
          126., 96., 95., 119., 175., 228., 246., 248., 248., 249., 240.,
          240., 217., 65., 60., 103., 225., 235., 177., 83., 58., 58.,
          58., 58., 77., 154., 227., 247., 248., 248., 239., 240., 217.,
          65., 60., 103., 221., 201., 93., 58., 61., 77., 82., 64., 56.,
          83., 176., 241., 248., 248., 239., 240., 217., 65., 60., 103.,
          218., 168., 63., 61., 94., 160., 173., 113., 65., 61., 136.,
          229., 249., 247., 239., 240., 217., 65., 60., 103., 217., 153.,
          60., 73., 154., 240., 246., 181., 81., 58., 120., 220., 249.,
          247., 239., 240., 217., 65., 60., 103., 217., 151., 60., 80.,
          177., 248., 248., 193., 89., 58., 115., 216., 249., 247., 239.,
          239., 217., 65., 60., 103., 217., 151., 60., 80., 177., 248.,
          247., 193., 90., 58., 115., 216., 248., 246., 239., 239., 217.,
          65., 60., 103., 216., 150., 60., 80., 177., 247., 247., 193.,
          89., 58., 115., 216., 248., 246., 239., 239., 217., 65., 60.,
          103., 217., 150., 60., 80., 177., 247., 247., 192., 89., 58.,
          115., 216., 247., 246., 239., 239., 217., 65., 60., 103., 217.,
          151., 60., 80., 177., 246., 247., 192., 89., 58., 115., 216.,
          247., 245., 238., 239., 217., 65., 60., 103., 215., 150., 60.,
          80., 177., 246., 246., 192., 89., 58., 115., 215., 247., 245.,
          237., 239., 217., 65., 60., 103., 215., 150., 60., 80., 177.,
          246., 246., 192., 89., 58., 114., 215., 247., 245., 237., 237.,
          217., 65., 60., 102., 215., 150., 60., 80., 177., 245., 246.,
          192., 89., 58., 114., 215., 246., 244., 237., 237., 217., 65.,
          60., 102., 215., 150., 60., 80., 177., 245., 246., 192., 89.,
          58., 114., 214., 246., 244., 236., 237., 215., 65., 60., 102.,
          215., 149., 60., 80., 177., 245., 245., 192., 89., 58., 114.,
          214., 245., 244., 236., 236., 215., 65., 60., 102., 215., 149.,
          60., 80., 177., 245., 245., 192., 89., 58., 114., 213., 245.,
          243., 236., 236., 215., 65., 60., 102., 215., 149., 60., 80.,
          177., 245., 245., 192., 89., 58., 114., 213., 244., 243., 236.,
          236., 215., 65., 60., 102., 214., 149., 60., 80., 174., 243.,
          244., 191., 89., 58., 114., 213., 244., 242., 235., 236., 215.,
          65., 60., 102., 213., 150., 60., 72., 152., 234., 243., 184.,
          82., 59., 116., 214., 244., 241., 235., 236., 215., 65., 60.,
          102., 213., 169., 65., 59., 93., 171., 172., 103., 61., 63.,
          137., 223., 242., 241., 235., 235., 215., 65., 60., 102., 218.,
          204., 97., 59., 59., 63., 65., 59., 58., 85., 177., 235., 240.,
          240., 234., 235., 216., 76., 71., 110., 222., 232., 174., 90.,
          68., 62., 63., 66., 83., 157., 228., 239., 239., 240., 234.,
          234., 224., 155., 153., 172., 228., 238., 232., 192., 138.,
          113., 114., 132., 181., 227., 239., 239., 239., 239., 233.,
          234., 234., 234., 235., 235., 236., 236., 236., 236., 236.,
          236., 236., 237., 238., 239., 239., 239., 239., 239., 233.,
          233., 234., 234., 235., 235., 235., 236., 236., 236., 236.,
          236., 237., 237., 237., 237., 237., 238., 238., 238., 233.,
          233., 233., 234., 234., 234., 235., 235., 235., 236., 236.,
          236., 236., 236., 236., 237., 237., 237., 237., 237., 232.,
          233., 233., 233., 234., 234., 234., 235., 235., 235., 235.,
          236., 236., 236., 236., 236., 237., 237., 237., 237., 232.,
          232., 233., 233., 233., 234., 234., 234., 234., 235., 235.,
          235., 235., 236., 236., 236., 236., 236., 236., 236., 231.,
          232., 232., 233., 233., 233., 233., 234., 233., 229., 226.,
          235., 235., 235., 235., 236., 236., 236., 236., 236., 231.,
          231., 232., 232., 232., 233., 233., 233., 230., 194., 168.,
          225., 235., 234., 235., 235., 235., 235., 235., 235., 231.,
          231., 231., 231., 232., 232., 233., 232., 202., 118., 92.,
          174., 229., 234., 234., 234., 235., 235., 235., 235., 230.,
          231., 231., 231., 231., 232., 232., 214., 134., 68., 62., 106.,
          193., 234., 234., 234., 234., 234., 234., 234., 230., 230.,
          230., 231., 231., 232., 223., 158., 75., 59., 58., 68., 126.,
          206., 233., 234., 233., 234., 234., 234., 229., 230., 230.,
          230., 230., 222., 155., 85., 59., 58., 58., 58., 73., 134.,
          207., 233., 233., 233., 233., 233., 229., 229., 229., 230.,
          225., 157., 79., 60., 58., 58., 58., 58., 59., 74., 137., 210.,
          233., 233., 233., 233., 229., 229., 230., 217., 153., 81., 59.,
          58., 58., 58., 58., 58., 58., 59., 76., 130., 198., 230., 232.,
          232., 228., 228., 223., 124., 72., 60., 58., 58., 58., 58.,
          58., 58., 58., 58., 59., 68., 113., 199., 233., 232., 228.,
          228., 228., 175., 87., 59., 58., 58., 58., 58., 58., 58., 58.,
          58., 58., 79., 150., 217., 233., 232., 227., 228., 228., 224.,
          197., 102., 58., 58., 58., 58., 58., 58., 58., 58., 85., 163.,
          218., 231., 231., 231., 227., 227., 228., 228., 226., 198.,
          100., 59., 58., 58., 58., 58., 58., 81., 160., 221., 230.,
          230., 231., 231., 227., 227., 227., 227., 227., 227., 201.,
          95., 59., 58., 58., 58., 83., 162., 221., 229., 230., 230.,
          230., 230., 227., 227., 227., 227., 227., 227., 225., 184.,
          81., 58., 58., 73., 146., 222., 230., 229., 229., 229., 229.,
          230., 226., 227., 227., 227., 227., 227., 227., 221., 161.,
          70., 62., 116., 207., 229., 228., 228., 229., 229., 229., 229.,
          226., 226., 226., 227., 227., 227., 227., 228., 216., 137.,
          105., 198., 228., 228., 228., 228., 228., 228., 228., 229.,
          226., 226., 226., 226., 227., 227., 227., 227., 226., 208.,
          190., 223., 228., 228., 228., 228., 228., 228., 228., 228.,
          225., 225., 226., 226., 226., 226., 226., 227., 227., 227.,
          226., 227., 227., 227., 227., 227., 227., 227., 228., 228.,
          225., 225., 225., 225., 226., 226., 226., 226., 227., 227.,
          227., 227., 227., 227., 227., 227., 227., 227., 227., 227.,
          224., 224., 225., 225., 225., 225., 226., 226., 226., 226.,
          226., 226., 227., 227., 227., 227., 227., 227., 227., 227.,
          223., 223., 224., 224., 225., 225., 225., 225., 226., 226.,
          226., 226., 226., 226., 226., 227., 227., 227., 227., 227.,
          222., 223., 223., 223., 224., 224., 224., 225., 225., 225.,
          225., 225., 226., 226., 226., 226., 226., 226., 226., 226. ]
      - [ 240., 240., 241., 241., 242., 243., 243., 244., 244., 245.,
          245., 245., 245., 246., 247., 247., 248., 248., 249., 249.,
          240., 240., 241., 241., 242., 243., 243., 244., 244., 245.,
          245., 245., 246., 246., 246., 247., 248., 248., 248., 249.,
          240., 240., 241., 241., 242., 243., 243., 244., 244., 245.,
          245., 245., 245., 245., 246., 247., 247., 248., 248., 249.,
          240., 240., 242., 211., 200., 201., 224., 243., 244., 239.,
          206., 166., 145., 158., 197., 234., 247., 248., 248., 248.,
          240., 240., 245., 113., 71., 70., 163., 240., 234., 168., 78.,
          61., 58., 59., 70., 133., 220., 247., 248., 248., 239., 240.,
          245., 102., 57., 57., 156., 238., 191., 77., 58., 61., 65.,
          63., 59., 71., 153., 234., 248., 248., 239., 240., 245., 102.,
          57., 57., 156., 226., 105., 59., 62., 94., 137., 114., 69.,
          56., 99., 198., 246., 247., 239., 239., 245., 102., 57., 57.,
          156., 211., 77., 55., 78., 182., 244., 211., 113., 55., 76.,
          170., 241., 248., 239., 239., 245., 102., 57., 57., 156., 206.,
          77., 54., 88., 221., 245., 223., 133., 60., 65., 155., 237.,
          247., 239., 239., 244., 102., 57., 57., 156., 206., 77., 54.,
          89., 226., 246., 223., 135., 60., 65., 155., 237., 247., 239.,
          239., 244., 102., 57., 57., 156., 206., 77., 54., 89., 226.,
          245., 223., 134., 60., 65., 155., 236., 246., 239., 239., 244.,
          102., 57., 57., 156., 206., 77., 54., 89., 226., 245., 222.,
          134., 60., 65., 155., 236., 246., 238., 239., 244., 102., 57.,
          57., 156., 206., 77., 54., 89., 225., 245., 222., 134., 60.,
          65., 155., 236., 246., 237., 239., 244., 102., 57., 57., 155.,
          206., 77., 54., 89., 225., 244., 222., 134., 60., 65., 155.,
          236., 245., 237., 238., 244., 102., 57., 57., 155., 205., 77.,
          54., 89., 225., 244., 222., 134., 60., 65., 154., 235., 245.,
          237., 237., 244., 102., 57., 57., 154., 205., 77., 54., 89.,
          225., 244., 222., 134., 60., 65., 154., 234., 245., 237., 237.,
          243., 102., 57., 57., 154., 205., 77., 54., 90., 224., 243.,
          222., 134., 60., 65., 154., 234., 244., 236., 237., 243., 102.,
          57., 57., 154., 205., 77., 54., 90., 224., 243., 222., 134.,
          60., 65., 153., 234., 244., 236., 236., 243., 102., 57., 57.,
          154., 204., 77., 54., 90., 224., 243., 221., 134., 60., 65.,
          153., 233., 243., 236., 236., 242., 102., 57., 57., 154., 204.,
          77., 54., 90., 224., 243., 221., 134., 60., 65., 153., 233.,
          243., 236., 236., 242., 102., 57., 57., 154., 204., 77., 54.,
          89., 223., 242., 221., 134., 60., 65., 153., 233., 242., 235.,
          236., 242., 102., 57., 57., 154., 204., 77., 54., 85., 208.,
          241., 218., 130., 59., 66., 155., 233., 242., 235., 235., 242.,
          102., 57., 57., 154., 212., 80., 56., 73., 158., 234., 189.,
          91., 56., 78., 170., 235., 241., 234., 235., 241., 101., 57.,
          57., 154., 226., 130., 62., 60., 74., 93., 81., 62., 58., 111.,
          205., 240., 240., 234., 234., 241., 101., 57., 57., 154., 234.,
          209., 97., 58., 59., 60., 59., 57., 83., 171., 234., 240.,
          240., 234., 234., 239., 128., 93., 92., 170., 234., 234., 196.,
          110., 77., 71., 73., 96., 167., 230., 239., 239., 239., 233.,
          234., 235., 224., 222., 222., 229., 236., 236., 236., 227.,
          205., 197., 202., 220., 237., 239., 239., 239., 239., 233.,
          233., 234., 234., 234., 235., 235., 236., 236., 236., 236.,
          236., 237., 237., 237., 237., 238., 239., 239., 239., 233.,
          233., 233., 234., 234., 234., 235., 235., 235., 236., 236.,
          236., 236., 236., 236., 237., 237., 237., 238., 238., 232.,
          233., 233., 233., 233., 234., 234., 235., 235., 235., 235.,
          236., 236., 236., 236., 236., 236., 237., 237., 237., 232.,
          232., 233., 233., 233., 233., 234., 234., 235., 235., 235.,
          235., 235., 236., 236., 236., 236., 236., 236., 237., 232.,
          232., 232., 233., 233., 233., 233., 234., 234., 234., 231.,
          234., 235., 235., 235., 236., 236., 236., 236., 236., 231.,
          232., 232., 232., 232., 233., 233., 233., 234., 225., 195.,
          213., 234., 235., 235., 235., 235., 236., 236., 236., 231.,
          231., 232., 232., 232., 232., 232., 233., 230., 189., 107.,
          150., 224., 235., 234., 235., 235., 235., 235., 235., 231.,
          231., 231., 231., 232., 232., 232., 232., 210., 123., 63., 91.,
          177., 231., 234., 234., 234., 235., 235., 235., 230., 230.,
          231., 231., 231., 231., 232., 221., 142., 71., 58., 63., 106.,
          188., 231., 233., 234., 234., 234., 234., 229., 230., 230.,
          231., 231., 231., 220., 159., 69., 58., 58., 58., 64., 116.,
          201., 232., 233., 233., 234., 234., 229., 229., 229., 230.,
          231., 224., 152., 82., 58., 58., 58., 58., 59., 72., 127.,
          198., 231., 233., 233., 233., 228., 229., 229., 230., 217.,
          152., 76., 59., 58., 58., 58., 58., 58., 59., 69., 123., 196.,
          229., 233., 233., 228., 228., 230., 206., 138., 77., 58., 58.,
          58., 58., 58., 58., 58., 58., 58., 70., 112., 181., 226., 232.,
          228., 228., 229., 215., 105., 62., 58., 58., 58., 58., 58.,
          58., 58., 58., 58., 59., 86., 168., 226., 232., 227., 227.,
          228., 228., 185., 113., 61., 58., 58., 58., 58., 58., 58., 58.,
          59., 88., 158., 213., 231., 231., 227., 227., 227., 228., 226.,
          203., 127., 61., 58., 58., 58., 58., 58., 58., 89., 167., 218.,
          230., 231., 231., 227., 227., 227., 227., 228., 228., 203.,
          114., 60., 58., 58., 58., 60., 89., 165., 221., 230., 230.,
          230., 230., 227., 227., 227., 227., 227., 227., 227., 197.,
          98., 59., 58., 57., 77., 156., 218., 229., 229., 229., 229.,
          229., 226., 227., 227., 227., 227., 227., 227., 225., 190.,
          88., 58., 71., 138., 214., 229., 229., 229., 229., 229., 229.,
          226., 226., 226., 227., 227., 227., 227., 227., 220., 158.,
          75., 113., 204., 228., 228., 228., 228., 228., 228., 229.,
          226., 226., 226., 226., 226., 227., 227., 227., 228., 211.,
          144., 180., 226., 228., 228., 228., 228., 228., 228., 228.,
          225., 225., 226., 226., 226., 226., 226., 227., 227., 226.,
          222., 225., 227., 227., 227., 227., 227., 227., 228., 228.,
          225., 225., 225., 225., 226., 226., 226., 226., 226., 227.,
          227., 227., 227., 227., 227., 227., 227., 227., 227., 227.,
          224., 225., 225., 225., 225., 225., 226., 226., 226., 226.,
          226., 227., 227., 227., 227., 227., 227., 227., 227., 227. ]
      - [ 240., 239., 227., 227., 231., 241., 244., 244., 237., 219.,
          204., 205., 220., 238., 247., 248., 249., 249., 250., 250.,
          240., 220., 131., 130., 163., 232., 244., 228., 168., 94., 61.,
          61., 94., 166., 227., 247., 248., 249., 249., 250., 239., 200.,
          24., 21., 85., 222., 229., 150., 42., 16., 16., 16., 15., 44.,
          145., 228., 247., 248., 249., 249., 239., 200., 24., 21., 85.,
          216., 178., 54., 16., 21., 42., 44., 22., 14., 52., 174., 241.,
          248., 249., 249., 239., 200., 24., 21., 85., 208., 136., 21.,
          21., 67., 147., 153., 75., 23., 20., 126., 231., 249., 248.,
          249., 239., 200., 24., 21., 86., 205., 120., 18., 40., 147.,
          241., 245., 151., 39., 17., 104., 223., 249., 247., 248., 239.,
          200., 24., 21., 86., 205., 117., 18., 52., 173., 248., 249.,
          165., 46., 16., 97., 220., 248., 247., 247., 238., 200., 24.,
          21., 86., 205., 117., 18., 53., 175., 248., 249., 166., 47.,
          16., 97., 220., 248., 246., 246., 238., 200., 24., 21., 86.,
          205., 117., 18., 53., 175., 248., 249., 166., 47., 16., 97.,
          220., 248., 246., 246., 238., 200., 24., 21., 86., 205., 117.,
          18., 53., 175., 247., 249., 166., 47., 16., 97., 220., 247.,
          245., 246., 238., 200., 24., 21., 86., 205., 117., 18., 53.,
          174., 247., 248., 166., 47., 16., 97., 220., 247., 245., 245.,
          238., 200., 24., 21., 85., 204., 117., 18., 53., 174., 246.,
          248., 166., 47., 16., 97., 220., 247., 245., 240., 237., 200.,
          24., 21., 85., 204., 117., 18., 53., 173., 246., 248., 166.,
          47., 16., 97., 220., 246., 244., 209., 237., 200., 24., 21.,
          85., 203., 116., 18., 53., 173., 246., 248., 166., 47., 16.,
          96., 219., 246., 244., 185., 237., 200., 24., 21., 85., 203.,
          116., 18., 53., 173., 246., 248., 166., 47., 16., 95., 218.,
          246., 244., 181., 236., 200., 24., 21., 85., 203., 116., 18.,
          52., 173., 245., 248., 166., 47., 16., 95., 218., 245., 244.,
          190., 236., 199., 24., 21., 85., 203., 116., 18., 52., 172.,
          244., 247., 166., 47., 16., 95., 218., 244., 242., 227., 236.,
          198., 24., 21., 85., 201., 116., 18., 52., 172., 244., 247.,
          166., 47., 16., 95., 218., 244., 242., 241., 235., 198., 24.,
          21., 85., 201., 116., 18., 51., 170., 243., 247., 165., 46.,
          16., 95., 217., 244., 242., 242., 235., 198., 24., 21., 85.,
          201., 117., 18., 39., 143., 234., 245., 155., 40., 17., 101.,
          219., 244., 242., 242., 234., 197., 24., 21., 84., 205., 138.,
          24., 17., 68., 158., 150., 64., 18., 22., 128., 226., 241.,
          240., 241., 234., 197., 24., 21., 84., 214., 182., 58., 17.,
          17., 23., 23., 17., 16., 55., 175., 236., 240., 240., 240.,
          234., 198., 37., 34., 94., 220., 227., 148., 52., 26., 21.,
          21., 25., 50., 152., 229., 239., 239., 240., 240., 234., 217.,
          136., 135., 165., 227., 238., 227., 175., 112., 84., 85., 111.,
          175., 227., 239., 239., 239., 239., 239., 234., 234., 234.,
          234., 234., 235., 236., 236., 236., 236., 235., 236., 237.,
          238., 238., 238., 238., 239., 239., 239., 234., 234., 234.,
          235., 235., 235., 235., 236., 236., 236., 237., 237., 237.,
          237., 238., 238., 238., 238., 238., 239., 233., 234., 234.,
          234., 234., 235., 235., 235., 235., 236., 236., 237., 237.,
          237., 237., 237., 237., 238., 238., 238., 232., 233., 234.,
          234., 234., 234., 235., 235., 235., 235., 236., 236., 236.,
          237., 237., 237., 237., 237., 237., 238., 232., 232., 233.,
          233., 234., 234., 234., 234., 235., 235., 235., 235., 235.,
          236., 236., 236., 237., 237., 237., 237., 232., 232., 232.,
          232., 233., 234., 231., 213., 193., 194., 215., 233., 235.,
          235., 236., 236., 236., 236., 236., 237., 232., 232., 232.,
          232., 232., 230., 193., 107., 72., 74., 114., 190., 233., 235.,
          235., 235., 235., 235., 235., 235., 231., 231., 232., 232.,
          233., 211., 97., 13., 0., 1., 16., 103., 206., 234., 234.,
          235., 235., 235., 235., 235., 230., 231., 231., 232., 231.,
          178., 28., 1., 0., 0., 0., 42., 158., 229., 234., 234., 234.,
          234., 234., 234., 230., 230., 230., 231., 229., 162., 14., 0.,
          0., 0., 0., 24., 137., 226., 234., 234., 234., 234., 234.,
          234., 230., 230., 230., 231., 231., 182., 29., 0., 0., 0., 0.,
          49., 166., 230., 233., 233., 233., 234., 234., 234., 229.,
          229., 228., 212., 183., 159., 86., 7., 0., 0., 17., 96., 168.,
          190., 215., 230., 232., 232., 233., 233., 229., 226., 165.,
          71., 40., 38., 38., 11., 0., 1., 17., 41., 42., 42., 84., 174.,
          226., 233., 232., 232., 228., 207., 62., 6., 0., 1., 3., 2.,
          0., 0., 3., 4., 1., 0., 9., 89., 208., 234., 232., 232., 227.,
          191., 16., 0., 0., 0., 0., 0., 0., 0., 0., 0., 0., 0., 0., 51.,
          184., 231., 232., 232., 227., 190., 12., 0., 0., 0., 0., 13.,
          39., 28., 8., 0., 0., 0., 0., 48., 179., 230., 231., 231.,
          227., 206., 57., 0., 0., 0., 7., 52., 92., 73., 59., 6., 0.,
          0., 4., 85., 205., 232., 231., 231., 226., 225., 180., 61., 3.,
          8., 72., 155., 90., 91., 156., 65., 5., 5., 74., 180., 226.,
          230., 230., 230., 226., 226., 227., 224., 205., 202., 230.,
          193., 61., 75., 202., 233., 212., 210., 227., 229., 229., 229.,
          230., 230., 226., 226., 226., 226., 227., 227., 229., 174.,
          29., 51., 169., 226., 228., 228., 229., 229., 229., 229., 229.,
          229., 225., 225., 226., 226., 226., 227., 216., 132., 19., 25.,
          124., 220., 228., 228., 228., 228., 228., 228., 229., 229.,
          225., 225., 225., 226., 226., 227., 212., 141., 93., 94., 144.,
          215., 228., 228., 228., 228., 228., 228., 228., 228., 225.,
          225., 225., 225., 225., 225., 225., 221., 219., 219., 221.,
          226., 227., 227., 227., 227., 227., 228., 228., 228., 224.,
          224., 225., 225., 225., 225., 225., 226., 226., 226., 226.,
          226., 226., 226., 227., 227., 227., 227., 227., 227., 224.,
          224., 224., 224., 225., 225., 225., 225., 225., 225., 225.,
          226., 226., 226., 226., 226., 226., 226., 226., 226., 224.,
          224., 224., 224., 224., 224., 225., 225., 225., 225., 225.,
          225., 225., 225., 226., 226., 226., 226., 226., 226., 224.,
          224., 224., 224., 224., 224., 224., 224., 224., 224., 225.,
          225., 225., 225., 225., 225., 225., 225., 225., 225. ]
      - [ 240., 242., 242., 242., 242., 244., 244., 244., 245., 245.,
          245., 246., 247., 248., 248., 249., 249., 249., 250., 250.,
          240., 242., 242., 242., 242., 244., 244., 244., 245., 245.,
          245., 246., 246., 247., 248., 249., 249., 249., 250., 250.,
          240., 242., 242., 242., 242., 243., 244., 244., 244., 245.,
          245., 246., 246., 247., 248., 248., 249., 249., 250., 250.,
          240., 233., 193., 193., 207., 238., 244., 242., 217., 163.,
          127., 128., 165., 216., 244., 248., 249., 249., 249., 250.,
          239., 202., 40., 37., 96., 224., 243., 194., 74., 23., 16.,
          16., 22., 78., 187., 243., 248., 249., 249., 249., 239., 200.,
          24., 21., 85., 220., 200., 77., 16., 17., 22., 23., 18., 11.,
          79., 200., 245., 248., 249., 249., 239., 200., 24., 21., 85.,
          211., 150., 29., 16., 39., 96., 101., 46., 18., 25., 142.,
          235., 249., 248., 249., 239., 200., 24., 21., 85., 206., 122.,
          18., 30., 126., 234., 241., 137., 32., 18., 113., 227., 249.,
          248., 248., 239., 200., 24., 21., 86., 205., 118., 18., 50.,
          169., 247., 249., 164., 46., 16., 97., 220., 249., 247., 248.,
          238., 200., 24., 21., 86., 205., 117., 18., 53., 175., 248.,
          249., 166., 47., 16., 97., 220., 248., 247., 247., 238., 200.,
          24., 21., 86., 205., 117., 18., 53., 175., 248., 249., 166.,
          47., 16., 97., 220., 248., 246., 247., 238., 200., 24., 21.,
          86., 205., 117., 18., 53., 175., 248., 249., 166., 47., 16.,
          97., 220., 248., 246., 246., 238., 200., 24., 21., 86., 205.,
          117., 18., 53., 174., 247., 249., 166., 47., 16., 97., 220.,
          247., 245., 246., 238., 200., 24., 21., 85., 204., 117., 18.,
          53., 174., 246., 248., 166., 47., 16., 97., 220., 247., 245.,
          244., 237., 200., 24., 21., 85., 204., 117., 18., 53., 173.,
          246., 248., 166., 47., 16., 97., 220., 247., 244., 225., 237.,
          200., 24., 21., 85., 203., 116., 18., 53., 173., 246., 248.,
          166., 47., 16., 96., 219., 246., 244., 194., 237., 200., 24.,
          21., 85., 203., 116., 18., 53., 173., 246., 248., 166., 47.,
          16., 95., 218., 246., 244., 181., 236., 200., 24., 21., 85.,
          203., 116., 18., 52., 173., 246., 248., 166., 47., 16., 95.,
          218., 245., 244., 184., 236., 199., 24., 21., 85., 203., 116.,
          18., 52., 172., 245., 248., 166., 47., 16., 95., 218., 244.,
          243., 213., 236., 198., 24., 21., 85., 202., 116., 18., 52.,
          172., 244., 247., 166., 47., 16., 95., 218., 244., 242., 237.,
          236., 198., 24., 21., 85., 201., 116., 18., 52., 172., 244.,
          247., 165., 46., 16., 95., 217., 244., 242., 242., 235., 198.,
          24., 21., 85., 201., 116., 18., 45., 156., 239., 247., 161.,
          43., 17., 98., 218., 244., 242., 242., 235., 197., 24., 21.,
          84., 203., 127., 19., 23., 102., 219., 210., 98., 23., 19.,
          114., 223., 242., 240., 242., 234., 197., 24., 21., 84., 211.,
          162., 38., 16., 26., 51., 50., 26., 15., 34., 155., 233., 241.,
          240., 240., 234., 196., 24., 21., 84., 218., 213., 108., 22.,
          16., 17., 17., 16., 20., 112., 214., 239., 240., 240., 240.,
          234., 204., 66., 63., 114., 221., 239., 215., 123., 49., 31.,
          32., 48., 125., 214., 239., 239., 239., 239., 239., 234., 231.,
          219., 219., 224., 234., 236., 236., 230., 206., 189., 190.,
          206., 230., 238., 238., 238., 239., 239., 239., 234., 234.,
          234., 235., 235., 235., 235., 236., 236., 237., 237., 237.,
          237., 238., 238., 238., 238., 238., 238., 239., 234., 234.,
          234., 234., 234., 235., 235., 235., 236., 236., 236., 237.,
          237., 237., 237., 237., 238., 238., 238., 238., 232., 234.,
          234., 234., 234., 234., 235., 235., 235., 235., 236., 236.,
          236., 237., 237., 237., 237., 237., 238., 238., 232., 232.,
          233., 234., 234., 234., 234., 235., 235., 235., 235., 235.,
          236., 236., 237., 237., 237., 237., 237., 237., 232., 232.,
          232., 232., 234., 234., 233., 229., 224., 225., 230., 234.,
          235., 235., 236., 236., 236., 236., 237., 237., 232., 232.,
          232., 232., 232., 232., 216., 170., 143., 144., 174., 215.,
          234., 235., 235., 235., 236., 236., 236., 236., 231., 232.,
          232., 232., 233., 220., 138., 43., 15., 15., 48., 140., 220.,
          235., 235., 235., 235., 235., 235., 235., 231., 231., 232.,
          232., 233., 193., 44., 1., 0., 0., 0., 58., 178., 232., 234.,
          234., 235., 235., 235., 235., 230., 231., 231., 231., 229.,
          166., 14., 0., 0., 0., 0., 26., 140., 227., 235., 234., 234.,
          234., 234., 234., 230., 230., 231., 231., 229., 169., 20., 0.,
          0., 0., 0., 33., 148., 227., 234., 234., 234., 234., 234.,
          234., 229., 230., 230., 228., 213., 178., 66., 3., 0., 0., 10.,
          82., 179., 217., 230., 233., 232., 233., 233., 233., 229.,
          228., 201., 129., 90., 82., 63., 13., 0., 1., 22., 68., 89.,
          94., 140., 203., 230., 232., 232., 232., 228., 216., 108., 20.,
          1., 3., 11., 8., 0., 1., 10., 14., 3., 1., 30., 125., 217.,
          233., 232., 232., 228., 197., 30., 0., 0., 0., 0., 0., 0., 0.,
          0., 0., 0., 0., 1., 62., 190., 232., 232., 232., 227., 190.,
          12., 0., 0., 0., 0., 6., 19., 14., 4., 0., 0., 0., 0., 48.,
          180., 231., 232., 231., 227., 198., 33., 0., 0., 0., 0., 28.,
          74., 56., 34., 2., 0., 0., 0., 65., 196., 232., 231., 231.,
          227., 219., 127., 28., 1., 4., 41., 112., 94., 86., 115., 35.,
          2., 2., 39., 139., 218., 231., 230., 230., 226., 226., 211.,
          170., 137., 136., 178., 181., 73., 82., 189., 178., 144., 142.,
          176., 213., 228., 229., 230., 230., 226., 226., 226., 223.,
          218., 218., 227., 182., 41., 62., 184., 225., 221., 221., 226.,
          228., 229., 229., 229., 229., 225., 225., 226., 226., 226.,
          227., 222., 148., 17., 30., 139., 222., 228., 228., 228., 228.,
          228., 229., 229., 229., 225., 225., 225., 226., 226., 227.,
          206., 103., 24., 25., 105., 210., 228., 228., 228., 228., 228.,
          228., 228., 228., 225., 225., 225., 225., 225., 226., 222.,
          205., 196., 196., 207., 223., 227., 227., 227., 227., 227.,
          228., 228., 228., 224., 224., 225., 225., 225., 225., 225.,
          226., 226., 226., 226., 226., 226., 227., 227., 227., 227.,
          227., 227., 227., 224., 224., 224., 225., 225., 225., 225.,
          225., 225., 225., 226., 226., 226., 226., 226., 226., 226.,
          227., 227., 227. ]
      - [ 240., 240., 240., 227., 227., 230., 241., 244., 244., 238.,
          220., 205., 204., 219., 236., 247., 248., 249., 249., 250.,
          240., 240., 227., 132., 128., 155., 231., 244., 232., 176.,
          98., 61., 60., 89., 158., 223., 246., 248., 249., 249., 240.,
          240., 213., 25., 17., 70., 219., 233., 162., 46., 16., 16.,
          16., 15., 40., 133., 223., 247., 248., 249., 239., 240., 213.,
          25., 17., 70., 216., 192., 59., 16., 19., 39., 46., 24., 14.,
          46., 160., 239., 248., 248., 239., 240., 213., 25., 17., 70.,
          211., 150., 22., 19., 59., 142., 159., 83., 24., 19., 111.,
          224., 249., 248., 239., 240., 213., 25., 17., 71., 211., 132.,
          18., 33., 133., 240., 246., 166., 44., 17., 92., 214., 249.,
          247., 239., 240., 213., 25., 17., 71., 210., 130., 18., 43.,
          162., 248., 248., 180., 53., 16., 85., 210., 249., 247., 239.,
          239., 213., 25., 17., 71., 210., 129., 18., 43., 163., 248.,
          248., 180., 54., 16., 85., 210., 249., 246., 238., 239., 213.,
          25., 17., 71., 210., 129., 18., 43., 163., 248., 248., 180.,
          54., 16., 85., 210., 248., 246., 238., 239., 213., 25., 17.,
          71., 210., 129., 18., 43., 163., 248., 248., 180., 54., 16.,
          85., 210., 248., 245., 238., 239., 213., 25., 17., 71., 210.,
          129., 18., 43., 163., 247., 247., 180., 54., 16., 85., 210.,
          248., 245., 238., 238., 213., 25., 17., 70., 210., 129., 18.,
          43., 162., 247., 247., 180., 54., 16., 85., 210., 248., 245.,
          237., 238., 213., 25., 17., 70., 209., 129., 18., 43., 162.,
          246., 247., 180., 54., 16., 85., 209., 247., 244., 237., 238.,
          213., 25., 17., 70., 209., 128., 18., 43., 162., 246., 247.,
          180., 54., 16., 84., 208., 247., 244., 237., 237., 213., 25.,
          17., 70., 208., 128., 18., 43., 162., 246., 247., 180., 54.,
          16., 84., 208., 247., 244., 237., 237., 213., 25., 17., 70.,
          208., 128., 18., 43., 161., 246., 247., 180., 54., 16., 84.,
          208., 246., 244., 237., 237., 212., 25., 17., 70., 208., 128.,
          18., 43., 161., 245., 246., 180., 54., 16., 84., 207., 245.,
          242., 236., 237., 211., 25., 17., 70., 207., 128., 18., 43.,
          161., 244., 246., 180., 54., 16., 84., 207., 245., 242., 236.,
          236., 211., 25., 17., 70., 207., 128., 18., 42., 158., 244.,
          246., 180., 53., 16., 84., 206., 245., 242., 235., 236., 211.,
          25., 17., 70., 207., 129., 18., 33., 130., 233., 244., 171.,
          45., 17., 89., 209., 245., 242., 235., 235., 210., 25., 17.,
          70., 208., 152., 25., 17., 58., 154., 156., 73., 19., 21.,
          114., 220., 242., 240., 235., 235., 209., 25., 17., 70., 213.,
          195., 63., 17., 17., 22., 24., 17., 16., 49., 162., 234., 240.,
          240., 234., 235., 210., 38., 31., 80., 217., 232., 159., 55.,
          27., 21., 21., 25., 47., 140., 225., 240., 239., 240., 234.,
          234., 223., 137., 133., 158., 226., 237., 231., 181., 116.,
          85., 85., 107., 168., 224., 239., 239., 239., 239., 234., 234.,
          234., 234., 234., 234., 235., 236., 236., 237., 236., 235.,
          236., 237., 237., 238., 238., 238., 239., 239., 233., 234.,
          234., 234., 235., 235., 235., 235., 236., 236., 236., 237.,
          237., 237., 237., 238., 238., 238., 238., 238., 232., 233.,
          234., 234., 234., 234., 235., 235., 235., 235., 236., 236.,
          237., 237., 237., 237., 237., 237., 238., 238., 232., 232.,
          233., 234., 234., 234., 234., 235., 235., 235., 235., 236.,
          236., 236., 237., 237., 237., 237., 237., 237., 232., 232.,
          232., 233., 233., 234., 234., 234., 234., 235., 235., 235.,
          235., 235., 236., 236., 236., 237., 237., 237., 231., 232.,
          232., 232., 232., 233., 234., 232., 215., 193., 193., 213.,
          232., 235., 235., 236., 236., 236., 236., 236., 231., 231.,
          232., 232., 232., 232., 231., 201., 111., 73., 72., 108., 183.,
          232., 235., 235., 235., 235., 235., 235., 231., 231., 231.,
          231., 232., 233., 221., 107., 14., 0., 1., 13., 91., 200.,
          234., 234., 235., 235., 235., 235., 230., 230., 231., 231.,
          232., 232., 195., 31., 1., 0., 0., 0., 34., 146., 228., 234.,
          234., 234., 234., 234., 230., 230., 230., 230., 231., 231.,
          178., 16., 0., 0., 0., 0., 20., 123., 224., 234., 234., 234.,
          234., 234., 229., 230., 230., 230., 230., 231., 199., 33., 1.,
          0., 0., 0., 40., 155., 229., 233., 233., 233., 234., 234.,
          229., 229., 229., 229., 214., 184., 165., 96., 8., 0., 0., 14.,
          85., 166., 188., 212., 229., 232., 232., 233., 229., 229.,
          230., 174., 74., 40., 37., 40., 12., 0., 1., 14., 40., 42.,
          42., 79., 165., 224., 233., 232., 228., 228., 217., 68., 6.,
          0., 0., 3., 3., 0., 0., 2., 4., 1., 0., 8., 78., 198., 235.,
          232., 228., 228., 204., 18., 0., 0., 0., 0., 0., 0., 0., 0.,
          0., 0., 0., 0., 44., 170., 231., 232., 227., 228., 203., 14.,
          0., 0., 0., 0., 9., 39., 30., 10., 0., 0., 0., 0., 41., 165.,
          229., 232., 227., 227., 216., 63., 0., 0., 0., 4., 44., 97.,
          70., 67., 7., 0., 0., 3., 74., 195., 233., 231., 226., 226.,
          228., 192., 67., 3., 5., 61., 159., 99., 77., 162., 74., 6.,
          4., 64., 171., 224., 230., 230., 226., 226., 226., 227., 226.,
