%YAML:1.0
---
opencv_ml_svm:
   format: 3
   svmType: C_SVC
   kernel:
      type: POLY
      degree: 3.
      gamma: 3.
      coef0: 0.
   C: 1.
   term_criteria: { iterations:100 }
   var_count: 576
   class_count: 13
   class_labels: !!opencv-matrix
      rows: 13
      cols: 1
      dt: i
      data: [ 0, 1, 2, 3, 4, 5, 6, 7, 8, 9, 10, 11, 12 ]
   sv_total: 219
   support_vectors:
      - [ 191., 191., 191., 191., 191., 191., 191., 191., 191., 191.,
          191., 191., 191., 191., 191., 191., 191., 191., 191., 191.,
          191., 191., 191., 191., 191., 191., 191., 191., 191., 191.,
          192., 192., 191., 191., 191., 191., 191., 192., 192., 192.,
          192., 191., 191., 191., 191., 191., 191., 191., 191., 191.,
          191., 191., 192., 170., 119., 120., 174., 191., 191., 192.,
          194., 154., 125., 122., 143., 186., 194., 191., 191., 191.,
          191., 191., 191., 191., 191., 191., 190., 100., 49., 49., 156.,
          191., 193., 162., 78., 51., 49., 49., 49., 67., 140., 192.,
          191., 191., 191., 191., 191., 191., 191., 196., 138., 53., 49.,
          49., 157., 191., 180., 60., 49., 49., 49., 49., 49., 49., 55.,
          165., 193., 191., 191., 191., 191., 192., 174., 78., 51., 49.,
          49., 49., 157., 193., 106., 49., 49., 85., 168., 172., 107.,
          51., 49., 76., 188., 191., 191., 191., 191., 192., 167., 52.,
          56., 51., 49., 49., 157., 186., 71., 49., 49., 150., 191.,
          191., 180., 63., 49., 49., 163., 191., 191., 191., 191., 192.,
          177., 132., 158., 61., 49., 49., 158., 174., 59., 49., 51.,
          177., 191., 191., 189., 77., 49., 49., 138., 192., 191., 191.,
          191., 191., 191., 194., 179., 62., 49., 49., 158., 163., 52.,
          49., 59., 188., 191., 191., 192., 88., 49., 49., 121., 193.,
          191., 191., 191., 191., 191., 191., 179., 62., 49., 49., 158.,
          151., 50., 49., 70., 190., 191., 191., 192., 100., 49., 49.,
          111., 195., 191., 191., 191., 191., 191., 191., 179., 62., 49.,
          49., 158., 149., 50., 49., 70., 190., 191., 191., 192., 99.,
          49., 49., 109., 195., 191., 191., 191., 191., 191., 191., 179.,
          62., 49., 49., 158., 155., 50., 49., 70., 190., 191., 191.,
          192., 99., 49., 49., 112., 193., 191., 191., 191., 191., 191.,
          191., 179., 62., 49., 49., 158., 167., 54., 49., 54., 185.,
          191., 191., 190., 84., 49., 49., 126., 193., 191., 191., 191.,
          191., 191., 191., 179., 62., 49., 49., 158., 179., 63., 49.,
          49., 170., 191., 191., 187., 72., 49., 49., 148., 191., 191.,
          191., 191., 191., 191., 191., 179., 62., 49., 49., 157., 189.,
          79., 49., 49., 128., 195., 194., 166., 56., 49., 52., 176.,
          191., 191., 191., 191., 191., 191., 191., 179., 62., 49., 49.,
          157., 193., 137., 50., 49., 62., 128., 134., 70., 49., 50.,
          111., 193., 191., 191., 191., 191., 191., 191., 191., 179.,
          62., 49., 49., 157., 191., 193., 104., 49., 49., 49., 49., 49.,
          49., 77., 188., 191., 191., 191., 191., 191., 191., 191., 191.,
          182., 98., 90., 88., 167., 191., 191., 187., 132., 88., 70.,
          69., 81., 119., 179., 191., 191., 191., 191., 191., 191., 191.,
          191., 191., 191., 196., 196., 196., 193., 191., 191., 191.,
          193., 196., 193., 192., 196., 194., 191., 191., 191., 191.,
          191., 191., 191., 191., 191., 191., 191., 191., 191., 191.,
          191., 191., 191., 191., 191., 191., 191., 191., 191., 191.,
          191., 191., 191., 191., 191., 191., 191., 191., 191., 191.,
          191., 191., 191., 191., 192., 192., 192., 191., 191., 191.,
          193., 192., 191., 191., 191., 191., 191., 191., 191., 191.,
          191., 191., 191., 191., 191., 191., 191., 195., 156., 127.,
          160., 194., 193., 172., 118., 137., 188., 191., 191., 191.,
          191., 191., 191., 191., 191., 191., 191., 191., 191., 191.,
          191., 122., 60., 58., 60., 131., 166., 72., 58., 58., 93.,
          184., 191., 191., 191., 191., 191., 191., 191., 191., 191.,
          191., 191., 191., 164., 57., 56., 56., 56., 72., 88., 56., 56.,
          56., 57., 137., 194., 191., 191., 191., 191., 191. ]
      - [ 191., 191., 191., 191., 191., 191., 191., 191., 191., 191.,
          191., 191., 191., 191., 191., 191., 191., 191., 191., 191.,
          191., 191., 191., 191., 191., 191., 191., 191., 191., 191.,
          191., 191., 191., 191., 191., 191., 191., 191., 191., 191.,
          191., 191., 191., 191., 191., 191., 191., 191., 191., 191.,
          191., 191., 191., 191., 191., 191., 191., 191., 191., 191.,
          191., 191., 191., 191., 191., 191., 191., 191., 191., 191.,
          191., 191., 191., 191., 191., 191., 191., 191., 191., 191.,
          193., 194., 194., 191., 191., 191., 191., 193., 195., 195.,
          195., 195., 193., 191., 191., 191., 191., 191., 191., 191.,
          191., 191., 191., 194., 132., 83., 93., 182., 191., 191., 188.,
          147., 102., 85., 86., 105., 153., 189., 191., 191., 191., 191.,
          191., 191., 191., 191., 191., 179., 58., 49., 64., 181., 191.,
          196., 102., 50., 49., 49., 49., 49., 51., 118., 195., 191.,
          191., 191., 191., 191., 192., 181., 146., 80., 49., 49., 64.,
          181., 193., 137., 52., 49., 55., 97., 95., 53., 49., 53., 147.,
          192., 191., 191., 191., 191., 193., 134., 48., 49., 49., 49.,
          64., 181., 185., 57., 49., 51., 139., 196., 196., 120., 49.,
          49., 77., 188., 191., 191., 191., 191., 193., 134., 52., 85.,
          49., 49., 64., 181., 161., 50., 49., 61., 179., 191., 191.,
          168., 49., 49., 60., 175., 191., 191., 191., 191., 192., 177.,
          177., 166., 49., 49., 64., 181., 140., 49., 49., 71., 188.,
          191., 191., 184., 54., 49., 54., 160., 191., 191., 191., 191.,
          191., 191., 191., 164., 49., 49., 64., 181., 127., 49., 49.,
          81., 191., 191., 191., 189., 62., 49., 50., 147., 191., 191.,
          191., 191., 191., 191., 191., 164., 49., 49., 64., 181., 120.,
          49., 49., 90., 192., 191., 191., 191., 73., 49., 50., 139.,
          191., 191., 191., 191., 191., 191., 191., 164., 49., 49., 64.,
          181., 120., 49., 49., 89., 192., 191., 191., 191., 72., 49.,
          50., 137., 191., 191., 191., 191., 191., 191., 191., 164., 49.,
          49., 64., 181., 128., 49., 49., 81., 191., 191., 191., 189.,
          64., 49., 51., 148., 191., 191., 191., 191., 191., 191., 191.,
          164., 49., 49., 64., 181., 143., 49., 49., 70., 187., 191.,
          191., 183., 52., 49., 54., 161., 191., 191., 191., 191., 191.,
          191., 191., 164., 49., 49., 64., 181., 164., 50., 49., 60.,
          177., 191., 191., 165., 49., 49., 62., 177., 191., 191., 191.,
          191., 191., 191., 191., 164., 49., 49., 64., 181., 185., 66.,
          49., 51., 128., 188., 187., 111., 49., 49., 85., 190., 191.,
          191., 191., 191., 191., 191., 191., 164., 49., 49., 64., 181.,
          193., 156., 51., 49., 52., 65., 64., 51., 49., 51., 163., 192.,
          191., 191., 191., 191., 191., 191., 191., 163., 49., 49., 63.,
          181., 191., 194., 125., 59., 49., 49., 49., 49., 61., 137.,
          194., 191., 191., 191., 191., 191., 191., 191., 191., 181.,
          136., 137., 142., 188., 191., 191., 194., 180., 123., 96., 96.,
          129., 186., 193., 191., 191., 191., 191., 191., 191., 191.,
          191., 191., 191., 193., 193., 193., 191., 191., 191., 191.,
          192., 193., 193., 193., 193., 191., 191., 191., 191., 191.,
          191., 191., 191., 191., 191., 191., 191., 191., 191., 191.,
          191., 191., 191., 191., 191., 191., 191., 191., 191., 191.,
          191., 191., 191., 191., 191., 191., 191., 191., 191., 191.,
          191., 191., 191., 191., 195., 194., 194., 191., 191., 194.,
          193., 195., 192., 191., 191., 191., 191., 191., 191., 191.,
          191., 191., 191., 191., 191., 191., 192., 170., 108., 93.,
          128., 185., 186., 125., 84., 106., 170., 191., 191., 191.,
          191. ]
      - [ 191., 191., 191., 191., 191., 191., 191., 191., 191., 191.,
          191., 191., 191., 191., 191., 191., 191., 191., 191., 191.,
          191., 191., 191., 191., 191., 191., 191., 191., 191., 191.,
          191., 192., 192., 191., 191., 191., 191., 191., 192., 192.,
          192., 192., 191., 191., 191., 191., 191., 191., 191., 191.,
          191., 191., 191., 192., 167., 119., 122., 178., 191., 191.,
          192., 193., 151., 125., 123., 146., 189., 194., 191., 191.,
          191., 191., 191., 191., 191., 191., 191., 189., 91., 49., 53.,
          164., 191., 193., 156., 73., 50., 49., 49., 49., 69., 145.,
          193., 191., 191., 191., 191., 191., 191., 192., 196., 130.,
          51., 49., 54., 165., 191., 179., 59., 49., 49., 49., 49., 49.,
          49., 56., 174., 193., 191., 191., 191., 191., 192., 165., 76.,
          51., 49., 49., 54., 165., 191., 97., 49., 49., 90., 169., 171.,
          101., 50., 49., 79., 188., 191., 191., 191., 191., 192., 157.,
          51., 56., 50., 49., 54., 165., 180., 64., 49., 49., 157., 191.,
          191., 173., 58., 49., 50., 169., 191., 191., 191., 191., 192.,
          171., 134., 154., 54., 49., 54., 166., 165., 56., 49., 52.,
          180., 191., 191., 186., 68., 49., 49., 146., 192., 191., 191.,
          191., 191., 191., 194., 174., 54., 49., 54., 166., 153., 51.,
          49., 59., 189., 191., 191., 191., 77., 49., 49., 131., 193.,
          191., 191., 191., 191., 191., 191., 174., 54., 49., 54., 166.,
          140., 50., 49., 73., 191., 191., 191., 192., 90., 49., 49.,
          120., 194., 191., 191., 191., 191., 191., 191., 174., 54., 49.,
          54., 166., 139., 50., 49., 72., 191., 191., 191., 192., 89.,
          49., 49., 119., 194., 191., 191., 191., 191., 191., 191., 174.,
          54., 49., 54., 166., 145., 50., 49., 72., 191., 191., 191.,
          192., 89., 49., 49., 122., 193., 191., 191., 191., 191., 191.,
          191., 174., 54., 49., 54., 166., 157., 53., 49., 55., 186.,
          191., 191., 188., 73., 49., 49., 137., 193., 191., 191., 191.,
          191., 191., 191., 174., 54., 49., 54., 166., 171., 59., 49.,
          49., 174., 191., 191., 183., 63., 49., 50., 155., 191., 191.,
          191., 191., 191., 191., 191., 174., 54., 49., 54., 165., 185.,
          70., 49., 49., 137., 195., 194., 156., 53., 49., 53., 179.,
          191., 191., 191., 191., 191., 191., 191., 174., 54., 49., 54.,
          165., 193., 131., 50., 49., 64., 129., 132., 68., 49., 50.,
          117., 193., 191., 191., 191., 191., 191., 191., 191., 174.,
          54., 49., 54., 165., 191., 193., 98., 49., 49., 49., 49., 49.,
          49., 83., 193., 191., 191., 191., 191., 191., 191., 191., 191.,
          179., 93., 90., 92., 173., 191., 191., 185., 128., 86., 70.,
          70., 83., 122., 181., 191., 191., 191., 191., 191., 191., 191.,
          191., 191., 191., 196., 196., 196., 192., 191., 191., 191.,
          193., 196., 193., 192., 196., 194., 191., 191., 191., 191.,
          191., 191., 191., 191., 191., 191., 191., 191., 191., 191.,
          191., 191., 191., 191., 191., 191., 191., 191., 191., 191.,
          191., 191., 191., 191., 191., 191., 191., 191., 191., 191.,
          191., 191., 191., 191., 192., 192., 192., 191., 191., 191.,
          193., 192., 191., 191., 191., 191., 191., 191., 191., 191.,
          191., 191., 191., 191., 191., 191., 191., 194., 153., 128.,
          163., 194., 193., 169., 118., 140., 189., 191., 191., 191.,
          191., 191., 191., 191., 191., 191., 191., 191., 191., 191.,
          191., 117., 60., 58., 60., 138., 164., 69., 58., 58., 99.,
          187., 191., 191., 191., 191., 191., 191., 191., 191., 191.,
          191., 191., 191., 158., 57., 56., 56., 56., 76., 87., 56., 56.,
          56., 57., 146., 194., 191., 191., 191., 191. ]
      - [ 245., 245., 245., 245., 245., 245., 245., 245., 245., 245.,
          245., 245., 245., 245., 245., 245., 245., 245., 245., 245.,
          245., 245., 245., 245., 245., 245., 245., 245., 245., 246.,
          246., 245., 245., 245., 245., 245., 246., 247., 246., 246.,
          245., 245., 245., 245., 245., 245., 245., 245., 245., 245.,
          245., 245., 220., 153., 153., 218., 245., 245., 245., 248.,
          201., 162., 156., 181., 236., 249., 245., 245., 245., 245.,
          245., 245., 245., 245., 245., 245., 139., 62., 62., 190., 245.,
          247., 213., 105., 65., 63., 63., 63., 83., 173., 245., 245.,
          245., 245., 245., 245., 245., 245., 252., 187., 70., 63., 63.,
          192., 245., 233., 79., 63., 63., 63., 63., 63., 63., 69., 200.,
          248., 245., 245., 245., 245., 246., 233., 102., 64., 63., 63.,
          63., 192., 248., 147., 63., 63., 101., 212., 221., 144., 65.,
          63., 94., 239., 245., 245., 245., 245., 246., 229., 67., 72.,
          65., 63., 63., 192., 246., 100., 63., 63., 183., 245., 245.,
          240., 88., 63., 63., 202., 245., 245., 245., 245., 246., 234.,
          167., 207., 87., 63., 63., 192., 235., 80., 63., 66., 223.,
          245., 245., 246., 111., 63., 63., 165., 247., 245., 245., 245.,
          245., 245., 249., 237., 89., 63., 63., 192., 224., 68., 63.,
          74., 240., 245., 245., 246., 127., 63., 63., 142., 248., 245.,
          245., 245., 245., 245., 245., 237., 89., 63., 63., 192., 205.,
          64., 63., 88., 242., 245., 245., 247., 141., 63., 63., 129.,
          250., 245., 245., 245., 245., 245., 245., 237., 89., 63., 63.,
          192., 204., 64., 63., 87., 243., 245., 245., 247., 140., 63.,
          63., 127., 250., 245., 245., 245., 245., 245., 245., 237., 89.,
          63., 63., 192., 213., 65., 63., 87., 243., 245., 245., 247.,
          140., 63., 63., 131., 247., 245., 245., 245., 245., 245., 245.,
          237., 89., 63., 63., 192., 227., 71., 63., 69., 235., 245.,
          245., 246., 121., 63., 63., 149., 248., 245., 245., 245., 245.,
          245., 245., 237., 89., 63., 63., 192., 240., 87., 63., 63.,
          212., 245., 245., 245., 104., 63., 63., 180., 245., 245., 245.,
          245., 245., 245., 245., 237., 89., 63., 63., 192., 247., 113.,
          63., 63., 152., 250., 248., 224., 75., 63., 66., 222., 245.,
          245., 245., 245., 245., 245., 245., 237., 89., 63., 63., 192.,
          247., 184., 64., 63., 75., 159., 173., 93., 63., 64., 135.,
          248., 245., 245., 245., 245., 245., 245., 245., 237., 89., 63.,
          63., 192., 245., 247., 143., 63., 63., 63., 64., 63., 63., 89.,
          233., 245., 245., 245., 245., 245., 245., 245., 245., 239.,
          133., 116., 114., 207., 245., 245., 241., 175., 114., 90., 89.,
          103., 149., 227., 245., 245., 245., 245., 245., 245., 245.,
          245., 245., 245., 250., 251., 251., 247., 245., 245., 245.,
          247., 251., 248., 246., 251., 249., 245., 245., 245., 245.,
          245., 245., 245., 245., 245., 245., 245., 245., 245., 245.,
          245., 245., 245., 245., 245., 245., 245., 245., 245., 245.,
          245., 245., 245., 245., 245., 245., 245., 245., 245., 245.,
          245., 245., 245., 245., 246., 246., 246., 245., 245., 245.,
          248., 247., 245., 245., 245., 245., 245., 245., 245., 245.,
          245., 245., 245., 245., 245., 245., 245., 250., 204., 162.,
          201., 249., 247., 225., 154., 172., 241., 246., 245., 245.,
          245., 245., 245., 245., 245., 245., 245., 245., 245., 245.,
          245., 163., 78., 74., 77., 160., 216., 94., 74., 74., 110.,
          231., 245., 245., 245., 245., 245., 245., 245., 245., 245.,
          245., 245., 245., 218., 80., 72., 72., 72., 87., 116., 72.,
          72., 72., 73., 164., 249., 245., 245., 245., 245., 245., 245. ]
      - [ 191., 191., 191., 191., 191., 191., 191., 191., 191., 191.,
          191., 191., 191., 191., 191., 191., 191., 191., 191., 191.,
          191., 191., 191., 191., 191., 191., 191., 191., 191., 191.,
          191., 191., 192., 192., 191., 191., 191., 191., 191., 192.,
          192., 192., 192., 191., 191., 191., 191., 191., 191., 191.,
          191., 191., 191., 191., 193., 164., 119., 125., 181., 191.,
          191., 193., 192., 149., 124., 124., 148., 192., 193., 191.,
          191., 191., 191., 191., 191., 191., 191., 191., 188., 85., 49.,
          58., 173., 191., 193., 151., 71., 50., 49., 49., 49., 71.,
          151., 193., 191., 191., 191., 191., 191., 191., 192., 196.,
          122., 49., 49., 59., 173., 191., 177., 58., 49., 49., 49., 49.,
          49., 49., 58., 176., 192., 191., 191., 191., 191., 192., 157.,
          74., 50., 49., 49., 59., 173., 191., 88., 49., 49., 96., 169.,
          169., 96., 49., 49., 88., 189., 191., 191., 191., 191., 192.,
          146., 51., 56., 49., 49., 59., 173., 175., 56., 49., 53., 164.,
          191., 191., 165., 53., 49., 56., 174., 191., 191., 191., 191.,
          192., 166., 136., 151., 49., 49., 59., 173., 156., 53., 49.,
          59., 183., 191., 191., 183., 59., 49., 53., 155., 192., 191.,
          191., 191., 191., 192., 194., 169., 49., 49., 59., 173., 143.,
          50., 49., 67., 190., 191., 191., 190., 67., 49., 50., 142.,
          193., 191., 191., 191., 191., 191., 191., 169., 49., 49., 59.,
          173., 131., 50., 49., 79., 191., 191., 191., 191., 79., 49.,
          50., 130., 194., 191., 191., 191., 191., 191., 191., 169., 49.,
          49., 59., 173., 130., 50., 49., 79., 191., 191., 191., 191.,
          79., 49., 50., 128., 194., 191., 191., 191., 191., 191., 191.,
          169., 49., 49., 59., 173., 134., 50., 49., 79., 191., 191.,
          191., 191., 79., 49., 50., 133., 193., 191., 191., 191., 191.,
          191., 191., 169., 49., 49., 59., 173., 147., 51., 49., 62.,
          188., 191., 191., 188., 62., 49., 51., 146., 193., 191., 191.,
          191., 191., 191., 191., 169., 49., 49., 59., 173., 164., 54.,
          49., 55., 178., 191., 191., 179., 55., 49., 54., 163., 191.,
          191., 191., 191., 191., 191., 191., 169., 49., 49., 59., 173.,
          182., 62., 49., 51., 146., 194., 194., 147., 51., 49., 62.,
          182., 191., 191., 191., 191., 191., 191., 191., 169., 49., 49.,
          59., 173., 193., 124., 50., 49., 66., 130., 130., 66., 49.,
          50., 124., 193., 191., 191., 191., 191., 191., 191., 191.,
          169., 49., 49., 59., 173., 191., 193., 91., 49., 49., 49., 49.,
          49., 49., 90., 193., 191., 191., 191., 191., 191., 191., 191.,
          191., 175., 89., 90., 95., 178., 191., 191., 183., 126., 85.,
          70., 70., 85., 125., 182., 191., 191., 191., 191., 191., 191.,
          191., 191., 191., 192., 196., 196., 196., 192., 191., 191.,
          191., 193., 196., 193., 193., 196., 193., 191., 191., 191.,
          191., 191., 191., 191., 191., 191., 191., 191., 191., 191.,
          191., 191., 191., 191., 191., 191., 191., 191., 191., 191.,
          191., 191., 191., 191., 191., 191., 191., 191., 191., 191.,
          191., 191., 191., 191., 191., 192., 192., 191., 191., 191.,
          191., 193., 192., 191., 191., 191., 191., 191., 191., 191.,
          191., 191., 191., 191., 191., 191., 191., 191., 192., 149.,
          128., 166., 194., 192., 166., 118., 142., 190., 191., 191.,
          191., 191., 191., 191., 191., 191., 191., 191., 191., 191.,
          191., 190., 112., 59., 58., 60., 145., 159., 67., 58., 58.,
          106., 191., 191., 191., 191., 191., 191., 191., 191., 191.,
          191., 191., 191., 191., 152., 57., 56., 56., 56., 80., 85.,
          56., 56., 56., 58., 154., 193., 191., 191., 191. ]
      - [ 245., 245., 245., 245., 245., 245., 245., 245., 245., 245.,
          245., 245., 245., 245., 245., 245., 245., 245., 245., 245.,
          245., 245., 245., 245., 245., 245., 245., 245., 245., 245.,
          245., 245., 245., 245., 245., 245., 245., 245., 245., 245.,
          245., 245., 245., 245., 245., 245., 245., 245., 245., 245.,
          245., 245., 245., 245., 245., 245., 245., 245., 245., 245.,
          245., 245., 245., 245., 245., 245., 245., 245., 245., 245.,
          245., 245., 245., 245., 245., 245., 245., 245., 245., 245.,
          245., 245., 245., 245., 245., 245., 245., 245., 245., 245.,
          245., 245., 245., 245., 245., 245., 245., 245., 245., 245.,
          245., 245., 245., 246., 246., 245., 245., 245., 245., 245.,
          246., 246., 246., 246., 245., 245., 245., 245., 245., 245.,
          245., 245., 245., 245., 245., 246., 216., 158., 162., 228.,
          245., 245., 246., 248., 197., 164., 162., 191., 242., 247.,
          245., 245., 245., 245., 245., 245., 245., 245., 245., 243.,
          121., 63., 68., 210., 245., 247., 205., 97., 64., 63., 63.,
          63., 90., 191., 247., 245., 245., 245., 245., 245., 245., 246.,
          251., 171., 66., 63., 69., 212., 245., 231., 80., 63., 63.,
          63., 63., 63., 63., 75., 225., 247., 245., 245., 245., 245.,
          247., 214., 103., 64., 63., 63., 69., 212., 246., 128., 63.,
          63., 110., 211., 214., 123., 64., 63., 106., 242., 245., 245.,
          245., 245., 247., 200., 65., 67., 63., 63., 69., 212., 232.,
          82., 63., 63., 200., 245., 245., 220., 73., 63., 64., 218.,
          245., 245., 245., 245., 247., 217., 159., 190., 69., 63., 69.,
          213., 213., 72., 63., 66., 230., 245., 245., 238., 86., 63.,
          64., 189., 246., 245., 245., 245., 245., 246., 250., 223., 69.,
          63., 69., 213., 198., 66., 63., 75., 242., 245., 245., 244.,
          99., 63., 63., 170., 247., 245., 245., 245., 245., 245., 245.,
          223., 69., 63., 69., 213., 182., 64., 63., 92., 244., 245.,
          245., 246., 113., 63., 63., 155., 249., 245., 245., 245., 245.,
          245., 245., 223., 69., 63., 69., 213., 179., 64., 63., 92.,
          244., 245., 245., 246., 115., 63., 63., 153., 250., 245., 245.,
          245., 245., 245., 245., 223., 69., 63., 69., 213., 184., 64.,
          63., 92., 244., 245., 245., 246., 115., 63., 63., 156., 248.,
          245., 245., 245., 245., 245., 245., 223., 69., 63., 69., 213.,
          200., 67., 63., 71., 240., 245., 245., 242., 94., 63., 63.,
          174., 247., 245., 245., 245., 245., 245., 245., 223., 69., 63.,
          69., 213., 218., 74., 63., 63., 226., 245., 245., 236., 82.,
          63., 64., 197., 245., 245., 245., 245., 245., 245., 245., 223.,
          69., 63., 69., 212., 236., 89., 63., 63., 182., 249., 248.,
          205., 69., 63., 67., 227., 245., 245., 245., 245., 245., 245.,
          245., 223., 69., 63., 69., 212., 248., 156., 64., 63., 86.,
          189., 193., 93., 63., 64., 136., 248., 245., 245., 245., 245.,
          245., 245., 245., 223., 69., 63., 69., 212., 245., 241., 115.,
          63., 63., 63., 64., 63., 63., 100., 241., 245., 245., 245.,
          245., 245., 245., 245., 245., 227., 101., 96., 100., 217.,
          245., 245., 233., 141., 93., 80., 80., 91., 132., 226., 245.,
          245., 245., 245., 245., 245., 245., 245., 245., 245., 241.,
          241., 241., 245., 245., 245., 245., 246., 240., 231., 230.,
          239., 246., 245., 245., 245., 245., 245., 245., 245., 245.,
          245., 245., 245., 245., 245., 245., 245., 245., 245., 245.,
          245., 245., 246., 246., 245., 245., 245., 245., 245., 245.,
          245., 245., 245., 245., 245., 245., 245., 245., 245., 245.,
          245., 245., 245., 245., 245., 245., 248., 245., 245., 245.,
          245., 245., 245., 245., 245. ]
      - [ 245., 245., 245., 245., 245., 245., 245., 245., 245., 245.,
          245., 245., 245., 245., 245., 245., 245., 245., 245., 245.,
          245., 245., 245., 245., 245., 245., 245., 245., 245., 245.,
          245., 245., 245., 245., 245., 245., 245., 245., 245., 245.,
          245., 245., 245., 245., 245., 245., 245., 245., 245., 245.,
          245., 245., 245., 245., 245., 245., 245., 245., 245., 245.,
          245., 245., 245., 245., 245., 245., 245., 245., 245., 245.,
          245., 245., 245., 245., 245., 245., 245., 248., 250., 248.,
          245., 245., 245., 245., 248., 250., 250., 250., 250., 247.,
          245., 245., 245., 245., 245., 245., 245., 245., 245., 245.,
          249., 162., 106., 123., 240., 245., 245., 240., 188., 131.,
          109., 110., 134., 195., 241., 245., 245., 245., 245., 245.,
          245., 245., 245., 245., 224., 73., 63., 87., 239., 245., 250.,
          127., 64., 63., 63., 63., 63., 64., 145., 251., 245., 245.,
          245., 245., 245., 246., 227., 182., 96., 63., 63., 87., 239.,
          248., 172., 67., 63., 70., 124., 122., 69., 63., 68., 184.,
          247., 245., 245., 245., 245., 248., 149., 62., 63., 63., 63.,
          87., 239., 235., 73., 63., 66., 179., 251., 251., 157., 63.,
          63., 90., 238., 245., 245., 245., 245., 248., 150., 69., 110.,
          63., 63., 87., 241., 201., 63., 63., 81., 230., 245., 245.,
          217., 64., 63., 73., 217., 245., 245., 245., 245., 247., 222.,
          230., 205., 63., 63., 87., 241., 172., 63., 63., 94., 242.,
          245., 245., 237., 72., 63., 67., 194., 247., 245., 245., 245.,
          245., 245., 246., 202., 63., 63., 87., 241., 154., 63., 63.,
          107., 245., 245., 245., 243., 83., 63., 64., 177., 247., 245.,
          245., 245., 245., 245., 245., 202., 63., 63., 87., 241., 146.,
          63., 63., 118., 246., 245., 245., 245., 96., 63., 64., 168.,
          249., 245., 245., 245., 245., 245., 245., 202., 63., 63., 87.,
          241., 146., 63., 63., 117., 246., 245., 245., 245., 95., 63.,
          64., 165., 249., 245., 245., 245., 245., 245., 245., 202., 63.,
          63., 87., 241., 156., 63., 63., 107., 245., 245., 245., 243.,
          84., 63., 64., 179., 247., 245., 245., 245., 245., 245., 245.,
          202., 63., 63., 87., 241., 175., 63., 63., 92., 240., 245.,
          245., 236., 69., 63., 67., 197., 247., 245., 245., 245., 245.,
          245., 245., 202., 63., 63., 87., 241., 205., 63., 63., 80.,
          228., 245., 245., 214., 64., 63., 74., 219., 245., 245., 245.,
          245., 245., 245., 245., 202., 63., 63., 87., 239., 236., 84.,
          63., 65., 165., 241., 240., 145., 63., 63., 101., 242., 245.,
          245., 245., 245., 245., 245., 245., 202., 63., 63., 87., 239.,
          248., 195., 64., 63., 67., 84., 82., 67., 63., 65., 206., 247.,
          245., 245., 245., 245., 245., 245., 245., 200., 63., 63., 87.,
          239., 245., 247., 157., 75., 63., 63., 63., 63., 77., 172.,
          248., 245., 245., 245., 245., 245., 245., 245., 245., 229.,
          174., 176., 185., 244., 245., 245., 249., 230., 158., 122.,
          124., 164., 238., 247., 245., 245., 245., 245., 245., 245.,
          245., 245., 245., 245., 247., 247., 247., 245., 245., 245.,
          245., 246., 247., 248., 248., 247., 246., 245., 245., 245.,
          245., 245., 245., 245., 245., 245., 245., 245., 245., 245.,
          245., 245., 245., 245., 245., 245., 245., 245., 245., 245.,
          245., 245., 245., 245., 245., 245., 245., 245., 245., 245.,
          245., 245., 245., 245., 246., 250., 250., 249., 245., 245.,
          249., 248., 250., 246., 245., 245., 245., 245., 245., 245.,
          245., 245., 245., 245., 245., 245., 245., 247., 214., 135.,
          120., 166., 238., 237., 159., 108., 136., 217., 245., 245.,
          245., 245., 245., 245., 245. ]
      - [ 191., 191., 191., 191., 191., 191., 191., 191., 191., 191.,
          191., 191., 191., 191., 191., 191., 191., 191., 191., 191.,
          191., 191., 191., 191., 191., 191., 191., 191., 191., 192.,
          192., 191., 191., 191., 191., 191., 192., 192., 192., 192.,
          191., 191., 191., 191., 191., 191., 191., 191., 191., 191.,
          191., 193., 165., 120., 126., 188., 191., 191., 191., 194.,
          163., 129., 119., 137., 179., 194., 189., 191., 191., 191.,
          191., 191., 191., 191., 191., 192., 94., 49., 58., 186., 192.,
          191., 176., 94., 51., 49., 49., 49., 59., 123., 190., 191.,
          191., 191., 191., 191., 191., 193., 194., 121., 49., 49., 59.,
          186., 192., 190., 78., 49., 49., 49., 49., 49., 49., 49., 121.,
          192., 191., 191., 191., 191., 191., 151., 73., 50., 49., 49.,
          59., 186., 194., 150., 52., 49., 62., 154., 177., 122., 49.,
          49., 67., 185., 191., 191., 191., 191., 191., 134., 50., 56.,
          50., 49., 59., 186., 194., 90., 49., 49., 134., 194., 191.,
          192., 73., 49., 50., 152., 194., 191., 191., 191., 191., 160.,
          134., 159., 53., 49., 59., 186., 185., 59., 49., 55., 169.,
          192., 191., 194., 115., 49., 49., 110., 194., 191., 191., 191.,
          191., 193., 194., 175., 52., 49., 59., 186., 174., 49., 49.,
          59., 182., 191., 191., 194., 136., 49., 49., 83., 193., 191.,
          191., 191., 191., 191., 191., 175., 52., 49., 59., 186., 163.,
          49., 49., 65., 185., 191., 191., 194., 145., 50., 49., 72.,
          190., 191., 191., 191., 191., 191., 191., 175., 52., 49., 59.,
          186., 162., 49., 49., 65., 185., 191., 191., 194., 145., 50.,
          49., 71., 190., 191., 191., 191., 191., 191., 191., 175., 52.,
          49., 59., 186., 167., 49., 49., 64., 185., 191., 191., 194.,
          145., 50., 49., 78., 192., 191., 191., 191., 191., 191., 191.,
          175., 52., 49., 59., 186., 177., 51., 49., 59., 179., 191.,
          191., 194., 131., 49., 49., 92., 194., 191., 191., 191., 191.,
          191., 191., 175., 52., 49., 59., 186., 188., 69., 49., 52.,
          159., 193., 191., 194., 104., 49., 49., 128., 194., 191., 191.,
          191., 191., 191., 191., 175., 52., 49., 59., 186., 195., 113.,
          49., 49., 101., 196., 192., 177., 59., 49., 55., 171., 192.,
          191., 191., 191., 191., 191., 191., 175., 52., 49., 59., 186.,
          192., 172., 60., 49., 49., 111., 142., 85., 49., 49., 87.,
          191., 191., 191., 191., 191., 191., 191., 191., 175., 52., 49.,
          59., 186., 192., 192., 126., 49., 49., 49., 50., 49., 49., 58.,
          167., 191., 191., 191., 191., 191., 191., 191., 191., 179.,
          90., 89., 96., 187., 191., 191., 192., 147., 93., 72., 67.,
          76., 107., 171., 193., 191., 191., 191., 191., 191., 191.,
          191., 191., 192., 196., 196., 196., 191., 191., 191., 191.,
          192., 196., 194., 191., 195., 196., 191., 191., 191., 191.,
          191., 191., 191., 191., 191., 191., 191., 191., 191., 191.,
          191., 191., 191., 191., 191., 191., 191., 191., 191., 191.,
          191., 191., 191., 191., 191., 191., 191., 191., 191., 191.,
          191., 191., 191., 191., 191., 191., 191., 191., 190., 191.,
          191., 191., 191., 191., 191., 191., 191., 191., 191., 191.,
          191., 191., 191., 191., 191., 191., 191., 191., 191., 191.,
          191., 179., 97., 185., 192., 191., 191., 191., 191., 191.,
          191., 191., 191., 191., 191., 191., 191., 191., 191., 191.,
          191., 191., 191., 191., 186., 94., 57., 97., 186., 191., 191.,
          191., 191., 191., 191., 191., 191., 191., 191., 191., 191.,
          191., 191., 191., 191., 191., 191., 194., 111., 57., 56., 56.,
          114., 196., 191., 191., 191., 191., 191., 191., 191., 191.,
          191. ]
      - [ 191., 191., 191., 191., 191., 191., 191., 191., 191., 191.,
          191., 191., 191., 191., 191., 191., 191., 191., 191., 191.,
          191., 191., 191., 191., 191., 191., 191., 191., 191., 191.,
          191., 191., 191., 191., 191., 191., 191., 191., 191., 191.,
          191., 191., 191., 191., 191., 191., 191., 191., 191., 191.,
          191., 191., 191., 191., 191., 191., 191., 191., 191., 191.,
          191., 191., 191., 191., 191., 191., 191., 191., 191., 191.,
          191., 191., 191., 191., 191., 191., 191., 189., 194., 194.,
          194., 191., 191., 191., 191., 191., 196., 196., 195., 196.,
          193., 191., 191., 191., 191., 191., 191., 191., 191., 191.,
          191., 194., 128., 82., 93., 188., 191., 191., 193., 161., 111.,
          88., 83., 98., 138., 186., 191., 191., 191., 191., 191., 191.,
          191., 191., 192., 187., 64., 49., 63., 188., 191., 193., 137.,
          51., 49., 49., 49., 49., 50., 75., 187., 191., 191., 191.,
          191., 191., 191., 179., 140., 76., 49., 49., 63., 188., 192.,
          165., 55., 49., 50., 87., 101., 59., 49., 49., 114., 194.,
          191., 191., 191., 191., 191., 115., 48., 49., 49., 49., 63.,
          188., 196., 112., 49., 49., 88., 192., 196., 151., 51., 49.,
          63., 188., 191., 191., 191., 191., 191., 115., 55., 93., 52.,
          49., 63., 188., 192., 71., 49., 51., 165., 193., 191., 194.,
          82., 49., 50., 150., 193., 191., 191., 191., 191., 172., 178.,
          174., 51., 49., 63., 189., 176., 53., 49., 61., 190., 191.,
          191., 195., 109., 49., 49., 110., 193., 191., 191., 191., 191.,
          191., 193., 170., 51., 49., 63., 189., 163., 49., 49., 69.,
          196., 191., 191., 195., 122., 49., 49., 91., 191., 191., 191.,
          191., 191., 191., 192., 170., 51., 49., 63., 189., 152., 49.,
          49., 74., 196., 191., 191., 194., 126., 49., 49., 82., 191.,
          191., 191., 191., 191., 191., 192., 170., 51., 49., 63., 189.,
          152., 49., 49., 75., 196., 191., 191., 194., 126., 49., 49.,
          82., 191., 191., 191., 191., 191., 191., 192., 170., 51., 49.,
          63., 189., 163., 49., 49., 70., 196., 191., 191., 195., 121.,
          49., 49., 93., 192., 191., 191., 191., 191., 191., 192., 170.,
          51., 49., 63., 189., 176., 53., 49., 62., 189., 191., 191.,
          195., 108., 49., 49., 116., 193., 191., 191., 191., 191., 191.,
          192., 170., 51., 49., 63., 188., 193., 74., 49., 50., 161.,
          193., 191., 194., 79., 49., 49., 157., 193., 191., 191., 191.,
          191., 191., 192., 170., 51., 49., 63., 188., 194., 119., 50.,
          49., 84., 182., 188., 142., 50., 49., 70., 191., 191., 191.,
          191., 191., 191., 191., 192., 170., 51., 49., 63., 188., 191.,
          173., 57., 49., 49., 63., 69., 53., 49., 49., 125., 193., 191.,
          191., 191., 191., 191., 191., 192., 170., 50., 49., 63., 188.,
          191., 192., 151., 71., 49., 49., 49., 49., 55., 108., 186.,
          191., 191., 191., 191., 191., 191., 191., 191., 183., 138.,
          137., 142., 189., 191., 191., 192., 188., 135., 98., 92., 114.,
          170., 195., 191., 191., 191., 191., 191., 191., 191., 191.,
          191., 191., 193., 193., 193., 191., 191., 191., 191., 191.,
          193., 193., 192., 193., 192., 191., 191., 191., 191., 191.,
          191., 191., 191., 191., 191., 191., 191., 191., 191., 191.,
          191., 191., 191., 191., 191., 191., 191., 191., 191., 191.,
          191., 191., 191., 191., 191., 191., 191., 191., 191., 191.,
          191., 191., 191., 191., 191., 191., 194., 177., 194., 191.,
          191., 191., 191., 191., 191., 191., 191., 191., 191., 191.,
          191., 191., 191., 191., 191., 191., 191., 191., 191., 192.,
          143., 75., 173., 192., 191., 191., 191., 191., 191., 191.,
          191., 191. ]
      - [ 245., 245., 245., 245., 245., 245., 245., 245., 245., 245.,
          245., 245., 245., 245., 245., 245., 245., 245., 245., 245.,
          245., 245., 245., 245., 245., 245., 245., 245., 245., 245.,
          245., 245., 245., 245., 245., 245., 245., 245., 245., 245.,
          245., 245., 245., 245., 245., 245., 245., 245., 245., 245.,
          245., 245., 245., 245., 245., 245., 245., 245., 245., 245.,
          245., 245., 245., 245., 245., 245., 245., 245., 245., 245.,
          245., 245., 245., 245., 245., 245., 245., 245., 245., 242.,
          249., 250., 250., 245., 245., 245., 245., 246., 250., 250.,
          250., 250., 246., 245., 245., 245., 245., 245., 245., 245.,
          245., 245., 245., 249., 147., 106., 124., 243., 245., 245.,
          246., 200., 139., 111., 108., 128., 184., 242., 244., 245.,
          245., 245., 245., 245., 245., 245., 247., 233., 76., 63., 87.,
          242., 245., 248., 161., 65., 63., 63., 63., 63., 64., 112.,
          243., 245., 245., 245., 245., 245., 245., 225., 172., 88., 63.,
          63., 87., 242., 246., 194., 63., 63., 68., 118., 125., 68.,
          63., 65., 167., 248., 245., 245., 245., 245., 247., 122., 62.,
          63., 63., 63., 87., 242., 251., 123., 63., 63., 137., 248.,
          251., 181., 64., 63., 88., 242., 245., 245., 245., 245., 247.,
          122., 75., 122., 66., 63., 87., 243., 244., 84., 63., 67.,
          219., 246., 245., 250., 94., 63., 63., 203., 245., 245., 245.,
          245., 245., 215., 233., 214., 65., 63., 87., 244., 219., 66.,
          63., 84., 244., 245., 245., 251., 119., 63., 63., 162., 245.,
          245., 245., 245., 245., 245., 248., 208., 65., 63., 87., 244.,
          198., 63., 63., 98., 250., 245., 245., 251., 131., 63., 63.,
          141., 245., 245., 245., 245., 245., 245., 247., 208., 65., 63.,
          87., 244., 182., 63., 63., 107., 250., 245., 245., 250., 137.,
          63., 63., 131., 245., 245., 245., 245., 245., 245., 247., 208.,
          65., 63., 87., 244., 182., 63., 63., 108., 250., 245., 245.,
          250., 137., 63., 63., 131., 245., 245., 245., 245., 245., 245.,
          247., 208., 65., 63., 87., 244., 198., 63., 63., 98., 250.,
          245., 245., 251., 132., 63., 63., 143., 245., 245., 245., 245.,
          245., 245., 247., 208., 65., 63., 87., 244., 218., 67., 63.,
          87., 243., 245., 245., 251., 118., 63., 63., 167., 245., 245.,
          245., 245., 245., 245., 247., 208., 65., 63., 87., 242., 247.,
          87., 63., 66., 215., 246., 245., 250., 91., 63., 63., 210.,
          245., 245., 245., 245., 245., 245., 247., 208., 65., 63., 87.,
          242., 250., 132., 63., 63., 127., 237., 240., 171., 64., 63.,
          98., 245., 245., 245., 245., 245., 245., 245., 247., 208., 65.,
          63., 87., 242., 245., 207., 63., 63., 65., 83., 87., 67., 63.,
          66., 184., 247., 245., 245., 245., 245., 245., 245., 247.,
          208., 63., 63., 87., 242., 245., 247., 183., 84., 63., 63.,
          63., 63., 74., 151., 241., 245., 245., 245., 245., 245., 245.,
          245., 245., 232., 176., 175., 184., 242., 245., 245., 247.,
          237., 167., 122., 120., 152., 226., 250., 245., 245., 245.,
          245., 245., 245., 245., 245., 245., 245., 247., 247., 247.,
          245., 245., 245., 245., 245., 247., 247., 247., 247., 246.,
          245., 245., 245., 245., 245., 245., 245., 245., 245., 245.,
          245., 245., 245., 245., 245., 245., 245., 245., 245., 245.,
          245., 245., 245., 245., 245., 245., 245., 245., 245., 245.,
          245., 245., 245., 245., 245., 245., 245., 245., 245., 245.,
          245., 247., 230., 248., 245., 245., 245., 245., 245., 245.,
          245., 245., 245., 245., 245., 245., 245., 245., 245., 245.,
          245., 245., 245., 245., 245., 170., 103., 227., 245., 245.,
          245., 245., 245., 245., 245. ]
      - [ 191., 191., 191., 191., 191., 191., 191., 191., 191., 191.,
          191., 191., 191., 191., 191., 191., 191., 191., 191., 191.,
          191., 191., 191., 191., 191., 191., 191., 191., 191., 191.,
          191., 192., 192., 191., 191., 191., 191., 191., 192., 192.,
          192., 192., 191., 191., 191., 191., 191., 191., 191., 191.,
          191., 191., 191., 193., 155., 119., 128., 189., 191., 191.,
          191., 192., 158., 127., 120., 140., 182., 194., 190., 191.,
          191., 191., 191., 191., 191., 191., 191., 192., 84., 49., 61.,
          188., 191., 192., 171., 87., 49., 49., 49., 49., 63., 132.,
          190., 191., 191., 191., 191., 191., 191., 194., 192., 106.,
          49., 49., 63., 188., 191., 182., 61., 49., 49., 49., 49., 49.,
          49., 49., 139., 192., 191., 191., 191., 191., 191., 137., 69.,
          50., 49., 49., 63., 188., 194., 131., 50., 49., 68., 160.,
          174., 111., 49., 49., 77., 193., 191., 191., 191., 191., 191.,
          115., 50., 58., 50., 49., 63., 188., 194., 82., 49., 50., 148.,
          193., 191., 191., 68., 49., 50., 164., 192., 191., 191., 191.,
          191., 150., 139., 157., 52., 49., 63., 188., 181., 57., 49.,
          58., 184., 191., 191., 195., 101., 49., 49., 122., 193., 191.,
          191., 191., 191., 194., 194., 170., 51., 49., 63., 189., 168.,
          49., 49., 66., 196., 191., 191., 195., 119., 49., 49., 95.,
          192., 191., 191., 191., 191., 191., 192., 170., 51., 49., 63.,
          189., 154., 49., 49., 74., 196., 191., 191., 194., 125., 49.,
          49., 84., 191., 191., 191., 191., 191., 191., 192., 170., 51.,
          49., 63., 189., 152., 49., 49., 74., 196., 191., 191., 194.,
          126., 49., 49., 82., 191., 191., 191., 191., 191., 191., 192.,
          170., 51., 49., 63., 189., 158., 49., 49., 73., 196., 191.,
          191., 194., 126., 49., 49., 90., 192., 191., 191., 191., 191.,
          191., 192., 170., 51., 49., 63., 189., 171., 50., 49., 64.,
          193., 191., 191., 195., 114., 49., 49., 104., 193., 191., 191.,
          191., 191., 191., 192., 170., 51., 49., 63., 188., 187., 65.,
          49., 54., 175., 192., 191., 195., 92., 49., 49., 141., 193.,
          191., 191., 191., 191., 191., 192., 170., 51., 49., 63., 188.,
          196., 100., 49., 49., 112., 195., 193., 173., 57., 49., 58.,
          182., 191., 191., 191., 191., 191., 191., 192., 170., 51., 49.,
          63., 188., 192., 155., 53., 49., 51., 118., 137., 77., 49.,
          49., 102., 195., 191., 191., 191., 191., 191., 191., 192.,
          170., 51., 49., 63., 188., 191., 192., 111., 49., 49., 49.,
          50., 49., 49., 60., 174., 191., 191., 191., 191., 191., 191.,
          191., 191., 177., 90., 89., 100., 188., 191., 191., 192., 140.,
          89., 71., 68., 79., 113., 178., 192., 191., 191., 191., 191.,
          191., 191., 191., 191., 192., 196., 196., 196., 191., 191.,
          191., 191., 192., 196., 194., 191., 196., 195., 191., 191.,
          191., 191., 191., 191., 191., 191., 191., 191., 191., 191.,
          191., 191., 191., 191., 191., 191., 191., 191., 191., 191.,
          191., 191., 191., 191., 191., 191., 191., 191., 191., 191.,
          191., 191., 191., 191., 191., 191., 191., 191., 191., 191.,
          190., 191., 191., 191., 191., 191., 191., 191., 191., 191.,
          191., 191., 191., 191., 191., 191., 191., 191., 191., 191.,
          191., 191., 192., 174., 104., 194., 191., 191., 191., 191.,
          191., 191., 191., 191., 191., 191., 191., 191., 191., 191.,
          191., 191., 191., 191., 191., 191., 179., 81., 57., 106., 188.,
          191., 191., 191., 191., 191., 191., 191., 191., 191., 191.,
          191., 191., 191., 191., 191., 191., 191., 191., 194., 100.,
          56., 56., 57., 131., 195., 191., 191., 191., 191., 191., 191.,
          191. ]
      - [ 191., 191., 191., 191., 191., 191., 191., 191., 191., 191.,
          191., 191., 191., 191., 191., 191., 191., 191., 191., 191.,
          191., 191., 191., 191., 191., 191., 191., 191., 191., 191.,
          191., 191., 191., 191., 191., 191., 191., 191., 191., 191.,
          191., 191., 191., 191., 191., 191., 191., 191., 191., 191.,
          191., 191., 191., 191., 191., 191., 191., 191., 191., 191.,
          191., 191., 191., 191., 191., 191., 191., 191., 191., 191.,
          191., 191., 191., 191., 191., 191., 191., 191., 191., 189.,
          194., 194., 194., 191., 191., 191., 191., 192., 196., 196.,
          195., 196., 192., 191., 191., 191., 191., 191., 191., 191.,
          191., 191., 191., 194., 115., 82., 96., 189., 191., 191., 192.,
          155., 108., 86., 84., 100., 144., 188., 191., 191., 191., 191.,
          191., 191., 191., 191., 194., 181., 59., 49., 68., 189., 191.,
          194., 125., 50., 49., 49., 49., 49., 50., 87., 190., 191.,
          191., 191., 191., 191., 191., 176., 134., 68., 49., 49., 68.,
          189., 192., 151., 49., 49., 52., 92., 98., 53., 49., 50., 130.,
          194., 191., 191., 191., 191., 193., 95., 48., 49., 49., 49.,
          68., 189., 196., 96., 49., 49., 107., 194., 196., 141., 50.,
          49., 68., 189., 191., 191., 191., 191., 193., 95., 59., 95.,
          51., 49., 68., 189., 191., 66., 49., 53., 171., 192., 191.,
          194., 73., 49., 50., 159., 191., 191., 191., 191., 191., 168.,
          182., 167., 50., 49., 68., 191., 170., 52., 49., 66., 191.,
          191., 191., 196., 93., 49., 49., 126., 191., 191., 191., 191.,
          191., 191., 194., 162., 50., 49., 68., 191., 155., 49., 49.,
          76., 195., 191., 191., 196., 102., 49., 49., 110., 191., 191.,
          191., 191., 191., 191., 193., 162., 50., 49., 68., 191., 143.,
          49., 49., 84., 195., 191., 191., 195., 107., 49., 49., 102.,
          191., 191., 191., 191., 191., 191., 193., 162., 50., 49., 68.,
          191., 143., 49., 49., 84., 195., 191., 191., 195., 107., 49.,
          49., 102., 191., 191., 191., 191., 191., 191., 193., 162., 50.,
          49., 68., 191., 155., 49., 49., 76., 195., 191., 191., 196.,
          103., 49., 49., 111., 191., 191., 191., 191., 191., 191., 193.,
          162., 50., 49., 68., 191., 171., 52., 49., 68., 190., 191.,
          191., 196., 93., 49., 49., 130., 191., 191., 191., 191., 191.,
          191., 193., 162., 50., 49., 68., 189., 193., 68., 49., 51.,
          167., 192., 191., 194., 71., 49., 49., 165., 191., 191., 191.,
          191., 191., 191., 193., 162., 50., 49., 68., 189., 195., 103.,
          49., 49., 99., 185., 187., 133., 50., 49., 77., 191., 191.,
          191., 191., 191., 191., 191., 193., 162., 50., 49., 68., 189.,
          191., 161., 49., 49., 50., 64., 68., 52., 49., 51., 143., 192.,
          191., 191., 191., 191., 191., 191., 193., 162., 50., 49., 68.,
          189., 191., 193., 143., 66., 49., 49., 49., 49., 58., 118.,
          188., 191., 191., 191., 191., 191., 191., 191., 192., 180.,
          137., 137., 143., 189., 191., 191., 193., 185., 130., 95., 93.,
          119., 176., 195., 191., 191., 191., 191., 191., 191., 191.,
          191., 191., 191., 193., 193., 193., 191., 191., 191., 191.,
          191., 193., 193., 192., 193., 192., 191., 191., 191., 191.,
          191., 191., 191., 191., 191., 191., 191., 191., 191., 191.,
          191., 191., 191., 191., 191., 191., 191., 191., 191., 191.,
          191., 191., 191., 191., 191., 191., 191., 191., 191., 191.,
          191., 191., 191., 191., 191., 191., 191., 193., 179., 193.,
          191., 191., 191., 191., 191., 191., 191., 191., 191., 191.,
          191., 191., 191., 191., 191., 191., 191., 191., 191., 191.,
          191., 133., 80., 177., 191., 191., 191., 191., 191., 191.,
          191. ]
      - [ 196., 196., 196., 196., 196., 196., 196., 196., 196., 196.,
          196., 196., 196., 196., 196., 196., 196., 196., 196., 196.,
          196., 196., 196., 196., 191., 191., 191., 191., 191., 191.,
          191., 191., 191., 191., 191., 191., 191., 191., 191., 191.,
          191., 191., 191., 191., 191., 191., 191., 191., 191., 191.,
          191., 191., 191., 191., 191., 191., 191., 191., 191., 191.,
          191., 191., 191., 191., 191., 191., 191., 191., 191., 191.,
          191., 191., 191., 191., 191., 191., 191., 191., 191., 191.,
          191., 191., 191., 191., 191., 191., 191., 191., 191., 191.,
          191., 191., 191., 191., 191., 191., 191., 191., 191., 191.,
          191., 191., 191., 191., 191., 191., 191., 191., 191., 191.,
          191., 191., 191., 191., 191., 191., 191., 191., 191., 191.,
          191., 191., 191., 191., 191., 191., 191., 191., 191., 191.,
          191., 191., 191., 191., 191., 191., 191., 191., 191., 191.,
          191., 191., 191., 191., 191., 191., 191., 191., 191., 191.,
          191., 196., 198., 197., 198., 197., 192., 191., 191., 191.,
          191., 191., 191., 191., 191., 191., 191., 191., 191., 191.,
          191., 191., 191., 192., 152., 86., 48., 40., 52., 86., 152.,
          194., 191., 191., 191., 191., 191., 191., 191., 191., 191.,
          191., 191., 191., 191., 191., 196., 122., 2., 0., 0., 0., 0.,
          0., 4., 128., 194., 191., 191., 191., 191., 191., 191., 191.,
          191., 191., 191., 191., 191., 192., 152., 12., 0., 5., 61.,
          83., 37., 0., 0., 4., 158., 191., 191., 191., 191., 191., 191.,
          191., 191., 191., 191., 191., 191., 192., 61., 0., 0., 92.,
          198., 198., 180., 25., 0., 0., 107., 194., 191., 191., 191.,
          191., 191., 191., 191., 191., 191., 191., 191., 186., 35., 8.,
          8., 161., 191., 191., 192., 58., 0., 0., 88., 197., 191., 191.,
          191., 191., 191., 191., 191., 191., 191., 191., 191., 191.,
          185., 185., 185., 191., 191., 191., 187., 38., 0., 0., 105.,
          196., 191., 191., 191., 191., 191., 191., 191., 191., 191.,
          191., 191., 191., 191., 191., 191., 191., 191., 195., 147., 7.,
          0., 0., 154., 191., 191., 191., 191., 191., 191., 191., 191.,
          191., 191., 191., 191., 191., 191., 191., 191., 191., 194.,
          147., 23., 0., 2., 87., 192., 191., 191., 191., 191., 191.,
          191., 191., 191., 191., 191., 191., 191., 191., 191., 191.,
          191., 193., 138., 10., 0., 1., 60., 197., 191., 191., 191.,
          191., 191., 191., 191., 191., 191., 191., 191., 191., 191.,
          191., 191., 192., 196., 89., 5., 0., 5., 90., 183., 191., 191.,
          191., 191., 191., 191., 191., 191., 191., 191., 191., 191.,
          191., 191., 191., 192., 183., 67., 0., 0., 13., 108., 194.,
          191., 191., 191., 191., 191., 191., 191., 191., 191., 191.,
          191., 191., 191., 191., 191., 192., 194., 66., 1., 0., 8.,
          146., 196., 193., 193., 193., 192., 191., 191., 191., 191.,
          191., 191., 191., 191., 191., 191., 191., 191., 192., 94., 0.,
          0., 1., 79., 133., 130., 130., 130., 130., 150., 193., 191.,
          191., 191., 191., 191., 191., 191., 191., 191., 191., 191.,
          177., 21., 0., 0., 0., 2., 2., 2., 2., 2., 2., 65., 198., 191.,
          191., 191., 191., 191., 191., 191., 191., 191., 191., 192.,
          149., 6., 0., 0., 0., 0., 0., 0., 0., 0., 0., 64., 198., 191.,
          191., 191., 191., 191., 191., 191., 191., 191., 191., 193.,
          172., 126., 124., 124., 124., 124., 124., 124., 124., 124.,
          124., 145., 194., 191., 191., 191., 191., 191., 191., 191.,
          191., 191., 191., 191., 192., 194., 194., 194., 194., 194.,
          194., 194., 194., 194., 194., 193., 191., 191., 191., 191.,
          191., 191., 191., 191., 191. ]
      - [ 191., 191., 191., 191., 191., 191., 191., 191., 191., 191.,
          191., 191., 191., 191., 191., 191., 191., 191., 191., 191.,
          191., 191., 191., 191., 191., 191., 191., 191., 191., 191.,
          191., 191., 191., 191., 191., 191., 191., 191., 191., 191.,
          191., 191., 191., 191., 191., 191., 191., 191., 191., 191.,
          191., 191., 191., 191., 191., 191., 191., 191., 191., 191.,
          191., 191., 191., 191., 191., 191., 191., 191., 191., 191.,
          191., 191., 191., 191., 191., 191., 191., 191., 191., 191.,
          191., 191., 191., 191., 191., 191., 191., 191., 191., 191.,
          191., 191., 191., 191., 191., 191., 191., 191., 191., 192.,
          195., 178., 148., 138., 147., 172., 194., 192., 191., 191.,
          191., 191., 191., 191., 191., 191., 191., 191., 191., 191.,
          191., 191., 191., 192., 105., 10., 0., 0., 0., 3., 77., 185.,
          192., 191., 191., 191., 191., 191., 191., 191., 191., 191.,
          191., 191., 191., 191., 192., 77., 3., 0., 0., 0., 0., 0., 1.,
          44., 183., 191., 191., 191., 191., 191., 191., 191., 191.,
          191., 191., 191., 191., 192., 131., 0., 0., 18., 114., 152.,
          102., 10., 0., 0., 114., 192., 191., 191., 191., 191., 191.,
          191., 191., 191., 191., 191., 191., 195., 65., 0., 0., 109.,
          192., 193., 194., 70., 0., 0., 67., 195., 191., 191., 191.,
          191., 191., 191., 191., 191., 191., 191., 191., 194., 108.,
          80., 80., 171., 192., 191., 193., 81., 0., 0., 65., 196., 191.,
          191., 191., 191., 191., 191., 191., 191., 191., 191., 191.,
          191., 193., 193., 193., 191., 191., 191., 194., 45., 0., 0.,
          96., 193., 191., 191., 191., 191., 191., 191., 191., 191.,
          191., 191., 191., 191., 191., 191., 191., 191., 191., 194.,
          104., 4., 0., 16., 169., 191., 191., 191., 191., 191., 191.,
          191., 191., 191., 191., 191., 191., 191., 191., 191., 191.,
          192., 192., 103., 0., 0., 7., 131., 195., 191., 191., 191.,
          191., 191., 191., 191., 191., 191., 191., 191., 191., 191.,
          191., 191., 193., 179., 58., 4., 0., 7., 119., 191., 191.,
          191., 191., 191., 191., 191., 191., 191., 191., 191., 191.,
          191., 191., 191., 191., 193., 166., 42., 0., 0., 23., 139.,
          195., 191., 191., 191., 191., 191., 191., 191., 191., 191.,
          191., 191., 191., 191., 191., 191., 193., 170., 23., 0., 0.,
          41., 181., 193., 191., 191., 191., 191., 191., 191., 191.,
          191., 191., 191., 191., 191., 191., 191., 191., 191., 167.,
          28., 0., 0., 44., 172., 191., 190., 190., 190., 190., 191.,
          191., 191., 191., 191., 191., 191., 191., 191., 191., 191.,
          191., 196., 67., 0., 0., 1., 28., 31., 31., 31., 31., 31., 65.,
          195., 191., 191., 191., 191., 191., 191., 191., 191., 191.,
          191., 191., 188., 22., 0., 0., 0., 0., 0., 0., 0., 0., 0., 44.,
          195., 191., 191., 191., 191., 191., 191., 191., 191., 191.,
          191., 193., 171., 35., 30., 30., 30., 30., 30., 30., 30., 30.,
          30., 66., 195., 191., 191., 191., 191., 191., 191., 191., 191.,
          191., 191., 191., 190., 186., 186., 186., 186., 186., 186.,
          186., 186., 186., 186., 187., 192., 191., 191., 191., 191.,
          191., 191., 191., 191., 191., 191., 191., 191., 191., 191.,
          191., 191., 191., 192., 191., 191., 191., 191., 191., 191.,
          191., 191., 191., 191., 191., 191., 191., 191., 191., 191.,
          191., 191., 191., 191., 191., 191., 191., 190., 191., 191.,
          191., 191., 191., 191., 191., 191., 191., 191., 191., 191.,
          191., 191., 191., 191., 191., 191., 191., 191., 191., 192.,
          107., 81., 189., 192., 191., 191., 191., 191., 191., 191.,
          191., 191., 191., 191., 191., 191., 191., 191. ]
      - [ 245., 245., 245., 245., 245., 245., 245., 245., 245., 245.,
          245., 245., 245., 245., 245., 245., 245., 245., 245., 245.,
          245., 245., 245., 245., 245., 245., 245., 245., 245., 245.,
          245., 245., 245., 245., 245., 245., 245., 245., 245., 245.,
          245., 245., 245., 245., 245., 245., 245., 245., 245., 245.,
          245., 245., 248., 235., 209., 200., 209., 231., 248., 246.,
          245., 245., 245., 245., 245., 245., 245., 245., 245., 245.,
          245., 245., 245., 245., 245., 249., 152., 30., 10., 8., 10.,
          20., 117., 245., 245., 245., 245., 245., 245., 245., 245.,
          245., 245., 245., 245., 245., 245., 245., 247., 121., 6., 0.,
          0., 0., 0., 0., 2., 78., 238., 245., 245., 245., 245., 245.,
          245., 245., 245., 245., 245., 245., 245., 246., 179., 0., 0.,
          12., 124., 181., 105., 5., 0., 0., 154., 246., 245., 245.,
          245., 245., 245., 245., 245., 245., 245., 245., 245., 250.,
          92., 0., 0., 125., 247., 249., 248., 81., 0., 0., 91., 249.,
          245., 245., 245., 245., 245., 245., 245., 245., 245., 245.,
          245., 250., 109., 61., 61., 210., 246., 245., 247., 107., 0.,
          0., 81., 251., 245., 245., 245., 245., 245., 245., 245., 245.,
          245., 245., 245., 245., 245., 244., 244., 245., 245., 245.,
          248., 65., 0., 0., 116., 249., 245., 245., 245., 245., 245.,
          245., 245., 245., 245., 245., 245., 245., 245., 245., 245.,
          245., 245., 249., 163., 8., 0., 13., 204., 245., 245., 245.,
          245., 245., 245., 245., 245., 245., 245., 245., 245., 245.,
          245., 245., 245., 245., 254., 158., 4., 0., 3., 149., 251.,
          245., 245., 245., 245., 245., 245., 245., 245., 245., 245.,
          245., 245., 245., 245., 245., 246., 235., 114., 10., 0., 6.,
          120., 242., 245., 245., 245., 245., 245., 245., 245., 245.,
          245., 245., 245., 245., 245., 245., 245., 246., 241., 73., 0.,
          0., 11., 156., 252., 245., 245., 245., 245., 245., 245., 245.,
          245., 245., 245., 245., 245., 245., 245., 245., 247., 226.,
          57., 0., 0., 39., 193., 246., 245., 245., 245., 245., 245.,
          245., 245., 245., 245., 245., 245., 245., 245., 245., 245.,
          245., 231., 54., 0., 0., 28., 209., 249., 245., 245., 245.,
          245., 245., 245., 245., 245., 245., 245., 245., 245., 245.,
          245., 245., 245., 250., 105., 0., 0., 1., 52., 78., 77., 77.,
          77., 77., 113., 248., 245., 245., 245., 245., 245., 245., 245.,
          245., 245., 245., 245., 245., 34., 0., 0., 0., 0., 0., 0., 0.,
          0., 0., 56., 250., 245., 245., 245., 245., 245., 245., 245.,
          245., 245., 245., 247., 215., 7., 0., 0., 0., 0., 0., 0., 0.,
          0., 0., 56., 250., 245., 245., 245., 245., 245., 245., 245.,
          245., 245., 245., 246., 239., 209., 208., 208., 208., 208.,
          208., 208., 208., 208., 208., 215., 246., 245., 245., 245.,
          245., 245., 245., 245., 245., 245., 245., 245., 245., 245.,
          245., 245., 245., 245., 245., 245., 245., 245., 245., 245.,
          245., 245., 245., 245., 245., 245., 245., 245., 245., 245.,
          245., 245., 245., 245., 245., 245., 245., 245., 245., 245.,
          245., 245., 245., 245., 245., 245., 245., 245., 245., 245.,
          245., 245., 245., 245., 245., 245., 245., 245., 245., 245.,
          247., 170., 135., 247., 245., 245., 245., 245., 245., 245.,
          245., 245., 245., 245., 245., 245., 245., 245., 245., 245.,
          245., 245., 245., 248., 197., 32., 24., 122., 248., 245., 245.,
          245., 245., 245., 245., 245., 245., 245., 245., 245., 245.,
          245., 245., 245., 245., 245., 247., 196., 48., 19., 20., 18.,
          133., 246., 246., 245., 245., 245., 245., 245., 245., 245.,
          245., 245., 245., 245., 245. ]
      - [ 245., 245., 245., 245., 245., 245., 245., 245., 245., 245.,
          245., 245., 245., 245., 245., 245., 245., 245., 245., 245.,
          245., 245., 245., 245., 245., 245., 245., 245., 245., 245.,
          245., 245., 245., 245., 245., 245., 245., 245., 245., 245.,
          245., 245., 245., 245., 245., 245., 245., 245., 245., 245.,
          245., 245., 245., 245., 245., 245., 245., 245., 245., 245.,
          245., 245., 245., 245., 245., 245., 245., 245., 245., 245.,
          245., 245., 245., 245., 245., 245., 245., 245., 245., 245.,
          245., 245., 245., 245., 245., 245., 245., 245., 245., 245.,
          245., 245., 245., 245., 245., 245., 245., 245., 245., 245.,
          245., 245., 245., 245., 246., 246., 245., 245., 245., 245.,
          245., 245., 245., 245., 245., 245., 245., 245., 245., 245.,
          245., 245., 245., 245., 245., 245., 250., 242., 222., 223.,
          240., 250., 246., 245., 245., 245., 245., 245., 245., 245.,
          245., 245., 245., 245., 245., 245., 245., 245., 247., 210.,
          125., 79., 66., 66., 79., 123., 205., 247., 245., 245., 245.,
          245., 245., 245., 245., 245., 245., 245., 245., 245., 245.,
          246., 213., 69., 63., 63., 64., 63., 63., 63., 75., 222., 247.,
          245., 245., 245., 245., 245., 245., 245., 245., 245., 245.,
          245., 245., 239., 101., 63., 63., 126., 193., 182., 97., 63.,
          63., 97., 242., 245., 245., 245., 245., 245., 245., 245., 245.,
          245., 245., 245., 247., 213., 71., 63., 81., 238., 247., 249.,
          210., 69., 63., 63., 223., 245., 245., 245., 245., 245., 245.,
          245., 245., 245., 245., 245., 247., 209., 131., 131., 179.,
          247., 245., 245., 221., 74., 63., 63., 216., 245., 245., 245.,
          245., 245., 245., 245., 245., 245., 245., 245., 244., 248.,
          250., 250., 249., 244., 245., 248., 187., 66., 63., 72., 234.,
          245., 245., 245., 245., 245., 245., 245., 245., 245., 245.,
          245., 245., 245., 245., 245., 245., 245., 245., 231., 84., 63.,
          63., 157., 247., 245., 245., 245., 245., 245., 245., 245.,
          245., 245., 245., 245., 245., 245., 245., 245., 245., 247.,
          221., 103., 63., 63., 111., 245., 245., 245., 245., 245., 245.,
          245., 245., 245., 245., 245., 245., 245., 245., 245., 245.,
          245., 248., 203., 68., 63., 63., 96., 229., 245., 245., 245.,
          245., 245., 245., 245., 245., 245., 245., 245., 245., 245.,
          245., 245., 245., 245., 166., 76., 63., 63., 128., 234., 246.,
          245., 245., 245., 245., 245., 245., 245., 245., 245., 245.,
          245., 245., 245., 245., 245., 246., 159., 64., 63., 67., 151.,
          248., 245., 245., 245., 245., 245., 245., 245., 245., 245.,
          245., 245., 245., 245., 245., 245., 245., 246., 152., 67., 63.,
          71., 183., 248., 251., 250., 250., 250., 246., 245., 245.,
          245., 245., 245., 245., 245., 245., 245., 245., 245., 245.,
          216., 76., 63., 63., 82., 138., 132., 132., 132., 132., 131.,
          215., 245., 245., 245., 245., 245., 245., 245., 245., 245.,
          245., 245., 249., 147., 63., 63., 63., 63., 63., 63., 63., 63.,
          63., 63., 198., 245., 245., 245., 245., 245., 245., 245., 245.,
          245., 245., 245., 247., 118., 79., 79., 79., 79., 79., 79.,
          79., 79., 79., 77., 201., 245., 245., 245., 245., 245., 245.,
          245., 245., 245., 245., 245., 245., 241., 240., 240., 240.,
          240., 240., 240., 240., 240., 240., 240., 244., 245., 245.,
          245., 245., 245., 245., 245., 245., 245., 245., 245., 245.,
          245., 245., 245., 245., 245., 245., 245., 245., 245., 245.,
          245., 245., 245., 245., 245., 245., 245., 245., 245., 245.,
          245., 245., 245., 245., 245., 245., 245., 246., 245., 245.,
          245., 245., 246., 246., 245., 245., 245., 245., 245., 245.,
          245., 245., 245., 245., 245. ]
      - [ 191., 191., 191., 191., 191., 191., 191., 191., 191., 191.,
          191., 191., 191., 191., 191., 191., 191., 191., 191., 191.,
          191., 191., 191., 191., 191., 191., 191., 191., 191., 191.,
          191., 191., 191., 191., 191., 191., 191., 191., 191., 191.,
          191., 191., 191., 191., 191., 191., 191., 191., 191., 191.,
          191., 191., 191., 191., 191., 191., 191., 191., 191., 191.,
          191., 191., 191., 191., 191., 191., 191., 191., 191., 191.,
          191., 191., 191., 191., 191., 191., 191., 191., 191., 191.,
          191., 191., 191., 191., 191., 191., 191., 191., 191., 191.,
          191., 191., 191., 191., 191., 191., 191., 191., 191., 191.,
          191., 191., 191., 191., 191., 192., 192., 191., 191., 191.,
          191., 191., 191., 191., 191., 191., 191., 191., 191., 191.,
          191., 191., 191., 191., 191., 191., 191., 196., 188., 173.,
          174., 188., 196., 192., 191., 191., 191., 191., 191., 191.,
          191., 191., 191., 191., 191., 191., 191., 191., 191., 193.,
          160., 94., 60., 51., 51., 63., 98., 163., 194., 191., 191.,
          191., 191., 191., 191., 191., 191., 191., 191., 191., 191.,
          191., 192., 162., 53., 49., 49., 50., 50., 49., 49., 60., 177.,
          192., 191., 191., 191., 191., 191., 191., 191., 191., 191.,
          191., 191., 191., 182., 70., 49., 50., 102., 151., 140., 72.,
          49., 49., 82., 190., 191., 191., 191., 191., 191., 191., 191.,
          191., 191., 191., 191., 193., 156., 52., 49., 67., 188., 193.,
          195., 154., 52., 49., 55., 178., 191., 191., 191., 191., 191.,
          191., 191., 191., 191., 191., 191., 193., 157., 102., 102.,
          144., 192., 191., 191., 164., 54., 49., 54., 173., 191., 191.,
          191., 191., 191., 191., 191., 191., 191., 191., 191., 190.,
          193., 194., 194., 195., 191., 191., 194., 136., 50., 49., 62.,
          185., 191., 191., 191., 191., 191., 191., 191., 191., 191.,
          191., 191., 191., 191., 191., 191., 191., 191., 191., 179.,
          64., 49., 49., 129., 193., 191., 191., 191., 191., 191., 191.,
          191., 191., 191., 191., 191., 191., 191., 191., 191., 191.,
          193., 167., 76., 49., 49., 93., 192., 191., 191., 191., 191.,
          191., 191., 191., 191., 191., 191., 191., 191., 191., 191.,
          191., 191., 194., 153., 53., 49., 50., 77., 181., 191., 191.,
          191., 191., 191., 191., 191., 191., 191., 191., 191., 191.,
          191., 191., 191., 191., 190., 125., 57., 49., 49., 105., 186.,
          192., 191., 191., 191., 191., 191., 191., 191., 191., 191.,
          191., 191., 191., 191., 191., 191., 192., 117., 49., 49., 54.,
          124., 194., 191., 191., 191., 191., 191., 191., 191., 191.,
          191., 191., 191., 191., 191., 191., 191., 191., 192., 111.,
          52., 49., 56., 147., 194., 196., 195., 195., 195., 192., 191.,
          191., 191., 191., 191., 191., 191., 191., 191., 191., 191.,
          191., 161., 55., 49., 49., 67., 108., 104., 104., 104., 104.,
          104., 173., 191., 191., 191., 191., 191., 191., 191., 191.,
          191., 191., 191., 195., 108., 49., 49., 49., 49., 49., 49.,
          49., 49., 49., 52., 163., 191., 191., 191., 191., 191., 191.,
          191., 191., 191., 191., 191., 192., 88., 61., 62., 62., 62.,
          62., 62., 62., 62., 62., 63., 165., 191., 191., 191., 191.,
          191., 191., 191., 191., 191., 191., 191., 191., 188., 188.,
          188., 188., 188., 188., 188., 188., 188., 188., 188., 191.,
          191., 191., 191., 191., 191., 191., 191., 191., 191., 191.,
          191., 191., 191., 191., 191., 191., 191., 191., 191., 191.,
          191., 191., 191., 191., 191., 191., 191., 191., 191., 191.,
          191., 191., 191., 191., 191., 191., 191., 191., 191., 192.,
          191., 191., 191., 191., 192., 191., 191., 191., 191., 191.,
          191., 191., 191., 191., 191., 191. ]
      - [ 147., 196., 196., 196., 196., 196., 196., 196., 196., 196.,
          196., 196., 196., 196., 196., 196., 196., 196., 196., 196.,
          196., 196., 196., 196., 194., 191., 191., 191., 191., 191.,
          191., 191., 191., 191., 191., 191., 191., 191., 191., 191.,
          191., 191., 191., 191., 191., 191., 191., 191., 191., 191.,
          191., 191., 191., 191., 191., 191., 191., 191., 191., 191.,
          191., 191., 191., 191., 191., 191., 191., 191., 191., 191.,
          191., 191., 191., 191., 191., 191., 191., 191., 191., 191.,
          191., 191., 191., 191., 191., 191., 191., 191., 191., 191.,
          191., 191., 191., 191., 191., 191., 191., 191., 191., 191.,
          191., 191., 191., 191., 191., 191., 191., 191., 191., 191.,
          191., 191., 191., 191., 191., 191., 191., 191., 191., 191.,
          191., 191., 191., 191., 191., 191., 191., 191., 191., 191.,
          192., 192., 191., 191., 191., 191., 191., 191., 191., 191.,
          191., 191., 191., 191., 191., 191., 191., 191., 191., 191.,
          191., 192., 196., 187., 173., 174., 189., 196., 191., 191.,
          191., 191., 191., 191., 191., 191., 191., 191., 191., 191.,
          191., 191., 191., 191., 194., 156., 92., 59., 51., 51., 64.,
          100., 167., 193., 191., 191., 191., 191., 191., 191., 191.,
          191., 191., 191., 191., 191., 191., 193., 160., 53., 49., 49.,
          50., 50., 49., 49., 62., 178., 191., 191., 191., 191., 191.,
          191., 191., 191., 191., 191., 191., 191., 191., 179., 62., 49.,
          51., 108., 151., 139., 70., 49., 49., 91., 191., 191., 191.,
          191., 191., 191., 191., 191., 191., 191., 191., 191., 193.,
          147., 50., 49., 77., 189., 193., 195., 145., 49., 49., 63.,
          182., 191., 191., 191., 191., 191., 191., 191., 191., 191.,
          191., 191., 193., 150., 102., 102., 148., 192., 191., 191.,
          156., 50., 49., 61., 179., 191., 191., 191., 191., 191., 191.,
          191., 191., 191., 191., 191., 190., 193., 194., 194., 194.,
          191., 191., 194., 127., 49., 49., 72., 187., 191., 191., 191.,
          191., 191., 191., 191., 191., 191., 191., 191., 191., 191.,
          191., 191., 191., 191., 192., 177., 62., 49., 49., 135., 192.,
          191., 191., 191., 191., 191., 191., 191., 191., 191., 191.,
          191., 191., 191., 191., 191., 191., 193., 162., 71., 49., 49.,
          99., 192., 191., 191., 191., 191., 191., 191., 191., 191.,
          191., 191., 191., 191., 191., 191., 191., 191., 194., 147.,
          52., 49., 50., 80., 184., 191., 191., 191., 191., 191., 191.,
          191., 191., 191., 191., 191., 191., 191., 191., 191., 191.,
          189., 120., 55., 49., 49., 111., 189., 191., 191., 191., 191.,
          191., 191., 191., 191., 191., 191., 191., 191., 191., 191.,
          191., 191., 192., 109., 49., 49., 55., 130., 194., 191., 191.,
          191., 191., 191., 191., 191., 191., 191., 191., 191., 191.,
          191., 191., 191., 191., 192., 103., 52., 49., 57., 151., 195.,
          196., 195., 195., 195., 192., 191., 191., 191., 191., 191.,
          191., 191., 191., 191., 191., 191., 192., 153., 51., 49., 49.,
          70., 108., 104., 104., 104., 104., 107., 178., 191., 191.,
          191., 191., 191., 191., 191., 191., 191., 191., 191., 195.,
          101., 49., 49., 49., 49., 49., 49., 49., 49., 49., 57., 171.,
          191., 191., 191., 191., 191., 191., 191., 191., 191., 191.,
          191., 192., 85., 62., 62., 62., 62., 62., 62., 62., 62., 62.,
          67., 172., 191., 191., 191., 191., 191., 191., 191., 191.,
          191., 191., 191., 191., 188., 188., 188., 188., 188., 188.,
          188., 188., 188., 188., 188., 191., 191., 191., 191., 191.,
          191., 191., 191., 191., 191., 191., 191., 191., 191., 191.,
          191., 191., 191., 191., 191., 191., 191., 191., 191., 191.,
          191., 191., 191., 191., 191., 191., 191. ]
      - [ 194., 191., 191., 191., 191., 191., 191., 191., 191., 191.,
          191., 191., 191., 191., 191., 191., 191., 191., 191., 191.,
          191., 191., 191., 191., 191., 191., 191., 191., 191., 191.,
          191., 191., 191., 191., 191., 191., 191., 191., 191., 191.,
          191., 191., 191., 191., 191., 191., 191., 191., 191., 191.,
          191., 191., 191., 191., 191., 191., 191., 191., 191., 191.,
          191., 191., 191., 191., 191., 191., 191., 191., 191., 191.,
          191., 191., 191., 191., 191., 191., 191., 191., 191., 191.,
          191., 191., 191., 191., 191., 191., 191., 191., 191., 191.,
          191., 191., 191., 191., 191., 191., 191., 191., 191., 191.,
          191., 191., 191., 191., 191., 191., 192., 192., 191., 191.,
          191., 191., 191., 191., 191., 191., 191., 191., 191., 191.,
          191., 191., 191., 191., 191., 191., 191., 192., 196., 187.,
          173., 174., 189., 196., 191., 191., 191., 191., 191., 191.,
          191., 191., 191., 191., 191., 191., 191., 191., 191., 191.,
          194., 156., 92., 59., 51., 51., 64., 100., 167., 193., 191.,
          191., 191., 191., 191., 191., 191., 191., 191., 191., 191.,
          191., 191., 193., 160., 53., 49., 49., 50., 50., 49., 49., 62.,
          178., 191., 191., 191., 191., 191., 191., 191., 191., 191.,
          191., 191., 191., 191., 179., 62., 49., 51., 108., 151., 139.,
          70., 49., 49., 91., 191., 191., 191., 191., 191., 191., 191.,
          191., 191., 191., 191., 191., 193., 147., 50., 49., 77., 189.,
          193., 195., 145., 49., 49., 63., 182., 191., 191., 191., 191.,
          191., 191., 191., 191., 191., 191., 191., 193., 150., 102.,
          102., 148., 192., 191., 191., 156., 50., 49., 61., 179., 191.,
          191., 191., 191., 191., 191., 191., 191., 191., 191., 191.,
          190., 193., 194., 194., 194., 191., 191., 194., 127., 49., 49.,
          72., 187., 191., 191., 191., 191., 191., 191., 191., 191.,
          191., 191., 191., 191., 191., 191., 191., 191., 191., 192.,
          177., 62., 49., 49., 135., 192., 191., 191., 191., 191., 191.,
          191., 191., 191., 191., 191., 191., 191., 191., 191., 191.,
          191., 193., 162., 71., 49., 49., 99., 192., 191., 191., 191.,
          191., 191., 191., 191., 191., 191., 191., 191., 191., 191.,
          191., 191., 191., 194., 147., 52., 49., 50., 80., 184., 191.,
          191., 191., 191., 191., 191., 191., 191., 191., 191., 191.,
          191., 191., 191., 191., 191., 189., 120., 55., 49., 49., 111.,
          189., 191., 191., 191., 191., 191., 191., 191., 191., 191.,
          191., 191., 191., 191., 191., 191., 191., 192., 109., 49., 49.,
          55., 130., 194., 191., 191., 191., 191., 191., 191., 191.,
          191., 191., 191., 191., 191., 191., 191., 191., 191., 192.,
          103., 52., 49., 57., 151., 195., 196., 195., 195., 195., 192.,
          191., 191., 191., 191., 191., 191., 191., 191., 191., 191.,
          191., 192., 153., 51., 49., 49., 70., 108., 104., 104., 104.,
          104., 107., 178., 191., 191., 191., 191., 191., 191., 191.,
          191., 191., 191., 191., 195., 101., 49., 49., 49., 49., 49.,
          49., 49., 49., 49., 57., 171., 191., 191., 191., 191., 191.,
          191., 191., 191., 191., 191., 191., 192., 85., 62., 62., 62.,
          62., 62., 62., 62., 62., 62., 67., 172., 191., 191., 191.,
          191., 191., 191., 191., 191., 191., 191., 191., 191., 188.,
          188., 188., 188., 188., 188., 188., 188., 188., 188., 188.,
          191., 191., 191., 191., 191., 191., 191., 191., 191., 191.,
          191., 191., 191., 191., 191., 191., 191., 191., 191., 191.,
          191., 191., 191., 191., 191., 191., 191., 191., 191., 191.,
          191., 191., 191., 191., 191., 191., 191., 191., 191., 191.,
          192., 191., 191., 191., 191., 192., 191., 191., 191., 191.,
          191., 191., 191., 191., 191., 191. ]
      - [ 191., 191., 191., 191., 191., 191., 191., 191., 191., 191.,
          191., 191., 191., 191., 191., 191., 191., 191., 191., 191.,
          191., 191., 191., 191., 191., 191., 191., 191., 191., 191.,
          191., 191., 191., 191., 191., 191., 191., 191., 191., 191.,
          191., 191., 191., 191., 191., 191., 191., 191., 191., 191.,
          191., 191., 191., 191., 191., 191., 191., 191., 191., 191.,
          191., 191., 191., 191., 191., 191., 191., 191., 191., 191.,
          191., 191., 191., 191., 191., 191., 191., 191., 191., 191.,
          191., 191., 191., 191., 191., 191., 191., 191., 191., 191.,
          191., 191., 191., 191., 191., 191., 191., 191., 191., 191.,
          191., 191., 191., 191., 191., 191., 191., 191., 191., 191.,
          191., 191., 191., 191., 191., 191., 191., 191., 191., 191.,
          191., 191., 191., 191., 191., 191., 192., 182., 167., 160.,
          166., 182., 193., 191., 191., 191., 191., 191., 191., 191.,
          191., 191., 191., 191., 191., 191., 191., 191., 191., 195.,
          127., 54., 52., 51., 52., 60., 126., 192., 191., 191., 191.,
          191., 191., 191., 191., 191., 191., 191., 191., 191., 191.,
          191., 187., 98., 49., 49., 49., 49., 49., 49., 49., 107., 194.,
          191., 191., 191., 191., 191., 191., 191., 191., 191., 191.,
          191., 191., 193., 146., 51., 49., 54., 129., 155., 100., 50.,
          49., 49., 167., 193., 191., 191., 191., 191., 191., 191., 191.,
          191., 191., 191., 191., 195., 93., 49., 51., 148., 193., 193.,
          192., 89., 49., 49., 119., 193., 191., 191., 191., 191., 191.,
          191., 191., 191., 191., 191., 191., 191., 105., 88., 99., 192.,
          191., 191., 195., 107., 49., 49., 109., 193., 191., 191., 191.,
          191., 191., 191., 191., 191., 191., 191., 191., 191., 192.,
          192., 192., 191., 191., 191., 192., 72., 49., 49., 143., 193.,
          191., 191., 191., 191., 191., 191., 191., 191., 191., 191.,
          191., 191., 191., 191., 191., 191., 191., 191., 119., 49., 49.,
          70., 189., 191., 191., 191., 191., 191., 191., 191., 191.,
          191., 191., 191., 191., 191., 191., 191., 191., 191., 194.,
          128., 51., 49., 49., 144., 192., 191., 191., 191., 191., 191.,
          191., 191., 191., 191., 191., 191., 191., 191., 191., 191.,
          192., 187., 104., 49., 49., 59., 136., 191., 191., 191., 191.,
          191., 191., 191., 191., 191., 191., 191., 191., 191., 191.,
          191., 191., 191., 175., 71., 49., 49., 58., 151., 194., 191.,
          191., 191., 191., 191., 191., 191., 191., 191., 191., 191.,
          191., 191., 191., 191., 192., 169., 70., 49., 49., 76., 168.,
          193., 191., 191., 191., 191., 191., 191., 191., 191., 191.,
          191., 191., 191., 191., 191., 191., 191., 174., 64., 49., 49.,
          85., 184., 191., 191., 191., 191., 191., 191., 191., 191.,
          191., 191., 191., 191., 191., 191., 191., 191., 191., 194.,
          100., 49., 49., 49., 78., 88., 88., 88., 88., 87., 109., 191.,
          191., 191., 191., 191., 191., 191., 191., 191., 191., 191.,
          191., 173., 53., 49., 49., 49., 49., 49., 49., 49., 49., 49.,
          77., 190., 191., 191., 191., 191., 191., 191., 191., 191.,
          191., 191., 191., 143., 50., 50., 50., 50., 50., 50., 50., 50.,
          50., 50., 77., 190., 191., 191., 191., 191., 191., 191., 191.,
          191., 191., 191., 191., 185., 171., 172., 172., 172., 172.,
          172., 172., 172., 172., 171., 176., 191., 191., 191., 191.,
          191., 191., 191., 191., 191., 191., 191., 191., 191., 191.,
          191., 191., 191., 191., 191., 191., 191., 191., 191., 191.,
          191., 191., 191., 191., 191., 191., 191., 191., 191., 191.,
          191., 191., 191., 191., 191., 191., 191., 192., 194., 191.,
          191., 191., 191., 191., 191., 191., 191., 191., 191., 191.,
          191., 191., 191. ]
      - [ 195., 191., 191., 191., 191., 191., 191., 191., 191., 191.,
          191., 191., 191., 191., 191., 191., 191., 191., 191., 191.,
          191., 191., 191., 191., 191., 191., 191., 191., 191., 191.,
          191., 191., 191., 191., 191., 191., 191., 191., 191., 191.,
          191., 191., 191., 191., 191., 191., 191., 191., 191., 191.,
          191., 191., 191., 191., 191., 191., 191., 191., 191., 191.,
          191., 191., 191., 191., 191., 191., 191., 191., 191., 191.,
          191., 191., 191., 191., 191., 191., 191., 191., 191., 191.,
          191., 191., 191., 191., 191., 191., 191., 191., 191., 191.,
          191., 191., 191., 191., 191., 191., 191., 191., 191., 191.,
          191., 191., 191., 191., 191., 191., 191., 191., 191., 191.,
          191., 191., 191., 191., 191., 191., 191., 191., 191., 191.,
          191., 191., 191., 191., 191., 191., 191., 191., 192., 180.,
          166., 161., 168., 185., 193., 191., 191., 191., 191., 191.,
          191., 191., 191., 191., 191., 191., 191., 191., 191., 191.,
          192., 195., 116., 54., 52., 51., 52., 63., 136., 193., 191.,
          191., 191., 191., 191., 191., 191., 191., 191., 191., 191.,
          191., 191., 191., 182., 85., 49., 49., 49., 49., 49., 49., 50.,
          120., 194., 191., 191., 191., 191., 191., 191., 191., 191.,
          191., 191., 191., 191., 193., 127., 49., 49., 63., 137., 152.,
          91., 50., 49., 49., 172., 191., 191., 191., 191., 191., 191.,
          191., 191., 191., 191., 191., 191., 195., 82., 49., 52., 156.,
          193., 193., 192., 78., 49., 49., 133., 192., 191., 191., 191.,
          191., 191., 191., 191., 191., 191., 191., 191., 191., 100.,
          88., 103., 192., 191., 191., 195., 92., 49., 49., 124., 192.,
          191., 191., 191., 191., 191., 191., 191., 191., 191., 191.,
          191., 191., 192., 192., 191., 191., 191., 191., 192., 66., 49.,
          49., 152., 192., 191., 191., 191., 191., 191., 191., 191.,
          191., 191., 191., 191., 191., 191., 191., 191., 191., 191.,
          188., 106., 49., 49., 78., 189., 191., 191., 191., 191., 191.,
          191., 191., 191., 191., 191., 191., 191., 191., 191., 191.,
          191., 191., 195., 113., 49., 49., 52., 160., 192., 191., 191.,
          191., 191., 191., 191., 191., 191., 191., 191., 191., 191.,
          191., 191., 191., 193., 178., 94., 49., 49., 63., 145., 191.,
          191., 191., 191., 191., 191., 191., 191., 191., 191., 191.,
          191., 191., 191., 191., 191., 191., 169., 68., 49., 49., 60.,
          162., 194., 191., 191., 191., 191., 191., 191., 191., 191.,
          191., 191., 191., 191., 191., 191., 191., 193., 163., 66., 49.,
          49., 87., 176., 192., 191., 191., 191., 191., 191., 191., 191.,
          191., 191., 191., 191., 191., 191., 191., 191., 191., 164.,
          53., 49., 51., 93., 186., 191., 191., 191., 191., 191., 191.,
          191., 191., 191., 191., 191., 191., 191., 191., 191., 191.,
          191., 195., 89., 49., 49., 52., 82., 88., 88., 88., 88., 87.,
          123., 191., 191., 191., 191., 191., 191., 191., 191., 191.,
          191., 191., 192., 167., 53., 49., 49., 49., 49., 49., 49., 49.,
          49., 49., 97., 191., 191., 191., 191., 191., 191., 191., 191.,
          191., 191., 191., 193., 130., 50., 50., 50., 50., 50., 50.,
          50., 50., 50., 50., 97., 191., 191., 191., 191., 191., 191.,
          191., 191., 191., 191., 191., 191., 182., 171., 172., 172.,
          172., 172., 172., 172., 172., 172., 171., 179., 191., 191.,
          191., 191., 191., 191., 191., 191., 191., 191., 191., 191.,
          191., 191., 191., 191., 191., 191., 191., 191., 191., 191.,
          191., 191., 191., 191., 191., 191., 191., 191., 191., 191.,
          191., 191., 191., 191., 191., 191., 191., 191., 191., 192.,
          193., 191., 191., 191., 191., 191., 191., 191., 191., 191.,
          191., 191., 191. ]
      - [ 191., 191., 191., 191., 191., 191., 191., 191., 191., 191.,
          191., 191., 191., 191., 191., 191., 191., 191., 191., 191.,
          191., 191., 191., 191., 191., 191., 191., 191., 191., 191.,
          191., 191., 191., 191., 191., 191., 191., 191., 191., 191.,
          191., 191., 191., 191., 191., 191., 191., 191., 191., 191.,
          191., 191., 191., 191., 191., 191., 191., 191., 191., 191.,
          191., 191., 191., 191., 191., 191., 191., 191., 191., 191.,
          191., 191., 191., 191., 191., 191., 191., 191., 192., 192.,
          182., 170., 167., 176., 189., 193., 191., 191., 191., 191.,
          191., 191., 191., 191., 191., 191., 191., 191., 191., 191.,
          191., 192., 188., 87., 26., 17., 14., 20., 47., 147., 195.,
          191., 191., 191., 191., 191., 191., 191., 191., 191., 191.,
          191., 191., 191., 192., 176., 42., 0., 0., 0., 0., 0., 0., 5.,
          122., 192., 191., 191., 191., 191., 191., 191., 191., 191.,
          191., 191., 191., 191., 196., 86., 0., 0., 14., 111., 121.,
          29., 0., 0., 28., 187., 191., 191., 191., 191., 191., 191.,
          191., 191., 191., 191., 191., 192., 178., 13., 0., 17., 167.,
          195., 195., 164., 8., 0., 5., 156., 193., 191., 191., 191.,
          191., 191., 191., 191., 191., 191., 191., 192., 156., 23., 23.,
          68., 195., 191., 191., 189., 26., 0., 2., 141., 194., 191.,
          191., 191., 191., 191., 191., 191., 191., 191., 191., 191.,
          191., 189., 189., 189., 191., 191., 192., 163., 4., 0., 9.,
          167., 193., 191., 191., 191., 191., 191., 191., 191., 191.,
          191., 191., 191., 191., 191., 191., 191., 191., 192., 192.,
          70., 0., 0., 47., 191., 191., 191., 191., 191., 191., 191.,
          191., 191., 191., 191., 191., 191., 191., 191., 191., 191.,
          191., 190., 81., 5., 0., 6., 148., 192., 191., 191., 191.,
          191., 191., 191., 191., 191., 191., 191., 191., 191., 191.,
          191., 191., 193., 175., 65., 0., 0., 15., 128., 195., 191.,
          191., 191., 191., 191., 191., 191., 191., 191., 191., 191.,
          191., 191., 191., 191., 195., 162., 16., 1., 0., 19., 156.,
          192., 191., 191., 191., 191., 191., 191., 191., 191., 191.,
          191., 191., 191., 191., 191., 191., 193., 143., 25., 0., 0.,
          47., 162., 194., 191., 191., 191., 191., 191., 191., 191.,
          191., 191., 191., 191., 191., 191., 191., 191., 193., 159.,
          12., 0., 0., 58., 198., 194., 193., 193., 193., 191., 191.,
          191., 191., 191., 191., 191., 191., 191., 191., 191., 191.,
          192., 183., 35., 0., 0., 0., 78., 92., 91., 91., 91., 90.,
          148., 193., 191., 191., 191., 191., 191., 191., 191., 191.,
          191., 191., 192., 118., 0., 0., 0., 0., 0., 0., 0., 0., 0., 0.,
          105., 195., 191., 191., 191., 191., 191., 191., 191., 191.,
          191., 191., 193., 70., 0., 0., 0., 0., 0., 0., 0., 0., 0., 0.,
          106., 195., 191., 191., 191., 191., 191., 191., 191., 191.,
          191., 191., 192., 159., 142., 142., 142., 142., 142., 142.,
          142., 142., 142., 142., 171., 193., 191., 191., 191., 191.,
          191., 191., 191., 191., 191., 191., 191., 192., 192., 192.,
          192., 192., 192., 192., 192., 192., 192., 192., 192., 191.,
          191., 191., 191., 191., 191., 191., 191., 191., 191., 191.,
          191., 191., 191., 191., 191., 191., 192., 192., 191., 191.,
          191., 191., 191., 191., 191., 191., 191., 191., 191., 191.,
          191., 191., 191., 191., 191., 191., 191., 191., 192., 194.,
          186., 186., 195., 191., 191., 191., 191., 191., 191., 191.,
          191., 191., 191., 191., 191., 191., 191., 191., 191., 191.,
          191., 192., 168., 62., 32., 34., 84., 183., 192., 191., 191.,
          191., 191., 191., 191., 191., 191., 191., 191. ]
      - [ 245., 245., 245., 245., 245., 245., 245., 245., 245., 245.,
          245., 245., 245., 245., 245., 245., 245., 245., 245., 245.,
          245., 245., 245., 245., 245., 245., 245., 245., 245., 245.,
          247., 248., 247., 248., 247., 246., 245., 245., 245., 245.,
          245., 245., 245., 245., 245., 245., 245., 245., 245., 245.,
          245., 245., 246., 253., 207., 141., 122., 138., 200., 250.,
          246., 245., 245., 245., 245., 245., 245., 245., 245., 245.,
          245., 245., 245., 245., 245., 246., 216., 83., 7., 0., 0., 0.,
          4., 70., 212., 247., 245., 245., 245., 245., 245., 245., 245.,
          245., 245., 245., 245., 245., 245., 243., 44., 0., 0., 0., 0.,
          0., 0., 0., 16., 230., 245., 245., 245., 245., 245., 245.,
          245., 245., 245., 245., 245., 245., 247., 134., 0., 0., 54.,
          199., 219., 170., 21., 0., 0., 145., 247., 245., 245., 245.,
          245., 245., 245., 245., 245., 245., 245., 245., 244., 60., 2.,
          2., 172., 245., 245., 248., 83., 0., 0., 99., 251., 245., 245.,
          245., 245., 245., 245., 245., 245., 245., 245., 245., 244.,
          184., 168., 168., 235., 245., 245., 247., 80., 0., 0., 101.,
          251., 245., 245., 245., 245., 245., 245., 245., 245., 245.,
          245., 245., 245., 247., 247., 247., 245., 245., 246., 229.,
          34., 0., 0., 155., 247., 245., 245., 245., 245., 245., 245.,
          245., 245., 245., 245., 245., 245., 245., 245., 245., 245.,
          245., 247., 82., 1., 0., 34., 236., 245., 245., 245., 245.,
          245., 245., 245., 245., 245., 245., 245., 245., 245., 245.,
          245., 245., 247., 232., 85., 0., 0., 26., 203., 248., 245.,
          245., 245., 245., 245., 245., 245., 245., 245., 245., 245.,
          245., 245., 245., 245., 248., 213., 20., 0., 0., 18., 201.,
          246., 245., 245., 245., 245., 245., 245., 245., 245., 245.,
          245., 245., 245., 245., 245., 245., 248., 174., 29., 0., 0.,
          59., 211., 248., 245., 245., 245., 245., 245., 245., 245.,
          245., 245., 245., 245., 245., 245., 245., 245., 249., 178.,
          11., 0., 0., 88., 247., 247., 246., 246., 245., 245., 245.,
          245., 245., 245., 245., 245., 245., 245., 245., 245., 245.,
          246., 191., 16., 0., 0., 95., 235., 242., 241., 241., 241.,
          242., 245., 245., 245., 245., 245., 245., 245., 245., 245.,
          245., 245., 245., 243., 61., 0., 0., 0., 30., 29., 28., 28.,
          28., 28., 88., 252., 245., 245., 245., 245., 245., 245., 245.,
          245., 245., 245., 245., 222., 17., 0., 0., 0., 0., 0., 0., 0.,
          0., 0., 70., 255., 245., 245., 245., 245., 245., 245., 245.,
          245., 245., 245., 247., 211., 75., 71., 71., 71., 71., 71.,
          71., 71., 71., 71., 120., 253., 245., 245., 245., 245., 245.,
          245., 245., 245., 245., 245., 245., 246., 254., 254., 254.,
          254., 254., 254., 254., 254., 254., 254., 253., 244., 245.,
          245., 245., 245., 245., 245., 245., 245., 245., 245., 245.,
          245., 245., 245., 245., 245., 245., 245., 245., 245., 245.,
          245., 245., 245., 245., 245., 245., 245., 245., 245., 245.,
          245., 245., 245., 245., 245., 245., 245., 245., 246., 247.,
          246., 246., 245., 245., 245., 245., 245., 245., 245., 245.,
          245., 245., 245., 245., 245., 245., 245., 245., 245., 245.,
          245., 247., 215., 113., 106., 168., 246., 245., 245., 245.,
          245., 245., 245., 245., 245., 245., 245., 245., 245., 245.,
          245., 245., 245., 245., 246., 224., 52., 21., 21., 22., 142.,
          249., 245., 245., 245., 245., 245., 245., 245., 245., 245.,
          245., 245., 245., 245., 245., 245., 245., 248., 150., 14., 20.,
          20., 19., 52., 244., 245., 245., 245., 245., 245., 245., 245.,
          245., 245., 245., 245., 245. ]
      - [ 196., 196., 196., 196., 196., 196., 196., 196., 196., 196.,
          196., 196., 196., 196., 196., 196., 196., 196., 196., 196.,
          196., 196., 196., 196., 191., 191., 191., 191., 191., 191.,
          191., 191., 191., 191., 191., 191., 191., 191., 191., 191.,
          191., 191., 191., 191., 191., 191., 191., 191., 191., 191.,
          191., 191., 191., 191., 191., 191., 191., 191., 191., 191.,
          191., 191., 191., 191., 191., 191., 191., 191., 191., 191.,
          191., 191., 191., 191., 191., 191., 191., 191., 191., 191.,
          191., 191., 191., 191., 191., 191., 191., 191., 191., 191.,
          191., 191., 191., 191., 191., 191., 191., 191., 191., 191.,
          191., 191., 191., 191., 191., 191., 191., 191., 191., 191.,
          191., 191., 191., 191., 191., 191., 191., 191., 191., 191.,
          191., 191., 191., 191., 191., 191., 191., 191., 191., 191.,
          191., 191., 191., 191., 191., 191., 191., 191., 191., 191.,
          191., 191., 191., 191., 191., 191., 191., 191., 191., 191.,
          191., 194., 198., 198., 198., 198., 193., 191., 191., 191.,
          191., 191., 191., 191., 191., 191., 191., 191., 191., 191.,
          191., 191., 191., 192., 180., 111., 61., 41., 44., 63., 120.,
          182., 191., 191., 191., 191., 191., 191., 191., 191., 191.,
          191., 191., 191., 191., 191., 192., 191., 41., 1., 1., 1., 1.,
          1., 1., 54., 197., 191., 191., 191., 191., 191., 191., 191.,
          191., 191., 191., 191., 191., 191., 190., 65., 1., 1., 29.,
          82., 67., 7., 1., 2., 94., 193., 191., 191., 191., 191., 191.,
          191., 191., 191., 191., 191., 191., 191., 168., 13., 1., 5.,
          164., 198., 198., 103., 2., 1., 19., 186., 191., 191., 191.,
          191., 191., 191., 191., 191., 191., 191., 191., 191., 165.,
          76., 73., 94., 192., 191., 193., 136., 4., 1., 15., 183., 191.,
          191., 191., 191., 191., 191., 191., 191., 191., 191., 191.,
          191., 193., 196., 196., 196., 191., 191., 185., 85., 1., 1.,
          73., 193., 191., 191., 191., 191., 191., 191., 191., 191.,
          191., 191., 191., 191., 191., 191., 191., 191., 171., 44., 21.,
          3., 1., 54., 192., 191., 191., 191., 191., 191., 191., 191.,
          191., 191., 191., 191., 191., 191., 191., 191., 191., 191.,
          166., 1., 1., 1., 1., 87., 181., 193., 191., 191., 191., 191.,
          191., 191., 191., 191., 191., 191., 191., 191., 191., 191.,
          191., 191., 175., 61., 46., 8., 1., 1., 25., 183., 191., 191.,
          191., 191., 191., 191., 191., 191., 191., 191., 191., 191.,
          191., 191., 191., 191., 191., 192., 191., 159., 18., 1., 2.,
          123., 193., 191., 191., 191., 191., 191., 191., 191., 191.,
          191., 191., 192., 186., 181., 181., 189., 192., 191., 191.,
          193., 61., 1., 1., 91., 197., 191., 191., 191., 191., 191.,
          191., 191., 191., 191., 191., 196., 107., 25., 25., 105., 194.,
          191., 191., 191., 46., 1., 1., 93., 197., 191., 191., 191.,
          191., 191., 191., 191., 191., 191., 191., 194., 136., 5., 1.,
          14., 150., 187., 185., 125., 7., 1., 3., 135., 193., 191.,
          191., 191., 191., 191., 191., 191., 191., 191., 191., 191.,
          184., 28., 1., 1., 6., 19., 16., 4., 1., 1., 30., 186., 191.,
          191., 191., 191., 191., 191., 191., 191., 191., 191., 191.,
          191., 192., 168., 54., 1., 1., 1., 1., 1., 5., 69., 180., 193.,
          191., 191., 191., 191., 191., 191., 191., 191., 191., 191.,
          191., 191., 191., 191., 195., 148., 93., 66., 70., 101., 165.,
          198., 191., 191., 191., 191., 191., 191., 191., 191., 191.,
          191., 191., 191., 191., 191., 191., 191., 191., 194., 193.,
          192., 193., 194., 193., 191., 191., 191., 191., 191., 191.,
          191., 191., 191., 191., 191. ]
      - [ 245., 245., 245., 245., 245., 245., 245., 245., 245., 245.,
          245., 245., 245., 245., 245., 245., 245., 245., 245., 245.,
          245., 245., 245., 245., 245., 245., 245., 245., 245., 245.,
          245., 245., 245., 245., 245., 245., 245., 245., 245., 245.,
          245., 245., 245., 245., 245., 245., 245., 245., 245., 245.,
          245., 245., 245., 245., 245., 245., 245., 245., 245., 245.,
          245., 245., 245., 245., 245., 245., 245., 245., 245., 245.,
          245., 245., 245., 245., 245., 245., 245., 246., 248., 248.,
          248., 248., 246., 245., 245., 245., 245., 245., 245., 245.,
          245., 245., 245., 245., 245., 245., 245., 245., 245., 245.,
          249., 238., 162., 112., 116., 150., 230., 251., 245., 245.,
          245., 245., 245., 245., 245., 245., 245., 245., 245., 245.,
          245., 245., 245., 247., 151., 29., 1., 1., 1., 1., 22., 128.,
          244., 245., 245., 245., 245., 245., 245., 245., 245., 245.,
          245., 245., 245., 245., 246., 164., 1., 1., 3., 10., 9., 2.,
          1., 2., 159., 249., 245., 245., 245., 245., 245., 245., 245.,
          245., 245., 245., 245., 245., 244., 54., 1., 1., 130., 224.,
          216., 102., 2., 1., 31., 239., 245., 245., 245., 245., 245.,
          245., 245., 245., 245., 245., 245., 245., 231., 39., 26., 41.,
          242., 245., 247., 209., 11., 1., 6., 225., 245., 245., 245.,
          245., 245., 245., 245., 245., 245., 245., 245., 245., 243.,
          227., 226., 231., 246., 247., 250., 184., 6., 1., 36., 242.,
          245., 245., 245., 245., 245., 245., 245., 245., 245., 245.,
          245., 245., 245., 245., 245., 245., 239., 169., 142., 31., 1.,
          20., 176., 249., 245., 245., 245., 245., 245., 245., 245.,
          245., 245., 245., 245., 245., 245., 245., 245., 245., 225., 5.,
          2., 1., 1., 155., 254., 245., 245., 245., 245., 245., 245.,
          245., 245., 245., 245., 245., 245., 245., 245., 245., 245.,
          245., 228., 36., 27., 1., 1., 12., 104., 240., 245., 245.,
          245., 245., 245., 245., 245., 245., 245., 245., 245., 245.,
          245., 245., 245., 245., 245., 245., 242., 176., 16., 1., 1.,
          153., 245., 245., 245., 245., 245., 245., 245., 245., 245.,
          245., 245., 245., 249., 252., 252., 249., 245., 246., 246.,
          246., 95., 1., 1., 93., 253., 245., 245., 245., 245., 245.,
          245., 245., 245., 245., 245., 248., 192., 114., 114., 175.,
          249., 245., 245., 247., 109., 1., 1., 84., 255., 245., 245.,
          245., 245., 245., 245., 245., 245., 245., 245., 249., 185., 4.,
          1., 35., 235., 249., 251., 238., 45., 1., 1., 116., 250., 245.,
          245., 245., 245., 245., 245., 245., 245., 245., 245., 245.,
          239., 43., 1., 1., 56., 139., 136., 54., 1., 1., 11., 198.,
          245., 245., 245., 245., 245., 245., 245., 245., 245., 245.,
          245., 245., 246., 186., 5., 1., 1., 1., 1., 1., 1., 10., 174.,
          250., 245., 245., 245., 245., 245., 245., 245., 245., 245.,
          245., 245., 245., 245., 248., 206., 109., 60., 37., 39., 59.,
          110., 199., 248., 245., 245., 245., 245., 245., 245., 245.,
          245., 245., 245., 245., 245., 245., 245., 245., 245., 253.,
          253., 245., 246., 254., 251., 245., 245., 245., 245., 245.,
          245., 245., 245., 245., 245., 245., 245., 245., 245., 245.,
          245., 245., 245., 245., 245., 247., 246., 245., 245., 245.,
          245., 245., 245., 245., 245., 245., 245., 245., 245., 245.,
          245., 245., 245., 245., 245., 245., 245., 245., 246., 211.,
          237., 245., 245., 245., 245., 245., 245., 245., 245., 245.,
          245., 245., 245., 245., 245., 245., 245., 245., 245., 245.,
          245., 245., 222., 38., 139., 251., 245., 245., 245., 245.,
          245., 245., 245., 245., 245., 245., 245., 245., 245., 245. ]
      - [ 193., 191., 191., 191., 191., 191., 191., 191., 191., 191.,
          191., 191., 191., 191., 191., 191., 191., 191., 191., 191.,
          191., 191., 191., 191., 191., 191., 191., 191., 191., 191.,
          191., 191., 191., 191., 191., 191., 191., 191., 191., 191.,
          191., 191., 191., 191., 191., 191., 191., 191., 191., 191.,
          191., 191., 191., 191., 191., 191., 191., 191., 191., 191.,
          191., 191., 191., 191., 191., 191., 191., 191., 191., 191.,
          191., 191., 191., 191., 191., 191., 191., 191., 191., 191.,
          191., 191., 191., 191., 191., 191., 191., 191., 191., 191.,
          191., 191., 191., 191., 191., 191., 191., 191., 191., 191.,
          191., 191., 191., 191., 191., 191., 191., 191., 191., 191.,
          191., 191., 191., 191., 191., 191., 191., 191., 191., 191.,
          191., 191., 191., 191., 191., 191., 191., 191., 191., 192.,
          178., 164., 161., 169., 185., 193., 191., 191., 191., 191.,
          191., 191., 191., 191., 191., 191., 191., 191., 191., 191.,
          191., 191., 189., 111., 56., 51., 51., 52., 57., 146., 195.,
          191., 191., 191., 191., 191., 191., 191., 191., 191., 191.,
          191., 191., 191., 191., 192., 91., 49., 49., 49., 49., 49.,
          49., 53., 128., 191., 191., 191., 191., 191., 191., 191., 191.,
          191., 191., 191., 191., 191., 194., 137., 49., 49., 64., 139.,
          155., 91., 49., 49., 64., 180., 191., 191., 191., 191., 191.,
          191., 191., 191., 191., 191., 191., 191., 189., 61., 49., 54.,
          159., 193., 193., 173., 49., 49., 55., 165., 192., 191., 191.,
          191., 191., 191., 191., 191., 191., 191., 191., 191., 188.,
          142., 140., 144., 187., 191., 191., 178., 52., 49., 57., 169.,
          192., 191., 191., 191., 191., 191., 191., 191., 191., 191.,
          191., 191., 191., 192., 192., 191., 191., 189., 186., 116.,
          49., 49., 79., 188., 191., 191., 191., 191., 191., 191., 191.,
          191., 191., 191., 191., 191., 191., 191., 191., 191., 195.,
          104., 59., 49., 49., 84., 177., 191., 191., 191., 191., 191.,
          191., 191., 191., 191., 191., 191., 191., 191., 191., 191.,
          191., 191., 195., 94., 49., 49., 49., 52., 121., 192., 191.,
          191., 191., 191., 191., 191., 191., 191., 191., 191., 191.,
          191., 191., 191., 191., 191., 193., 161., 145., 118., 54., 49.,
          52., 137., 193., 191., 191., 191., 191., 191., 191., 191.,
          191., 191., 191., 191., 191., 191., 191., 191., 191., 191.,
