%YAML:1.0
---
opencv_ml_svm:
   format: 3
   svmType: C_SVC
   kernel:
      type: POLY
      degree: 3.
      gamma: 3.
      coef0: 0.
   C: 1.
   term_criteria: { iterations:100 }
   var_count: 1400
   class_count: 3
   class_labels: !!opencv-matrix
      rows: 3
      cols: 1
      dt: i
      data: [ 0, 1, 2 ]
   sv_total: 4
   support_vectors:
      - [ 24., 24., 24., 24., 24., 24., 24., 23., 23., 23., 23., 23.,
          23., 23., 23., 21., 21., 21., 21., 21., 21., 21., 21., 21.,
          21., 21., 21., 21., 21., 21., 21., 22., 22., 22., 22., 21.,
          21., 20., 20., 20., 20., 20., 20., 20., 20., 20., 20., 20.,
          20., 20., 20., 18., 18., 18., 18., 19., 19., 19., 19., 18.,
          18., 18., 18., 17., 17., 17., 17., 17., 17., 17., 24., 24.,
          24., 24., 24., 24., 24., 23., 23., 23., 23., 23., 23., 23.,
          23., 21., 21., 21., 21., 21., 21., 21., 21., 21., 21., 21.,
          21., 21., 21., 21., 21., 22., 22., 22., 22., 21., 21., 20.,
          20., 20., 20., 20., 20., 20., 20., 20., 20., 20., 20., 20.,
          20., 18., 18., 18., 18., 19., 19., 19., 19., 18., 18., 18.,
          18., 17., 17., 17., 17., 17., 17., 17., 24., 24., 24., 24.,
          24., 24., 24., 23., 23., 23., 23., 23., 23., 23., 23., 21.,
          21., 21., 21., 21., 21., 21., 21., 21., 21., 21., 21., 21.,
          21., 21., 21., 22., 22., 22., 22., 21., 21., 20., 20., 20.,
          20., 20., 20., 20., 20., 20., 20., 20., 20., 20., 20., 18.,
          18., 18., 18., 19., 19., 19., 19., 18., 18., 18., 18., 17.,
          17., 17., 17., 17., 17., 17., 24., 24., 24., 24., 24., 24.,
          24., 23., 23., 23., 23., 23., 23., 23., 23., 21., 21., 21.,
          21., 21., 21., 21., 21., 21., 21., 21., 21., 21., 21., 21.,
          21., 22., 22., 22., 22., 21., 21., 20., 20., 20., 20., 20.,
          20., 20., 20., 20., 20., 20., 20., 20., 20., 18., 18., 18.,
          18., 19., 19., 19., 19., 18., 18., 18., 18., 17., 17., 17.,
          17., 17., 17., 17., 24., 24., 24., 23., 23., 23., 23., 23.,
          23., 23., 23., 21., 21., 21., 21., 21., 21., 21., 21., 21.,
          21., 21., 21., 22., 22., 22., 22., 22., 22., 22., 22., 21.,
          21., 21., 21., 20., 20., 20., 20., 20., 20., 20., 20., 20.,
          20., 20., 20., 19., 19., 19., 19., 19., 19., 19., 19., 19.,
          19., 19., 19., 18., 18., 18., 18., 17., 17., 17., 17., 17.,
          17., 17., 24., 24., 24., 23., 23., 23., 23., 23., 23., 23.,
          23., 21., 21., 21., 21., 21., 21., 21., 21., 21., 21., 21.,
          21., 22., 22., 22., 22., 22., 22., 22., 22., 21., 21., 21.,
          21., 20., 20., 20., 20., 20., 20., 20., 20., 20., 20., 20.,
          20., 19., 19., 19., 19., 19., 19., 19., 19., 19., 19., 19.,
          19., 18., 18., 18., 18., 17., 17., 17., 17., 17., 17., 17.,
          24., 24., 24., 23., 23., 23., 23., 23., 23., 23., 23., 21.,
          21., 21., 21., 21., 21., 21., 21., 21., 21., 21., 21., 21.,
          21., 21., 21., 22., 22., 22., 22., 21., 21., 21., 21., 20.,
          20., 20., 20., 20., 20., 20., 20., 20., 20., 20., 20., 19.,
          19., 19., 19., 19., 19., 19., 19., 19., 19., 19., 19., 18.,
          18., 18., 18., 17., 17., 17., 17., 17., 17., 17., 24., 24.,
          24., 23., 23., 23., 23., 23., 23., 23., 23., 21., 21., 21.,
          21., 21., 21., 21., 21., 21., 21., 21., 21., 21., 21., 21.,
          21., 22., 22., 22., 22., 21., 21., 21., 21., 20., 20., 20.,
          20., 20., 20., 20., 20., 20., 20., 20., 20., 19., 19., 19.,
          19., 19., 19., 19., 19., 19., 19., 19., 19., 18., 18., 18.,
          18., 17., 17., 17., 17., 17., 17., 17., 23., 23., 23., 23.,
          23., 23., 22., 21., 21., 21., 21., 21., 21., 21., 21., 21.,
          21., 21., 21., 21., 21., 21., 21., 21., 21., 21., 21., 21.,
          21., 21., 21., 20., 20., 20., 20., 20., 19., 19., 19., 20.,
          20., 20., 20., 19., 19., 19., 19., 19., 19., 19., 19., 19.,
          19., 19., 19., 17., 17., 17., 17., 17., 17., 17., 17., 17.,
          17., 17., 17., 16., 16., 16., 23., 23., 23., 23., 23., 23.,
          22., 21., 21., 21., 21., 21., 21., 21., 21., 21., 21., 21.,
          21., 21., 21., 21., 21., 21., 21., 21., 21., 21., 21., 21.,
          21., 20., 20., 20., 20., 20., 19., 19., 19., 20., 20., 20.,
          20., 19., 19., 19., 19., 19., 19., 19., 19., 19., 19., 19.,
          19., 17., 17., 17., 17., 17., 17., 17., 17., 17., 17., 17.,
          17., 16., 16., 16., 23., 23., 23., 23., 23., 23., 22., 21.,
          21., 21., 21., 21., 21., 21., 21., 21., 21., 21., 21., 21.,
          21., 21., 21., 21., 21., 21., 21., 21., 21., 21., 21., 20.,
          20., 20., 20., 20., 19., 19., 19., 20., 20., 20., 20., 19.,
          19., 19., 19., 19., 19., 19., 19., 19., 19., 19., 19., 17.,
          17., 17., 17., 17., 17., 17., 17., 17., 17., 17., 17., 16.,
          16., 16., 23., 23., 23., 23., 23., 23., 22., 21., 21., 21.,
          21., 21., 21., 21., 21., 21., 21., 21., 21., 21., 21., 21.,
          21., 21., 21., 21., 21., 21., 21., 21., 21., 20., 20., 20.,
          20., 20., 19., 19., 19., 20., 20., 20., 20., 19., 19., 19.,
          19., 19., 19., 19., 19., 19., 19., 19., 19., 17., 17., 17.,
          17., 17., 17., 17., 17., 17., 17., 17., 17., 16., 16., 16.,
          22., 22., 22., 21., 21., 21., 21., 21., 21., 21., 21., 21.,
          21., 21., 21., 21., 21., 21., 21., 21., 21., 21., 21., 21.,
          21., 21., 21., 20., 20., 20., 20., 20., 20., 20., 20., 20.,
          20., 20., 20., 20., 20., 20., 20., 19., 19., 19., 19., 19.,
          19., 19., 19., 17., 17., 17., 17., 17., 17., 17., 17., 17.,
          17., 17., 17., 16., 16., 16., 16., 16., 16., 16., 22., 22.,
          22., 21., 21., 21., 21., 21., 21., 21., 21., 21., 21., 21.,
          21., 21., 21., 21., 21., 21., 21., 21., 21., 21., 21., 21.,
          21., 20., 20., 20., 20., 20., 20., 20., 20., 20., 20., 20.,
          20., 20., 20., 20., 20., 19., 19., 19., 19., 19., 19., 19.,
          19., 17., 17., 17., 17., 17., 17., 17., 17., 17., 17., 17.,
          17., 16., 16., 16., 16., 16., 16., 16., 22., 22., 22., 21.,
          21., 21., 21., 21., 21., 21., 21., 21., 21., 21., 21., 21.,
          21., 21., 21., 21., 21., 21., 21., 21., 21., 21., 21., 20.,
          20., 20., 20., 20., 20., 20., 20., 20., 20., 20., 20., 20.,
          20., 20., 20., 19., 19., 19., 19., 19., 19., 19., 19., 17.,
          17., 17., 17., 17., 17., 17., 17., 17., 17., 17., 17., 16.,
          16., 16., 16., 16., 16., 16., 22., 22., 22., 21., 21., 21.,
          21., 21., 21., 21., 21., 21., 21., 21., 21., 21., 21., 21.,
          21., 21., 21., 21., 21., 21., 21., 21., 21., 20., 20., 20.,
          20., 20., 20., 20., 20., 20., 20., 20., 20., 20., 20., 20.,
          20., 19., 19., 19., 19., 19., 19., 19., 19., 17., 17., 17.,
          17., 17., 17., 17., 17., 17., 17., 17., 17., 16., 16., 16.,
          16., 16., 16., 16., 21., 21., 21., 21., 21., 21., 21., 21.,
          21., 21., 21., 21., 21., 21., 21., 22., 22., 22., 22., 21.,
          21., 21., 21., 20., 20., 20., 20., 20., 20., 20., 20., 20.,
          20., 20., 20., 19., 19., 19., 19., 19., 19., 19., 19., 19.,
          19., 19., 19., 17., 17., 17., 17., 17., 17., 17., 17., 17.,
          17., 17., 17., 17., 17., 17., 17., 16., 16., 16., 16., 16.,
          16., 16., 9., 9., 9., 9., 9., 9., 9., 9., 9., 9., 9., 9., 9.,
          9., 9., 9., 9., 9., 9., 9., 9., 9., 9., 8., 8., 8., 8., 8., 8.,
          8., 8., 8., 8., 8., 8., 8., 8., 8., 8., 8., 8., 8., 8., 8., 8.,
          8., 8., 7., 7., 7., 7., 7., 7., 7., 7., 7., 7., 7., 7., 7., 7.,
          7., 7., 7., 7., 7., 7., 7., 7., 7., 39., 39., 39., 39., 39.,
          39., 39., 39., 39., 39., 39., 39., 39., 39., 39., 39., 39.,
          39., 39., 39., 39., 39., 39., 38., 38., 38., 38., 38., 38.,
          38., 38., 38., 38., 38., 38., 38., 38., 38., 38., 38., 38.,
          38., 38., 38., 38., 38., 38., 38., 38., 38., 38., 38., 38.,
          38., 38., 38., 38., 38., 38., 38., 38., 38., 38., 38., 38.,
          38., 38., 38., 38., 38., 9., 9., 9., 9., 9., 9., 9., 9., 9.,
          9., 9., 8., 8., 8., 8., 9., 9., 9., 9., 9., 9., 9., 9., 8., 8.,
          8., 8., 8., 8., 8., 8., 8., 8., 8., 8., 8., 8., 8., 8., 8., 8.,
          8., 8., 8., 8., 8., 8., 7., 7., 7., 7., 7., 7., 7., 7., 7., 7.,
          7., 7., 7., 7., 7., 7., 7., 7., 7., 7., 7., 7., 7. ]
      - [ 106., 106., 106., 106., 106., 106., 106., 106., 106., 106.,
          106., 106., 106., 106., 106., 106., 106., 106., 106., 106.,
          106., 106., 106., 106., 106., 106., 106., 106., 106., 106.,
          106., 106., 106., 106., 106., 106., 106., 106., 106., 106.,
          106., 106., 106., 106., 106., 106., 106., 106., 106., 106.,
          106., 106., 106., 106., 106., 106., 106., 106., 106., 106.,
          106., 106., 106., 106., 106., 106., 106., 106., 106., 106.,
          110., 110., 110., 110., 110., 110., 110., 110., 110., 110.,
          110., 110., 110., 110., 110., 110., 110., 110., 110., 110.,
          110., 110., 110., 110., 110., 110., 110., 110., 110., 110.,
          110., 110., 110., 110., 110., 110., 110., 110., 110., 110.,
          110., 110., 110., 110., 110., 110., 110., 110., 110., 110.,
          110., 110., 110., 110., 110., 110., 110., 110., 110., 110.,
          110., 110., 110., 110., 110., 110., 110., 110., 110., 110.,
          112., 112., 112., 112., 112., 112., 112., 112., 112., 112.,
          112., 112., 112., 112., 112., 112., 112., 112., 112., 112.,
          112., 112., 112., 112., 112., 112., 112., 112., 112., 112.,
          112., 112., 112., 112., 112., 112., 112., 112., 112., 112.,
          112., 112., 112., 112., 112., 112., 112., 112., 112., 112.,
          112., 112., 112., 112., 112., 112., 112., 112., 112., 112.,
          112., 112., 112., 112., 112., 112., 112., 112., 112., 112.,
          113., 113., 113., 113., 113., 113., 113., 113., 113., 113.,
          113., 113., 113., 113., 113., 113., 113., 113., 113., 113.,
          113., 113., 113., 113., 113., 113., 113., 113., 113., 113.,
          113., 113., 113., 113., 113., 113., 113., 113., 113., 113.,
          113., 113., 113., 113., 113., 113., 113., 113., 113., 113.,
          113., 113., 113., 113., 113., 113., 113., 113., 113., 113.,
          113., 113., 113., 113., 113., 113., 113., 113., 113., 113.,
          116., 116., 116., 116., 116., 116., 116., 116., 116., 116.,
          116., 116., 116., 116., 116., 116., 116., 116., 116., 116.,
          116., 116., 116., 116., 116., 116., 116., 116., 116., 116.,
          116., 116., 116., 116., 116., 116., 116., 116., 116., 116.,
          116., 116., 116., 116., 116., 116., 116., 116., 116., 116.,
          116., 116., 116., 116., 116., 116., 116., 116., 116., 116.,
          116., 116., 116., 116., 116., 116., 116., 116., 116., 116.,
          118., 118., 118., 118., 118., 118., 118., 118., 118., 118.,
          118., 118., 118., 118., 118., 118., 118., 118., 118., 118.,
          118., 118., 118., 118., 118., 118., 118., 118., 118., 118.,
          118., 118., 118., 118., 118., 118., 118., 118., 118., 118.,
          118., 118., 118., 118., 118., 118., 118., 118., 118., 118.,
          118., 118., 118., 118., 118., 118., 118., 118., 118., 118.,
          118., 118., 118., 118., 118., 118., 118., 118., 118., 118.,
          120., 120., 120., 120., 120., 120., 120., 120., 120., 120.,
          120., 120., 120., 120., 120., 120., 120., 120., 120., 120.,
          120., 120., 120., 120., 120., 120., 120., 120., 120., 120.,
          120., 120., 120., 120., 120., 120., 120., 120., 120., 120.,
          120., 120., 120., 120., 120., 120., 120., 120., 120., 120.,
          120., 120., 120., 120., 120., 120., 120., 120., 120., 120.,
          120., 120., 120., 120., 120., 120., 120., 120., 120., 120.,
          122., 122., 122., 122., 122., 122., 122., 122., 122., 122.,
          122., 122., 122., 122., 122., 122., 122., 122., 122., 122.,
          122., 122., 122., 125., 221., 197., 122., 122., 122., 122.,
          122., 122., 122., 122., 122., 122., 122., 122., 122., 122.,
          122., 122., 122., 122., 122., 122., 122., 122., 122., 122.,
          122., 122., 122., 122., 122., 122., 122., 122., 122., 122.,
          122., 122., 122., 122., 122., 122., 122., 122., 122., 122.,
          123., 123., 123., 123., 123., 123., 123., 123., 123., 123.,
          123., 123., 123., 123., 123., 123., 134., 210., 175., 123.,
          134., 218., 151., 151., 249., 162., 123., 123., 123., 123.,
          123., 123., 123., 123., 123., 123., 123., 123., 123., 123.,
          123., 123., 123., 123., 123., 123., 123., 123., 123., 123.,
          123., 123., 123., 123., 123., 123., 123., 123., 123., 123.,
          123., 123., 123., 123., 123., 123., 123., 123., 123., 123.,
          125., 125., 125., 125., 125., 125., 125., 125., 125., 125.,
          125., 125., 125., 125., 125., 125., 126., 170., 247., 156.,
          223., 208., 129., 212., 212., 224., 125., 125., 125., 125.,
          125., 125., 125., 125., 125., 125., 125., 125., 125., 125.,
          125., 125., 125., 125., 125., 125., 125., 125., 125., 125.,
          125., 125., 125., 125., 125., 125., 125., 125., 125., 125.,
          125., 125., 125., 125., 125., 125., 125., 125., 125., 125.,
          128., 128., 128., 128., 128., 128., 128., 128., 128., 128.,
          128., 128., 128., 128., 128., 128., 128., 129., 204., 247.,
          236., 136., 143., 239., 245., 244., 161., 240., 248., 247.,
          205., 128., 128., 165., 249., 161., 245., 176., 230., 247.,
          250., 176., 221., 248., 249., 229., 146., 238., 247., 249.,
          205., 128., 128., 128., 128., 128., 128., 128., 128., 128.,
          128., 128., 128., 128., 128., 128., 128., 128., 128., 128.,
          129., 129., 129., 129., 129., 129., 129., 129., 129., 129.,
          129., 129., 129., 129., 129., 129., 129., 129., 169., 254.,
          206., 129., 192., 239., 191., 230., 213., 240., 164., 147.,
          248., 137., 129., 129., 204., 251., 208., 175., 237., 135.,
          178., 233., 226., 187., 149., 242., 188., 220., 132., 205.,
          207., 129., 129., 129., 129., 129., 129., 129., 129., 129.,
          129., 129., 129., 129., 129., 129., 129., 129., 129., 129.,
          131., 131., 131., 131., 131., 131., 131., 131., 131., 131.,
          131., 131., 131., 131., 131., 131., 131., 142., 241., 206.,
          250., 167., 198., 235., 204., 206., 184., 240., 157., 138.,
          247., 141., 131., 131., 187., 255., 197., 179., 225., 133.,
          166., 234., 227., 178., 148., 241., 193., 211., 133., 193.,
          208., 131., 131., 131., 131., 131., 131., 131., 131., 131.,
          131., 131., 131., 131., 131., 131., 131., 131., 131., 131.,
          132., 132., 132., 132., 132., 132., 132., 132., 132., 132.,
          132., 132., 132., 132., 132., 132., 140., 220., 222., 136.,
          197., 242., 185., 247., 202., 237., 195., 242., 224., 220.,
          233., 133., 132., 157., 251., 182., 250., 181., 249., 204.,
          231., 213., 225., 178., 148., 241., 166., 246., 212., 246.,
          209., 132., 132., 132., 132., 132., 132., 132., 132., 132.,
          132., 132., 132., 132., 132., 132., 132., 132., 132., 132.,
          134., 134., 134., 134., 134., 134., 134., 134., 134., 134.,
          134., 134., 134., 134., 134., 134., 140., 170., 146., 134.,
          137., 169., 149., 164., 205., 179., 142., 241., 200., 191.,
          146., 134., 134., 154., 165., 135., 163., 157., 158., 204.,
          183., 142., 162., 148., 139., 167., 160., 204., 172., 221.,
          196., 134., 134., 134., 134., 134., 134., 134., 134., 134.,
          134., 134., 134., 134., 134., 134., 134., 134., 134., 134.,
          137., 137., 137., 137., 137., 137., 137., 137., 137., 137.,
          137., 137., 137., 137., 137., 137., 137., 137., 137., 137.,
          137., 137., 137., 137., 137., 137., 140., 241., 160., 137.,
          137., 137., 137., 137., 137., 137., 137., 137., 137., 137.,
          137., 137., 137., 137., 137., 137., 157., 245., 239., 248.,
          161., 137., 137., 137., 137., 137., 137., 137., 137., 137.,
          137., 137., 137., 137., 137., 137., 137., 137., 137., 137.,
          138., 138., 138., 138., 138., 138., 138., 138., 138., 138.,
          138., 138., 138., 138., 138., 138., 138., 138., 138., 138.,
          138., 138., 138., 138., 138., 138., 139., 151., 140., 138.,
          138., 138., 138., 138., 138., 138., 138., 138., 138., 138.,
          138., 138., 138., 138., 138., 138., 138., 147., 162., 148.,
          138., 138., 138., 138., 138., 138., 138., 138., 138., 138.,
          138., 138., 138., 138., 138., 138., 138., 138., 138., 138.,
          61., 61., 61., 61., 61., 61., 61., 61., 61., 61., 61., 61.,
          61., 61., 61., 61., 61., 61., 61., 61., 61., 61., 61., 61.,
          61., 61., 61., 61., 61., 61., 61., 61., 61., 61., 61., 61.,
          61., 61., 61., 61., 61., 61., 61., 61., 61., 61., 61., 61.,
          61., 61., 61., 61., 61., 61., 61., 61., 61., 61., 61., 61.,
          61., 61., 61., 61., 61., 61., 61., 61., 61., 61., 65., 65.,
          65., 65., 65., 65., 65., 65., 65., 65., 65., 65., 65., 65.,
          65., 65., 65., 65., 65., 65., 65., 65., 65., 65., 65., 65.,
          65., 65., 65., 65., 65., 65., 65., 65., 65., 65., 65., 65.,
          65., 65., 65., 65., 65., 65., 65., 65., 65., 65., 65., 65.,
          65., 65., 65., 65., 65., 65., 65., 65., 65., 65., 65., 65.,
          65., 65., 65., 65., 65., 65., 65., 65., 62., 62., 62., 62.,
          62., 62., 62., 62., 62., 62., 62., 62., 62., 62., 62., 62.,
          62., 62., 62., 62., 62., 62., 62., 62., 62., 62., 62., 62.,
          62., 62., 62., 62., 62., 62., 62., 62., 62., 62., 62., 62.,
          62., 62., 62., 62., 62., 62., 62., 62., 62., 62., 62., 62.,
          62., 62., 62., 62., 62., 62., 62., 62., 62., 62., 62., 62.,
          62., 62., 62., 62., 62., 62. ]
      - [ 106., 106., 106., 106., 106., 106., 106., 106., 106., 106.,
          106., 106., 106., 106., 106., 106., 106., 106., 106., 106.,
          106., 106., 106., 106., 106., 106., 106., 106., 106., 106.,
          106., 106., 106., 106., 106., 106., 106., 106., 106., 106.,
          106., 106., 106., 106., 106., 106., 106., 106., 106., 106.,
          106., 106., 106., 106., 106., 106., 106., 106., 105., 105.,
          105., 105., 105., 104., 104., 104., 104., 104., 103., 103.,
          110., 110., 110., 110., 110., 110., 110., 110., 110., 110.,
          110., 110., 110., 110., 110., 110., 110., 110., 110., 110.,
          110., 110., 110., 110., 110., 110., 110., 110., 110., 110.,
          110., 110., 110., 110., 110., 110., 110., 110., 110., 110.,
          110., 110., 110., 110., 110., 110., 110., 110., 110., 110.,
          110., 110., 110., 110., 110., 110., 110., 110., 109., 109.,
          109., 109., 109., 109., 109., 108., 107., 107., 107., 107.,
          112., 112., 112., 112., 112., 112., 112., 112., 112., 112.,
          112., 112., 112., 112., 112., 112., 112., 112., 112., 112.,
          112., 112., 112., 112., 112., 112., 112., 112., 112., 112.,
          112., 112., 112., 112., 112., 112., 112., 112., 112., 112.,
          112., 112., 112., 112., 112., 112., 112., 112., 112., 112.,
          112., 112., 112., 112., 112., 112., 112., 112., 111., 111.,
          111., 111., 111., 110., 110., 110., 109., 109., 109., 108.,
          113., 113., 113., 113., 113., 113., 113., 113., 113., 113.,
          113., 113., 113., 113., 113., 113., 113., 113., 113., 113.,
          113., 113., 113., 113., 113., 113., 113., 113., 113., 113.,
          113., 113., 113., 113., 113., 113., 113., 113., 113., 113.,
          113., 113., 113., 113., 113., 113., 113., 113., 113., 113.,
          113., 113., 113., 113., 113., 113., 113., 113., 112., 112.,
          112., 112., 112., 112., 112., 111., 110., 110., 110., 109.,
          116., 116., 116., 116., 116., 116., 116., 116., 116., 116.,
          116., 116., 116., 116., 116., 116., 116., 116., 116., 116.,
          116., 116., 116., 116., 116., 116., 116., 116., 116., 116.,
          116., 116., 116., 116., 116., 116., 116., 116., 116., 116.,
          116., 116., 116., 116., 116., 116., 116., 116., 116., 116.,
          116., 116., 116., 116., 116., 116., 116., 116., 115., 115.,
          115., 115., 115., 114., 114., 114., 113., 113., 113., 112.,
          118., 118., 118., 118., 118., 118., 118., 118., 118., 118.,
          118., 118., 118., 118., 118., 118., 118., 118., 118., 118.,
          118., 118., 118., 118., 118., 118., 118., 118., 118., 118.,
          118., 118., 118., 118., 118., 118., 118., 118., 118., 118.,
          118., 118., 118., 118., 118., 118., 118., 118., 118., 118.,
          118., 118., 117., 117., 117., 117., 117., 117., 117., 117.,
          117., 117., 117., 116., 116., 116., 115., 115., 115., 114.,
          120., 120., 120., 120., 120., 120., 120., 120., 120., 120.,
          120., 120., 120., 120., 120., 120., 120., 120., 120., 120.,
          120., 120., 120., 120., 120., 120., 120., 120., 120., 120.,
          120., 120., 120., 120., 120., 120., 120., 120., 120., 120.,
          120., 120., 120., 120., 120., 120., 120., 120., 120., 120.,
          120., 120., 120., 120., 120., 120., 120., 120., 119., 119.,
          119., 119., 119., 118., 118., 118., 117., 117., 117., 116.,
          122., 122., 122., 122., 122., 122., 122., 122., 122., 122.,
          122., 122., 122., 122., 122., 122., 122., 122., 122., 122.,
          122., 122., 122., 122., 122., 122., 122., 122., 125., 250.,
          156., 122., 122., 122., 122., 122., 122., 122., 122., 122.,
          122., 122., 122., 122., 122., 122., 122., 122., 122., 122.,
          122., 122., 122., 122., 122., 122., 122., 122., 121., 121.,
          121., 121., 121., 120., 120., 120., 119., 119., 119., 118.,
          123., 123., 123., 123., 123., 123., 123., 123., 123., 123.,
          123., 123., 123., 123., 123., 123., 123., 123., 123., 123.,
          123., 130., 222., 142., 123., 140., 220., 123., 172., 252.,
          123., 123., 123., 123., 123., 123., 123., 123., 151., 208.,
          123., 123., 123., 123., 128., 218., 125., 123., 123., 123.,
          123., 123., 123., 123., 123., 123., 123., 123., 122., 122.,
          122., 122., 122., 121., 121., 121., 120., 120., 120., 119.,
          125., 125., 125., 125., 125., 125., 125., 125., 125., 125.,
          125., 125., 125., 125., 125., 125., 125., 125., 125., 125.,
          125., 126., 198., 244., 131., 250., 174., 128., 238., 199.,
          215., 125., 125., 125., 125., 125., 125., 125., 162., 237.,
          125., 125., 125., 125., 127., 161., 126., 125., 125., 125.,
          125., 125., 125., 125., 125., 125., 125., 125., 124., 124.,
          124., 123., 123., 123., 123., 122., 122., 122., 121., 121.,
          128., 128., 128., 128., 128., 128., 128., 128., 128., 128.,
          128., 128., 128., 128., 128., 128., 128., 128., 128., 128.,
          128., 128., 130., 244., 241., 225., 128., 152., 248., 242.,
          239., 129., 253., 248., 253., 175., 128., 128., 163., 237.,
          187., 252., 245., 246., 139., 247., 130., 128., 128., 128.,
          128., 128., 127., 127., 127., 127., 127., 127., 127., 127.,
          127., 126., 126., 125., 125., 125., 125., 125., 124., 124.,
          129., 129., 129., 129., 129., 129., 129., 129., 129., 129.,
          129., 129., 129., 129., 129., 129., 129., 129., 129., 129.,
          129., 129., 129., 198., 255., 172., 129., 238., 228., 191.,
          253., 177., 254., 131., 160., 248., 129., 129., 164., 238.,
          176., 183., 191., 253., 144., 250., 131., 129., 129., 129.,
          129., 129., 128., 128., 128., 128., 128., 128., 128., 128.,
          128., 128., 128., 127., 127., 127., 126., 126., 125., 125.,
          131., 131., 131., 131., 131., 131., 131., 131., 131., 131.,
          131., 131., 131., 131., 131., 131., 131., 131., 131., 131.,
          131., 131., 147., 253., 179., 250., 131., 246., 219., 204.,
          207., 157., 254., 131., 140., 250., 131., 131., 165., 238.,
          228., 244., 207., 251., 146., 250., 133., 131., 131., 131.,
          131., 131., 130., 130., 130., 130., 130., 130., 130., 130.,
          130., 130., 130., 129., 129., 129., 128., 128., 128., 127.,
          132., 132., 132., 132., 132., 132., 132., 132., 132., 132.,
          132., 132., 132., 132., 132., 132., 132., 132., 132., 132.,
          132., 137., 248., 200., 133., 234., 235., 200., 243., 197.,
          253., 147., 255., 203., 239., 214., 132., 132., 166., 238.,
          245., 208., 207., 254., 148., 250., 134., 132., 132., 132.,
          132., 132., 131., 131., 131., 131., 131., 131., 131., 131.,
          131., 130., 130., 130., 130., 130., 129., 129., 128., 128.,
          134., 134., 134., 134., 134., 134., 134., 134., 134., 134.,
          134., 134., 134., 134., 134., 134., 134., 134., 134., 134.,
          134., 138., 170., 134., 134., 138., 171., 135., 172., 207.,
          166., 136., 254., 199., 176., 135., 134., 134., 145., 166.,
          154., 208., 233., 170., 144., 170., 135., 134., 134., 134.,
          134., 134., 133., 133., 133., 133., 133., 133., 133., 133.,
          133., 132., 132., 132., 132., 131., 131., 131., 130., 130.,
          137., 137., 137., 137., 137., 137., 137., 137., 137., 137.,
          137., 137., 137., 137., 137., 137., 137., 137., 137., 137.,
          137., 137., 137., 137., 137., 137., 137., 137., 137., 137.,
          137., 138., 254., 137., 137., 137., 137., 137., 137., 137.,
          137., 161., 233., 137., 137., 137., 137., 137., 137., 137.,
          137., 137., 136., 136., 136., 136., 136., 136., 136., 136.,
          136., 135., 135., 135., 135., 134., 134., 134., 133., 133.,
          138., 138., 138., 138., 138., 138., 138., 138., 138., 138.,
          138., 138., 138., 138., 138., 138., 138., 138., 138., 138.,
          138., 138., 138., 138., 138., 138., 138., 138., 138., 138.,
          138., 138., 153., 138., 138., 138., 138., 138., 138., 138.,
          138., 138., 138., 138., 138., 138., 138., 138., 138., 138.,
          138., 138., 138., 138., 138., 138., 138., 138., 138., 138.,
          138., 137., 137., 136., 136., 135., 135., 135., 135., 134.,
          61., 61., 61., 61., 61., 61., 61., 61., 61., 61., 61., 61.,
          61., 61., 61., 61., 61., 61., 61., 61., 61., 61., 61., 61.,
          61., 61., 61., 61., 61., 61., 61., 61., 61., 61., 61., 61.,
          61., 61., 61., 61., 61., 61., 61., 61., 61., 61., 61., 61.,
          61., 61., 61., 61., 61., 61., 61., 61., 61., 61., 60., 60.,
          60., 60., 60., 60., 60., 60., 60., 60., 59., 59., 65., 65.,
          65., 65., 65., 65., 65., 65., 65., 65., 65., 65., 65., 65.,
          65., 65., 65., 65., 65., 65., 65., 65., 65., 65., 65., 65.,
          65., 65., 65., 65., 65., 65., 65., 65., 65., 65., 65., 65.,
          65., 65., 65., 65., 65., 65., 65., 65., 65., 65., 65., 65.,
          65., 65., 65., 65., 65., 65., 65., 65., 64., 64., 64., 64.,
          64., 64., 64., 64., 63., 63., 63., 63., 62., 62., 62., 62.,
          62., 62., 62., 62., 62., 62., 62., 62., 62., 62., 62., 62.,
          62., 62., 62., 62., 62., 62., 62., 62., 62., 62., 62., 62.,
          62., 62., 62., 62., 62., 62., 62., 62., 62., 62., 62., 62.,
          62., 62., 62., 62., 62., 62., 62., 62., 62., 62., 62., 62.,
          62., 62., 62., 62., 62., 62., 61., 61., 61., 61., 61., 61.,
          61., 60., 60., 60., 60., 60. ]
      - [ 106., 106., 106., 106., 106., 106., 106., 106., 106., 106.,
          106., 106., 106., 106., 106., 106., 106., 106., 106., 106.,
          106., 106., 106., 106., 106., 106., 106., 106., 106., 106.,
          106., 106., 106., 106., 106., 106., 106., 106., 106., 106.,
          106., 106., 106., 106., 106., 106., 106., 106., 106., 106.,
          106., 106., 106., 106., 106., 106., 106., 106., 106., 106.,
          106., 106., 106., 106., 106., 106., 106., 106., 106., 106.,
          110., 110., 110., 110., 110., 110., 110., 110., 110., 110.,
          110., 110., 110., 110., 110., 110., 110., 110., 110., 110.,
          110., 110., 110., 110., 110., 110., 110., 110., 110., 110.,
          110., 110., 110., 110., 110., 110., 110., 110., 110., 110.,
          110., 110., 110., 110., 110., 110., 110., 110., 110., 110.,
          110., 110., 110., 110., 110., 110., 110., 110., 110., 110.,
          110., 110., 110., 110., 110., 110., 110., 110., 110., 110.,
          112., 112., 112., 112., 112., 112., 112., 112., 112., 112.,
          112., 112., 112., 112., 112., 112., 112., 112., 112., 112.,
          112., 112., 112., 112., 112., 112., 112., 112., 112., 112.,
          112., 112., 112., 112., 112., 112., 112., 112., 112., 112.,
          112., 112., 112., 112., 112., 112., 112., 112., 112., 112.,
          112., 112., 112., 112., 112., 112., 112., 112., 112., 112.,
          112., 112., 112., 112., 112., 112., 112., 112., 112., 112.,
          113., 113., 113., 113., 113., 113., 113., 113., 113., 113.,
          113., 113., 113., 113., 113., 113., 113., 113., 113., 113.,
          113., 113., 113., 113., 113., 113., 113., 113., 113., 113.,
          113., 113., 113., 113., 113., 113., 113., 113., 113., 113.,
          113., 113., 113., 113., 113., 113., 113., 113., 113., 113.,
          113., 113., 113., 113., 113., 113., 113., 113., 113., 113.,
          113., 113., 113., 113., 113., 113., 113., 113., 113., 113.,
          116., 116., 116., 116., 116., 116., 116., 116., 116., 116.,
          116., 116., 116., 116., 116., 116., 116., 116., 116., 116.,
          116., 116., 116., 116., 116., 116., 116., 116., 116., 116.,
          116., 116., 116., 116., 116., 116., 116., 116., 116., 116.,
          116., 116., 116., 116., 116., 116., 116., 116., 116., 116.,
          116., 116., 116., 116., 116., 116., 116., 116., 116., 116.,
          116., 116., 116., 116., 116., 116., 116., 116., 116., 116.,
          118., 118., 118., 118., 118., 118., 118., 118., 118., 118.,
          118., 118., 118., 118., 118., 118., 118., 118., 118., 118.,
          118., 118., 118., 118., 118., 118., 118., 118., 118., 118.,
          118., 118., 118., 118., 118., 118., 118., 118., 118., 118.,
          118., 118., 118., 118., 118., 118., 118., 118., 118., 118.,
          118., 118., 118., 118., 118., 118., 118., 118., 118., 118.,
          118., 118., 118., 118., 118., 118., 118., 118., 118., 118.,
          120., 120., 120., 120., 120., 120., 120., 120., 120., 120.,
          120., 120., 120., 120., 120., 120., 120., 120., 120., 120.,
          120., 120., 120., 120., 120., 120., 120., 120., 120., 120.,
          120., 120., 120., 120., 120., 120., 120., 120., 120., 120.,
          120., 120., 120., 120., 120., 120., 120., 120., 120., 120.,
          120., 120., 120., 120., 120., 120., 120., 120., 120., 120.,
          120., 120., 120., 120., 120., 120., 120., 120., 120., 120.,
          122., 122., 122., 122., 122., 122., 122., 122., 122., 122.,
          122., 122., 122., 122., 122., 122., 122., 122., 122., 122.,
          122., 122., 122., 122., 122., 122., 122., 122., 125., 250.,
          156., 122., 122., 122., 122., 122., 122., 122., 122., 122.,
          122., 122., 122., 122., 122., 122., 122., 122., 122., 122.,
          122., 122., 122., 122., 122., 122., 122., 122., 122., 122.,
          122., 122., 122., 122., 122., 122., 122., 122., 122., 122.,
          123., 123., 123., 123., 123., 123., 123., 123., 123., 123.,
          123., 123., 123., 123., 123., 123., 123., 123., 123., 123.,
          123., 130., 222., 142., 123., 140., 220., 123., 172., 252.,
          123., 123., 123., 123., 123., 123., 123., 123., 151., 208.,
          123., 123., 123., 123., 128., 218., 125., 123., 123., 123.,
          123., 123., 123., 123., 123., 123., 123., 123., 123., 123.,
          123., 123., 123., 123., 123., 123., 123., 123., 123., 123.,
          125., 125., 125., 125., 125., 125., 125., 125., 125., 125.,
          125., 125., 125., 125., 125., 125., 125., 125., 125., 125.,
          125., 126., 198., 244., 131., 250., 174., 128., 238., 199.,
          215., 125., 125., 125., 125., 125., 125., 125., 162., 237.,
          125., 125., 125., 125., 127., 161., 126., 125., 125., 125.,
          125., 125., 125., 125., 125., 125., 125., 125., 125., 125.,
          125., 125., 125., 125., 125., 125., 125., 125., 125., 125.,
          128., 128., 128., 128., 128., 128., 128., 128., 128., 128.,
          128., 128., 128., 128., 128., 128., 128., 128., 128., 128.,
          128., 128., 130., 244., 241., 225., 128., 152., 248., 242.,
          239., 129., 253., 248., 253., 175., 128., 128., 163., 237.,
          187., 252., 245., 246., 139., 247., 130., 128., 128., 128.,
          128., 128., 128., 128., 128., 128., 128., 128., 128., 128.,
          128., 128., 128., 128., 128., 128., 128., 128., 128., 128.,
          129., 129., 129., 129., 129., 129., 129., 129., 129., 129.,
          129., 129., 129., 129., 129., 129., 129., 129., 129., 129.,
          129., 129., 129., 198., 255., 172., 129., 238., 228., 191.,
          253., 177., 254., 131., 160., 248., 129., 129., 164., 238.,
          176., 183., 191., 253., 144., 250., 131., 129., 129., 129.,
          129., 129., 129., 129., 129., 129., 129., 129., 129., 129.,
          129., 129., 129., 129., 129., 129., 129., 129., 129., 129.,
          131., 131., 131., 131., 131., 131., 131., 131., 131., 131.,
          131., 131., 131., 131., 131., 131., 131., 131., 131., 131.,
          131., 131., 147., 253., 179., 250., 131., 246., 219., 204.,
          207., 157., 254., 131., 140., 250., 131., 131., 165., 238.,
          228., 244., 207., 251., 146., 250., 133., 131., 131., 131.,
          131., 131., 131., 131., 131., 131., 131., 131., 131., 131.,
          131., 131., 131., 131., 131., 131., 131., 131., 131., 131.,
          132., 132., 132., 132., 132., 132., 132., 132., 132., 132.,
          132., 132., 132., 132., 132., 132., 132., 132., 132., 132.,
          132., 137., 248., 200., 133., 234., 235., 200., 243., 197.,
          253., 147., 255., 203., 239., 214., 132., 132., 166., 238.,
          245., 208., 207., 254., 148., 250., 134., 132., 132., 132.,
          132., 132., 132., 132., 132., 132., 132., 132., 132., 132.,
          132., 132., 132., 132., 132., 132., 132., 132., 132., 132.,
          134., 134., 134., 134., 134., 134., 134., 134., 134., 134.,
          134., 134., 134., 134., 134., 134., 134., 134., 134., 134.,
          134., 138., 170., 134., 134., 138., 171., 135., 172., 207.,
          166., 136., 254., 199., 176., 135., 134., 134., 145., 166.,
          154., 208., 233., 170., 144., 170., 135., 134., 134., 134.,
          134., 134., 134., 134., 134., 134., 134., 134., 134., 134.,
          134., 134., 134., 134., 134., 134., 134., 134., 134., 134.,
          137., 137., 137., 137., 137., 137., 137., 137., 137., 137.,
          137., 137., 137., 137., 137., 137., 137., 137., 137., 137.,
          137., 137., 137., 137., 137., 137., 137., 137., 137., 137.,
          137., 138., 254., 137., 137., 137., 137., 137., 137., 137.,
          137., 161., 233., 137., 137., 137., 137., 137., 137., 137.,
          137., 137., 137., 137., 137., 137., 137., 137., 137., 137.,
          137., 137., 137., 137., 137., 137., 137., 137., 137., 137.,
          138., 138., 138., 138., 138., 138., 138., 138., 138., 138.,
          138., 138., 138., 138., 138., 138., 138., 138., 138., 138.,
          138., 138., 138., 138., 138., 138., 138., 138., 138., 138.,
          138., 138., 153., 138., 138., 138., 138., 138., 138., 138.,
          138., 138., 138., 138., 138., 138., 138., 138., 138., 138.,
          138., 138., 138., 138., 138., 138., 138., 138., 138., 138.,
          138., 138., 138., 138., 138., 138., 138., 138., 138., 138.,
          61., 61., 61., 61., 61., 61., 61., 61., 61., 61., 61., 61.,
          61., 61., 61., 61., 61., 61., 61., 61., 61., 61., 61., 61.,
          61., 61., 61., 61., 61., 61., 61., 61., 61., 61., 61., 61.,
          61., 61., 61., 61., 61., 61., 61., 61., 61., 61., 61., 61.,
          61., 61., 61., 61., 61., 61., 61., 61., 61., 61., 61., 61.,
          61., 61., 61., 61., 61., 61., 61., 61., 61., 61., 65., 65.,
          65., 65., 65., 65., 65., 65., 65., 65., 65., 65., 65., 65.,
          65., 65., 65., 65., 65., 65., 65., 65., 65., 65., 65., 65.,
          65., 65., 65., 65., 65., 65., 65., 65., 65., 65., 65., 65.,
          65., 65., 65., 65., 65., 65., 65., 65., 65., 65., 65., 65.,
          65., 65., 65., 65., 65., 65., 65., 65., 65., 65., 65., 65.,
          65., 65., 65., 65., 65., 65., 65., 65., 62., 62., 62., 62.,
          62., 62., 62., 62., 62., 62., 62., 62., 62., 62., 62., 62.,
          62., 62., 62., 62., 62., 62., 62., 62., 62., 62., 62., 62.,
          62., 62., 62., 62., 62., 62., 62., 62., 62., 62., 62., 62.,
          62., 62., 62., 62., 62., 62., 62., 62., 62., 62., 62., 62.,
          62., 62., 62., 62., 62., 62., 62., 62., 62., 62., 62., 62.,
          62., 62., 62., 62., 62., 62. ]
   decision_functions:
      -
         sv_count: 2
         rho: -1.0062493667712726e+00
         alpha: [ 5.8445404173895370e-24, -5.8445404173895370e-24 ]
         index: [ 0, 1 ]
      -
         sv_count: 2
         rho: -1.0068243383535893e+00
         alpha: [ 6.7926570245252964e-24, -6.7926570245252964e-24 ]
         index: [ 0, 2 ]
      -
         sv_count: 2
         rho: 1.1387852044856430e+00
         alpha: [ 5.2864666718337785e-23, -5.2864666718337785e-23 ]
         index: [ 1, 3 ]
