%YAML:1.0
---
opencv_ml_svm:
   format: 3
   svmType: C_SVC
   kernel:
      type: POLY
      degree: 3.
      gamma: 3.
      coef0: 0.
   C: 1.
   term_criteria: { iterations:100 }
   var_count: 384
   class_count: 4
   class_labels: !!opencv-matrix
      rows: 4
      cols: 1
      dt: i
      data: [ 0, 1, 2, 3 ]
   sv_total: 220
   support_vectors:
      - [ 191., 191., 191., 191., 191., 191., 191., 169., 24., 11., 13.,
          13., 13., 7., 78., 197., 191., 191., 191., 191., 191., 191.,
          191., 191., 191., 191., 191., 191., 191., 192., 188., 50., 9.,
          11., 11., 11., 11., 11., 9., 92., 191., 191., 191., 191., 191.,
          191., 191., 191., 191., 191., 191., 191., 191., 191., 75., 2.,
          2., 6., 6., 6., 6., 6., 3., 6., 131., 193., 191., 191., 191.,
          191., 191., 191., 191., 191., 191., 191., 191., 170., 11., 2.,
          2., 5., 6., 6., 6., 3., 2., 2., 52., 197., 191., 191., 191.,
          191., 191., 191., 191., 191., 191., 191., 191., 176., 18., 2.,
          2., 4., 5., 5., 5., 2., 2., 2., 69., 196., 191., 191., 191.,
          191., 191., 191., 191., 191., 191., 191., 191., 193., 140.,
          16., 2., 2., 11., 6., 7., 2., 2., 33., 169., 192., 191., 191.,
          191., 191., 191., 191., 191., 191., 191., 191., 191., 191.,
          195., 164., 110., 132., 107., 17., 138., 96., 116., 184., 193.,
          191., 191., 191., 191., 191., 191., 191., 191., 191., 191.,
          191., 191., 191., 191., 191., 193., 194., 61., 2., 114., 196.,
          194., 191., 191., 191., 191., 191., 191., 191., 191., 191.,
          191., 191., 191., 191., 191., 191., 191., 191., 191., 179.,
          119., 116., 136., 192., 191., 191., 191., 191., 191., 191.,
          191., 191., 191., 191., 191., 191., 191., 191., 191., 191.,
          191., 191., 191., 191., 195., 195., 194., 191., 191., 191.,
          191., 191., 191., 191., 191., 191., 191., 191., 191., 191.,
          191., 191., 191., 191., 191., 191., 191., 191., 191., 191.,
          191., 191., 191., 191., 191., 191., 191., 191., 191., 191.,
          191., 191., 191., 191., 191., 191., 191., 191., 191., 191.,
          191., 191., 191., 191., 191., 191., 191., 191., 191., 191.,
          191., 191., 191., 191., 191., 191., 191., 191., 191., 191.,
          191., 191., 191., 191., 191., 191., 191., 191., 191., 191.,
          191., 191., 191., 191., 191., 191., 191., 191., 191., 191.,
          191., 191., 191., 191., 191., 191., 191., 191., 191., 191.,
          191., 191., 191., 191., 191., 191., 191., 191., 191., 191.,
          191., 191., 191., 191., 191., 191., 191., 191., 191., 191.,
          191., 191., 191., 191., 191., 191., 191., 191., 191., 191.,
          191., 191., 191., 191., 191., 191., 191., 191., 191., 191.,
          191., 191., 191., 191., 191., 191., 191., 191., 191., 191.,
          191., 191., 191., 191., 191., 191., 191., 191., 191., 191.,
          191., 191. ]
      - [ 191., 191., 191., 191., 191., 191., 191., 191., 191., 191.,
          191., 191., 187., 96., 17., 15., 71., 180., 192., 191., 191.,
          191., 191., 191., 191., 191., 191., 191., 191., 191., 191.,
          191., 191., 191., 191., 198., 94., 11., 13., 13., 12., 58.,
          191., 191., 191., 191., 191., 191., 191., 191., 191., 191.,
          191., 191., 191., 191., 191., 191., 189., 90., 12., 12., 12.,
          12., 12., 10., 61., 180., 191., 191., 191., 191., 191., 191.,
          191., 191., 191., 191., 191., 191., 191., 194., 131., 7., 10.,
          10., 10., 10., 10., 10., 3., 88., 194., 191., 191., 191., 191.,
          191., 191., 191., 191., 191., 191., 191., 192., 171., 17., 2.,
          3., 6., 6., 6., 6., 5., 2., 8., 134., 194., 191., 191., 191.,
          191., 191., 191., 191., 191., 191., 191., 192., 137., 2., 2.,
          2., 6., 6., 6., 6., 2., 2., 2., 72., 194., 191., 191., 191.,
          191., 191., 191., 191., 191., 191., 191., 192., 177., 13., 2.,
          2., 2., 2., 2., 2., 2., 2., 2., 142., 193., 191., 191., 191.,
          191., 191., 191., 191., 191., 191., 191., 191., 194., 152.,
          53., 21., 44., 32., 24., 38., 13., 33., 124., 195., 191., 191.,
          191., 191., 191., 191., 191., 191., 191., 191., 191., 191.,
          191., 192., 196., 184., 199., 63., 32., 186., 173., 191., 194.,
          191., 191., 191., 191., 191., 191., 191., 191., 191., 191.,
          191., 191., 191., 191., 191., 191., 193., 168., 23., 11., 124.,
          195., 192., 191., 191., 191., 191., 191., 191., 191., 191.,
          191., 191., 191., 191., 191., 191., 191., 191., 191., 191.,
          185., 182., 182., 185., 191., 191., 191., 191., 191., 191.,
          191., 191., 191., 191., 191., 191., 191., 191., 191., 191.,
          191., 191., 191., 191., 191., 192., 192., 192., 191., 191.,
          191., 191., 191., 191., 191., 191., 191., 191., 191., 191.,
          191., 191., 191., 191., 191., 191., 191., 191., 191., 191.,
          191., 191., 191., 191., 191., 191., 191., 191., 191., 191.,
          191., 191., 191., 191., 191., 191., 191., 191., 191., 191.,
          191., 191., 191., 191., 191., 191., 191., 191., 191., 191.,
          191., 191., 191., 191., 191., 191., 191., 191., 191., 191.,
          191., 191., 191., 191., 191., 191., 191., 191., 191., 191.,
          191., 191., 191., 191., 191., 191., 191., 191., 191., 191.,
          191., 191., 191., 191., 191., 191., 191., 191., 191., 191.,
          191., 191., 191., 191., 191., 191., 191., 191., 191., 191.,
          191. ]
      - [ 245., 245., 245., 245., 245., 245., 245., 245., 245., 245.,
          245., 245., 240., 123., 22., 20., 91., 231., 246., 245., 245.,
          245., 245., 245., 245., 245., 245., 245., 245., 245., 245.,
          245., 245., 245., 245., 253., 121., 14., 17., 17., 15., 74.,
          245., 245., 245., 245., 245., 245., 245., 245., 245., 245.,
          245., 245., 245., 245., 245., 245., 242., 115., 16., 15., 15.,
          15., 15., 12., 78., 231., 245., 245., 245., 245., 245., 245.,
          245., 245., 245., 245., 245., 245., 245., 249., 168., 10., 13.,
          13., 13., 13., 13., 13., 3., 112., 249., 245., 245., 245.,
          245., 245., 245., 245., 245., 245., 245., 245., 246., 219.,
          22., 2., 4., 8., 8., 8., 8., 7., 2., 10., 171., 248., 245.,
          245., 245., 245., 245., 245., 245., 245., 245., 245., 246.,
          175., 2., 2., 2., 8., 8., 8., 8., 2., 2., 2., 92., 249., 245.,
          245., 245., 245., 245., 245., 245., 245., 245., 245., 246.,
          226., 16., 2., 2., 3., 3., 3., 3., 2., 2., 2., 182., 248.,
          245., 245., 245., 245., 245., 245., 245., 245., 245., 245.,
          245., 249., 195., 68., 27., 57., 41., 30., 49., 17., 43., 158.,
          250., 245., 245., 245., 245., 245., 245., 245., 245., 245.,
          245., 245., 245., 245., 247., 251., 236., 255., 80., 41., 238.,
          221., 244., 248., 245., 245., 245., 245., 245., 245., 245.,
          245., 245., 245., 245., 245., 245., 245., 245., 245., 248.,
          215., 29., 15., 159., 250., 246., 245., 245., 245., 245., 245.,
          245., 245., 245., 245., 245., 245., 245., 245., 245., 245.,
          245., 245., 245., 238., 234., 234., 237., 245., 245., 245.,
          245., 245., 245., 245., 245., 245., 245., 245., 245., 245.,
          245., 245., 245., 245., 245., 245., 245., 245., 246., 246.,
          246., 245., 245., 245., 245., 245., 245., 245., 245., 245.,
          245., 245., 245., 245., 245., 245., 245., 245., 245., 245.,
          245., 245., 245., 245., 245., 245., 245., 245., 245., 245.,
          245., 245., 245., 245., 245., 245., 245., 245., 245., 245.,
          245., 245., 245., 245., 245., 245., 245., 245., 245., 245.,
          245., 245., 245., 245., 245., 245., 245., 245., 245., 245.,
          245., 245., 245., 245., 245., 245., 245., 245., 245., 245.,
          245., 245., 245., 245., 245., 245., 245., 245., 245., 245.,
          245., 245., 245., 245., 245., 245., 245., 245., 245., 245.,
          245., 245., 245., 245., 245., 245., 245., 245., 245., 245.,
          245., 245., 245., 245. ]
      - [ 245., 245., 245., 245., 245., 245., 245., 245., 210., 29., 15.,
          17., 17., 17., 9., 113., 252., 245., 245., 245., 245., 245.,
          245., 245., 245., 245., 245., 245., 245., 245., 247., 240.,
          55., 12., 14., 14., 14., 14., 14., 11., 129., 246., 245., 245.,
          245., 245., 245., 245., 245., 245., 245., 245., 245., 245.,
          244., 82., 2., 3., 8., 8., 8., 8., 8., 4., 13., 182., 247.,
          245., 245., 245., 245., 245., 245., 245., 245., 245., 245.,
          245., 209., 2., 2., 2., 7., 8., 8., 8., 3., 2., 2., 75., 252.,
          245., 245., 245., 245., 245., 245., 245., 245., 245., 245.,
          245., 219., 9., 2., 2., 5., 6., 6., 6., 2., 2., 2., 99., 251.,
          245., 245., 245., 245., 245., 245., 245., 245., 245., 245.,
          245., 248., 173., 17., 2., 2., 13., 7., 8., 2., 2., 53., 225.,
          245., 245., 245., 245., 245., 245., 245., 245., 245., 245.,
          245., 245., 245., 250., 205., 141., 173., 123., 23., 175.,
          121., 152., 237., 246., 245., 245., 245., 245., 245., 245.,
          245., 245., 245., 245., 245., 245., 245., 245., 245., 248.,
          249., 70., 3., 159., 251., 248., 245., 245., 245., 245., 245.,
          245., 245., 245., 245., 245., 245., 245., 245., 245., 245.,
          245., 245., 245., 227., 152., 149., 179., 247., 245., 245.,
          245., 245., 245., 245., 245., 245., 245., 245., 245., 245.,
          245., 245., 245., 245., 245., 245., 245., 245., 250., 250.,
          248., 245., 245., 245., 245., 245., 245., 245., 245., 245.,
          245., 245., 245., 245., 245., 245., 245., 245., 245., 245.,
          245., 245., 245., 245., 245., 245., 245., 245., 245., 245.,
          245., 245., 245., 245., 245., 245., 245., 245., 245., 245.,
          245., 245., 245., 245., 245., 245., 245., 245., 245., 245.,
          245., 245., 245., 245., 245., 245., 245., 245., 245., 245.,
          245., 245., 245., 245., 245., 245., 245., 245., 245., 245.,
          245., 245., 245., 245., 245., 245., 245., 245., 245., 245.,
          245., 245., 245., 245., 245., 245., 245., 245., 245., 245.,
          245., 245., 245., 245., 245., 245., 245., 245., 245., 245.,
          245., 245., 245., 245., 245., 245., 245., 245., 245., 245.,
          245., 245., 245., 245., 245., 245., 245., 245., 245., 245.,
          245., 245., 245., 245., 245., 245., 245., 245., 245., 245.,
          245., 245., 245., 245., 245., 245., 245., 245., 245., 245.,
          245., 245., 245., 245., 245., 245., 245., 245., 245., 245.,
          245., 245., 245., 245., 245. ]
      - [ 245., 245., 245., 245., 245., 245., 245., 245., 245., 245.,
          245., 242., 132., 23., 19., 83., 229., 246., 245., 245., 245.,
          245., 245., 245., 245., 245., 245., 245., 245., 245., 245.,
          245., 245., 245., 253., 133., 16., 17., 17., 15., 63., 237.,
          245., 245., 245., 245., 245., 245., 245., 245., 245., 245.,
          245., 245., 245., 245., 245., 245., 126., 16., 15., 15., 15.,
          15., 12., 71., 227., 245., 245., 245., 245., 245., 245., 245.,
          245., 245., 245., 245., 245., 245., 249., 182., 14., 13., 13.,
          13., 13., 13., 13., 4., 99., 246., 245., 245., 245., 245.,
          245., 245., 245., 245., 245., 245., 245., 245., 224., 24., 2.,
          4., 8., 8., 8., 8., 7., 2., 9., 160., 249., 245., 245., 245.,
          245., 245., 245., 245., 245., 245., 245., 245., 185., 2., 2.,
          2., 7., 8., 8., 8., 2., 2., 2., 82., 250., 245., 245., 245.,
          245., 245., 245., 245., 245., 245., 245., 245., 229., 18., 2.,
          2., 3., 3., 3., 3., 2., 2., 2., 169., 248., 245., 245., 245.,
          245., 245., 245., 245., 245., 245., 245., 245., 248., 204.,
          74., 27., 54., 48., 25., 54., 16., 40., 151., 248., 245., 245.,
          245., 245., 245., 245., 245., 245., 245., 245., 245., 245.,
          245., 246., 251., 236., 253., 97., 25., 234., 221., 242., 249.,
          245., 245., 245., 245., 245., 245., 245., 245., 245., 245.,
          245., 245., 245., 245., 245., 245., 247., 218., 33., 11., 145.,
          250., 246., 245., 245., 245., 245., 245., 245., 245., 245.,
          245., 245., 245., 245., 245., 245., 245., 245., 245., 245.,
          238., 234., 234., 236., 245., 245., 245., 245., 245., 245.,
          245., 245., 245., 245., 245., 245., 245., 245., 245., 245.,
          245., 245., 245., 245., 245., 246., 246., 246., 245., 245.,
          245., 245., 245., 245., 245., 245., 245., 245., 245., 245.,
          245., 245., 245., 245., 245., 245., 245., 245., 245., 245.,
          245., 245., 245., 245., 245., 245., 245., 245., 245., 245.,
          245., 245., 245., 245., 245., 245., 245., 245., 245., 245.,
          245., 245., 245., 245., 245., 245., 245., 245., 245., 245.,
          245., 245., 245., 245., 245., 245., 245., 245., 245., 245.,
          245., 245., 245., 245., 245., 245., 245., 245., 245., 245.,
          245., 245., 245., 245., 245., 245., 245., 245., 245., 245.,
          245., 245., 245., 245., 245., 245., 245., 245., 245., 245.,
          245., 245., 245., 245., 245., 245., 245., 245., 245., 245.,
          245., 245. ]
      - [ 191., 191., 191., 191., 191., 191., 191., 191., 191., 191.,
          191., 189., 103., 18., 15., 65., 179., 192., 191., 191., 191.,
          191., 191., 191., 191., 191., 191., 191., 191., 191., 191.,
          191., 191., 191., 197., 104., 13., 13., 13., 12., 49., 185.,
          191., 191., 191., 191., 191., 191., 191., 191., 191., 191.,
          191., 191., 191., 191., 191., 191., 98., 13., 12., 12., 12.,
          12., 9., 56., 178., 191., 191., 191., 191., 191., 191., 191.,
          191., 191., 191., 191., 191., 191., 194., 142., 11., 10., 10.,
          10., 10., 10., 10., 3., 77., 192., 191., 191., 191., 191.,
          191., 191., 191., 191., 191., 191., 191., 191., 174., 19., 2.,
          3., 6., 6., 6., 6., 6., 2., 7., 125., 194., 191., 191., 191.,
          191., 191., 191., 191., 191., 191., 191., 191., 145., 2., 2.,
          2., 6., 6., 6., 6., 2., 2., 2., 64., 195., 191., 191., 191.,
          191., 191., 191., 191., 191., 191., 191., 191., 179., 14., 2.,
          2., 2., 2., 2., 2., 2., 2., 2., 132., 194., 191., 191., 191.,
          191., 191., 191., 191., 191., 191., 191., 191., 194., 159.,
          57., 21., 42., 37., 19., 42., 13., 31., 118., 193., 191., 191.,
          191., 191., 191., 191., 191., 191., 191., 191., 191., 191.,
          191., 192., 196., 184., 198., 76., 19., 183., 172., 189., 194.,
          191., 191., 191., 191., 191., 191., 191., 191., 191., 191.,
          191., 191., 191., 191., 191., 191., 193., 170., 26., 9., 113.,
          195., 192., 191., 191., 191., 191., 191., 191., 191., 191.,
          191., 191., 191., 191., 191., 191., 191., 191., 191., 191.,
          186., 182., 182., 185., 191., 191., 191., 191., 191., 191.,
          191., 191., 191., 191., 191., 191., 191., 191., 191., 191.,
          191., 191., 191., 191., 191., 192., 192., 192., 191., 191.,
          191., 191., 191., 191., 191., 191., 191., 191., 191., 191.,
          191., 191., 191., 191., 191., 191., 191., 191., 191., 191.,
          191., 191., 191., 191., 191., 191., 191., 191., 191., 191.,
          191., 191., 191., 191., 191., 191., 191., 191., 191., 191.,
          191., 191., 191., 191., 191., 191., 191., 191., 191., 191.,
          191., 191., 191., 191., 191., 191., 191., 191., 191., 191.,
          191., 191., 191., 191., 191., 191., 191., 191., 191., 191.,
          191., 191., 191., 191., 191., 191., 191., 191., 191., 191.,
          191., 191., 191., 191., 191., 191., 191., 191., 191., 191.,
          191., 191., 191., 191., 191., 191., 191., 191., 191., 191.,
          191., 191. ]
      - [ 245., 245., 245., 245., 245., 245., 245., 249., 197., 198.,
          250., 245., 245., 245., 245., 245., 245., 245., 245., 245.,
          245., 245., 245., 245., 245., 245., 245., 245., 245., 245.,
          247., 210., 52., 55., 194., 248., 245., 245., 245., 245., 245.,
          245., 245., 245., 245., 245., 245., 245., 245., 245., 245.,
          245., 245., 247., 243., 61., 21., 21., 35., 214., 250., 245.,
          245., 245., 245., 245., 245., 245., 245., 245., 245., 245.,
          245., 245., 245., 245., 247., 212., 57., 16., 18., 18., 17.,
          38., 188., 248., 245., 245., 245., 245., 245., 245., 245.,
          245., 245., 245., 245., 245., 245., 246., 236., 59., 13., 15.,
          15., 15., 15., 14., 36., 225., 247., 245., 245., 245., 245.,
          245., 245., 245., 245., 245., 245., 245., 245., 243., 90., 2.,
          9., 12., 12., 12., 12., 10., 3., 45., 224., 245., 245., 245.,
          245., 245., 245., 245., 245., 245., 245., 245., 246., 205.,
          13., 0., 0., 8., 8., 8., 8., 1., 0., 0., 132., 249., 245.,
          245., 245., 245., 245., 245., 245., 245., 245., 245., 247.,
          191., 7., 0., 0., 7., 7., 7., 7., 1., 0., 0., 116., 252., 245.,
          245., 245., 245., 245., 245., 245., 245., 245., 245., 245.,
          236., 77., 1., 0., 4., 10., 10., 3., 1., 0., 38., 203., 245.,
          245., 245., 245., 245., 245., 245., 245., 245., 245., 245.,
          245., 246., 252., 139., 54., 126., 84., 82., 115., 31., 101.,
          250., 247., 245., 245., 245., 245., 245., 245., 245., 245.,
          245., 245., 245., 245., 245., 245., 248., 242., 235., 37., 34.,
          224., 238., 246., 246., 245., 245., 245., 245., 245., 245.,
          245., 245., 245., 245., 245., 245., 245., 245., 245., 245.,
          245., 180., 48., 48., 138., 246., 245., 245., 245., 245., 245.,
          245., 245., 245., 245., 245., 245., 245., 245., 245., 245.,
          245., 245., 245., 245., 244., 244., 244., 244., 245., 245.,
          245., 245., 245., 245., 245., 245., 245., 245., 245., 245.,
          245., 245., 245., 245., 245., 245., 245., 245., 245., 245.,
          245., 245., 245., 245., 245., 245., 245., 245., 245., 245.,
          245., 245., 245., 245., 245., 245., 245., 245., 245., 245.,
          245., 245., 245., 245., 245., 245., 245., 245., 245., 245.,
          245., 245., 245., 245., 245., 245., 245., 245., 245., 245.,
          245., 245., 245., 245., 245., 245., 245., 245., 245., 245.,
          245., 245., 245., 245., 245., 245., 245., 245., 245., 245.,
          245., 245., 245. ]
      - [ 191., 191., 191., 191., 191., 191., 191., 191., 191., 192.,
          191., 191., 191., 191., 191., 191., 191., 191., 191., 191.,
          191., 191., 191., 191., 191., 191., 191., 191., 191., 191.,
          191., 195., 154., 154., 195., 191., 191., 191., 191., 191.,
          191., 191., 191., 191., 191., 191., 191., 191., 191., 191.,
          191., 191., 191., 191., 193., 164., 40., 43., 151., 193., 191.,
          191., 191., 191., 191., 191., 191., 191., 191., 191., 191.,
          191., 191., 191., 191., 191., 191., 193., 189., 47., 16., 16.,
          27., 167., 195., 191., 191., 191., 191., 191., 191., 191.,
          191., 191., 191., 191., 191., 191., 191., 191., 193., 166.,
          44., 12., 14., 14., 13., 30., 146., 193., 191., 191., 191.,
          191., 191., 191., 191., 191., 191., 191., 191., 191., 191.,
          192., 184., 46., 11., 11., 11., 11., 11., 11., 28., 175., 193.,
          191., 191., 191., 191., 191., 191., 191., 191., 191., 191.,
          191., 191., 189., 70., 2., 7., 9., 9., 9., 9., 8., 2., 35.,
          175., 191., 191., 191., 191., 191., 191., 191., 191., 191.,
          191., 191., 192., 160., 10., 0., 0., 6., 6., 6., 6., 1., 0.,
          0., 103., 195., 191., 191., 191., 191., 191., 191., 191., 191.,
          191., 191., 193., 149., 6., 0., 0., 5., 5., 5., 5., 1., 0., 0.,
          90., 197., 191., 191., 191., 191., 191., 191., 191., 191.,
          191., 191., 191., 184., 60., 1., 0., 3., 8., 8., 2., 0., 0.,
          29., 158., 191., 191., 191., 191., 191., 191., 191., 191.,
          191., 191., 191., 191., 192., 197., 108., 42., 98., 66., 64.,
          89., 24., 79., 195., 193., 191., 191., 191., 191., 191., 191.,
          191., 191., 191., 191., 191., 191., 191., 191., 193., 189.,
          183., 29., 26., 175., 186., 192., 192., 191., 191., 191., 191.,
          191., 191., 191., 191., 191., 191., 191., 191., 191., 191.,
          191., 191., 191., 141., 38., 38., 108., 192., 191., 191., 191.,
          191., 191., 191., 191., 191., 191., 191., 191., 191., 191.,
          191., 191., 191., 191., 191., 191., 191., 190., 190., 190.,
          191., 191., 191., 191., 191., 191., 191., 191., 191., 191.,
          191., 191., 191., 191., 191., 191., 191., 191., 191., 191.,
          191., 191., 191., 191., 191., 191., 191., 191., 191., 191.,
          191., 191., 191., 191., 191., 191., 191., 191., 191., 191.,
          191., 191., 191., 191., 191., 191., 191., 191., 191., 191.,
          191., 191., 191., 191., 191., 191., 191., 191., 191., 191.,
          191. ]
      - [ 245., 245., 245., 245., 245., 245., 247., 210., 52., 55., 194.,
          248., 245., 245., 245., 245., 245., 245., 245., 245., 245.,
          245., 245., 245., 245., 245., 245., 245., 245., 247., 243.,
          61., 21., 21., 35., 214., 250., 245., 245., 245., 245., 245.,
          245., 245., 245., 245., 245., 245., 245., 245., 245., 245.,
          247., 212., 57., 16., 18., 18., 17., 38., 188., 248., 245.,
          245., 245., 245., 245., 245., 245., 245., 245., 245., 245.,
          245., 245., 246., 236., 59., 13., 15., 15., 15., 15., 14., 36.,
          225., 247., 245., 245., 245., 245., 245., 245., 245., 245.,
          245., 245., 245., 245., 243., 90., 2., 9., 12., 12., 12., 12.,
          10., 3., 45., 224., 245., 245., 245., 245., 245., 245., 245.,
          245., 245., 245., 245., 246., 205., 13., 0., 0., 8., 8., 8.,
          8., 1., 0., 0., 132., 249., 245., 245., 245., 245., 245., 245.,
          245., 245., 245., 245., 247., 191., 7., 0., 0., 7., 7., 7., 7.,
          1., 0., 0., 116., 252., 245., 245., 245., 245., 245., 245.,
          245., 245., 245., 245., 245., 236., 77., 1., 0., 4., 10., 10.,
          3., 1., 0., 38., 203., 245., 245., 245., 245., 245., 245.,
          245., 245., 245., 245., 245., 245., 246., 252., 139., 54.,
          126., 84., 82., 115., 31., 101., 250., 247., 245., 245., 245.,
          245., 245., 245., 245., 245., 245., 245., 245., 245., 245.,
          245., 248., 242., 235., 37., 34., 224., 238., 246., 246., 245.,
          245., 245., 245., 245., 245., 245., 245., 245., 245., 245.,
          245., 245., 245., 245., 245., 245., 180., 48., 48., 138., 246.,
          245., 245., 245., 245., 245., 245., 245., 245., 245., 245.,
          245., 245., 245., 245., 245., 245., 245., 245., 245., 244.,
          244., 244., 244., 245., 245., 245., 245., 245., 245., 245.,
          245., 245., 245., 245., 245., 245., 245., 245., 245., 245.,
          245., 245., 245., 245., 245., 245., 245., 245., 245., 245.,
          245., 245., 245., 245., 245., 245., 245., 245., 245., 245.,
          245., 245., 245., 245., 245., 245., 245., 245., 245., 245.,
          245., 245., 245., 245., 245., 245., 245., 245., 245., 245.,
          245., 245., 245., 245., 245., 245., 245., 245., 245., 245.,
          245., 245., 245., 245., 245., 245., 245., 245., 245., 245.,
          245., 245., 245., 245., 245., 245., 245., 245., 245., 245.,
          245., 245., 245., 245., 245., 245., 245., 245., 245., 245.,
          245., 245., 245., 245., 245., 245., 245., 245., 245., 245.,
          245., 245. ]
      - [ 191., 191., 191., 191., 193., 132., 17., 14., 68., 185., 192.,
          191., 191., 191., 191., 191., 191., 191., 191., 191., 191.,
          191., 191., 191., 191., 191., 191., 193., 124., 22., 14., 15.,
          14., 70., 188., 192., 191., 191., 191., 191., 191., 191., 191.,
          191., 191., 191., 191., 191., 191., 191., 193., 129., 17., 12.,
          13., 13., 13., 9., 67., 183., 192., 191., 191., 191., 191.,
          191., 191., 191., 191., 191., 191., 191., 191., 191., 151., 9.,
          10., 10., 10., 10., 10., 10., 9., 92., 196., 191., 191., 191.,
          191., 191., 191., 191., 191., 191., 191., 191., 191., 193.,
          44., 0., 2., 8., 8., 8., 8., 5., 0., 2., 118., 192., 191.,
          191., 191., 191., 191., 191., 191., 191., 191., 191., 193.,
          172., 8., 0., 0., 5., 5., 5., 5., 2., 0., 0., 58., 197., 191.,
          191., 191., 191., 191., 191., 191., 191., 191., 191., 192.,
          189., 29., 0., 0., 4., 4., 4., 4., 2., 0., 0., 98., 193., 191.,
          191., 191., 191., 191., 191., 191., 191., 191., 191., 191.,
          193., 148., 36., 12., 25., 31., 21., 28., 6., 18., 91., 188.,
          191., 191., 191., 191., 191., 191., 191., 191., 191., 191.,
          191., 191., 191., 192., 186., 165., 179., 72., 42., 184., 152.,
          171., 193., 192., 191., 191., 191., 191., 191., 191., 191.,
          191., 191., 191., 191., 191., 191., 191., 191., 192., 168.,
          20., 7., 117., 194., 192., 191., 191., 191., 191., 191., 191.,
          191., 191., 191., 191., 191., 191., 191., 191., 191., 191.,
          191., 191., 188., 181., 181., 181., 190., 191., 191., 191.,
          191., 191., 191., 191., 191., 191., 191., 191., 191., 191.,
          191., 191., 191., 191., 191., 191., 191., 192., 192., 192.,
          191., 191., 191., 191., 191., 191., 191., 191., 191., 191.,
          191., 191., 191., 191., 191., 191., 191., 191., 191., 191.,
          191., 191., 191., 191., 191., 191., 191., 191., 191., 191.,
          191., 191., 191., 191., 191., 191., 191., 191., 191., 191.,
          191., 191., 191., 191., 191., 191., 191., 191., 191., 191.,
          191., 191., 191., 191., 191., 191., 191., 191., 191., 191.,
          191., 191., 191., 191., 191., 191., 191., 191., 191., 191.,
          191., 191., 191., 191., 191., 191., 191., 191., 191., 191.,
          191., 191., 191., 191., 191., 191., 191., 191., 191., 191.,
          191., 191., 191., 191., 191., 191., 191., 191., 191., 191.,
          191., 191., 191., 191., 191., 191., 191., 191., 191., 191.,
          191. ]
      - [ 245., 245., 245., 245., 248., 169., 22., 18., 88., 237., 246.,
          245., 245., 245., 245., 245., 245., 245., 245., 245., 245.,
          245., 245., 245., 245., 245., 245., 247., 159., 28., 19., 19.,
          17., 90., 241., 246., 245., 245., 245., 245., 245., 245., 245.,
          245., 245., 245., 245., 245., 245., 245., 247., 166., 22., 16.,
          17., 17., 17., 12., 86., 235., 246., 245., 245., 245., 245.,
          245., 245., 245., 245., 245., 245., 245., 245., 245., 193.,
          11., 13., 12., 12., 12., 12., 13., 11., 118., 251., 245., 245.,
          245., 245., 245., 245., 245., 245., 245., 245., 245., 245.,
          247., 56., 0., 3., 10., 10., 10., 10., 6., 0., 3., 151., 246.,
          245., 245., 245., 245., 245., 245., 245., 245., 245., 245.,
          247., 220., 11., 0., 0., 7., 7., 7., 7., 2., 0., 0., 75., 252.,
          245., 245., 245., 245., 245., 245., 245., 245., 245., 245.,
          245., 243., 37., 0., 0., 6., 6., 6., 6., 2., 0., 0., 125.,
          247., 245., 245., 245., 245., 245., 245., 245., 245., 245.,
          245., 245., 247., 189., 46., 16., 31., 40., 26., 36., 8., 23.,
          116., 241., 245., 245., 245., 245., 245., 245., 245., 245.,
          245., 245., 245., 245., 245., 246., 238., 212., 229., 93., 53.,
          236., 195., 220., 247., 245., 245., 245., 245., 245., 245.,
          245., 245., 245., 245., 245., 245., 245., 245., 245., 245.,
          247., 216., 25., 9., 149., 248., 246., 245., 245., 245., 245.,
          245., 245., 245., 245., 245., 245., 245., 245., 245., 245.,
          245., 245., 245., 245., 240., 232., 232., 232., 244., 245.,
          245., 245., 245., 245., 245., 245., 245., 245., 245., 245.,
          245., 245., 245., 245., 245., 245., 245., 245., 245., 246.,
          246., 246., 245., 245., 245., 245., 245., 245., 245., 245.,
          245., 245., 245., 245., 245., 245., 245., 245., 245., 245.,
          245., 245., 245., 245., 245., 245., 245., 245., 245., 245.,
          245., 245., 245., 245., 245., 245., 245., 245., 245., 245.,
          245., 245., 245., 245., 245., 245., 245., 245., 245., 245.,
          245., 245., 245., 245., 245., 245., 245., 245., 245., 245.,
          245., 245., 245., 245., 245., 245., 245., 245., 245., 245.,
          245., 245., 245., 245., 245., 245., 245., 245., 245., 245.,
          245., 245., 245., 245., 245., 245., 245., 245., 245., 245.,
          245., 245., 245., 245., 245., 245., 245., 245., 245., 245.,
          245., 245., 245., 245., 245., 245., 245., 245., 245., 245.,
          245., 245., 245. ]
      - [ 245., 245., 248., 208., 28., 16., 18., 18., 18., 11., 117.,
          246., 245., 245., 245., 245., 245., 245., 245., 245., 245.,
          245., 245., 245., 245., 245., 213., 38., 13., 13., 13., 13.,
          13., 14., 16., 153., 249., 245., 245., 245., 245., 245., 245.,
          245., 245., 245., 245., 245., 245., 249., 77., 0., 5., 11.,
          11., 11., 11., 8., 0., 5., 183., 246., 245., 245., 245., 245.,
          245., 245., 245., 245., 245., 245., 247., 225., 15., 0., 0.,
          7., 7., 7., 7., 3., 0., 0., 83., 251., 245., 245., 245., 245.,
          245., 245., 245., 245., 245., 245., 246., 234., 24., 0., 0.,
          6., 6., 6., 6., 2., 0., 0., 103., 249., 245., 245., 245., 245.,
          245., 245., 245., 245., 245., 245., 245., 248., 153., 4., 0.,
          3., 16., 12., 1., 0., 0., 64., 228., 245., 245., 245., 245.,
          245., 245., 245., 245., 245., 245., 245., 245., 245., 248.,
          200., 142., 174., 96., 57., 189., 120., 158., 241., 247., 245.,
          245., 245., 245., 245., 245., 245., 245., 245., 245., 245.,
          245., 245., 245., 246., 248., 232., 29., 6., 191., 251., 247.,
          245., 245., 245., 245., 245., 245., 245., 245., 245., 245.,
          245., 245., 245., 245., 245., 245., 245., 245., 223., 152.,
          149., 180., 244., 245., 245., 245., 245., 245., 245., 245.,
          245., 245., 245., 245., 245., 245., 245., 245., 245., 245.,
          245., 245., 246., 247., 247., 247., 245., 245., 245., 245.,
          245., 245., 245., 245., 245., 245., 245., 245., 245., 245.,
          245., 245., 245., 245., 245., 245., 245., 245., 245., 245.,
          245., 245., 245., 245., 245., 245., 245., 245., 245., 245.,
          245., 245., 245., 245., 245., 245., 245., 245., 245., 245.,
          245., 245., 245., 245., 245., 245., 245., 245., 245., 245.,
          245., 245., 245., 245., 245., 245., 245., 245., 245., 245.,
          245., 245., 245., 245., 245., 245., 245., 245., 245., 245.,
          245., 245., 245., 245., 245., 245., 245., 245., 245., 245.,
          245., 245., 245., 245., 245., 245., 245., 245., 245., 245.,
          245., 245., 245., 245., 245., 245., 245., 245., 245., 245.,
          245., 245., 245., 245., 245., 245., 245., 245., 245., 245.,
          245., 245., 245., 245., 245., 245., 245., 245., 245., 245.,
          245., 245., 245., 245., 245., 245., 245., 245., 245., 245.,
          245., 245., 245., 245., 245., 245., 245., 245., 245., 245.,
          245., 245., 245., 245., 245., 245., 245., 245., 245., 245.,
          245., 245., 245., 245., 245. ]
      - [ 191., 191., 191., 191., 191., 191., 191., 191., 191., 194.,
          116., 187., 191., 191., 191., 191., 191., 191., 191., 191.,
          191., 191., 191., 191., 191., 191., 191., 191., 191., 191.,
          191., 191., 193., 117., 18., 84., 182., 191., 191., 191., 191.,
          191., 191., 191., 191., 191., 191., 191., 191., 191., 191.,
          191., 191., 191., 191., 195., 136., 20., 17., 14., 76., 198.,
          191., 191., 191., 191., 191., 191., 191., 191., 191., 191.,
          191., 191., 191., 191., 191., 191., 195., 119., 16., 13., 13.,
          13., 14., 70., 180., 191., 191., 191., 191., 191., 191., 191.,
          191., 191., 191., 191., 191., 191., 191., 193., 139., 13., 13.,
          13., 13., 13., 13., 6., 79., 195., 191., 191., 191., 191.,
          191., 191., 191., 191., 191., 191., 191., 191., 191., 162.,
          18., 4., 9., 9., 9., 9., 9., 7., 7., 101., 192., 191., 191.,
          191., 191., 191., 191., 191., 191., 191., 191., 191., 196.,
          84., 1., 1., 4., 5., 5., 5., 5., 1., 1., 14., 170., 191., 191.,
          191., 191., 191., 191., 191., 191., 191., 191., 191., 197.,
          73., 1., 1., 1., 5., 5., 5., 5., 1., 1., 10., 163., 191., 191.,
          191., 191., 191., 191., 191., 191., 191., 191., 191., 193.,
          143., 17., 1., 3., 5., 5., 5., 3., 1., 6., 74., 187., 191.,
          191., 191., 191., 191., 191., 191., 191., 191., 191., 191.,
          191., 194., 178., 70., 50., 117., 13., 116., 46., 33., 132.,
          198., 191., 191., 191., 191., 191., 191., 191., 191., 191.,
          191., 191., 191., 191., 191., 193., 192., 192., 136., 2., 92.,
          190., 188., 193., 191., 191., 191., 191., 191., 191., 191.,
          191., 191., 191., 191., 191., 191., 191., 191., 191., 191.,
          192., 81., 39., 40., 167., 191., 191., 191., 191., 191., 191.,
          191., 191., 191., 191., 191., 191., 191., 191., 191., 191.,
          191., 191., 191., 191., 190., 190., 190., 191., 191., 191.,
          191., 191., 191., 191., 191., 191., 191., 191., 191., 191.,
          191., 191., 191., 191., 191., 191., 191., 191., 191., 191.,
          191., 191., 191., 191., 191., 191., 191., 191., 191., 191.,
          191., 191., 191., 191., 191., 191., 191., 191., 191., 191.,
          191., 191., 191., 191., 191., 191., 191., 191., 191., 191.,
          191., 191., 191., 191., 191., 191., 191., 191., 191., 191.,
          191., 191., 191., 191., 191., 191., 191., 191., 191., 191.,
          191., 191., 191., 191., 191., 191., 191., 191., 191., 191.,
          191. ]
      - [ 245., 245., 245., 245., 245., 245., 245., 245., 245., 245.,
          249., 152., 247., 245., 245., 245., 245., 245., 245., 245.,
          245., 245., 245., 245., 245., 245., 245., 245., 245., 245.,
          245., 245., 245., 245., 140., 25., 114., 236., 245., 245.,
          245., 245., 245., 245., 245., 245., 245., 245., 245., 245.,
          245., 245., 245., 245., 245., 245., 251., 161., 24., 22., 18.,
          110., 254., 245., 245., 245., 245., 245., 245., 245., 245.,
          245., 245., 245., 245., 245., 245., 245., 245., 249., 143.,
          21., 17., 17., 17., 18., 98., 235., 245., 245., 245., 245.,
          245., 245., 245., 245., 245., 245., 245., 245., 245., 245.,
          248., 169., 15., 17., 17., 17., 17., 17., 8., 113., 250., 245.,
          245., 245., 245., 245., 245., 245., 245., 245., 245., 245.,
          245., 245., 198., 17., 5., 12., 12., 12., 12., 12., 8., 10.,
          141., 246., 245., 245., 245., 245., 245., 245., 245., 245.,
          245., 245., 245., 253., 93., 1., 1., 5., 6., 6., 6., 6., 1.,
          1., 28., 229., 245., 245., 245., 245., 245., 245., 245., 245.,
          245., 245., 245., 254., 81., 1., 1., 2., 6., 6., 6., 6., 1.,
          1., 21., 222., 245., 245., 245., 245., 245., 245., 245., 245.,
          245., 245., 245., 247., 172., 17., 1., 4., 7., 7., 7., 4., 1.,
          9., 107., 243., 245., 245., 245., 245., 245., 245., 245., 245.,
          245., 245., 245., 245., 250., 224., 84., 69., 154., 19., 161.,
          55., 46., 180., 253., 245., 245., 245., 245., 245., 245., 245.,
          245., 245., 245., 245., 245., 245., 245., 247., 245., 247.,
          164., 3., 130., 243., 241., 248., 245., 245., 245., 245., 245.,
          245., 245., 245., 245., 245., 245., 245., 245., 245., 245.,
          245., 245., 242., 92., 49., 52., 219., 245., 245., 245., 245.,
          245., 245., 245., 245., 245., 245., 245., 245., 245., 245.,
          245., 245., 245., 245., 245., 245., 244., 244., 244., 245.,
          245., 245., 245., 245., 245., 245., 245., 245., 245., 245.,
          245., 245., 245., 245., 245., 245., 245., 245., 245., 245.,
          245., 245., 245., 245., 245., 245., 245., 245., 245., 245.,
          245., 245., 245., 245., 245., 245., 245., 245., 245., 245.,
          245., 245., 245., 245., 245., 245., 245., 245., 245., 245.,
          245., 245., 245., 245., 245., 245., 245., 245., 245., 245.,
          245., 245., 245., 245., 245., 245., 245., 245., 245., 245.,
          245., 245., 245., 245., 245., 245., 245., 245., 245., 245.,
          245., 245. ]
      - [ 245., 245., 245., 245., 245., 245., 245., 245., 248., 146.,
          233., 245., 245., 245., 245., 245., 245., 245., 245., 245.,
          245., 245., 245., 245., 245., 245., 245., 245., 245., 245.,
          245., 249., 159., 23., 100., 231., 245., 245., 245., 245.,
          245., 245., 245., 245., 245., 245., 245., 245., 245., 245.,
          245., 245., 245., 245., 249., 186., 28., 22., 18., 85., 247.,
          245., 245., 245., 245., 245., 245., 245., 245., 245., 245.,
          245., 245., 245., 245., 245., 245., 250., 162., 22., 16., 17.,
          17., 17., 83., 227., 245., 245., 245., 245., 245., 245., 245.,
          245., 245., 245., 245., 245., 245., 245., 247., 185., 18., 17.,
          17., 17., 17., 17., 8., 88., 250., 245., 245., 245., 245.,
          245., 245., 245., 245., 245., 245., 245., 245., 245., 217.,
          34., 4., 12., 12., 12., 12., 12., 9., 8., 118., 245., 245.,
          245., 245., 245., 245., 245., 245., 245., 245., 245., 245.,
          251., 123., 1., 1., 5., 6., 6., 6., 6., 2., 1., 7., 206., 245.,
          245., 245., 245., 245., 245., 245., 245., 245., 245., 245.,
          252., 106., 1., 1., 1., 6., 6., 6., 6., 2., 1., 5., 195., 245.,
          245., 245., 245., 245., 245., 245., 245., 245., 245., 245.,
          247., 196., 29., 1., 4., 6., 6., 7., 4., 1., 7., 83., 237.,
          245., 245., 245., 245., 245., 245., 245., 245., 245., 245.,
          245., 245., 248., 231., 95., 59., 146., 15., 137., 62., 41.,
          159., 254., 245., 245., 245., 245., 245., 245., 245., 245.,
          245., 245., 245., 245., 245., 245., 247., 246., 246., 184., 2.,
          106., 245., 240., 248., 245., 245., 245., 245., 245., 245.,
          245., 245., 245., 245., 245., 245., 245., 245., 245., 245.,
          245., 251., 116., 49., 51., 208., 246., 245., 245., 245., 245.,
          245., 245., 245., 245., 245., 245., 245., 245., 245., 245.,
          245., 245., 245., 245., 245., 244., 244., 244., 245., 245.,
          245., 245., 245., 245., 245., 245., 245., 245., 245., 245.,
          245., 245., 245., 245., 245., 245., 245., 245., 245., 245.,
          245., 245., 245., 245., 245., 245., 245., 245., 245., 245.,
          245., 245., 245., 245., 245., 245., 245., 245., 245., 245.,
          245., 245., 245., 245., 245., 245., 245., 245., 245., 245.,
          245., 245., 245., 245., 245., 245., 245., 245., 245., 245.,
          245., 245., 245., 245., 245., 245., 245., 245., 245., 245.,
          245., 245., 245., 245., 245., 245., 245., 245., 245., 245.,
          245., 245., 245. ]
      - [ 191., 191., 191., 191., 191., 191., 191., 191., 191., 192.,
          191., 191., 191., 191., 191., 191., 191., 191., 191., 191.,
          191., 191., 191., 191., 191., 191., 191., 191., 191., 191.,
          191., 191., 194., 114., 182., 191., 191., 191., 191., 191.,
          191., 191., 191., 191., 191., 191., 191., 191., 191., 191.,
          191., 191., 191., 191., 191., 194., 124., 17., 78., 180., 192.,
          191., 191., 191., 191., 191., 191., 191., 191., 191., 191.,
          191., 191., 191., 191., 191., 191., 191., 195., 145., 22., 17.,
          14., 66., 193., 191., 191., 191., 191., 191., 191., 191., 191.,
          191., 191., 191., 191., 191., 191., 191., 191., 195., 127.,
          17., 13., 13., 13., 13., 65., 177., 191., 191., 191., 191.,
          191., 191., 191., 191., 191., 191., 191., 191., 191., 191.,
          193., 144., 14., 13., 13., 13., 13., 13., 6., 69., 195., 191.,
          191., 191., 191., 191., 191., 191., 191., 191., 191., 191.,
          191., 191., 170., 26., 3., 9., 9., 9., 9., 9., 7., 6., 92.,
          191., 191., 191., 191., 191., 191., 191., 191., 191., 191.,
          191., 191., 196., 96., 1., 1., 4., 5., 5., 5., 5., 1., 1., 5.,
          161., 191., 191., 191., 191., 191., 191., 191., 191., 191.,
          191., 191., 197., 83., 1., 1., 1., 5., 5., 5., 5., 1., 1., 4.,
          152., 191., 191., 191., 191., 191., 191., 191., 191., 191.,
          191., 191., 193., 153., 23., 1., 3., 5., 5., 5., 3., 1., 6.,
          65., 185., 191., 191., 191., 191., 191., 191., 191., 191.,
          191., 191., 191., 191., 193., 180., 75., 46., 114., 12., 107.,
          49., 32., 124., 199., 191., 191., 191., 191., 191., 191., 191.,
          191., 191., 191., 191., 191., 191., 191., 193., 192., 192.,
          144., 1., 83., 191., 188., 193., 191., 191., 191., 191., 191.,
          191., 191., 191., 191., 191., 191., 191., 191., 191., 191.,
          191., 191., 196., 91., 39., 40., 162., 192., 191., 191., 191.,
          191., 191., 191., 191., 191., 191., 191., 191., 191., 191.,
          191., 191., 191., 191., 191., 191., 190., 190., 190., 191.,
          191., 191., 191., 191., 191., 191., 191., 191., 191., 191.,
          191., 191., 191., 191., 191., 191., 191., 191., 191., 191.,
          191., 191., 191., 191., 191., 191., 191., 191., 191., 191.,
          191., 191., 191., 191., 191., 191., 191., 191., 191., 191.,
          191., 191., 191., 191., 191., 191., 191., 191., 191., 191.,
          191., 191., 191., 191., 191., 191., 191., 191., 191., 191. ]
      - [ 245., 245., 245., 245., 245., 245., 245., 245., 245., 246.,
          245., 245., 245., 245., 245., 245., 245., 245., 245., 245.,
          245., 245., 245., 245., 245., 245., 245., 245., 245., 245.,
          245., 245., 248., 146., 233., 245., 245., 245., 245., 245.,
          245., 245., 245., 245., 245., 245., 245., 245., 245., 245.,
          245., 245., 245., 245., 245., 249., 159., 23., 100., 231.,
          245., 245., 245., 245., 245., 245., 245., 245., 245., 245.,
          245., 245., 245., 245., 245., 245., 245., 245., 249., 186.,
          28., 22., 18., 85., 247., 245., 245., 245., 245., 245., 245.,
          245., 245., 245., 245., 245., 245., 245., 245., 245., 245.,
          250., 162., 22., 16., 17., 17., 17., 83., 227., 245., 245.,
          245., 245., 245., 245., 245., 245., 245., 245., 245., 245.,
          245., 245., 247., 185., 18., 17., 17., 17., 17., 17., 8., 88.,
          250., 245., 245., 245., 245., 245., 245., 245., 245., 245.,
          245., 245., 245., 245., 217., 34., 4., 12., 12., 12., 12., 12.,
          9., 8., 118., 245., 245., 245., 245., 245., 245., 245., 245.,
          245., 245., 245., 245., 251., 123., 1., 1., 5., 6., 6., 6., 6.,
          2., 1., 7., 206., 245., 245., 245., 245., 245., 245., 245.,
          245., 245., 245., 245., 252., 106., 1., 1., 1., 6., 6., 6., 6.,
          2., 1., 5., 195., 245., 245., 245., 245., 245., 245., 245.,
          245., 245., 245., 245., 247., 196., 29., 1., 4., 6., 6., 7.,
          4., 1., 7., 83., 237., 245., 245., 245., 245., 245., 245.,
          245., 245., 245., 245., 245., 245., 248., 231., 95., 59., 146.,
          15., 137., 62., 41., 159., 254., 245., 245., 245., 245., 245.,
          245., 245., 245., 245., 245., 245., 245., 245., 245., 247.,
          246., 246., 184., 2., 106., 245., 240., 248., 245., 245., 245.,
          245., 245., 245., 245., 245., 245., 245., 245., 245., 245.,
          245., 245., 245., 245., 251., 116., 49., 51., 208., 246., 245.,
          245., 245., 245., 245., 245., 245., 245., 245., 245., 245.,
          245., 245., 245., 245., 245., 245., 245., 245., 244., 244.,
          244., 245., 245., 245., 245., 245., 245., 245., 245., 245.,
          245., 245., 245., 245., 245., 245., 245., 245., 245., 245.,
          245., 245., 245., 245., 245., 245., 245., 245., 245., 245.,
          245., 245., 245., 245., 245., 245., 245., 245., 245., 245.,
          245., 245., 245., 245., 245., 245., 245., 245., 245., 245.,
          245., 245., 245., 245., 245., 245., 245., 245., 245., 245.,
          245., 245. ]
      - [ 191., 191., 191., 191., 191., 191., 191., 191., 191., 191.,
          191., 191., 191., 194., 157., 152., 195., 191., 191., 191.,
          191., 191., 191., 191., 191., 191., 191., 191., 191., 191.,
          191., 191., 191., 191., 191., 191., 193., 165., 40., 42., 148.,
          193., 191., 191., 191., 191., 191., 191., 191., 191., 191.,
          191., 191., 191., 191., 191., 191., 191., 191., 192., 190.,
          47., 17., 17., 25., 165., 195., 191., 191., 191., 191., 191.,
          191., 191., 191., 191., 191., 191., 191., 191., 191., 191.,
          193., 168., 45., 12., 12., 12., 12., 30., 143., 193., 191.,
          191., 191., 191., 191., 191., 191., 191., 191., 191., 191.,
          191., 191., 192., 184., 48., 8., 12., 12., 12., 12., 9., 26.,
          173., 193., 191., 191., 191., 191., 191., 191., 191., 191.,
          191., 191., 191., 191., 190., 73., 2., 6., 9., 9., 9., 9., 9.,
          3., 34., 175., 191., 191., 191., 191., 191., 191., 191., 191.,
          191., 191., 191., 192., 163., 11., 3., 3., 5., 5., 5., 5., 4.,
          3., 1., 100., 196., 191., 191., 191., 191., 191., 191., 191.,
          191., 191., 191., 192., 153., 7., 3., 3., 5., 5., 5., 5., 4.,
          3., 1., 85., 196., 191., 191., 191., 191., 191., 191., 191.,
          191., 191., 191., 191., 186., 62., 3., 2., 3., 7., 6., 2., 2.,
          2., 29., 156., 191., 191., 191., 191., 191., 191., 191., 191.,
          191., 191., 191., 191., 192., 198., 113., 43., 95., 66., 64.,
          93., 24., 75., 193., 192., 191., 191., 191., 191., 191., 191.,
          191., 191., 191., 191., 191., 191., 191., 191., 193., 190.,
          185., 30., 25., 174., 186., 190., 192., 191., 191., 191., 191.,
          191., 191., 191., 191., 191., 191., 191., 191., 191., 191.,
          191., 191., 192., 143., 37., 37., 106., 191., 191., 191., 191.,
          191., 191., 191., 191., 191., 191., 191., 191., 191., 191.,
          191., 191., 191., 191., 191., 191., 190., 191., 191., 190.,
          191., 191., 191., 191., 191., 191., 191., 191., 191., 191.,
          191., 191., 191., 191., 191., 191., 191., 191., 191., 191.,
          191., 191., 191., 191., 191., 191., 191., 191., 191., 191.,
          191., 191., 191., 191., 191., 191., 191., 191., 191., 191.,
          191., 191., 191., 191., 191., 191., 191., 191., 191., 191.,
          191., 191., 191., 191., 191., 191., 191., 191., 191., 191.,
          191., 191., 191., 191., 191., 191., 191., 191., 191., 191.,
          191., 191., 191., 191., 191., 191., 191., 191., 191. ]
      - [ 191., 191., 191., 191., 191., 191., 191., 191., 191., 191.,
          191., 191., 193., 165., 40., 42., 148., 193., 191., 191., 191.,
          191., 191., 191., 191., 191., 191., 191., 191., 191., 191.,
          191., 191., 191., 191., 192., 190., 47., 17., 17., 25., 165.,
          195., 191., 191., 191., 191., 191., 191., 191., 191., 191.,
          191., 191., 191., 191., 191., 191., 193., 168., 45., 12., 12.,
          12., 12., 30., 143., 193., 191., 191., 191., 191., 191., 191.,
          191., 191., 191., 191., 191., 191., 191., 192., 184., 48., 8.,
          12., 12., 12., 12., 9., 26., 173., 193., 191., 191., 191.,
          191., 191., 191., 191., 191., 191., 191., 191., 191., 190.,
          73., 2., 6., 9., 9., 9., 9., 9., 3., 34., 175., 191., 191.,
          191., 191., 191., 191., 191., 191., 191., 191., 191., 192.,
          163., 11., 3., 3., 5., 5., 5., 5., 4., 3., 1., 100., 196.,
          191., 191., 191., 191., 191., 191., 191., 191., 191., 191.,
          192., 153., 7., 3., 3., 5., 5., 5., 5., 4., 3., 1., 85., 196.,
          191., 191., 191., 191., 191., 191., 191., 191., 191., 191.,
          191., 186., 62., 3., 2., 3., 7., 6., 2., 2., 2., 29., 156.,
          191., 191., 191., 191., 191., 191., 191., 191., 191., 191.,
          191., 191., 192., 198., 113., 43., 95., 66., 64., 93., 24.,
          75., 193., 192., 191., 191., 191., 191., 191., 191., 191.,
          191., 191., 191., 191., 191., 191., 191., 193., 190., 185.,
          30., 25., 174., 186., 190., 192., 191., 191., 191., 191., 191.,
          191., 191., 191., 191., 191., 191., 191., 191., 191., 191.,
          191., 192., 143., 37., 37., 106., 191., 191., 191., 191., 191.,
          191., 191., 191., 191., 191., 191., 191., 191., 191., 191.,
          191., 191., 191., 191., 191., 190., 191., 191., 190., 191.,
          191., 191., 191., 191., 191., 191., 191., 191., 191., 191.,
          191., 191., 191., 191., 191., 191., 191., 191., 191., 191.,
          191., 191., 191., 191., 191., 191., 191., 191., 191., 191.,
          191., 191., 191., 191., 191., 191., 191., 191., 191., 191.,
          191., 191., 191., 191., 191., 191., 191., 191., 191., 191.,
          191., 191., 191., 191., 191., 191., 191., 191., 191., 191.,
          191., 191., 191., 191., 191., 191., 191., 191., 191., 191.,
          191., 191., 191., 191., 191., 191., 191., 191., 191., 191.,
          191., 191., 191., 191., 191., 191., 191., 191., 191., 191.,
          191., 191., 191., 191., 191., 191., 191., 191., 191., 191.,
          191., 191. ]
      - [ 191., 191., 191., 191., 191., 191., 191., 191., 191., 191.,
          191., 191., 191., 191., 192., 191., 191., 191., 191., 191.,
          191., 191., 191., 191., 191., 191., 191., 191., 191., 191.,
          191., 191., 191., 191., 191., 191., 194., 162., 145., 195.,
          191., 191., 191., 191., 191., 191., 191., 191., 191., 191.,
          191., 191., 191., 191., 191., 191., 191., 191., 191., 192.,
          170., 44., 38., 143., 193., 191., 191., 191., 191., 191., 191.,
          191., 191., 191., 191., 191., 191., 191., 191., 191., 191.,
          191., 192., 191., 53., 17., 17., 19., 156., 195., 191., 191.,
          191., 191., 191., 191., 191., 191., 191., 191., 191., 191.,
          191., 191., 191., 193., 174., 52., 11., 12., 12., 12., 28.,
          137., 193., 191., 191., 191., 191., 191., 191., 191., 191.,
          191., 191., 191., 191., 191., 191., 185., 54., 8., 12., 12.,
          12., 12., 10., 20., 163., 194., 191., 191., 191., 191., 191.,
          191., 191., 191., 191., 191., 191., 191., 192., 83., 2., 6.,
          9., 9., 9., 9., 9., 4., 31., 171., 191., 191., 191., 191.,
          191., 191., 191., 191., 191., 191., 191., 192., 175., 15., 3.,
          3., 5., 5., 5., 5., 4., 3., 1., 86., 196., 191., 191., 191.,
          191., 191., 191., 191., 191., 191., 191., 192., 166., 10., 3.,
          3., 5., 5., 5., 5., 4., 3., 1., 72., 197., 191., 191., 191.,
          191., 191., 191., 191., 191., 191., 191., 191., 190., 71., 3.,
          2., 3., 7., 5., 2., 2., 2., 27., 149., 191., 191., 191., 191.,
          191., 191., 191., 191., 191., 191., 191., 191., 192., 198.,
          120., 45., 89., 72., 56., 100., 25., 68., 187., 193., 191.,
          191., 191., 191., 191., 191., 191., 191., 191., 191., 191.,
          191., 191., 191., 194., 190., 186., 35., 21., 173., 187., 190.,
          192., 191., 191., 191., 191., 191., 191., 191., 191., 191.,
          191., 191., 191., 191., 191., 191., 191., 192., 151., 38., 37.,
          97., 191., 191., 191., 191., 191., 191., 191., 191., 191.,
          191., 191., 191., 191., 191., 191., 191., 191., 191., 191.,
          191., 190., 191., 191., 190., 191., 191., 191., 191., 191.,
          191., 191., 191., 191., 191., 191., 191., 191., 191., 191.,
          191., 191., 191., 191., 191., 191., 191., 191., 191., 191.,
          191., 191., 191., 191., 191., 191., 191., 191., 191., 191.,
          191., 191., 191., 191., 191., 191., 191., 191., 191., 191.,
          191., 191., 191., 191., 191., 191., 191., 191., 191., 191.,
          191. ]
      - [ 245., 245., 245., 245., 245., 245., 245., 245., 245., 245.,
          245., 248., 211., 175., 250., 245., 245., 245., 245., 245.,
          245., 245., 245., 245., 245., 245., 245., 245., 245., 245.,
          245., 245., 245., 245., 246., 224., 67., 44., 177., 247., 245.,
          245., 245., 245., 245., 245., 245., 245., 245., 245., 245.,
          245., 245., 245., 245., 245., 245., 246., 245., 76., 21., 22.,
          17., 188., 250., 245., 245., 245., 245., 245., 245., 245.,
          245., 245., 245., 245., 245., 245., 245., 245., 247., 230.,
          76., 14., 16., 16., 16., 33., 168., 246., 245., 245., 245.,
          245., 245., 245., 245., 245., 245., 245., 245., 245., 245.,
          245., 239., 76., 10., 15., 15., 15., 15., 13., 20., 196., 249.,
          245., 245., 245., 245., 245., 245., 245., 245., 245., 245.,
          245., 245., 249., 121., 2., 8., 11., 11., 11., 11., 11., 5.,
          36., 214., 245., 245., 245., 245., 245., 245., 245., 245.,
          245., 245., 245., 246., 241., 24., 4., 4., 7., 7., 7., 7., 5.,
          4., 2., 94., 249., 245., 245., 245., 245., 245., 245., 245.,
          245., 245., 245., 246., 230., 16., 4., 4., 7., 7., 7., 7., 5.,
          4., 1., 75., 249., 245., 245., 245., 245., 245., 245., 245.,
          245., 245., 245., 245., 250., 102., 4., 2., 3., 9., 6., 2., 2.,
          2., 31., 182., 245., 245., 245., 245., 245., 245., 245., 245.,
          245., 245., 245., 245., 245., 253., 162., 60., 106., 99., 60.,
          137., 33., 78., 231., 248., 245., 245., 245., 245., 245., 245.,
          245., 245., 245., 245., 245., 245., 245., 245., 249., 244.,
          241., 61., 23., 219., 240., 243., 246., 245., 245., 245., 245.,
          245., 245., 245., 245., 245., 245., 245., 245., 245., 245.,
          245., 245., 246., 205., 55., 47., 113., 244., 245., 245., 245.,
          245., 245., 245., 245., 245., 245., 245., 245., 245., 245.,
          245., 245., 245., 245., 245., 245., 244., 245., 245., 243.,
          245., 245., 245., 245., 245., 245., 245., 245., 245., 245.,
          245., 245., 245., 245., 245., 245., 245., 245., 245., 245.,
          245., 245., 245., 245., 245., 245., 245., 245., 245., 245.,
          245., 245., 245., 245., 245., 245., 245., 245., 245., 245.,
          245., 245., 245., 245., 245., 245., 245., 245., 245., 245.,
          245., 245., 245., 245., 245., 245., 245., 245., 245., 245.,
          245., 245., 245., 245., 245., 245., 245., 245., 245., 245.,
          245., 245., 245., 245., 245., 245., 245., 245., 245., 245.,
          245. ]
      - [ 245., 245., 245., 245., 245., 245., 245., 245., 245., 245.,
          245., 245., 245., 249., 201., 195., 250., 245., 245., 245.,
          245., 245., 245., 245., 245., 245., 245., 245., 245., 245.,
          245., 245., 245., 245., 245., 245., 247., 212., 51., 53., 190.,
          248., 245., 245., 245., 245., 245., 245., 245., 245., 245.,
          245., 245., 245., 245., 245., 245., 245., 245., 247., 244.,
          61., 22., 22., 32., 211., 249., 245., 245., 245., 245., 245.,
          245., 245., 245., 245., 245., 245., 245., 245., 245., 245.,
          247., 215., 57., 15., 16., 16., 16., 38., 183., 247., 245.,
          245., 245., 245., 245., 245., 245., 245., 245., 245., 245.,
          245., 245., 246., 236., 62., 11., 15., 15., 15., 15., 12., 33.,
          222., 248., 245., 245., 245., 245., 245., 245., 245., 245.,
          245., 245., 245., 245., 243., 93., 3., 8., 11., 11., 11., 11.,
          11., 4., 44., 224., 245., 245., 245., 245., 245., 245., 245.,
          245., 245., 245., 245., 246., 210., 14., 4., 4., 7., 7., 7.,
          7., 5., 4., 1., 128., 251., 245., 245., 245., 245., 245., 245.,
          245., 245., 245., 245., 246., 197., 9., 4., 4., 7., 7., 7., 7.,
          5., 4., 1., 109., 252., 245., 245., 245., 245., 245., 245.,
          245., 245., 245., 245., 245., 238., 79., 3., 2., 4., 9., 7.,
          2., 2., 2., 38., 200., 245., 245., 245., 245., 245., 245.,
          245., 245., 245., 245., 245., 245., 246., 254., 145., 55.,
          122., 85., 82., 120., 31., 96., 247., 246., 245., 245., 245.,
          245., 245., 245., 245., 245., 245., 245., 245., 245., 245.,
          245., 248., 244., 237., 39., 31., 223., 239., 244., 246., 245.,
          245., 245., 245., 245., 245., 245., 245., 245., 245., 245.,
          245., 245., 245., 245., 245., 247., 184., 47., 47., 136., 245.,
          245., 245., 245., 245., 245., 245., 245., 245., 245., 245.,
          245., 245., 245., 245., 245., 245., 245., 245., 245., 244.,
          245., 245., 243., 245., 245., 245., 245., 245., 245., 245.,
          245., 245., 245., 245., 245., 245., 245., 245., 245., 245.,
          245., 245., 245., 245., 245., 245., 245., 245., 245., 245.,
          245., 245., 245., 245., 245., 245., 245., 245., 245., 245.,
          245., 245., 245., 245., 245., 245., 245., 245., 245., 245.,
          245., 245., 245., 245., 245., 245., 245., 245., 245., 245.,
          245., 245., 245., 245., 245., 245., 245., 245., 245., 245.,
          245., 245., 245., 245., 245., 245., 245., 245., 245., 245.,
          245., 245. ]
      - [ 245., 245., 245., 245., 245., 245., 245., 245., 245., 245.,
          245., 245., 233., 121., 245., 245., 245., 245., 245., 245.,
          245., 245., 245., 245., 245., 245., 245., 245., 245., 245.,
          245., 245., 245., 245., 246., 245., 127., 19., 132., 247.,
          246., 245., 245., 245., 245., 245., 245., 245., 245., 245.,
          245., 245., 245., 245., 245., 245., 245., 245., 248., 130.,
          19., 22., 16., 119., 249., 245., 245., 245., 245., 245., 245.,
          245., 245., 245., 245., 245., 245., 245., 245., 245., 245.,
          245., 130., 19., 20., 20., 20., 19., 120., 242., 245., 245.,
          245., 245., 245., 245., 245., 245., 245., 245., 245., 245.,
          245., 245., 248., 137., 9., 15., 15., 15., 15., 15., 7., 123.,
          247., 245., 245., 245., 245., 245., 245., 245., 245., 245.,
          245., 245., 245., 248., 196., 20., 6., 12., 12., 12., 12., 12.,
          7., 14., 172., 249., 245., 245., 245., 245., 245., 245., 245.,
          245., 245., 245., 245., 245., 54., 1., 2., 7., 8., 8., 8., 7.,
          2., 2., 21., 233., 245., 245., 245., 245., 245., 245., 245.,
          245., 245., 245., 245., 241., 33., 1., 2., 5., 6., 6., 6., 6.,
          2., 2., 6., 227., 245., 245., 245., 245., 245., 245., 245.,
          245., 245., 245., 245., 249., 163., 17., 1., 3., 6., 4., 5.,
          3., 1., 12., 131., 247., 245., 245., 245., 245., 245., 245.,
          245., 245., 245., 245., 245., 245., 249., 199., 73., 71., 140.,
          2., 131., 39., 52., 188., 250., 244., 245., 245., 245., 245.,
          245., 245., 245., 245., 245., 245., 245., 245., 245., 247.,
          246., 248., 150., 1., 144., 244., 242., 248., 245., 245., 245.,
          245., 245., 245., 245., 245., 245., 245., 245., 245., 245.,
          245., 245., 245., 246., 245., 90., 50., 80., 240., 246., 245.,
          245., 245., 245., 245., 245., 245., 245., 245., 245., 245.,
          245., 245., 245., 245., 245., 245., 245., 245., 244., 244.,
          244., 244., 245., 245., 245., 245., 245., 245., 245., 245.,
          245., 245., 245., 245., 245., 245., 245., 245., 245., 245.,
          245., 245., 245., 245., 245., 245., 245., 245., 245., 245.,
          245., 245., 245., 245., 245., 245., 245., 245., 245., 245.,
          245., 245., 245., 245., 245., 245., 245., 245., 245., 245.,
          245., 245., 245., 245., 245., 245., 245., 245., 245., 245.,
          245., 245., 245., 245., 245., 245., 245., 245., 245., 245.,
          245., 245., 245., 245., 245., 245., 245., 245., 245., 245.,
          245., 245. ]
      - [ 191., 191., 191., 191., 191., 191., 191., 191., 193., 159.,
          41., 16., 26., 136., 193., 191., 191., 191., 191., 191., 191.,
          191., 191., 191., 191., 191., 191., 191., 191., 191., 191.,
          193., 177., 32., 15., 17., 16., 9., 131., 197., 191., 191.,
          191., 191., 191., 191., 191., 191., 191., 191., 191., 191.,
          191., 191., 193., 159., 32., 11., 13., 13., 13., 13., 20.,
          126., 193., 191., 191., 191., 191., 191., 191., 191., 191.,
          191., 191., 191., 191., 192., 192., 52., 8., 11., 11., 11.,
          11., 11., 9., 12., 159., 192., 191., 191., 191., 191., 191.,
          191., 191., 191., 191., 191., 191., 193., 91., 2., 2., 5., 7.,
          7., 7., 7., 2., 1., 38., 187., 192., 191., 191., 191., 191.,
          191., 191., 191., 191., 191., 191., 189., 35., 1., 2., 4., 6.,
          6., 6., 6., 2., 2., 2., 166., 192., 191., 191., 191., 191.,
          191., 191., 191., 191., 191., 191., 193., 97., 1., 2., 4., 2.,
          4., 2., 5., 2., 1., 39., 191., 191., 191., 191., 191., 191.,
          191., 191., 191., 191., 191., 191., 192., 192., 100., 27., 23.,
          59., 8., 51., 15., 16., 65., 169., 192., 191., 191., 191.,
          191., 191., 191., 191., 191., 191., 191., 191., 191., 191.,
          194., 190., 188., 165., 11., 125., 181., 179., 197., 192.,
          191., 191., 191., 191., 191., 191., 191., 191., 191., 191.,
          191., 191., 191., 191., 191., 193., 194., 85., 8., 43., 187.,
          193., 191., 191., 191., 191., 191., 191., 191., 191., 191.,
          191., 191., 191., 191., 191., 191., 191., 191., 191., 191.,
          182., 182., 182., 189., 191., 191., 191., 191., 191., 191.,
          191., 191., 191., 191., 191., 191., 191., 191., 191., 191.,
          191., 191., 191., 191., 192., 192., 192., 191., 191., 191.,
          191., 191., 191., 191., 191., 191., 191., 191., 191., 191.,
          191., 191., 191., 191., 191., 191., 191., 191., 191., 191.,
          191., 191., 191., 191., 191., 191., 191., 191., 191., 191.,
          191., 191., 191., 191., 191., 191., 191., 191., 191., 191.,
          191., 191., 191., 191., 191., 191., 191., 191., 191., 191.,
          191., 191., 191., 191., 191., 191., 115., 115., 115., 116.,
          116., 117., 118., 119., 119., 120., 120., 122., 122., 123.,
          123., 124., 125., 126., 128., 129., 129., 130., 130., 132.,
          96., 96., 96., 98., 98., 100., 101., 102., 102., 102., 103.,
          104., 106., 106., 107., 109., 110., 111., 112., 113., 113.,
          115., 116., 117. ]
      - [ 191., 191., 191., 191., 191., 191., 191., 191., 191., 192.,
          187., 49., 11., 14., 14., 14., 12., 53., 184., 191., 191.,
          191., 191., 191., 191., 191., 191., 191., 191., 191., 191.,
          191., 191., 188., 63., 9., 12., 12., 12., 12., 12., 7., 71.,
          194., 191., 191., 191., 191., 191., 191., 191., 191., 191.,
          191., 191., 191., 195., 112., 3., 3., 8., 8., 8., 8., 8., 3.,
          3., 107., 194., 191., 191., 191., 191., 191., 191., 191., 191.,
          191., 191., 191., 187., 25., 1., 2., 5., 6., 6., 6., 5., 2.,
          1., 7., 179., 191., 191., 191., 191., 191., 191., 191., 191.,
          191., 191., 191., 190., 42., 1., 2., 4., 4., 5., 4., 4., 2.,
          1., 23., 185., 191., 191., 191., 191., 191., 191., 191., 191.,
          191., 191., 191., 193., 161., 20., 0., 0., 9., 3., 5., 0., 0.,
          23., 162., 193., 191., 191., 191., 191., 191., 191., 191.,
          191., 191., 191., 191., 191., 193., 171., 117., 119., 117., 6.,
          128., 99., 108., 173., 193., 191., 191., 191., 191., 191.,
          191., 191., 191., 191., 191., 191., 191., 191., 191., 191.,
          194., 197., 85., 1., 97., 198., 194., 191., 191., 191., 191.,
          191., 191., 191., 191., 191., 191., 191., 191., 191., 191.,
          191., 191., 191., 192., 191., 128., 116., 129., 189., 191.,
          191., 191., 191., 191., 191., 191., 191., 191., 191., 191.,
          191., 191., 191., 191., 191., 191., 191., 191., 191., 194.,
          194., 194., 191., 191., 191., 191., 191., 191., 191., 191.,
          191., 191., 191., 191., 191., 191., 191., 191., 191., 191.,
          191., 191., 191., 191., 191., 191., 191., 191., 191., 191.,
          191., 191., 191., 191., 191., 191., 191., 191., 191., 191.,
          191., 191., 191., 191., 191., 191., 191., 191., 191., 191.,
          191., 191., 191., 191., 191., 191., 191., 191., 191., 191.,
          191., 191., 191., 191., 191., 191., 191., 191., 191., 191.,
          191., 191., 191., 191., 191., 191., 191., 191., 191., 191.,
          191., 191., 191., 191., 191., 191., 191., 191., 191., 191.,
          191., 191., 191., 191., 191., 191., 191., 191., 191., 191.,
          191., 191., 191., 191., 191., 191., 191., 191., 191., 191.,
          191., 191., 191., 191., 191., 191., 191., 191., 191., 191.,
          191., 191., 191., 191., 191., 191., 191., 191., 191., 191.,
          191., 191., 191., 191., 191., 191., 191., 191., 191., 191.,
          191., 191., 191., 191., 191., 191., 191., 191., 191., 191.,
          191., 191., 191., 191. ]
      - [ 245., 245., 245., 245., 245., 245., 245., 245., 245., 245.,
          245., 245., 245., 228., 127., 246., 245., 245., 245., 245.,
          245., 245., 245., 245., 245., 245., 245., 245., 245., 245.,
          245., 245., 245., 245., 245., 246., 245., 117., 22., 140.,
          247., 246., 245., 245., 245., 245., 245., 245., 245., 245.,
          245., 245., 245., 245., 245., 245., 245., 245., 245., 247.,
          119., 19., 22., 16., 131., 250., 245., 245., 245., 245., 245.,
          245., 245., 245., 245., 245., 245., 245., 245., 245., 245.,
          246., 244., 120., 16., 20., 20., 19., 21., 129., 243., 245.,
          245., 245., 245., 245., 245., 245., 245., 245., 245., 245.,
          245., 245., 245., 247., 125., 9., 15., 15., 15., 15., 15., 6.,
          136., 249., 245., 245., 245., 245., 245., 245., 245., 245.,
          245., 245., 245., 245., 248., 183., 15., 6., 12., 12., 12.,
          12., 12., 6., 18., 185., 248., 245., 245., 245., 245., 245.,
          245., 245., 245., 245., 245., 245., 245., 49., 2., 2., 7., 8.,
          8., 8., 7., 2., 1., 23., 236., 245., 245., 245., 245., 245.,
          245., 245., 245., 245., 245., 245., 239., 30., 2., 2., 6., 6.,
          6., 6., 5., 2., 1., 7., 231., 245., 245., 245., 245., 245.,
          245., 245., 245., 245., 245., 245., 250., 152., 13., 1., 3.,
          7., 5., 4., 3., 1., 15., 140., 247., 245., 245., 245., 245.,
          245., 245., 245., 245., 245., 245., 245., 245., 250., 192.,
          71., 73., 134., 8., 133., 38., 55., 196., 250., 245., 245.,
          245., 245., 245., 245., 245., 245., 245., 245., 245., 245.,
          245., 245., 248., 246., 249., 135., 3., 158., 243., 243., 248.,
          245., 245., 245., 245., 245., 245., 245., 245., 245., 245.,
          245., 245., 245., 245., 245., 245., 246., 245., 84., 50., 85.,
          241., 246., 245., 245., 245., 245., 245., 245., 245., 245.,
          245., 245., 245., 245., 245., 245., 245., 245., 245., 245.,
          245., 244., 244., 244., 244., 245., 245., 245., 245., 245.,
          245., 245., 245., 245., 245., 245., 245., 245., 245., 245.,
          245., 245., 245., 245., 245., 245., 245., 245., 245., 245.,
          245., 245., 245., 245., 245., 245., 245., 245., 245., 245.,
          245., 245., 245., 245., 245., 245., 245., 245., 245., 245.,
          245., 245., 245., 245., 245., 245., 245., 245., 245., 245.,
          245., 245., 245., 245., 245., 245., 245., 245., 245., 245.,
          245., 245., 245., 245., 245., 245., 245., 245., 245., 245.,
          245., 245., 245., 245. ]
      - [ 245., 245., 245., 245., 245., 245., 245., 249., 165., 26., 21.,
          54., 211., 248., 245., 245., 245., 245., 245., 245., 245.,
          245., 245., 245., 245., 245., 245., 245., 245., 245., 250.,
          180., 23., 20., 20., 18., 29., 210., 246., 245., 245., 245.,
          245., 245., 245., 245., 245., 245., 245., 245., 245., 245.,
          245., 249., 165., 17., 15., 16., 16., 16., 14., 48., 215.,
          247., 245., 245., 245., 245., 245., 245., 245., 245., 245.,
          245., 245., 245., 247., 217., 27., 13., 13., 13., 13., 13.,
          13., 8., 46., 231., 245., 245., 245., 245., 245., 245., 245.,
          245., 245., 245., 245., 245., 238., 52., 0., 2., 9., 10., 10.,
          10., 8., 2., 1., 110., 252., 245., 245., 245., 245., 245.,
          245., 245., 245., 245., 245., 245., 222., 20., 1., 1., 6., 8.,
          8., 8., 5., 1., 1., 52., 253., 245., 245., 245., 245., 245.,
          245., 245., 245., 245., 245., 245., 240., 51., 0., 1., 4., 3.,
          5., 3., 5., 1., 0., 110., 252., 245., 245., 245., 245., 245.,
          245., 245., 245., 245., 245., 245., 246., 225., 96., 26., 42.,
          74., 19., 70., 16., 30., 121., 233., 245., 245., 245., 245.,
          245., 245., 245., 245., 245., 245., 245., 245., 245., 245.,
          251., 237., 247., 157., 11., 220., 223., 236., 252., 245.,
          245., 245., 245., 245., 245., 245., 245., 245., 245., 245.,
          245., 245., 245., 245., 245., 246., 229., 48., 9., 95., 247.,
          246., 245., 245., 245., 245., 245., 245., 245., 245., 245.,
          245., 245., 245., 245., 245., 245., 245., 245., 245., 242.,
          233., 233., 235., 245., 245., 245., 245., 245., 245., 245.,
          245., 245., 245., 245., 245., 245., 245., 245., 245., 245.,
          245., 245., 245., 245., 246., 246., 246., 245., 245., 245.,
          245., 245., 245., 245., 245., 245., 245., 245., 245., 245.,
          245., 245., 245., 245., 245., 245., 245., 245., 245., 245.,
          245., 245., 245., 245., 245., 245., 245., 245., 245., 245.,
          245., 245., 245., 245., 245., 245., 245., 245., 245., 245.,
          245., 245., 245., 245., 245., 245., 245., 245., 245., 245.,
          245., 245., 245., 245., 245., 245., 245., 245., 245., 245.,
          245., 245., 245., 245., 245., 245., 245., 245., 245., 245.,
          245., 245., 245., 245., 245., 245., 245., 245., 245., 245.,
          245., 245., 245., 245., 245., 245., 245., 245., 245., 245.,
          245., 245., 245., 245., 245., 245., 245., 245., 245., 245.,
          245., 245., 245., 245., 245. ]
      - [ 245., 245., 245., 245., 245., 248., 189., 41., 23., 44., 194.,
          248., 245., 245., 245., 245., 245., 245., 245., 245., 245.,
          245., 245., 245., 245., 245., 245., 245., 251., 190., 20., 17.,
          17., 17., 28., 207., 250., 245., 245., 245., 245., 245., 245.,
          245., 245., 245., 245., 245., 245., 245., 245., 245., 181.,
          31., 17., 17., 17., 17., 16., 33., 188., 247., 245., 245.,
          245., 245., 245., 245., 245., 245., 245., 245., 245., 245.,
          246., 224., 34., 9., 13., 13., 13., 13., 13., 11., 47., 236.,
          246., 245., 245., 245., 245., 245., 245., 245., 245., 245.,
          245., 245., 250., 87., 1., 1., 9., 10., 10., 10., 8., 0., 1.,
          67., 243., 245., 245., 245., 245., 245., 245., 245., 245.,
          245., 245., 245., 237., 24., 0., 0., 5., 8., 8., 8., 6., 3.,
          0., 3., 228., 245., 245., 245., 245., 245., 245., 245., 245.,
          245., 245., 245., 250., 93., 0., 0., 5., 5., 5., 3., 5., 1.,
          0., 70., 245., 245., 245., 245., 245., 245., 245., 245., 245.,
          245., 245., 245., 246., 233., 105., 32., 33., 67., 7., 65.,
          17., 24., 107., 237., 246., 245., 245., 245., 245., 245., 245.,
          245., 245., 245., 245., 245., 245., 245., 251., 241., 244.,
          165., 7., 200., 228., 232., 250., 245., 245., 245., 245., 245.,
          245., 245., 245., 245., 245., 245., 245., 245., 245., 245.,
          245., 246., 248., 77., 8., 85., 247., 247., 245., 245., 245.,
          245., 245., 245., 245., 245., 245., 245., 245., 245., 245.,
          245., 245., 245., 245., 245., 244., 233., 233., 233., 244.,
          245., 245., 245., 245., 245., 245., 245., 245., 245., 245.,
          245., 245., 245., 245., 245., 245., 245., 245., 245., 245.,
          246., 246., 246., 245., 245., 245., 245., 245., 245., 245.,
          245., 245., 245., 245., 245., 245., 245., 245., 245., 245.,
          245., 245., 245., 245., 245., 245., 245., 245., 245., 245.,
          245., 245., 245., 245., 245., 245., 245., 245., 245., 245.,
          245., 245., 245., 245., 245., 245., 245., 245., 245., 245.,
          245., 245., 245., 245., 245., 245., 245., 245., 245., 245.,
          245., 245., 245., 245., 245., 245., 245., 245., 245., 245.,
          245., 245., 245., 245., 245., 245., 245., 245., 245., 245.,
          245., 245., 245., 245., 245., 245., 245., 245., 245., 245.,
          245., 245., 245., 245., 245., 245., 245., 245., 245., 245.,
          245., 245., 245., 245., 245., 245., 245., 245., 245., 245.,
          245., 245., 245. ]
      - [ 245., 245., 245., 245., 245., 245., 245., 245., 250., 145.,
          52., 218., 249., 245., 245., 245., 245., 245., 245., 245.,
          245., 245., 245., 245., 245., 245., 245., 245., 245., 245.,
          245., 248., 173., 33., 21., 51., 206., 248., 245., 245., 245.,
          245., 245., 245., 245., 245., 245., 245., 245., 245., 245.,
          245., 245., 245., 252., 167., 14., 17., 17., 17., 42., 231.,
          249., 245., 245., 245., 245., 245., 245., 245., 245., 245.,
          245., 245., 245., 245., 245., 246., 166., 26., 17., 17., 17.,
          17., 15., 37., 204., 247., 245., 245., 245., 245., 245., 245.,
          245., 245., 245., 245., 245., 245., 246., 204., 12., 10., 13.,
          13., 13., 13., 13., 11., 66., 242., 245., 245., 245., 245.,
          245., 245., 245., 245., 245., 245., 245., 245., 251., 69., 0.,
          1., 10., 10., 10., 10., 7., 0., 1., 91., 245., 245., 245.,
          245., 245., 245., 245., 245., 245., 245., 245., 246., 234.,
          19., 0., 0., 5., 8., 8., 8., 5., 3., 0., 27., 238., 245., 245.,
          245., 245., 245., 245., 245., 245., 245., 245., 245., 251.,
          73., 0., 0., 5., 5., 4., 4., 5., 0., 0., 95., 245., 245., 245.,
          245., 245., 245., 245., 245., 245., 245., 245., 245., 247.,
          221., 89., 30., 38., 62., 19., 63., 16., 26., 123., 241., 246.,
          245., 245., 245., 245., 245., 245., 245., 245., 245., 245.,
          245., 245., 245., 252., 240., 246., 135., 25., 226., 226.,
          235., 249., 245., 245., 245., 245., 245., 245., 245., 245.,
          245., 245., 245., 245., 245., 245., 245., 245., 246., 238.,
          56., 9., 104., 248., 247., 245., 245., 245., 245., 245., 245.,
          245., 245., 245., 245., 245., 245., 245., 245., 245., 245.,
          245., 245., 243., 233., 233., 233., 245., 245., 245., 245.,
          245., 245., 245., 245., 245., 245., 245., 245., 245., 245.,
          245., 245., 245., 245., 245., 245., 245., 246., 246., 246.,
          245., 245., 245., 245., 245., 245., 245., 245., 245., 245.,
          245., 245., 245., 245., 245., 245., 245., 245., 245., 245.,
          245., 245., 245., 245., 245., 245., 245., 245., 245., 245.,
          245., 245., 245., 245., 245., 245., 245., 245., 245., 245.,
          245., 245., 245., 245., 245., 245., 245., 245., 245., 245.,
          245., 245., 245., 245., 245., 245., 245., 245., 245., 245.,
          245., 245., 245., 245., 245., 245., 245., 245., 245., 245.,
          245., 245., 245., 245., 245., 245., 245., 245., 245., 245.,
          245., 245., 245., 245. ]
      - [ 191., 191., 191., 191., 191., 191., 191., 196., 122., 33.,
          163., 195., 191., 191., 191., 191., 191., 191., 191., 191.,
          191., 191., 191., 191., 191., 191., 191., 191., 191., 191.,
          194., 143., 29., 17., 37., 156., 194., 191., 191., 191., 191.,
          191., 191., 191., 191., 191., 191., 191., 191., 191., 191.,
          191., 191., 196., 139., 10., 13., 13., 13., 27., 171., 195.,
          191., 191., 191., 191., 191., 191., 191., 191., 191., 191.,
          191., 191., 191., 191., 192., 135., 22., 13., 13., 13., 13.,
          12., 27., 153., 193., 191., 191., 191., 191., 191., 191., 191.,
          191., 191., 191., 191., 191., 192., 167., 18., 8., 10., 10.,
          10., 10., 10., 9., 44., 189., 192., 191., 191., 191., 191.,
          191., 191., 191., 191., 191., 191., 191., 196., 61., 1., 1.,
          8., 8., 8., 8., 6., 0., 1., 60., 191., 191., 191., 191., 191.,
          191., 191., 191., 191., 191., 191., 192., 184., 17., 0., 0.,
          4., 6., 6., 6., 4., 2., 0., 8., 182., 191., 191., 191., 191.,
          191., 191., 191., 191., 191., 191., 191., 195., 65., 0., 0.,
          4., 4., 3., 3., 4., 0., 0., 62., 191., 191., 191., 191., 191.,
          191., 191., 191., 191., 191., 191., 191., 192., 177., 76., 24.,
          26., 50., 10., 50., 13., 19., 90., 188., 192., 191., 191.,
          191., 191., 191., 191., 191., 191., 191., 191., 191., 191.,
          191., 196., 188., 191., 117., 13., 166., 177., 182., 194.,
          191., 191., 191., 191., 191., 191., 191., 191., 191., 191.,
          191., 191., 191., 191., 191., 191., 192., 193., 52., 7., 74.,
          193., 193., 191., 191., 191., 191., 191., 191., 191., 191.,
          191., 191., 191., 191., 191., 191., 191., 191., 191., 191.,
          191., 182., 182., 182., 191., 191., 191., 191., 191., 191.,
          191., 191., 191., 191., 191., 191., 191., 191., 191., 191.,
          191., 191., 191., 191., 191., 192., 192., 192., 191., 191.,
          191., 191., 191., 191., 191., 191., 191., 191., 191., 191.,
          191., 191., 191., 191., 191., 191., 191., 191., 191., 191.,
          191., 191., 191., 191., 191., 191., 191., 191., 191., 191.,
          191., 191., 191., 191., 191., 191., 191., 191., 191., 191.,
          191., 191., 191., 191., 191., 191., 191., 191., 191., 191.,
          191., 191., 191., 191., 191., 191., 191., 191., 191., 115.,
          115., 115., 116., 116., 117., 118., 119., 119., 120., 120.,
          122., 122., 123., 123., 124., 125., 126., 128., 129., 129.,
          130., 130., 132. ]
      - [ 245., 245., 245., 246., 239., 63., 16., 17., 17., 17., 15.,
          67., 238., 245., 245., 245., 245., 245., 245., 245., 245.,
          245., 245., 245., 245., 245., 245., 239., 79., 9., 15., 15.,
          15., 15., 14., 10., 93., 249., 245., 245., 245., 245., 245.,
          245., 245., 245., 245., 245., 245., 245., 250., 143., 3., 3.,
          12., 12., 12., 12., 11., 1., 3., 137., 248., 245., 245., 245.,
          245., 245., 245., 245., 245., 245., 245., 245., 239., 31., 0.,
          0., 6., 9., 9., 9., 7., 3., 0., 8., 230., 245., 245., 245.,
          245., 245., 245., 245., 245., 245., 245., 245., 244., 52., 0.,
          0., 5., 5., 5., 4., 4., 0., 0., 31., 237., 245., 245., 245.,
          245., 245., 245., 245., 245., 245., 245., 245., 248., 206.,
          27., 0., 0., 12., 6., 7., 1., 0., 31., 208., 247., 245., 245.,
          245., 245., 245., 245., 245., 245., 245., 245., 245., 245.,
          248., 221., 150., 153., 149., 8., 166., 127., 137., 221., 249.,
          245., 245., 245., 245., 245., 245., 245., 245., 245., 245.,
          245., 245., 245., 245., 245., 246., 252., 107., 1., 124., 254.,
          250., 245., 245., 245., 245., 245., 245., 245., 245., 245.,
          245., 245., 245., 245., 245., 245., 245., 245., 245., 244.,
          165., 149., 165., 244., 245., 245., 245., 245., 245., 245.,
          245., 245., 245., 245., 245., 245., 245., 245., 245., 245.,
          245., 245., 245., 245., 248., 248., 248., 245., 245., 245.,
          245., 245., 245., 245., 245., 245., 245., 245., 245., 245.,
          245., 245., 245., 245., 245., 245., 245., 245., 245., 245.,
          245., 245., 245., 245., 245., 245., 245., 245., 245., 245.,
          245., 245., 245., 245., 245., 245., 245., 245., 245., 245.,
          245., 245., 245., 245., 245., 245., 245., 245., 245., 245.,
          245., 245., 245., 245., 245., 245., 245., 245., 245., 245.,
          245., 245., 245., 245., 245., 245., 245., 245., 245., 245.,
          245., 245., 245., 245., 245., 245., 245., 245., 245., 245.,
          245., 245., 245., 245., 245., 245., 245., 245., 245., 245.,
          245., 245., 245., 245., 245., 245., 245., 245., 245., 245.,
          245., 245., 245., 245., 245., 245., 245., 245., 245., 245.,
          245., 245., 245., 245., 245., 245., 245., 245., 245., 245.,
          245., 245., 245., 245., 245., 245., 245., 245., 245., 245.,
          245., 245., 245., 245., 245., 245., 245., 245., 245., 245.,
          245., 245., 245., 245., 245., 245., 245., 245., 245., 245.,
          245., 245., 245., 245., 245. ]
      - [ 191., 191., 191., 191., 191., 191., 194., 143., 29., 17., 37.,
          156., 194., 191., 191., 191., 191., 191., 191., 191., 191.,
          191., 191., 191., 191., 191., 191., 191., 191., 196., 139.,
          10., 13., 13., 13., 27., 171., 195., 191., 191., 191., 191.,
          191., 191., 191., 191., 191., 191., 191., 191., 191., 191.,
          192., 135., 22., 13., 13., 13., 13., 12., 27., 153., 193.,
          191., 191., 191., 191., 191., 191., 191., 191., 191., 191.,
          191., 191., 192., 167., 18., 8., 10., 10., 10., 10., 10., 9.,
          44., 189., 192., 191., 191., 191., 191., 191., 191., 191.,
          191., 191., 191., 191., 196., 61., 1., 1., 8., 8., 8., 8., 6.,
          0., 1., 60., 191., 191., 191., 191., 191., 191., 191., 191.,
          191., 191., 191., 192., 184., 17., 0., 0., 4., 6., 6., 6., 4.,
          2., 0., 8., 182., 191., 191., 191., 191., 191., 191., 191.,
          191., 191., 191., 191., 195., 65., 0., 0., 4., 4., 3., 3., 4.,
          0., 0., 62., 191., 191., 191., 191., 191., 191., 191., 191.,
          191., 191., 191., 191., 192., 177., 76., 24., 26., 50., 10.,
          50., 13., 19., 90., 188., 192., 191., 191., 191., 191., 191.,
          191., 191., 191., 191., 191., 191., 191., 191., 196., 188.,
          191., 117., 13., 166., 177., 182., 194., 191., 191., 191.,
          191., 191., 191., 191., 191., 191., 191., 191., 191., 191.,
          191., 191., 191., 192., 193., 52., 7., 74., 193., 193., 191.,
          191., 191., 191., 191., 191., 191., 191., 191., 191., 191.,
          191., 191., 191., 191., 191., 191., 191., 191., 182., 182.,
          182., 191., 191., 191., 191., 191., 191., 191., 191., 191.,
          191., 191., 191., 191., 191., 191., 191., 191., 191., 191.,
          191., 191., 192., 192., 192., 191., 191., 191., 191., 191.,
          191., 191., 191., 191., 191., 191., 191., 191., 191., 191.,
          191., 191., 191., 191., 191., 191., 191., 191., 191., 191.,
          191., 191., 191., 191., 191., 191., 191., 191., 191., 191.,
          191., 191., 191., 191., 191., 191., 191., 191., 191., 191.,
          191., 191., 191., 191., 191., 191., 191., 191., 191., 191.,
          191., 191., 191., 191., 191., 191., 115., 115., 115., 116.,
          116., 117., 118., 119., 119., 120., 120., 122., 122., 123.,
          123., 124., 125., 126., 128., 129., 129., 130., 130., 132.,
          96., 96., 96., 98., 98., 100., 101., 102., 102., 102., 103.,
          104., 106., 106., 107., 109., 110., 111., 112., 113., 113.,
          115., 116., 117. ]
      - [ 245., 245., 245., 245., 245., 245., 245., 245., 248., 162.,
          29., 22., 54., 211., 248., 245., 245., 245., 245., 245., 245.,
          245., 245., 245., 245., 245., 245., 245., 245., 245., 245.,
          252., 156., 12., 20., 20., 20., 49., 236., 248., 245., 245.,
          245., 245., 245., 245., 245., 245., 245., 245., 245., 245.,
          245., 245., 246., 159., 23., 16., 18., 18., 18., 13., 42.,
          211., 247., 245., 245., 245., 245., 245., 245., 245., 245.,
          245., 245., 245., 245., 246., 195., 5., 10., 12., 12., 12.,
          12., 12., 8., 74., 243., 245., 245., 245., 245., 245., 245.,
          245., 245., 245., 245., 245., 245., 251., 63., 1., 3., 8., 8.,
          8., 8., 6., 2., 2., 105., 246., 245., 245., 245., 245., 245.,
          245., 245., 245., 245., 245., 246., 232., 17., 2., 2., 6., 6.,
          6., 6., 4., 2., 2., 42., 242., 245., 245., 245., 245., 245.,
          245., 245., 245., 245., 245., 245., 252., 65., 2., 2., 5., 2.,
          5., 2., 4., 2., 1., 107., 245., 245., 245., 245., 245., 245.,
          245., 245., 245., 245., 245., 245., 246., 216., 82., 29., 41.,
          60., 23., 63., 15., 29., 130., 241., 245., 245., 245., 245.,
          245., 245., 245., 245., 245., 245., 245., 245., 245., 245.,
          252., 239., 247., 122., 33., 237., 225., 239., 249., 245.,
          245., 245., 245., 245., 245., 245., 245., 245., 245., 245.,
          245., 245., 245., 245., 245., 247., 229., 45., 8., 112., 247.,
          246., 245., 245., 245., 245., 245., 245., 245., 245., 245.,
          245., 245., 245., 245., 245., 245., 245., 245., 245., 243.,
          233., 233., 233., 244., 245., 245., 245., 245., 245., 245.,
          245., 245., 245., 245., 245., 245., 245., 245., 245., 245.,
          245., 245., 245., 245., 246., 246., 246., 245., 245., 245.,
          245., 245., 245., 245., 245., 245., 245., 245., 245., 245.,
          245., 245., 245., 245., 245., 245., 245., 245., 245., 245.,
          245., 245., 245., 245., 245., 245., 245., 245., 245., 245.,
          245., 245., 245., 245., 245., 245., 245., 245., 245., 245.,
          245., 245., 245., 245., 245., 245., 245., 245., 245., 245.,
          245., 245., 245., 245., 245., 245., 161., 159., 159., 159.,
          158., 157., 155., 155., 152., 152., 151., 151., 149., 147.,
          147., 146., 146., 146., 143., 142., 142., 142., 140., 139.,
          141., 139., 138., 138., 136., 135., 135., 132., 130., 129.,
          129., 128., 126., 124., 123., 121., 121., 121., 119., 119.,
          117., 117., 116., 116. ]
      - [ 245., 245., 245., 245., 245., 245., 245., 245., 245., 246.,
          248., 142., 21., 21., 66., 222., 247., 245., 245., 245., 245.,
          245., 245., 245., 245., 245., 245., 245., 245., 245., 245.,
          245., 245., 249., 132., 14., 20., 20., 19., 63., 239., 246.,
          245., 245., 245., 245., 245., 245., 245., 245., 245., 245.,
          245., 245., 245., 245., 246., 139., 17., 17., 18., 18., 18.,
          12., 62., 227., 246., 245., 245., 245., 245., 245., 245., 245.,
          245., 245., 245., 245., 245., 246., 175., 6., 11., 12., 12.,
          12., 12., 12., 7., 94., 244., 245., 245., 245., 245., 245.,
          245., 245., 245., 245., 245., 245., 245., 247., 45., 2., 3.,
          8., 8., 8., 8., 5., 2., 2., 134., 248., 245., 245., 245., 245.,
          245., 245., 245., 245., 245., 245., 247., 223., 12., 2., 2.,
          6., 6., 6., 6., 3., 2., 2., 75., 251., 245., 245., 245., 245.,
          245., 245., 245., 245., 245., 245., 245., 248., 45., 2., 2.,
          5., 2., 4., 3., 3., 2., 0., 136., 246., 245., 245., 245., 245.,
          245., 245., 245., 245., 245., 245., 245., 246., 204., 74., 27.,
          49., 55., 34., 59., 14., 37., 146., 243., 245., 245., 245.,
          245., 245., 245., 245., 245., 245., 245., 245., 245., 245.,
          245., 251., 238., 248., 91., 50., 251., 223., 241., 248., 245.,
          245., 245., 245., 245., 245., 245., 245., 245., 245., 245.,
          245., 245., 245., 245., 245., 247., 211., 24., 9., 131., 247.,
          246., 245., 245., 245., 245., 245., 245., 245., 245., 245.,
          245., 245., 245., 245., 245., 245., 245., 245., 245., 241.,
          233., 233., 234., 244., 245., 245., 245., 245., 245., 245.,
          245., 245., 245., 245., 245., 245., 245., 245., 245., 245.,
          245., 245., 245., 245., 246., 246., 245., 245., 245., 245.,
          245., 245., 245., 245., 245., 245., 245., 245., 245., 245.,
          245., 245., 245., 245., 245., 245., 245., 245., 245., 245.,
          245., 245., 245., 245., 245., 245., 245., 245., 245., 245.,
          245., 245., 245., 245., 245., 245., 245., 245., 245., 245.,
          245., 245., 245., 245., 245., 245., 245., 245., 245., 245.,
          245., 245., 245., 245., 245., 245., 245., 245., 245., 245.,
          245., 245., 245., 245., 245., 245., 245., 245., 245., 245.,
          245., 245., 245., 245., 245., 245., 245., 245., 245., 245.,
          245., 245., 245., 245., 245., 245., 245., 245., 245., 245.,
          245., 245., 245., 245., 245., 245., 245., 245., 245., 245.,
          245., 245. ]
      - [ 245., 245., 245., 245., 245., 245., 247., 234., 41., 17., 20.,
          20., 20., 11., 88., 245., 245., 245., 245., 245., 245., 245.,
          245., 245., 245., 245., 245., 245., 245., 245., 224., 45., 11.,
          14., 14., 14., 14., 13., 8., 127., 251., 245., 245., 245.,
          245., 245., 245., 245., 245., 245., 245., 245., 245., 251.,
          107., 0., 4., 11., 11., 11., 11., 10., 2., 5., 165., 247.,
          245., 245., 245., 245., 245., 245., 245., 245., 245., 245.,
          246., 235., 21., 2., 2., 6., 6., 6., 6., 4., 2., 2., 49., 243.,
          245., 245., 245., 245., 245., 245., 245., 245., 245., 245.,
          245., 242., 38., 2., 2., 6., 5., 6., 5., 4., 2., 1., 68., 243.,
          245., 245., 245., 245., 245., 245., 245., 245., 245., 245.,
          245., 247., 175., 5., 0., 1., 15., 7., 2., 0., 0., 52., 221.,
          246., 245., 245., 245., 245., 245., 245., 245., 245., 245.,
          245., 245., 245., 248., 210., 146., 164., 118., 37., 184.,
          123., 146., 232., 248., 245., 245., 245., 245., 245., 245.,
          245., 245., 245., 245., 245., 245., 245., 245., 245., 248.,
          242., 62., 4., 165., 253., 247., 245., 245., 245., 245., 245.,
          245., 245., 245., 245., 245., 245., 245., 245., 245., 245.,
          245., 245., 245., 234., 157., 148., 172., 243., 245., 245.,
          245., 245., 245., 245., 245., 245., 245., 245., 245., 245.,
          245., 245., 245., 245., 245., 245., 245., 245., 248., 248.,
          247., 245., 245., 245., 245., 245., 245., 245., 245., 245.,
          245., 245., 245., 245., 245., 245., 245., 245., 245., 245.,
          245., 245., 245., 245., 245., 245., 245., 245., 245., 245.,
          245., 245., 245., 245., 245., 245., 245., 245., 245., 245.,
          245., 245., 245., 245., 245., 245., 245., 245., 245., 245.,
          245., 245., 245., 245., 245., 245., 245., 245., 245., 245.,
          245., 245., 245., 245., 245., 245., 245., 245., 245., 245.,
          245., 245., 245., 245., 245., 245., 245., 245., 245., 245.,
          245., 245., 245., 245., 245., 245., 245., 245., 245., 245.,
          245., 245., 245., 245., 245., 245., 245., 245., 245., 245.,
          245., 245., 245., 245., 245., 245., 245., 245., 245., 245.,
          245., 245., 245., 245., 245., 245., 245., 245., 245., 245.,
          245., 245., 245., 245., 245., 245., 245., 245., 245., 245.,
          245., 245., 245., 245., 245., 245., 245., 245., 245., 245.,
          245., 245., 245., 245., 245., 245., 245., 245., 245., 245.,
          245., 245., 245., 245., 245., 245. ]
      - [ 245., 245., 245., 245., 245., 245., 220., 31., 15., 18., 18.,
          18., 12., 91., 254., 245., 245., 245., 245., 245., 245., 245.,
          245., 245., 245., 245., 245., 245., 246., 242., 69., 12., 14.,
          14., 14., 14., 14., 12., 108., 244., 245., 245., 245., 245.,
          245., 245., 245., 245., 245., 245., 245., 245., 245., 103., 0.,
          4., 11., 11., 11., 11., 10., 3., 2., 157., 248., 245., 245.,
          245., 245., 245., 245., 245., 245., 245., 245., 245., 224.,
          22., 1., 1., 6., 8., 8., 8., 6., 1., 1., 59., 253., 245., 245.,
          245., 245., 245., 245., 245., 245., 245., 245., 245., 231.,
          32., 1., 1., 5., 6., 6., 6., 5., 1., 1., 78., 253., 245., 245.,
          245., 245., 245., 245., 245., 245., 245., 245., 245., 247.,
          186., 22., 0., 0., 16., 10., 10., 1., 0., 34., 209., 246.,
          245., 245., 245., 245., 245., 245., 245., 245., 245., 245.,
          245., 245., 249., 214., 142., 165., 150., 21., 180., 124.,
          146., 235., 247., 245., 245., 245., 245., 245., 245., 245.,
          245., 245., 245., 245., 245., 245., 245., 245., 248., 248.,
          83., 1., 137., 251., 248., 245., 245., 245., 245., 245., 245.,
          245., 245., 245., 245., 245., 245., 245., 245., 245., 245.,
          245., 245., 232., 152., 149., 170., 245., 245., 245., 245.,
          245., 245., 245., 245., 245., 245., 245., 245., 245., 245.,
          245., 245., 245., 245., 245., 245., 245., 248., 248., 248.,
          245., 245., 245., 245., 245., 245., 245., 245., 245., 245.,
          245., 245., 245., 245., 245., 245., 245., 245., 245., 245.,
          245., 245., 245., 245., 245., 245., 245., 245., 245., 245.,
          245., 245., 245., 245., 245., 245., 245., 245., 245., 245.,
          245., 245., 245., 245., 245., 245., 245., 245., 245., 245.,
          245., 245., 245., 245., 245., 245., 245., 245., 245., 245.,
          245., 245., 245., 245., 245., 245., 245., 245., 245., 245.,
          245., 245., 245., 245., 245., 245., 245., 245., 245., 245.,
          245., 245., 245., 245., 245., 245., 245., 245., 245., 245.,
          245., 245., 245., 245., 245., 245., 245., 245., 245., 245.,
          245., 245., 245., 245., 245., 245., 245., 245., 245., 245.,
          245., 245., 245., 245., 245., 245., 245., 245., 245., 245.,
          245., 245., 245., 245., 245., 245., 245., 245., 245., 245.,
          245., 245., 245., 245., 245., 245., 245., 245., 245., 245.,
          245., 245., 245., 245., 245., 245., 245., 245., 245., 245.,
          245., 245., 245., 245., 245., 245. ]
      - [ 191., 191., 191., 192., 189., 61., 9., 11., 11., 11., 11., 11.,
          9., 77., 190., 191., 191., 191., 191., 191., 191., 191., 191.,
          191., 191., 191., 191., 192., 91., 0., 3., 8., 9., 9., 9., 8.,
          3., 0., 112., 194., 191., 191., 191., 191., 191., 191., 191.,
          191., 191., 191., 191., 182., 27., 1., 1., 5., 6., 6., 6., 5.,
          1., 1., 40., 198., 191., 191., 191., 191., 191., 191., 191.,
          191., 191., 191., 191., 185., 36., 1., 1., 4., 4., 5., 4., 4.,
          1., 1., 53., 198., 191., 191., 191., 191., 191., 191., 191.,
          191., 191., 191., 191., 192., 150., 20., 0., 0., 14., 8., 8.,
          0., 0., 22., 157., 192., 191., 191., 191., 191., 191., 191.,
          191., 191., 191., 191., 191., 191., 194., 170., 113., 126.,
          128., 15., 142., 99., 111., 180., 193., 191., 191., 191., 191.,
          191., 191., 191., 191., 191., 191., 191., 191., 191., 191.,
          191., 193., 194., 71., 1., 96., 195., 194., 191., 191., 191.,
          191., 191., 191., 191., 191., 191., 191., 191., 191., 191.,
          191., 191., 191., 191., 191., 183., 119., 117., 128., 189.,
          191., 191., 191., 191., 191., 191., 191., 191., 191., 191.,
          191., 191., 191., 191., 191., 191., 191., 191., 191., 191.,
          194., 194., 193., 191., 191., 191., 191., 191., 191., 191.,
          191., 191., 191., 191., 191., 191., 191., 191., 191., 191.,
          191., 191., 191., 191., 191., 191., 191., 191., 191., 191.,
          191., 191., 191., 191., 191., 191., 191., 191., 191., 191.,
          191., 191., 191., 191., 191., 191., 191., 191., 191., 191.,
          191., 191., 191., 191., 191., 191., 191., 191., 191., 191.,
          191., 191., 191., 191., 191., 191., 191., 191., 191., 191.,
          191., 191., 191., 191., 191., 191., 191., 191., 191., 191.,
          191., 191., 191., 191., 191., 191., 191., 191., 191., 191.,
          191., 191., 191., 191., 191., 191., 191., 191., 191., 191.,
          191., 191., 191., 191., 191., 191., 191., 191., 191., 191.,
          191., 191., 191., 191., 191., 191., 191., 191., 191., 191.,
          191., 191., 191., 191., 191., 191., 191., 191., 191., 191.,
          191., 191., 191., 191., 191., 191., 191., 191., 191., 191.,
          191., 191., 191., 191., 191., 191., 191., 191., 191., 191.,
          191., 191., 191., 191., 191., 191., 191., 191., 191., 191.,
          191., 191., 191., 191., 191., 191., 191., 191., 191., 191.,
          191., 191., 191., 191., 191., 191., 191., 191., 191., 191.,
          191., 191., 191., 191. ]
      - [ 245., 245., 245., 245., 245., 227., 42., 14., 18., 18., 18.,
          12., 79., 250., 246., 245., 245., 245., 245., 245., 245., 245.,
          245., 245., 245., 245., 245., 246., 242., 78., 12., 14., 14.,
          14., 14., 14., 12., 98., 243., 245., 245., 245., 245., 245.,
          245., 245., 245., 245., 245., 245., 245., 246., 117., 0., 4.,
          11., 11., 11., 11., 11., 4., 0., 143., 249., 245., 245., 245.,
          245., 245., 245., 245., 245., 245., 245., 245., 234., 34., 1.,
          1., 6., 8., 8., 8., 6., 1., 1., 51., 254., 245., 245., 245.,
          245., 245., 245., 245., 245., 245., 245., 245., 238., 46., 1.,
          1., 5., 5., 6., 6., 5., 1., 1., 67., 253., 245., 245., 245.,
          245., 245., 245., 245., 245., 245., 245., 245., 246., 192.,
          26., 0., 0., 17., 10., 11., 1., 0., 28., 201., 246., 245.,
          245., 245., 245., 245., 245., 245., 245., 245., 245., 245.,
          245., 249., 218., 145., 162., 164., 19., 182., 127., 143.,
          231., 248., 245., 245., 245., 245., 245., 245., 245., 245.,
          245., 245., 245., 245., 245., 245., 245., 248., 248., 92., 1.,
          124., 250., 249., 245., 245., 245., 245., 245., 245., 245.,
          245., 245., 245., 245., 245., 245., 245., 245., 245., 245.,
          245., 234., 152., 149., 164., 242., 245., 245., 245., 245.,
          245., 245., 245., 245., 245., 245., 245., 245., 245., 245.,
          245., 245., 245., 245., 245., 245., 248., 248., 248., 245.,
          245., 245., 245., 245., 245., 245., 245., 245., 245., 245.,
          245., 245., 245., 245., 245., 245., 245., 245., 245., 245.,
          245., 245., 245., 245., 245., 245., 245., 245., 245., 245.,
          245., 245., 245., 245., 245., 245., 245., 245., 245., 245.,
          245., 245., 245., 245., 245., 245., 245., 245., 245., 245.,
          245., 245., 245., 245., 245., 245., 245., 245., 245., 245.,
          245., 245., 245., 245., 245., 245., 245., 245., 245., 245.,
          245., 245., 245., 245., 245., 245., 245., 245., 245., 245.,
          245., 245., 245., 245., 245., 245., 245., 245., 245., 245.,
          245., 245., 245., 245., 245., 245., 245., 245., 245., 245.,
          245., 245., 245., 245., 245., 245., 245., 245., 245., 245.,
          245., 245., 245., 245., 245., 245., 245., 245., 245., 245.,
          245., 245., 245., 245., 245., 245., 245., 245., 245., 245.,
          245., 245., 245., 245., 245., 245., 245., 245., 245., 245.,
          245., 245., 245., 245., 245., 245., 245., 245., 245., 245.,
          245., 245., 245., 245., 245., 245. ]
      - [ 245., 245., 245., 245., 245., 245., 247., 199., 31., 20., 56.,
          223., 247., 245., 245., 245., 245., 245., 245., 245., 245.,
          245., 245., 245., 245., 245., 245., 245., 245., 248., 202.,
          45., 19., 21., 19., 56., 214., 246., 245., 245., 245., 245.,
          245., 245., 245., 245., 245., 245., 245., 245., 245., 245.,
          247., 196., 31., 15., 17., 17., 17., 14., 57., 224., 247.,
          245., 245., 245., 245., 245., 245., 245., 245., 245., 245.,
          245., 245., 246., 237., 43., 13., 14., 13., 13., 13., 13., 10.,
          53., 239., 245., 245., 245., 245., 245., 245., 245., 245.,
          245., 245., 245., 245., 244., 85., 0., 3., 9., 10., 10., 10.,
          9., 2., 1., 114., 251., 245., 245., 245., 245., 245., 245.,
          245., 245., 245., 245., 245., 232., 31., 1., 1., 5., 8., 8.,
          8., 6., 1., 1., 44., 254., 245., 245., 245., 245., 245., 245.,
          245., 245., 245., 245., 245., 241., 60., 0., 1., 5., 4., 5.,
          4., 5., 1., 0., 86., 253., 245., 245., 245., 245., 245., 245.,
          245., 245., 245., 245., 245., 246., 219., 73., 17., 24., 57.,
          15., 50., 11., 17., 82., 223., 245., 245., 245., 245., 245.,
          245., 245., 245., 245., 245., 245., 245., 245., 246., 242.,
          214., 224., 172., 13., 209., 200., 210., 246., 246., 245.,
          245., 245., 245., 245., 245., 245., 245., 245., 245., 245.,
          245., 245., 245., 245., 247., 237., 63., 7., 94., 245., 247.,
          245., 245., 245., 245., 245., 245., 245., 245., 245., 245.,
          245., 245., 245., 245., 245., 245., 245., 245., 242., 230.,
          231., 231., 244., 245., 245., 245., 245., 245., 245., 245.,
