%YAML:1.0
---
opencv_ml_svm:
   format: 3
   svmType: C_SVC
   kernel:
      type: POLY
      degree: 3.
      gamma: 3.
      coef0: 0.
   C: 1.
   term_criteria: { iterations:100 }
   var_count: 1400
   class_count: 3
   class_labels: !!opencv-matrix
      rows: 3
      cols: 1
      dt: i
      data: [ 0, 1, 2 ]
   sv_total: 7
   support_vectors:
      - [ 52., 54., 53., 54., 52., 54., 52., 53., 51., 53., 52., 53.,
          51., 51., 50., 51., 50., 51., 50., 51., 50., 51., 50., 51.,
          49., 49., 50., 49., 49., 49., 49., 49., 48., 49., 48., 48.,
          48., 48., 48., 48., 48., 47., 47., 47., 47., 47., 47., 46.,
          46., 47., 47., 46., 46., 46., 47., 46., 47., 46., 47., 46.,
          45., 45., 45., 44., 45., 44., 44., 43., 43., 43., 52., 53.,
          53., 53., 52., 52., 52., 52., 51., 52., 50., 51., 51., 50.,
          50., 50., 50., 50., 50., 50., 49., 50., 49., 49., 49., 49.,
          49., 49., 49., 49., 48., 48., 48., 48., 48., 47., 47., 48.,
          47., 47., 47., 46., 47., 47., 47., 46., 47., 46., 46., 46.,
          46., 46., 46., 45., 46., 45., 46., 45., 45., 45., 45., 45.,
          45., 44., 45., 44., 44., 43., 43., 42., 52., 54., 52., 54.,
          52., 54., 52., 53., 51., 52., 50., 52., 51., 51., 50., 51.,
          51., 51., 50., 51., 50., 50., 50., 51., 49., 49., 49., 49.,
          49., 49., 48., 48., 48., 49., 48., 48., 47., 48., 48., 48.,
          48., 47., 47., 47., 47., 47., 47., 46., 46., 46., 46., 46.,
          46., 46., 46., 45., 46., 45., 46., 45., 45., 45., 45., 44.,
          45., 44., 44., 43., 44., 42., 52., 53., 53., 53., 52., 52.,
          51., 52., 51., 51., 50., 51., 51., 50., 50., 50., 50., 50.,
          50., 50., 50., 49., 49., 49., 49., 49., 49., 49., 49., 49.,
          48., 48., 48., 48., 48., 47., 47., 48., 47., 47., 47., 47.,
          47., 47., 47., 46., 47., 46., 46., 45., 46., 46., 46., 45.,
          46., 45., 45., 45., 45., 44., 45., 44., 44., 44., 44., 44.,
          44., 43., 42., 48., 52., 54., 52., 53., 51., 52., 51., 52.,
          51., 52., 50., 52., 51., 51., 50., 51., 50., 51., 50., 51.,
          50., 50., 49., 50., 49., 49., 49., 49., 49., 49., 48., 48.,
          48., 49., 48., 48., 47., 48., 48., 48., 48., 47., 47., 47.,
          47., 47., 47., 46., 46., 46., 46., 46., 46., 46., 46., 45.,
          46., 45., 46., 45., 45., 44., 44., 44., 45., 44., 44., 42.,
          51., 40., 52., 52., 52., 51., 51., 51., 51., 51., 51., 50.,
          50., 50., 51., 50., 50., 50., 50., 50., 50., 50., 49., 49.,
          49., 49., 49., 49., 49., 49., 49., 49., 48., 48., 48., 48.,
          48., 47., 47., 47., 47., 47., 47., 47., 47., 47., 47., 46.,
          47., 46., 47., 46., 46., 46., 46., 45., 46., 45., 45., 45.,
          45., 44., 45., 44., 44., 44., 44., 43., 45., 51., 39., 39.,
          51., 53., 51., 52., 51., 52., 51., 52., 50., 51., 50., 51.,
          50., 51., 50., 51., 50., 51., 50., 50., 49., 50., 49., 50.,
          49., 49., 49., 49., 49., 49., 48., 49., 48., 49., 49., 48.,
          47., 48., 48., 48., 48., 47., 47., 47., 47., 46., 47., 46.,
          46., 46., 46., 46., 46., 46., 46., 45., 45., 45., 46., 45.,
          45., 44., 44., 43., 43., 48., 46., 38., 39., 39., 51., 52.,
          52., 51., 51., 51., 51., 51., 51., 50., 50., 50., 50., 50.,
          50., 50., 50., 50., 50., 50., 49., 49., 49., 49., 49., 49.,
          49., 49., 49., 49., 48., 48., 48., 48., 48., 47., 47., 47.,
          48., 47., 47., 47., 47., 47., 47., 46., 47., 46., 46., 46.,
          46., 46., 46., 45., 45., 45., 45., 45., 45., 45., 44., 44.,
          44., 43., 52., 43., 39., 39., 40., 50., 52., 53., 51., 52.,
          51., 52., 51., 52., 50., 51., 50., 51., 50., 51., 49., 51.,
          49., 50., 49., 49., 49., 49., 49., 49., 49., 49., 48., 49.,
          48., 49., 48., 49., 48., 48., 48., 48., 47., 48., 48., 48.,
          47., 47., 47., 47., 47., 46., 47., 46., 46., 46., 46., 46.,
          46., 45., 46., 45., 45., 45., 46., 45., 45., 42., 46., 50.,
          39., 39., 39., 44., 50., 37., 51., 52., 52., 52., 51., 51.,
          51., 51., 51., 51., 50., 50., 51., 50., 50., 50., 50., 50.,
          49., 49., 49., 49., 49., 49., 49., 48., 48., 48., 49., 48.,
          48., 48., 48., 47., 48., 48., 47., 47., 47., 47., 47., 47.,
          47., 47., 47., 46., 47., 46., 46., 46., 46., 46., 46., 45.,
          45., 45., 45., 45., 45., 44., 43., 51., 46., 39., 39., 39.,
          48., 46., 37., 38., 51., 53., 51., 52., 51., 52., 51., 52.,
          50., 51., 50., 51., 50., 51., 49., 51., 49., 50., 49., 49.,
          49., 49., 49., 49., 48., 49., 48., 49., 48., 48., 47., 48.,
          47., 48., 47., 48., 47., 47., 47., 47., 48., 47., 47., 47.,
          47., 46., 47., 46., 46., 46., 46., 46., 46., 45., 46., 45.,
          45., 44., 44., 46., 51., 40., 39., 39., 42., 52., 40., 39.,
          38., 38., 51., 52., 52., 51., 51., 52., 51., 51., 50., 50.,
          50., 51., 50., 50., 50., 50., 50., 50., 49., 49., 49., 49.,
          49., 49., 49., 48., 48., 48., 49., 48., 48., 47., 48., 47.,
          48., 47., 47., 47., 47., 47., 47., 47., 47., 47., 46., 46.,
          47., 46., 46., 46., 46., 46., 46., 45., 45., 45., 44., 44.,
          53., 45., 40., 40., 39., 47., 50., 38., 39., 38., 39., 40.,
          51., 52., 51., 52., 50., 52., 51., 52., 50., 51., 50., 51.,
          50., 51., 49., 50., 49., 50., 49., 49., 49., 49., 49., 49.,
          48., 49., 48., 49., 48., 48., 47., 48., 47., 48., 47., 47.,
          47., 47., 47., 47., 47., 46., 46., 46., 47., 46., 46., 46.,
          46., 46., 46., 46., 46., 45., 45., 43., 50., 50., 40., 41.,
          40., 41., 52., 43., 39., 39., 39., 39., 41., 42., 51., 51.,
          51., 51., 51., 51., 51., 51., 50., 51., 50., 51., 50., 50.,
          50., 50., 50., 50., 50., 49., 49., 49., 49., 49., 49., 48.,
          48., 48., 48., 48., 48., 48., 47., 47., 48., 47., 47., 47.,
          47., 47., 47., 46., 46., 46., 46., 46., 46., 46., 46., 45.,
          46., 46., 45., 44., 48., 53., 41., 41., 41., 41., 45., 51.,
          38., 39., 39., 39., 40., 42., 43., 42., 50., 52., 51., 52.,
          50., 51., 50., 51., 50., 51., 49., 51., 50., 50., 49., 50.,
          49., 50., 49., 49., 48., 49., 49., 49., 48., 49., 48., 49.,
          48., 48., 47., 48., 47., 47., 47., 47., 47., 47., 47., 47.,
          47., 46., 47., 46., 46., 46., 46., 45., 46., 45., 45., 44.,
          46., 51., 43., 40., 40., 40., 43., 53., 43., 38., 39., 39.,
          40., 41., 42., 43., 43., 43., 51., 51., 51., 51., 50., 51.,
          50., 51., 50., 50., 50., 50., 50., 49., 49., 49., 49., 50.,
          49., 49., 49., 49., 49., 49., 49., 48., 48., 48., 48., 48.,
          48., 48., 48., 47., 48., 47., 47., 47., 47., 47., 47., 46.,
          46., 46., 46., 46., 46., 45., 45., 44., 46., 53., 45., 40.,
          40., 40., 41., 49., 48., 39., 39., 39., 39., 41., 43., 44.,
          43., 43., 45., 47., 50., 52., 50., 51., 50., 51., 50., 51.,
          49., 51., 49., 51., 49., 50., 49., 49., 49., 50., 49., 49.,
          48., 49., 48., 49., 48., 49., 48., 49., 48., 48., 47., 48.,
          48., 47., 47., 47., 47., 47., 47., 47., 47., 46., 47., 46.,
          46., 46., 45., 44., 47., 52., 46., 40., 41., 41., 40., 46.,
          52., 41., 40., 40., 39., 40., 42., 44., 44., 44., 44., 45.,
          49., 55., 51., 51., 51., 51., 50., 51., 51., 51., 50., 50.,
          50., 50., 50., 49., 49., 49., 49., 49., 49., 49., 49., 48.,
          48., 48., 48., 49., 48., 48., 48., 49., 48., 48., 48., 47.,
          48., 47., 47., 47., 47., 47., 47., 46., 46., 46., 45., 45.,
          48., 53., 45., 40., 41., 41., 41., 45., 53., 43., 40., 40.,
          40., 40., 41., 44., 45., 45., 44., 45., 47., 51., 58., 81.,
          50., 52., 50., 51., 50., 51., 50., 51., 49., 51., 49., 50.,
          49., 50., 48., 49., 48., 50., 48., 49., 48., 49., 48., 49.,
          48., 48., 47., 48., 48., 48., 47., 48., 48., 47., 47., 47.,
          47., 47., 47., 47., 46., 46., 45., 44., 49., 53., 43., 40.,
          41., 41., 41., 44., 53., 46., 40., 40., 40., 40., 42., 43.,
          44., 44., 44., 44., 46., 50., 54., 64., 94., 78., 51., 51.,
          51., 51., 50., 51., 51., 51., 50., 50., 50., 50., 50., 49.,
          49., 49., 49., 49., 49., 49., 49., 48., 48., 48., 48., 48.,
          48., 48., 48., 48., 48., 48., 48., 48., 48., 47., 47., 47.,
          47., 46., 45., 46., 53., 51., 42., 41., 41., 41., 41., 43.,
          54., 47., 40., 41., 40., 40., 41., 43., 44., 45., 44., 44.,
          46., 48., 51., 57., 75., 98., 58., 20. ]
      - [ 32., 33., 31., 33., 31., 39., 47., 49., 48., 47., 47., 48.,
          47., 48., 47., 47., 47., 47., 47., 47., 47., 47., 47., 47.,
          47., 47., 47., 47., 46., 46., 46., 46., 46., 46., 46., 46.,
          46., 46., 46., 46., 46., 46., 46., 46., 46., 46., 46., 46.,
          46., 46., 45., 46., 46., 46., 45., 46., 46., 45., 45., 45.,
          46., 45., 45., 41., 30., 25., 26., 25., 26., 25., 32., 31.,
          32., 31., 50., 115., 165., 166., 167., 167., 166., 167., 167.,
          167., 167., 167., 167., 167., 167., 167., 167., 167., 167.,
          167., 177., 182., 182., 179., 167., 167., 174., 176., 177.,
          168., 181., 181., 174., 167., 181., 175., 167., 167., 174.,
          172., 181., 179., 167., 167., 167., 167., 167., 167., 167.,
          167., 167., 166., 167., 165., 166., 166., 165., 165., 165.,
          155., 57., 38., 26., 25., 25., 25., 32., 33., 31., 48., 121.,
          214., 207., 206., 205., 207., 207., 207., 207., 207., 206.,
          207., 207., 206., 207., 207., 206., 207., 207., 206., 211.,
          223., 214., 212., 211., 209., 237., 237., 208., 214., 240.,
          228., 231., 212., 219., 237., 223., 206., 219., 207., 210.,
          232., 207., 206., 207., 207., 206., 207., 207., 206., 207.,
          207., 206., 207., 207., 206., 207., 206., 205., 210., 205.,
          58., 29., 25., 27., 30., 32., 31., 32., 55., 147., 196., 199.,
          198., 199., 199., 198., 199., 200., 199., 199., 200., 199.,
          200., 200., 199., 200., 200., 211., 221., 204., 199., 210.,
          200., 199., 208., 204., 217., 204., 232., 227., 213., 230.,
          230., 207., 235., 226., 200., 200., 204., 201., 203., 209.,
          207., 200., 199., 200., 200., 199., 200., 200., 199., 200.,
          199., 199., 199., 199., 198., 199., 198., 188., 114., 46., 27.,
          30., 22., 32., 33., 31., 58., 143., 155., 189., 192., 193.,
          192., 193., 193., 192., 193., 193., 192., 191., 161., 139.,
          140., 161., 189., 223., 208., 196., 194., 225., 214., 219.,
          200., 197., 203., 198., 230., 227., 214., 228., 221., 196.,
          213., 198., 217., 214., 209., 182., 140., 190., 210., 207.,
          194., 193., 193., 189., 140., 143., 193., 193., 192., 193.,
          193., 192., 193., 192., 182., 142., 140., 55., 27., 23., 22.,
          32., 31., 31., 57., 142., 137., 142., 164., 183., 186., 185.,
          186., 186., 187., 186., 168., 201., 246., 255., 255., 246.,
          208., 186., 221., 193., 188., 197., 224., 227., 201., 188.,
          195., 186., 198., 227., 218., 221., 190., 192., 190., 189.,
          209., 218., 201., 148., 255., 212., 219., 210., 195., 186.,
          199., 174., 255., 236., 174., 186., 187., 186., 186., 186.,
          179., 154., 139., 137., 139., 53., 23., 23., 25., 31., 31.,
          31., 57., 140., 135., 137., 136., 139., 152., 164., 177., 181.,
          180., 178., 194., 255., 214., 150., 151., 217., 255., 207.,
          191., 201., 184., 214., 205., 188., 198., 186., 191., 190.,
          182., 206., 224., 203., 179., 197., 190., 187., 189., 196.,
          211., 148., 255., 212., 207., 205., 221., 203., 190., 186.,
          142., 136., 178., 193., 180., 173., 162., 147., 137., 138.,
          136., 134., 139., 52., 23., 27., 27., 31., 31., 31., 57., 139.,
          135., 134., 136., 137., 136., 138., 139., 144., 170., 165.,
          233., 255., 115., 181., 191., 131., 246., 253., 137., 176.,
          182., 191., 189., 190., 204., 167., 174., 184., 176., 188.,
          186., 185., 173., 154., 193., 190., 191., 144., 179., 152.,
          255., 220., 194., 189., 194., 166., 205., 185., 189., 182.,
          179., 203., 141., 139., 138., 136., 137., 136., 134., 136.,
          138., 52., 29., 27., 22., 31., 31., 31., 57., 138., 133., 134.,
          135., 135., 135., 137., 137., 145., 159., 153., 212., 255.,
          205., 154., 161., 139., 134., 152., 141., 149., 219., 255.,
          245., 242., 255., 235., 168., 170., 190., 184., 186., 177.,
          164., 255., 255., 240., 255., 241., 139., 142., 255., 255.,
          250., 238., 255., 239., 178., 131., 255., 235., 138., 188.,
          177., 141., 135., 136., 135., 134., 136., 133., 137., 55., 25.,
          23., 22., 31., 31., 31., 57., 136., 131., 134., 133., 134.,
          135., 135., 160., 189., 180., 182., 133., 247., 255., 255.,
          245., 213., 180., 146., 194., 170., 255., 224., 110., 106.,
          194., 255., 197., 174., 147., 186., 185., 159., 249., 255.,
          137., 109., 192., 255., 198., 133., 255., 238., 109., 111.,
          242., 255., 100., 139., 255., 236., 169., 171., 190., 169.,
          136., 134., 134., 135., 133., 130., 135., 52., 23., 23., 22.,
          31., 31., 31., 57., 134., 129., 130., 132., 134., 133., 134.,
          159., 184., 184., 188., 140., 100., 152., 189., 231., 254.,
          254., 210., 170., 163., 254., 151., 180., 185., 132., 254.,
          213., 148., 145., 187., 173., 141., 254., 227., 145., 177.,
          119., 150., 132., 125., 254., 194., 170., 151., 200., 254.,
          96., 138., 254., 233., 160., 176., 188., 156., 134., 132.,
          134., 131., 129., 130., 133., 52., 23., 23., 24., 31., 31.,
          31., 57., 134., 127., 129., 131., 130., 132., 133., 133., 136.,
          151., 154., 174., 139., 115., 107., 100., 110., 225., 253.,
          129., 172., 253., 130., 143., 177., 146., 253., 211., 123.,
          161., 149., 150., 127., 253., 210., 136., 184., 169., 100.,
          107., 121., 253., 171., 161., 176., 183., 253., 114., 119.,
          253., 231., 129., 177., 149., 133., 131., 134., 131., 127.,
          130., 128., 133., 52., 23., 24., 26., 31., 31., 31., 57., 133.,
          128., 129., 128., 131., 132., 131., 133., 133., 145., 132.,
          252., 220., 117., 174., 180., 126., 167., 254., 132., 153.,
          254., 160., 136., 138., 147., 254., 201., 136., 140., 154.,
          158., 120., 254., 224., 116., 149., 132., 254., 209., 129.,
          254., 169., 138., 140., 186., 254., 108., 122., 254., 232.,
          141., 160., 132., 131., 134., 131., 129., 130., 127., 128.,
          132., 52., 25., 26., 25., 31., 31., 31., 57., 132., 128., 127.,
          128., 131., 130., 131., 132., 131., 132., 107., 199., 255.,
          196., 131., 115., 162., 245., 240., 111., 116., 254., 236.,
          146., 129., 218., 255., 149., 131., 138., 174., 174., 132.,
          218., 254., 168., 120., 209., 255., 137., 118., 255., 179.,
          163., 153., 192., 255., 98., 125., 255., 232., 122., 131.,
          131., 133., 131., 129., 131., 128., 126., 129., 131., 53., 26.,
          26., 26., 31., 31., 31., 57., 133., 126., 127., 128., 127.,
          128., 131., 130., 131., 131., 129., 94., 200., 255., 255.,
          255., 255., 236., 128., 123., 115., 145., 250., 255., 255.,
          253., 177., 100., 130., 154., 166., 154., 153., 104., 226.,
          255., 255., 255., 189., 108., 121., 255., 180., 164., 136.,
          190., 255., 92., 115., 255., 232., 117., 130., 132., 130.,
          128., 129., 127., 126., 129., 127., 131., 53., 26., 27., 28.,
          31., 31., 31., 57., 131., 127., 127., 126., 128., 128., 129.,
          130., 130., 129., 130., 122., 86., 90., 129., 128., 114., 78.,
          131., 136., 139., 98., 82., 129., 128., 89., 95., 138., 142.,
          156., 148., 141., 152., 142., 79., 124., 129., 109., 91., 128.,
          101., 129., 113., 146., 128., 105., 129., 91., 112., 129.,
          121., 120., 131., 129., 129., 130., 128., 127., 128., 126.,
          126., 131., 53., 28., 29., 33., 31., 31., 30., 57., 132., 127.,
          126., 127., 128., 127., 128., 129., 127., 128., 129., 128.,
          128., 125., 112., 112., 117., 129., 143., 135., 137., 129.,
          127., 111., 112., 132., 131., 145., 131., 145., 152., 141.,
          148., 140., 137., 128., 119., 118., 130., 137., 130., 111.,
          126., 134., 127., 120., 113., 127., 129., 113., 112., 130.,
          128., 127., 130., 127., 127., 129., 127., 126., 128., 130.,
          54., 30., 34., 49., 31., 31., 31., 54., 131., 127., 127., 128.,
          126., 127., 128., 126., 128., 128., 127., 128., 128., 127.,
          128., 128., 127., 128., 129., 128., 138., 135., 128., 138.,
          133., 133., 143., 143., 130., 129., 143., 142., 141., 128.,
          143., 138., 131., 127., 131., 142., 146., 145., 132., 127.,
          129., 127., 127., 129., 127., 127., 129., 127., 127., 129.,
          126., 126., 129., 126., 126., 129., 128., 116., 50., 37., 56.,
          46., 30., 31., 30., 46., 88., 135., 130., 128., 129., 130.,
          128., 130., 130., 129., 130., 130., 129., 130., 130., 129.,
          130., 130., 129., 131., 134., 142., 139., 140., 129., 132.,
          139., 131., 142., 133., 132., 138., 132., 137., 138., 131.,
          133., 131., 129., 136., 136., 142., 137., 131., 129., 129.,
          131., 129., 129., 131., 129., 129., 131., 129., 129., 131.,
          128., 128., 130., 130., 133., 60., 44., 59., 37., 11., 31.,
          31., 31., 31., 48., 76., 100., 102., 101., 101., 102., 101.,
          101., 102., 101., 101., 102., 101., 101., 102., 101., 101.,
          102., 102., 103., 106., 103., 106., 104., 104., 103., 102.,
          102., 106., 102., 101., 102., 105., 101., 101., 101., 101.,
          104., 107., 106., 105., 101., 100., 100., 101., 101., 101.,
          101., 100., 100., 101., 100., 101., 101., 100., 101., 101.,
          101., 98., 61., 55., 57., 28., 8., 8. ]
      - [ 32., 33., 32., 32., 31., 32., 31., 32., 31., 31., 31., 31.,
          31., 31., 31., 31., 31., 31., 31., 31., 30., 31., 30., 31.,
          30., 30., 30., 30., 30., 30., 30., 30., 29., 29., 29., 29.,
          29., 29., 29., 29., 29., 29., 29., 28., 28., 28., 29., 28.,
          28., 28., 28., 28., 28., 28., 28., 28., 28., 27., 27., 27.,
          28., 27., 27., 26., 27., 25., 26., 25., 26., 25., 32., 31.,
          32., 31., 31., 31., 31., 31., 31., 31., 31., 31., 31., 31.,
          30., 30., 30., 30., 30., 30., 30., 30., 30., 29., 29., 29.,
          29., 29., 29., 29., 29., 29., 29., 29., 29., 29., 29., 28.,
          28., 28., 28., 28., 28., 28., 28., 28., 28., 28., 28., 27.,
          28., 27., 28., 27., 28., 27., 27., 27., 27., 26., 27., 27.,
          27., 26., 26., 26., 26., 25., 26., 25., 32., 33., 31., 33.,
          32., 32., 31., 32., 31., 31., 31., 31., 31., 31., 31., 31.,
          30., 31., 31., 31., 30., 30., 30., 31., 30., 30., 29., 30.,
          29., 30., 29., 29., 29., 29., 29., 29., 29., 29., 29., 29.,
          29., 29., 29., 28., 28., 28., 29., 28., 28., 28., 28., 28.,
          28., 28., 28., 28., 28., 27., 27., 27., 28., 27., 27., 26.,
          27., 25., 26., 25., 26., 25., 32., 31., 32., 31., 31., 31.,
          31., 31., 31., 31., 30., 31., 30., 31., 30., 30., 30., 30.,
          30., 30., 30., 30., 29., 29., 29., 29., 29., 29., 29., 29.,
          29., 29., 29., 29., 29., 28., 29., 28., 28., 28., 28., 28.,
          28., 28., 28., 28., 28., 28., 28., 27., 28., 27., 28., 27.,
          28., 27., 28., 27., 28., 26., 27., 26., 27., 26., 27., 25.,
          26., 25., 25., 25., 32., 33., 31., 33., 31., 39., 47., 48.,
          48., 47., 47., 48., 47., 48., 47., 47., 47., 47., 47., 47.,
          46., 47., 47., 47., 46., 47., 46., 46., 46., 46., 46., 46.,
          46., 46., 46., 46., 46., 46., 46., 46., 45., 45., 46., 45.,
          45., 45., 46., 45., 46., 45., 45., 45., 45., 45., 45., 45.,
          45., 45., 45., 45., 45., 45., 45., 41., 30., 26., 26., 25.,
          26., 25., 32., 31., 32., 31., 49., 114., 163., 165., 165.,
          165., 165., 165., 165., 165., 165., 165., 165., 165., 165.,
          165., 165., 165., 165., 165., 175., 180., 180., 177., 165.,
          165., 172., 175., 175., 166., 180., 180., 172., 166., 180.,
          173., 166., 165., 173., 170., 180., 177., 165., 165., 165.,
          165., 165., 165., 165., 165., 165., 165., 165., 164., 165.,
          165., 164., 164., 164., 154., 57., 38., 26., 25., 25., 25.,
          32., 33., 31., 47., 120., 214., 207., 206., 205., 207., 207.,
          207., 207., 207., 207., 207., 207., 206., 207., 207., 206.,
          207., 207., 206., 211., 223., 214., 212., 211., 208., 237.,
          237., 208., 214., 240., 228., 231., 212., 219., 237., 223.,
          206., 220., 207., 210., 232., 207., 206., 207., 207., 206.,
          207., 207., 206., 207., 207., 206., 207., 207., 206., 207.,
          206., 205., 210., 205., 58., 29., 25., 26., 30., 32., 31., 32.,
          55., 147., 196., 199., 198., 199., 199., 198., 199., 200.,
          199., 200., 200., 199., 200., 200., 199., 200., 200., 211.,
          221., 204., 199., 210., 200., 199., 208., 204., 217., 204.,
          232., 227., 213., 230., 230., 207., 235., 226., 200., 200.,
          204., 201., 203., 209., 207., 200., 199., 200., 200., 199.,
          200., 200., 199., 200., 199., 199., 199., 199., 199., 199.,
          198., 189., 114., 46., 26., 31., 22., 32., 33., 32., 58., 143.,
          155., 189., 192., 193., 192., 193., 193., 192., 193., 193.,
          192., 191., 162., 140., 141., 161., 189., 223., 208., 196.,
          194., 225., 214., 219., 200., 198., 203., 198., 230., 227.,
          214., 228., 221., 197., 214., 198., 216., 213., 208., 183.,
          141., 190., 210., 208., 194., 193., 193., 189., 141., 144.,
          193., 193., 192., 193., 193., 192., 193., 192., 182., 142.,
          141., 55., 27., 23., 22., 32., 31., 31., 57., 142., 137., 142.,
          164., 183., 186., 185., 186., 187., 187., 186., 169., 201.,
          246., 255., 255., 246., 208., 186., 221., 193., 188., 197.,
          224., 227., 201., 188., 195., 186., 198., 227., 218., 221.,
          191., 192., 190., 189., 208., 218., 201., 147., 255., 213.,
          219., 211., 195., 186., 199., 175., 255., 237., 174., 186.,
          187., 186., 186., 186., 179., 154., 139., 137., 140., 53., 23.,
          23., 25., 31., 31., 31., 57., 140., 135., 137., 136., 139.,
          152., 164., 177., 181., 180., 178., 193., 255., 215., 152.,
          152., 218., 255., 207., 192., 200., 184., 213., 205., 189.,
          198., 186., 191., 190., 182., 207., 224., 203., 179., 197.,
          190., 188., 189., 196., 211., 147., 255., 213., 208., 205.,
          221., 203., 190., 186., 143., 137., 177., 193., 180., 173.,
          163., 147., 137., 138., 136., 134., 140., 52., 23., 27., 27.,
          31., 31., 31., 57., 139., 135., 134., 136., 137., 136., 138.,
          139., 144., 169., 166., 233., 255., 115., 180., 190., 131.,
          246., 253., 137., 176., 183., 191., 187., 188., 203., 168.,
          174., 184., 176., 188., 186., 185., 174., 154., 191., 188.,
          190., 144., 179., 151., 255., 220., 192., 187., 192., 166.,
          205., 186., 187., 181., 180., 203., 141., 139., 137., 136.,
          137., 135., 134., 136., 139., 52., 29., 27., 22., 31., 31.,
          31., 57., 138., 133., 134., 135., 135., 135., 137., 137., 145.,
          159., 153., 212., 255., 205., 154., 162., 140., 135., 153.,
          141., 150., 218., 255., 246., 242., 255., 235., 168., 170.,
          190., 184., 185., 177., 163., 255., 255., 240., 255., 241.,
          139., 140., 255., 255., 250., 238., 255., 239., 179., 131.,
          255., 235., 138., 189., 177., 141., 135., 136., 135., 134.,
          136., 133., 137., 55., 25., 23., 22., 31., 31., 31., 57., 136.,
          131., 134., 133., 134., 135., 135., 159., 188., 181., 182.,
          133., 247., 255., 255., 245., 213., 179., 146., 194., 169.,
          255., 226., 110., 106., 194., 255., 198., 175., 147., 186.,
          185., 159., 249., 255., 138., 109., 193., 255., 198., 132.,
          255., 239., 109., 111., 243., 255., 99., 140., 255., 237.,
          169., 171., 190., 169., 136., 134., 134., 135., 133., 130.,
          136., 52., 23., 23., 22., 31., 31., 31., 57., 134., 129., 130.,
          132., 134., 133., 134., 159., 184., 184., 188., 140., 100.,
          153., 190., 231., 254., 254., 211., 170., 161., 254., 153.,
          180., 185., 132., 254., 214., 148., 145., 187., 172., 142.,
          254., 228., 144., 177., 118., 152., 133., 123., 254., 196.,
          170., 151., 200., 254., 95., 139., 254., 234., 160., 176.,
          188., 156., 134., 132., 134., 131., 129., 130., 133., 52., 23.,
          23., 24., 31., 31., 31., 57., 134., 127., 129., 131., 130.,
          132., 133., 133., 136., 151., 154., 172., 139., 114., 106.,
          99., 110., 225., 253., 128., 171., 253., 131., 144., 177.,
          146., 253., 212., 123., 161., 149., 151., 127., 253., 211.,
          135., 184., 170., 101., 108., 120., 253., 172., 161., 176.,
          182., 253., 114., 119., 253., 232., 129., 177., 149., 133.,
          131., 134., 131., 128., 130., 127., 134., 52., 23., 24., 26.,
          31., 31., 31., 57., 133., 128., 129., 128., 131., 132., 131.,
          133., 133., 145., 133., 252., 220., 117., 174., 180., 126.,
          166., 254., 133., 152., 254., 160., 136., 138., 147., 254.,
          203., 136., 140., 153., 158., 120., 254., 225., 116., 150.,
          131., 254., 210., 128., 254., 170., 138., 141., 185., 254.,
          108., 122., 254., 233., 141., 160., 132., 131., 134., 131.,
          129., 130., 127., 128., 133., 52., 25., 26., 25., 31., 31.,
          31., 57., 132., 128., 127., 128., 131., 130., 131., 132., 131.,
          132., 107., 199., 255., 196., 132., 117., 161., 245., 241.,
          111., 116., 254., 236., 146., 129., 217., 255., 151., 131.,
          137., 174., 174., 132., 218., 254., 167., 120., 208., 255.,
          139., 116., 255., 179., 162., 153., 191., 255., 97., 125.,
          255., 233., 122., 131., 131., 133., 131., 130., 131., 128.,
          126., 129., 132., 53., 26., 26., 26., 31., 31., 31., 57., 133.,
          126., 127., 128., 127., 128., 131., 130., 131., 131., 129.,
          94., 201., 255., 255., 255., 255., 237., 130., 123., 115.,
          146., 251., 255., 255., 253., 179., 99., 130., 154., 166.,
          154., 153., 104., 226., 255., 255., 255., 191., 108., 119.,
          255., 181., 164., 137., 190., 255., 93., 115., 255., 233.,
          117., 130., 132., 130., 128., 129., 127., 127., 129., 127.,
          131., 53., 26., 27., 28., 31., 31., 31., 57., 131., 127., 127.,
          126., 128., 128., 129., 130., 130., 129., 130., 122., 85., 91.,
          130., 130., 116., 78., 131., 136., 139., 98., 82., 130., 130.,
          90., 94., 138., 142., 157., 148., 141., 152., 141., 79., 125.,
          130., 110., 90., 128., 101., 130., 114., 146., 128., 106.,
          130., 90., 113., 130., 123., 120., 131., 129., 129., 130.,
          128., 127., 128., 126., 126., 132., 53., 28., 29., 33. ]
      - [ 32., 33., 32., 33., 32., 33., 31., 47., 120., 214., 207., 206.,
          205., 207., 207., 207., 207., 207., 207., 207., 207., 206.,
          207., 207., 206., 207., 207., 206., 211., 223., 214., 212.,
          211., 208., 237., 237., 208., 214., 240., 228., 231., 212.,
          219., 237., 223., 206., 220., 207., 210., 232., 207., 206.,
          207., 207., 206., 207., 207., 206., 207., 207., 206., 207.,
          207., 206., 207., 206., 205., 210., 205., 58., 32., 32., 32.,
          31., 32., 31., 32., 55., 147., 196., 199., 198., 199., 199.,
          198., 199., 200., 199., 200., 200., 199., 200., 200., 199.,
          200., 200., 211., 221., 204., 199., 210., 200., 199., 208.,
          204., 217., 204., 232., 227., 213., 230., 230., 207., 235.,
          226., 200., 200., 204., 201., 203., 209., 207., 200., 199.,
          200., 200., 199., 200., 200., 199., 200., 199., 199., 199.,
          199., 199., 199., 198., 189., 114., 32., 33., 32., 33., 32.,
          33., 32., 58., 143., 155., 189., 192., 193., 192., 193., 193.,
          192., 193., 193., 192., 191., 162., 140., 141., 161., 189.,
          223., 208., 196., 194., 225., 214., 219., 200., 198., 203.,
          198., 230., 227., 214., 228., 221., 197., 214., 198., 216.,
          213., 208., 183., 141., 190., 210., 208., 194., 193., 193.,
          189., 141., 144., 193., 193., 192., 193., 193., 192., 193.,
          192., 182., 142., 141., 32., 31., 31., 31., 32., 31., 31., 57.,
          142., 137., 142., 164., 183., 186., 185., 186., 187., 187.,
          186., 169., 201., 246., 255., 255., 246., 208., 186., 221.,
          193., 188., 197., 224., 227., 201., 188., 195., 186., 198.,
          227., 218., 221., 191., 192., 190., 189., 208., 218., 201.,
          147., 255., 213., 219., 211., 195., 186., 199., 175., 255.,
          237., 174., 186., 187., 186., 186., 186., 179., 154., 139.,
          137., 140., 32., 33., 32., 32., 31., 31., 31., 57., 140., 135.,
          137., 136., 139., 152., 164., 177., 181., 180., 178., 193.,
          255., 215., 152., 152., 218., 255., 207., 192., 200., 184.,
          213., 205., 189., 198., 186., 191., 190., 182., 207., 224.,
          203., 179., 197., 190., 188., 189., 196., 211., 147., 255.,
          213., 208., 205., 221., 203., 190., 186., 143., 137., 177.,
          193., 180., 173., 163., 147., 137., 138., 136., 134., 140.,
          32., 31., 31., 31., 31., 31., 31., 57., 139., 135., 134., 136.,
          137., 136., 138., 139., 144., 169., 166., 233., 255., 115.,
          180., 190., 131., 246., 253., 137., 176., 183., 191., 187.,
          188., 203., 168., 174., 184., 176., 188., 186., 185., 174.,
          154., 191., 188., 190., 144., 179., 151., 255., 220., 192.,
          187., 192., 166., 205., 186., 187., 181., 180., 203., 141.,
          139., 137., 136., 137., 135., 134., 136., 139., 31., 32., 31.,
          31., 31., 31., 31., 57., 138., 133., 134., 135., 135., 135.,
          137., 137., 145., 159., 153., 212., 255., 205., 154., 162.,
          140., 135., 153., 141., 150., 218., 255., 246., 242., 255.,
          235., 168., 170., 190., 184., 185., 177., 163., 255., 255.,
          240., 255., 241., 139., 140., 255., 255., 250., 238., 255.,
          239., 179., 131., 255., 235., 138., 189., 177., 141., 135.,
          136., 135., 134., 136., 133., 137., 31., 31., 31., 31., 31.,
          31., 31., 57., 136., 131., 134., 133., 134., 135., 135., 159.,
          188., 181., 182., 133., 247., 255., 255., 245., 213., 179.,
          146., 194., 169., 255., 226., 110., 106., 194., 255., 198.,
          175., 147., 186., 185., 159., 249., 255., 138., 109., 193.,
          255., 198., 132., 255., 239., 109., 111., 243., 255., 99.,
          140., 255., 237., 169., 171., 190., 169., 136., 134., 134.,
          135., 133., 130., 136., 31., 32., 31., 31., 31., 31., 31., 57.,
          134., 129., 130., 132., 134., 133., 134., 159., 184., 184.,
          188., 140., 100., 153., 190., 231., 254., 254., 211., 170.,
          161., 254., 153., 180., 185., 132., 254., 214., 148., 145.,
          187., 172., 142., 254., 228., 144., 177., 118., 152., 133.,
          123., 254., 196., 170., 151., 200., 254., 95., 139., 254.,
          234., 160., 176., 188., 156., 134., 132., 134., 131., 129.,
          130., 133., 31., 31., 31., 31., 31., 31., 31., 57., 134., 127.,
          129., 131., 130., 132., 133., 133., 136., 151., 154., 172.,
          139., 114., 106., 99., 110., 225., 253., 128., 171., 253.,
          131., 144., 177., 146., 253., 212., 123., 161., 149., 151.,
          127., 253., 211., 135., 184., 170., 101., 108., 120., 253.,
          172., 161., 176., 182., 253., 114., 119., 253., 232., 129.,
          177., 149., 133., 131., 134., 131., 128., 130., 127., 134.,
          31., 32., 31., 31., 31., 31., 31., 57., 133., 128., 129., 128.,
          131., 132., 131., 133., 133., 145., 133., 252., 220., 117.,
          174., 180., 126., 166., 254., 133., 152., 254., 160., 136.,
          138., 147., 254., 203., 136., 140., 153., 158., 120., 254.,
          225., 116., 150., 131., 254., 210., 128., 254., 170., 138.,
          141., 185., 254., 108., 122., 254., 233., 141., 160., 132.,
          131., 134., 131., 129., 130., 127., 128., 133., 31., 31., 31.,
          31., 31., 31., 31., 57., 132., 128., 127., 128., 131., 130.,
          131., 132., 131., 132., 107., 199., 255., 196., 132., 117.,
          161., 245., 241., 111., 116., 254., 236., 146., 129., 217.,
          255., 151., 131., 137., 174., 174., 132., 218., 254., 167.,
          120., 208., 255., 139., 116., 255., 179., 162., 153., 191.,
          255., 97., 125., 255., 233., 122., 131., 131., 133., 131.,
          130., 131., 128., 126., 129., 132., 31., 31., 31., 31., 31.,
          31., 31., 57., 133., 126., 127., 128., 127., 128., 131., 130.,
          131., 131., 129., 94., 201., 255., 255., 255., 255., 237.,
          130., 123., 115., 146., 251., 255., 255., 253., 179., 99.,
          130., 154., 166., 154., 153., 104., 226., 255., 255., 255.,
          191., 108., 119., 255., 181., 164., 137., 190., 255., 93.,
          115., 255., 233., 117., 130., 132., 130., 128., 129., 127.,
          127., 129., 127., 131., 31., 31., 31., 31., 31., 31., 31., 57.,
          131., 127., 127., 126., 128., 128., 129., 130., 130., 129.,
          130., 122., 85., 91., 130., 130., 116., 78., 131., 136., 139.,
          98., 82., 130., 130., 90., 94., 138., 142., 157., 148., 141.,
          152., 141., 79., 125., 130., 110., 90., 128., 101., 130., 114.,
          146., 128., 106., 130., 90., 113., 130., 123., 120., 131.,
          129., 129., 130., 128., 127., 128., 126., 126., 132., 31., 31.,
          31., 31., 31., 31., 30., 57., 132., 127., 126., 127., 128.,
          127., 128., 129., 127., 128., 129., 128., 129., 125., 111.,
          111., 117., 129., 143., 135., 137., 129., 127., 111., 111.,
          132., 131., 145., 130., 145., 152., 141., 148., 141., 137.,
          127., 119., 118., 130., 138., 130., 110., 125., 134., 127.,
          120., 112., 127., 129., 112., 112., 130., 128., 127., 130.,
          127., 127., 129., 126., 126., 128., 131., 31., 31., 31., 31.,
          31., 31., 31., 54., 131., 127., 127., 128., 126., 127., 128.,
          126., 128., 128., 127., 128., 128., 127., 128., 128., 127.,
          128., 129., 129., 138., 135., 127., 138., 133., 133., 143.,
          143., 130., 129., 143., 142., 141., 128., 143., 138., 131.,
          127., 131., 142., 146., 145., 132., 127., 129., 127., 127.,
          129., 127., 127., 129., 127., 127., 129., 126., 126., 129.,
          126., 126., 129., 128., 117., 31., 31., 31., 31., 30., 31.,
          30., 46., 88., 135., 130., 128., 129., 130., 128., 130., 130.,
          128., 130., 130., 128., 130., 130., 128., 130., 129., 129.,
          131., 133., 142., 139., 140., 129., 132., 139., 131., 142.,
          133., 132., 138., 132., 136., 138., 131., 133., 131., 129.,
          136., 136., 142., 137., 131., 129., 129., 131., 129., 129.,
          131., 128., 129., 131., 128., 129., 131., 128., 128., 130.,
          129., 134., 60., 31., 31., 31., 31., 31., 31., 31., 31., 47.,
          77., 102., 103., 103., 103., 103., 103., 102., 103., 103.,
          102., 103., 102., 102., 103., 102., 102., 103., 104., 104.,
          108., 104., 108., 105., 105., 104., 103., 103., 107., 103.,
          102., 104., 106., 102., 102., 103., 102., 105., 108., 107.,
          106., 103., 101., 102., 102., 103., 102., 102., 101., 102.,
          102., 101., 102., 103., 102., 102., 103., 102., 99., 62., 56.,
          31., 31., 31., 31., 30., 31., 30., 31., 30., 37., 44., 45.,
          45., 45., 45., 45., 45., 45., 45., 45., 45., 45., 45., 45.,
          44., 45., 44., 45., 44., 45., 44., 45., 44., 44., 44., 44.,
          43., 43., 43., 43., 43., 43., 43., 43., 45., 47., 42., 41.,
          41., 41., 41., 43., 47., 44., 41., 41., 41., 41., 42., 42.,
          43., 43., 43., 43., 43., 45., 47., 49., 58., 47., 31., 31.,
          31., 31., 31., 31., 31., 31., 30., 31., 31., 30., 30., 30.,
          30., 30., 29., 30., 30., 29., 29., 29., 29., 29., 29., 29.,
          29., 29., 29., 29., 29., 29., 29., 29., 29., 28., 28., 28.,
          28., 28., 28., 28., 32., 31., 25., 25., 25., 24., 24., 26.,
          33., 28., 24., 24., 24., 24., 25., 26., 27., 27., 27., 27.,
          28., 29., 31., 35., 45., 59., 35., 12. ]
      - [ 53., 54., 53., 53., 52., 53., 52., 53., 52., 52., 51., 52.,
          51., 51., 51., 51., 50., 51., 50., 51., 50., 51., 50., 51.,
          50., 50., 49., 50., 49., 49., 49., 49., 48., 48., 49., 48.,
          48., 48., 48., 48., 48., 48., 48., 47., 47., 47., 47., 47.,
          47., 47., 47., 46., 47., 46., 47., 46., 46., 45., 46., 44.,
          45., 44., 45., 44., 44., 43., 44., 43., 44., 42., 52., 53.,
          52., 52., 51., 52., 51., 52., 51., 51., 51., 51., 51., 51.,
          50., 50., 49., 50., 49., 50., 49., 49., 49., 49., 49., 49.,
          48., 48., 48., 48., 48., 48., 48., 48., 48., 48., 48., 47.,
          47., 47., 47., 47., 47., 46., 47., 46., 47., 46., 46., 45.,
          46., 45., 46., 45., 46., 45., 45., 45., 45., 44., 45., 44.,
          44., 43., 43., 43., 43., 42., 43., 41., 52., 54., 53., 54.,
          52., 53., 52., 53., 52., 51., 50., 51., 50., 51., 50., 51.,
          50., 51., 50., 51., 50., 50., 49., 50., 49., 50., 49., 49.,
          49., 49., 48., 48., 48., 49., 48., 48., 48., 48., 48., 48.,
          48., 48., 48., 47., 47., 47., 48., 47., 47., 46., 47., 46.,
          46., 46., 47., 46., 46., 45., 46., 44., 45., 44., 44., 44.,
          44., 43., 44., 42., 43., 42., 52., 53., 52., 52., 52., 52.,
          51., 52., 51., 51., 50., 50., 50., 50., 50., 50., 50., 49.,
          50., 50., 49., 49., 49., 49., 49., 48., 48., 48., 48., 48.,
          48., 48., 48., 48., 48., 47., 48., 47., 47., 47., 47., 47.,
          47., 46., 47., 46., 47., 46., 46., 45., 46., 45., 46., 45.,
          46., 45., 46., 45., 46., 44., 45., 43., 44., 43., 44., 42.,
          43., 42., 42., 41., 52., 54., 52., 53., 51., 47., 40., 39.,
          39., 38., 38., 39., 38., 39., 38., 38., 38., 38., 38., 38.,
          37., 37., 38., 38., 37., 37., 37., 37., 37., 37., 37., 37.,
          37., 37., 36., 36., 36., 36., 36., 36., 36., 36., 36., 36.,
          36., 35., 36., 36., 36., 35., 35., 35., 35., 35., 35., 35.,
          35., 35., 35., 34., 35., 34., 34., 36., 41., 43., 44., 42.,
          43., 41., 52., 52., 52., 52., 37., 100., 151., 155., 155.,
          155., 155., 155., 155., 155., 156., 155., 155., 155., 155.,
          155., 155., 155., 155., 155., 161., 165., 165., 163., 155.,
          155., 159., 161., 162., 155., 163., 165., 160., 155., 165.,
          160., 155., 155., 160., 158., 165., 163., 155., 155., 154.,
          155., 155., 154., 155., 155., 154., 155., 155., 153., 153.,
          153., 153., 153., 153., 141., 35., 36., 43., 42., 42., 41.,
          52., 54., 52., 41., 100., 212., 208., 210., 209., 209., 210.,
          209., 209., 210., 209., 209., 210., 209., 210., 210., 209.,
          210., 210., 209., 212., 192., 205., 210., 179., 211., 228.,
          228., 210., 215., 231., 222., 225., 214., 217., 229., 220.,
          209., 218., 210., 211., 226., 210., 209., 210., 210., 209.,
          210., 210., 209., 210., 210., 209., 210., 210., 207., 210.,
          210., 207., 211., 204., 28., 41., 42., 44., 50., 52., 52., 52.,
          34., 128., 197., 200., 198., 201., 202., 200., 201., 202.,
          202., 202., 202., 202., 202., 202., 202., 202., 202., 209.,
          215., 200., 199., 255., 177., 171., 208., 205., 213., 205.,
          222., 220., 210., 222., 220., 208., 226., 218., 202., 202.,
          205., 204., 203., 208., 207., 202., 201., 203., 202., 201.,
          203., 202., 201., 203., 202., 199., 203., 201., 199., 201.,
          198., 186., 84., 32., 44., 50., 37., 52., 54., 52., 33., 117.,
          136., 185., 190., 191., 191., 193., 193., 169., 147., 157.,
          193., 194., 195., 192., 158., 146., 177., 214., 204., 166.,
          220., 202., 149., 211., 199., 197., 200., 198., 219., 217.,
          208., 216., 213., 196., 207., 198., 210., 208., 165., 150.,
          172., 211., 204., 203., 195., 194., 193., 195., 194., 189.,
          147., 148., 193., 194., 192., 190., 192., 190., 176., 117.,
          114., 31., 44., 38., 37., 52., 52., 50., 32., 114., 108., 116.,
          150., 179., 182., 183., 182., 166., 255., 242., 159., 187.,
          185., 162., 245., 255., 158., 208., 202., 176., 255., 255.,
          186., 211., 195., 187., 192., 185., 193., 213., 207., 209.,
          190., 188., 188., 188., 200., 200., 193., 255., 129., 194.,
          208., 201., 191., 185., 195., 191., 185., 165., 255., 240.,
          171., 183., 181., 183., 173., 135., 111., 108., 113., 29., 38.,
          38., 41., 51., 52., 50., 32., 110., 104., 109., 108., 113.,
          132., 148., 169., 134., 207., 255., 210., 163., 162., 225.,
          255., 181., 154., 187., 173., 253., 233., 236., 249., 174.,
          190., 180., 184., 184., 177., 194., 209., 192., 175., 188.,
          182., 181., 183., 176., 196., 255., 129., 189., 197., 194.,
          205., 193., 184., 195., 177., 157., 140., 140., 168., 163.,
          146., 126., 109., 109., 108., 102., 110., 26., 38., 44., 45.,
          51., 51., 50., 31., 107., 103., 103., 107., 107., 108., 109.,
          110., 118., 103., 243., 255., 169., 190., 255., 223., 131.,
          165., 173., 128., 219., 217., 211., 199., 141., 202., 171.,
          188., 181., 191., 192., 190., 145., 170., 170., 167., 185.,
          188., 157., 191., 255., 125., 166., 144., 184., 189., 193.,
          193., 176., 154., 154., 193., 185., 117., 111., 109., 107.,
          107., 104., 103., 103., 110., 26., 47., 45., 37., 51., 52.,
          50., 32., 105., 100., 102., 104., 104., 105., 108., 108., 115.,
          118., 139., 255., 249., 255., 245., 116., 131., 165., 160.,
          230., 255., 243., 243., 255., 214., 166., 163., 255., 255.,
          255., 237., 255., 238., 135., 156., 173., 191., 188., 165.,
          190., 255., 111., 132., 220., 255., 243., 231., 255., 254.,
          127., 110., 255., 239., 130., 110., 104., 106., 105., 102.,
          103., 98., 103., 31., 41., 38., 37., 51., 51., 50., 31., 101.,
          95., 99., 99., 99., 102., 102., 126., 155., 147., 117., 184.,
          255., 255., 127., 106., 158., 155., 181., 255., 166., 73., 99.,
          210., 255., 147., 143., 255., 252., 113., 99., 183., 255.,
          187., 151., 156., 145., 137., 140., 190., 255., 93., 133.,
          228., 200., 98., 94., 146., 255., 187., 116., 255., 238., 143.,
          137., 103., 101., 99., 100., 97., 93., 103., 26., 38., 38.,
          37., 51., 52., 50., 32., 94., 91., 92., 93., 95., 96., 97.,
          122., 148., 150., 139., 221., 255., 255., 172., 110., 154.,
          132., 231., 255., 175., 173., 181., 206., 255., 190., 142.,
          255., 201., 98., 154., 120., 255., 211., 142., 152., 145.,
          140., 148., 188., 255., 89., 119., 101., 158., 187., 232.,
          255., 255., 187., 102., 255., 239., 140., 120., 97., 95., 94.,
          93., 92., 91., 98., 25., 38., 38., 39., 51., 51., 50., 32.,
          95., 88., 91., 92., 93., 94., 96., 96., 98., 111., 173., 246.,
          213., 239., 242., 123., 105., 116., 216., 242., 206., 208.,
          206., 206., 209., 159., 127., 246., 174., 127., 113., 110.,
          246., 203., 95., 115., 153., 151., 106., 165., 246., 94., 101.,
          222., 246., 222., 203., 184., 246., 158., 114., 246., 228.,
          105., 96., 95., 94., 93., 91., 92., 88., 94., 25., 38., 41.,
          42., 51., 52., 50., 32., 93., 88., 90., 90., 93., 94., 94.,
          95., 96., 122., 242., 234., 93., 142., 246., 222., 99., 88.,
          198., 244., 95., 85., 94., 72., 72., 94., 105., 246., 203.,
          101., 120., 127., 246., 188., 107., 99., 117., 110., 95., 165.,
          246., 93., 112., 246., 175., 72., 89., 150., 246., 155., 104.,
          246., 227., 88., 94., 94., 93., 92., 91., 89., 87., 92., 26.,
          41., 42., 42., 51., 52., 50., 32., 92., 86., 87., 89., 90.,
          91., 93., 94., 99., 228., 246., 126., 87., 84., 192., 246.,
          179., 102., 138., 246., 207., 110., 124., 190., 246., 141.,
          105., 246., 241., 134., 132., 205., 244., 118., 119., 105.,
          116., 129., 129., 168., 246., 89., 108., 246., 201., 124.,
          138., 239., 246., 167., 89., 246., 227., 87., 94., 91., 89.,
          90., 88., 86., 85., 92., 28., 42., 42., 43., 50., 52., 50.,
          32., 89., 84., 86., 88., 87., 89., 90., 83., 197., 249., 167.,
          73., 95., 94., 99., 232., 249., 147., 110., 176., 249., 249.,
          249., 249., 179., 76., 103., 249., 242., 249., 249., 247.,
          172., 85., 103., 95., 94., 122., 138., 172., 249., 84., 81.,
          213., 249., 249., 249., 215., 249., 209., 89., 249., 230., 85.,
          91., 89., 89., 87., 86., 85., 83., 92., 28., 43., 44., 47.,
          51., 51., 50., 31., 87., 83., 84., 85., 87., 88., 87., 77.,
          117., 117., 71., 90., 90., 93., 82., 90., 118., 101., 139.,
          75., 88., 118., 118., 84., 79., 96., 98., 252., 195., 117.,
          121., 92., 95., 148., 109., 97., 103., 110., 92., 88., 120.,
          69., 95., 76., 119., 123., 112., 63., 118., 111., 83., 117.,
          111., 83., 86., 88., 87., 86., 86., 82., 83., 90., 28., 46.,
          48., 55. ]
      - [ 52., 54., 52., 41., 101., 212., 208., 210., 209., 209., 210.,
          209., 209., 210., 209., 209., 210., 209., 209., 210., 209.,
          210., 210., 209., 212., 191., 206., 211., 178., 211., 228.,
          228., 210., 215., 231., 222., 225., 214., 217., 229., 220.,
          209., 218., 210., 211., 226., 210., 209., 210., 210., 209.,
          210., 210., 209., 210., 210., 209., 210., 210., 207., 210.,
          210., 207., 211., 204., 28., 41., 42., 44., 50., 52., 52., 52.,
          34., 128., 197., 200., 198., 200., 202., 200., 201., 202.,
          202., 202., 202., 202., 202., 202., 202., 202., 202., 209.,
          215., 200., 200., 255., 176., 171., 208., 205., 213., 205.,
          222., 220., 210., 222., 220., 208., 226., 218., 202., 202.,
          205., 204., 203., 208., 207., 202., 201., 203., 202., 201.,
          203., 202., 201., 203., 202., 199., 203., 201., 199., 201.,
          198., 185., 84., 32., 44., 50., 37., 52., 54., 52., 33., 117.,
          136., 185., 190., 191., 191., 193., 193., 168., 147., 157.,
          193., 194., 195., 192., 158., 146., 177., 214., 204., 166.,
          220., 201., 149., 211., 199., 197., 200., 198., 219., 217.,
          208., 216., 213., 196., 207., 198., 210., 208., 165., 149.,
          172., 211., 204., 203., 195., 194., 193., 195., 194., 189.,
          147., 148., 193., 194., 192., 190., 192., 190., 176., 117.,
          114., 30., 44., 38., 37., 52., 52., 50., 32., 114., 108., 116.,
          150., 179., 182., 183., 182., 165., 255., 242., 159., 187.,
          185., 162., 246., 255., 158., 208., 202., 176., 255., 255.,
          186., 211., 195., 187., 192., 185., 193., 213., 207., 209.,
          190., 188., 188., 188., 200., 200., 193., 255., 129., 194.,
          208., 201., 191., 185., 195., 191., 185., 165., 255., 240.,
          171., 183., 181., 183., 173., 135., 111., 108., 113., 29., 38.,
          38., 41., 51., 52., 50., 32., 109., 104., 109., 108., 113.,
          132., 148., 169., 134., 207., 255., 210., 163., 162., 225.,
          255., 181., 154., 187., 173., 253., 233., 236., 249., 174.,
          190., 180., 184., 184., 177., 194., 209., 192., 175., 188.,
          182., 181., 183., 176., 196., 255., 129., 189., 197., 194.,
          205., 193., 184., 195., 177., 157., 140., 140., 168., 163.,
          146., 125., 109., 109., 108., 102., 110., 26., 38., 44., 45.,
          51., 51., 50., 31., 106., 103., 103., 107., 107., 108., 109.,
          110., 118., 102., 243., 255., 169., 190., 255., 223., 132.,
          165., 173., 128., 219., 217., 211., 199., 141., 202., 171.,
          189., 182., 191., 192., 191., 145., 170., 170., 167., 185.,
          189., 157., 191., 255., 125., 166., 143., 185., 189., 194.,
          194., 176., 153., 154., 194., 186., 117., 111., 109., 107.,
          107., 104., 103., 103., 110., 26., 47., 45., 37., 51., 52.,
          50., 32., 105., 100., 102., 104., 104., 105., 108., 108., 115.,
          118., 138., 255., 249., 255., 245., 116., 131., 164., 159.,
          231., 255., 243., 243., 255., 215., 166., 163., 255., 255.,
          255., 237., 255., 238., 134., 156., 173., 191., 188., 165.,
          190., 255., 111., 132., 221., 255., 243., 230., 255., 254.,
          127., 110., 255., 239., 130., 110., 103., 106., 105., 102.,
          103., 98., 103., 31., 41., 38., 37., 51., 51., 50., 31., 101.,
          95., 99., 99., 99., 102., 102., 126., 155., 147., 117., 184.,
          255., 255., 127., 106., 158., 155., 181., 255., 166., 73., 99.,
          210., 255., 147., 143., 255., 252., 113., 99., 182., 255.,
          187., 151., 156., 145., 137., 140., 190., 255., 93., 133.,
          228., 200., 98., 94., 146., 255., 187., 116., 255., 238., 143.,
          137., 103., 101., 99., 100., 97., 93., 103., 26., 38., 38.,
          37., 51., 52., 50., 32., 94., 91., 92., 93., 95., 96., 97.,
          122., 148., 150., 139., 221., 255., 255., 172., 110., 154.,
          132., 231., 255., 176., 174., 182., 206., 255., 190., 142.,
          255., 201., 98., 154., 121., 255., 211., 142., 152., 145.,
          140., 148., 188., 255., 89., 120., 101., 158., 187., 232.,
          255., 255., 187., 102., 255., 239., 140., 120., 97., 95., 94.,
          93., 92., 91., 98., 25., 38., 38., 39., 51., 51., 50., 32.,
          95., 88., 91., 92., 93., 94., 96., 96., 98., 111., 173., 246.,
          212., 239., 242., 123., 105., 116., 216., 242., 205., 208.,
          205., 205., 209., 159., 127., 246., 174., 127., 113., 110.,
          246., 203., 95., 115., 153., 151., 106., 165., 246., 94., 101.,
          222., 246., 222., 203., 183., 246., 158., 114., 246., 228.,
          105., 96., 95., 94., 93., 91., 92., 88., 94., 25., 38., 41.,
          42., 51., 52., 50., 32., 93., 88., 90., 90., 93., 94., 94.,
          95., 96., 123., 242., 234., 93., 142., 246., 222., 99., 88.,
          198., 244., 95., 85., 94., 72., 72., 93., 105., 246., 203.,
          101., 120., 127., 246., 188., 107., 99., 117., 110., 95., 165.,
          246., 93., 112., 246., 175., 72., 89., 150., 246., 155., 104.,
          246., 227., 88., 94., 94., 93., 92., 91., 89., 86., 92., 26.,
          41., 42., 42., 51., 52., 50., 32., 92., 86., 87., 89., 90.,
          91., 93., 94., 99., 228., 246., 126., 87., 84., 192., 246.,
          179., 102., 138., 246., 207., 110., 124., 190., 246., 141.,
          105., 246., 241., 134., 132., 205., 244., 118., 119., 105.,
          116., 129., 129., 168., 246., 89., 108., 246., 201., 124.,
          138., 239., 246., 167., 89., 246., 227., 87., 94., 91., 89.,
          90., 88., 86., 85., 92., 28., 42., 42., 43., 50., 52., 50.,
          32., 89., 84., 86., 88., 87., 89., 90., 83., 197., 249., 166.,
          73., 95., 94., 99., 232., 249., 147., 110., 175., 249., 249.,
          249., 249., 178., 76., 103., 249., 242., 249., 249., 247.,
          172., 85., 103., 95., 94., 122., 138., 172., 249., 84., 81.,
          213., 249., 249., 249., 215., 249., 209., 89., 249., 230., 85.,
          91., 89., 89., 88., 86., 85., 83., 92., 28., 43., 44., 47.,
          51., 51., 50., 31., 87., 83., 84., 85., 87., 88., 87., 77.,
          117., 117., 71., 90., 90., 93., 82., 89., 118., 101., 139.,
          75., 88., 118., 118., 84., 79., 95., 98., 252., 195., 117.,
          121., 91., 95., 148., 109., 97., 103., 110., 92., 88., 120.,
          69., 95., 76., 118., 122., 111., 63., 117., 111., 83., 117.,
          110., 83., 86., 88., 87., 86., 85., 82., 83., 90., 28., 46.,
          48., 55., 50., 51., 50., 32., 87., 83., 81., 84., 85., 84.,
          86., 86., 75., 77., 88., 88., 88., 90., 89., 83., 78., 87.,
          128., 107., 113., 78., 78., 85., 91., 109., 103., 255., 192.,
          116., 128., 116., 142., 116., 113., 140., 113., 90., 95., 101.,
          92., 93., 103., 105., 75., 226., 248., 76., 79., 79., 87., 79.,
          78., 86., 87., 85., 84., 86., 83., 80., 82., 88., 30., 50.,
          57., 81., 50., 51., 50., 33., 86., 78., 78., 79., 80., 81.,
          83., 82., 86., 84., 84., 86., 85., 84., 86., 86., 84., 86.,
          91., 91., 118., 111., 89., 119., 101., 105., 128., 255., 189.,
          88., 133., 132., 125., 88., 138., 118., 98., 85., 92., 131.,
          147., 139., 101., 85., 82., 116., 120., 68., 85., 84., 87.,
          83., 84., 86., 83., 82., 81., 79., 79., 78., 79., 75., 39.,
          61., 92., 78., 50., 51., 50., 40., 54., 91., 83., 80., 83.,
          82., 82., 84., 85., 84., 85., 86., 84., 86., 85., 84., 86.,
          85., 84., 91., 107., 143., 126., 130., 85., 94., 109., 123.,
          120., 106., 99., 122., 99., 123., 123., 96., 101., 90., 86.,
          118., 115., 146., 123., 87., 85., 73., 74., 84., 85., 87., 84.,
          84., 86., 84., 83., 84., 81., 82., 83., 83., 89., 34., 66.,
          98., 61., 20., 50., 51., 51., 51., 37., 44., 68., 71., 72.,
          73., 73., 73., 73., 73., 74., 74., 75., 74., 74., 75., 74.,
          74., 75., 81., 86., 103., 85., 105., 87., 94., 83., 58., 70.,
          103., 74., 73., 79., 97., 73., 74., 74., 73., 81., 103., 103.,
          99., 73., 72., 72., 74., 75., 73., 72., 72., 72., 71., 72.,
          72., 72., 72., 72., 70., 70., 62., 35., 68., 94., 46., 13.,
          12., 50., 51., 50., 51., 49., 46., 40., 39., 38., 39., 38.,
          38., 38., 39., 38., 38., 38., 38., 38., 38., 38., 38., 37.,
          38., 37., 38., 37., 38., 37., 37., 37., 37., 36., 36., 36.,
          36., 36., 36., 36., 35., 38., 41., 35., 32., 32., 32., 32.,
          35., 41., 36., 32., 32., 32., 32., 33., 34., 35., 35., 35.,
          35., 36., 39., 42., 52., 89., 78., 32., 11., 12., 13., 50.,
          51., 51., 51., 50., 50., 50., 50., 50., 49., 49., 49., 49.,
          49., 49., 49., 49., 48., 48., 48., 48., 48., 48., 48., 48.,
          48., 48., 48., 48., 48., 48., 47., 47., 47., 47., 46., 45.,
          46., 53., 51., 42., 41., 41., 41., 41., 43., 54., 47., 40.,
          41., 40., 40., 41., 43., 44., 45., 44., 44., 46., 48., 51.,
          57., 75., 98., 58., 20., 12., 12., 14., 18. ]
      - [ 52., 54., 52., 53., 51., 47., 40., 39., 39., 38., 38., 39.,
          38., 39., 38., 38., 38., 38., 38., 38., 37., 37., 38., 37.,
          37., 37., 37., 37., 36., 37., 37., 37., 36., 36., 36., 36.,
          36., 36., 36., 36., 36., 36., 36., 36., 36., 35., 36., 36.,
          36., 35., 35., 35., 35., 35., 35., 35., 35., 35., 34., 34.,
          34., 34., 34., 36., 41., 43., 44., 42., 43., 41., 52., 52.,
          52., 52., 37., 100., 153., 156., 156., 156., 156., 156., 157.,
          157., 157., 157., 157., 157., 157., 157., 157., 156., 157.,
          157., 163., 167., 166., 165., 157., 157., 161., 163., 163.,
          157., 164., 166., 162., 157., 166., 162., 157., 157., 162.,
          160., 166., 164., 157., 157., 156., 156., 157., 155., 157.,
          156., 155., 156., 157., 155., 155., 155., 155., 155., 155.,
          142., 35., 36., 43., 42., 42., 41., 52., 54., 52., 41., 101.,
          212., 208., 210., 209., 209., 210., 209., 209., 210., 209.,
          209., 210., 209., 209., 210., 209., 210., 210., 209., 212.,
          191., 206., 211., 178., 211., 228., 228., 210., 215., 231.,
          222., 225., 214., 217., 229., 220., 209., 218., 210., 211.,
          226., 210., 209., 210., 210., 209., 210., 210., 209., 210.,
          210., 209., 210., 210., 207., 210., 210., 207., 211., 204.,
          28., 41., 42., 44., 50., 52., 52., 52., 34., 128., 197., 200.,
          198., 200., 202., 200., 201., 202., 202., 202., 202., 202.,
          202., 202., 202., 202., 202., 209., 215., 200., 200., 255.,
          176., 171., 208., 205., 213., 205., 222., 220., 210., 222.,
          220., 208., 226., 218., 202., 202., 205., 204., 203., 208.,
          207., 202., 201., 203., 202., 201., 203., 202., 201., 203.,
          202., 199., 203., 201., 199., 201., 198., 185., 84., 32., 44.,
          50., 37., 52., 54., 52., 33., 117., 136., 185., 190., 191.,
          191., 193., 193., 168., 147., 157., 193., 194., 195., 192.,
          158., 146., 177., 214., 204., 166., 220., 201., 149., 211.,
          199., 197., 200., 198., 219., 217., 208., 216., 213., 196.,
          207., 198., 210., 208., 165., 149., 172., 211., 204., 203.,
          195., 194., 193., 195., 194., 189., 147., 148., 193., 194.,
          192., 190., 192., 190., 176., 117., 114., 30., 44., 38., 37.,
          52., 52., 50., 32., 114., 108., 116., 150., 179., 182., 183.,
          182., 165., 255., 242., 159., 187., 185., 162., 246., 255.,
          158., 208., 202., 176., 255., 255., 186., 211., 195., 187.,
          192., 185., 193., 213., 207., 209., 190., 188., 188., 188.,
          200., 200., 193., 255., 129., 194., 208., 201., 191., 185.,
          195., 191., 185., 165., 255., 240., 171., 183., 181., 183.,
          173., 135., 111., 108., 113., 29., 38., 38., 41., 51., 52.,
          50., 32., 109., 104., 109., 108., 113., 132., 148., 169., 134.,
          207., 255., 210., 163., 162., 225., 255., 181., 154., 187.,
          173., 253., 233., 236., 249., 174., 190., 180., 184., 184.,
          177., 194., 209., 192., 175., 188., 182., 181., 183., 176.,
          196., 255., 129., 189., 197., 194., 205., 193., 184., 195.,
          177., 157., 140., 140., 168., 163., 146., 125., 109., 109.,
          108., 102., 110., 26., 38., 44., 45., 51., 51., 50., 31., 106.,
          103., 103., 107., 107., 108., 109., 110., 118., 102., 243.,
          255., 169., 190., 255., 223., 132., 165., 173., 128., 219.,
          217., 211., 199., 141., 202., 171., 189., 182., 191., 192.,
          191., 145., 170., 170., 167., 185., 189., 157., 191., 255.,
          125., 166., 143., 185., 189., 194., 194., 176., 153., 154.,
          194., 186., 117., 111., 109., 107., 107., 104., 103., 103.,
          110., 26., 47., 45., 37., 51., 52., 50., 32., 105., 100., 102.,
          104., 104., 105., 108., 108., 115., 118., 138., 255., 249.,
          255., 245., 116., 131., 164., 159., 231., 255., 243., 243.,
          255., 215., 166., 163., 255., 255., 255., 237., 255., 238.,
          134., 156., 173., 191., 188., 165., 190., 255., 111., 132.,
          221., 255., 243., 230., 255., 254., 127., 110., 255., 239.,
          130., 110., 103., 106., 105., 102., 103., 98., 103., 31., 41.,
          38., 37., 51., 51., 50., 31., 101., 95., 99., 99., 99., 102.,
          102., 126., 155., 147., 117., 184., 255., 255., 127., 106.,
          158., 155., 181., 255., 166., 73., 99., 210., 255., 147., 143.,
          255., 252., 113., 99., 182., 255., 187., 151., 156., 145.,
          137., 140., 190., 255., 93., 133., 228., 200., 98., 94., 146.,
          255., 187., 116., 255., 238., 143., 137., 103., 101., 99.,
          100., 97., 93., 103., 26., 38., 38., 37., 51., 52., 50., 32.,
          94., 91., 92., 93., 95., 96., 97., 122., 148., 150., 139.,
          221., 255., 255., 172., 110., 154., 132., 231., 255., 176.,
          174., 182., 206., 255., 190., 142., 255., 201., 98., 154.,
          121., 255., 211., 142., 152., 145., 140., 148., 188., 255.,
          89., 120., 101., 158., 187., 232., 255., 255., 187., 102.,
          255., 239., 140., 120., 97., 95., 94., 93., 92., 91., 98., 25.,
          38., 38., 39., 51., 51., 50., 32., 95., 88., 91., 92., 93.,
          94., 96., 96., 98., 111., 173., 246., 212., 239., 242., 123.,
          105., 116., 216., 242., 205., 208., 205., 205., 209., 159.,
          127., 246., 174., 127., 113., 110., 246., 203., 95., 115.,
          153., 151., 106., 165., 246., 94., 101., 222., 246., 222.,
          203., 183., 246., 158., 114., 246., 228., 105., 96., 95., 94.,
          93., 91., 92., 88., 94., 25., 38., 41., 42., 51., 52., 50.,
          32., 93., 88., 90., 90., 93., 94., 94., 95., 96., 123., 242.,
          234., 93., 142., 246., 222., 99., 88., 198., 244., 95., 85.,
          94., 72., 72., 93., 105., 246., 203., 101., 120., 127., 246.,
          188., 107., 99., 117., 110., 95., 165., 246., 93., 112., 246.,
          175., 72., 89., 150., 246., 155., 104., 246., 227., 88., 94.,
          94., 93., 92., 91., 89., 86., 92., 26., 41., 42., 42., 51.,
          52., 50., 32., 92., 86., 87., 89., 90., 91., 93., 94., 99.,
          228., 246., 126., 87., 84., 192., 246., 179., 102., 138., 246.,
          207., 110., 124., 190., 246., 141., 105., 246., 241., 134.,
          132., 205., 244., 118., 119., 105., 116., 129., 129., 168.,
          246., 89., 108., 246., 201., 124., 138., 239., 246., 167., 89.,
          246., 227., 87., 94., 91., 89., 90., 88., 86., 85., 92., 28.,
          42., 42., 43., 50., 52., 50., 32., 89., 84., 86., 88., 87.,
          89., 90., 83., 197., 249., 166., 73., 95., 94., 99., 232.,
          249., 147., 110., 175., 249., 249., 249., 249., 178., 76.,
          103., 249., 242., 249., 249., 247., 172., 85., 103., 95., 94.,
          122., 138., 172., 249., 84., 81., 213., 249., 249., 249., 215.,
          249., 209., 89., 249., 230., 85., 91., 89., 89., 88., 86., 85.,
          83., 92., 28., 43., 44., 47., 51., 51., 50., 31., 87., 83.,
          84., 85., 87., 88., 87., 77., 117., 117., 71., 90., 90., 93.,
          82., 89., 118., 101., 139., 75., 88., 118., 118., 84., 79.,
          95., 98., 252., 195., 117., 121., 91., 95., 148., 109., 97.,
          103., 110., 92., 88., 120., 69., 95., 76., 118., 122., 111.,
          63., 117., 111., 83., 117., 110., 83., 86., 88., 87., 86., 85.,
          82., 83., 90., 28., 46., 48., 55., 50., 51., 50., 32., 87.,
          83., 81., 84., 85., 84., 86., 86., 75., 77., 88., 88., 88.,
          90., 89., 83., 78., 87., 128., 107., 113., 78., 78., 85., 91.,
          109., 103., 255., 192., 116., 128., 116., 142., 116., 113.,
          140., 113., 90., 95., 101., 92., 93., 103., 105., 75., 226.,
          248., 76., 79., 79., 87., 79., 78., 86., 87., 85., 84., 86.,
          83., 80., 82., 88., 30., 50., 57., 81., 50., 51., 50., 33.,
          86., 78., 78., 79., 80., 81., 83., 82., 86., 84., 84., 86.,
          85., 84., 86., 86., 84., 86., 91., 91., 118., 111., 89., 119.,
          101., 105., 128., 255., 189., 88., 133., 132., 125., 88., 138.,
          118., 98., 85., 92., 131., 147., 139., 101., 85., 82., 116.,
          120., 68., 85., 84., 87., 83., 84., 86., 83., 82., 81., 79.,
          79., 78., 79., 75., 39., 61., 92., 78., 50., 51., 50., 40.,
          54., 91., 83., 80., 83., 82., 82., 84., 85., 84., 85., 86.,
          84., 86., 85., 84., 86., 85., 84., 91., 107., 143., 126., 130.,
          85., 94., 109., 123., 120., 106., 99., 122., 99., 123., 123.,
          96., 101., 90., 86., 118., 115., 146., 123., 87., 85., 73.,
          74., 84., 85., 87., 84., 84., 86., 84., 83., 84., 81., 82.,
          83., 83., 89., 34., 66., 98., 61., 20., 50., 51., 51., 51.,
          37., 44., 68., 71., 72., 73., 73., 73., 73., 73., 74., 74.,
          75., 74., 74., 75., 74., 74., 75., 81., 86., 103., 85., 105.,
          87., 94., 83., 58., 70., 103., 74., 73., 79., 97., 73., 74.,
          74., 73., 81., 103., 103., 99., 73., 72., 72., 74., 75., 73.,
          72., 72., 72., 71., 72., 72., 72., 72., 72., 70., 70., 62.,
          35., 68., 94., 46., 13., 12. ]
   decision_functions:
      -
         sv_count: 3
         rho: -1.0588892976771092e+00
         alpha: [ 3.4871363061564291e-24, -2.0279126050815682e-24,
             -1.4592237010748612e-24 ]
         index: [ 0, 2, 3 ]
      -
         sv_count: 4
         rho: -1.0669602804477252e+00
         alpha: [ 4.5454429341676671e-24, -2.3287391350520826e-24,
             -2.0897612380266981e-24, -1.2694256108888486e-25 ]
         index: [ 0, 4, 5, 6 ]
      -
         sv_count: 6
         rho: 1.2707339576479841e+00
         alpha: [ 3.7829214557653514e-24, 7.7673192928687903e-24,
             4.8951817485448117e-24, -8.2445182802768422e-24,
             -3.7660862375867938e-24, -4.4348179793153182e-24 ]
         index: [ 1, 2, 3, 4, 5, 6 ]
