%YAML:1.0
opencv_ml_svm:
   format: 3
   svmType: C_SVC
   kernel:
      type: LINEAR
   C: 1.
   term_criteria: { iterations:100 }
   var_count: 408
   class_count: 4
   class_labels: !!opencv-matrix
      rows: 4
      cols: 1
      dt: i
      data: [ 0, 1, 2, 3 ]
   sv_total: 6
   support_vectors:
      - [ 0., 0., 0., 0., 0., 0., 0., 0., 0., 0., 0., 0., 0., 0., 0., 0.,
          0., 0., 0., 0., 0., -1.31619352e-004, -1.31619352e-004,
          -7.01402896e-005, 0., 0., 0., 0., 0., 0., 0., 0., 0., 0., 0.,
          0., 0., 0., 0., 0., 0., 0., 0., 0., 0., -1.31619352e-004,
          -7.01402896e-005, -6.14790551e-005, 0., 0., 0., 0., 0., 0., 0.,
          0., 0., 0., 0., -2.35120569e-005, -1.07248874e-004, 0.,
          -3.13078257e-004, -3.02276225e-004, 0., 0., 0., 0., 0.,
          -1.31619352e-004, -1.31619352e-004, -1.31619352e-004, 0., 0.,
          0., 0., 0., 0., 1.48739446e-005, 9.47882436e-005,
          4.27489540e-005, -2.23503550e-004, -1.66650265e-004,
          -1.63347577e-004, -1.81425537e-004, -1.67277511e-004,
          -1.09526984e-004, -8.20768691e-005, -4.69713814e-005,
          2.33575032e-004, 3.82135971e-004, 2.73832091e-004, 0.,
          -1.31619352e-004, -6.14790551e-005, -1.31619352e-004, 0., 0.,
          0., 1.95042318e-004, 3.06570961e-004, 5.32941078e-004,
          4.79195907e-004, 3.86426866e-004, 3.96589516e-004,
          5.33142651e-004, 3.39726830e-004, 4.39133844e-004,
          3.10523115e-004, 3.79883306e-004, 3.04824265e-004,
          4.32395173e-004, 4.01497644e-004, 5.79960062e-004,
          6.68182794e-004, 4.04249964e-004, 2.73832091e-004,
          -1.31619352e-004, -6.14790551e-005, -1.31619352e-004, 0., 0.,
          1.95042318e-004, 3.06570961e-004, 3.06570961e-004,
          6.55803015e-004, 6.24553591e-004, 5.57963154e-004,
          5.45419811e-004, 3.97363794e-004, 6.78291253e-004,
          4.76039655e-004, 4.63803328e-004, 3.50457558e-004,
          6.07632974e-004, 5.46827214e-004, 7.33541907e-004,
          5.66232426e-004, 5.36116306e-004, 5.22837101e-004,
          3.45203647e-004, 1.13029753e-004, -6.14790551e-005,
          -1.31619352e-004, 0., 0., 1.95042318e-004, 3.06570961e-004,
          5.18067100e-004, 3.99863988e-004, 6.24553591e-004,
          4.91076964e-004, 5.67658339e-004, 3.41522391e-004,
          4.96495282e-004, 4.88074933e-004, 2.47277785e-004,
          3.07793787e-004, 5.18342829e-004, 3.96136806e-004,
          4.09091357e-004, 4.47373255e-004, 3.41897248e-004,
          2.20560862e-004, 3.45203647e-004, 1.13029753e-004,
          -1.31619352e-004, -1.31619352e-004, 0., 0., 1.95042318e-004,
          3.06570961e-004, 4.47926839e-004, 3.23510991e-004,
          1.91695610e-004, 3.17881000e-004, 4.16967960e-004,
          2.70150835e-004, 5.76271159e-005, 8.67361738e-019,
          1.85798708e-004, 1.22375743e-004, 1.96265129e-004,
          3.06846690e-004, 2.25140713e-004, 1.22922705e-004,
          1.06062071e-004, 2.20560862e-004, 3.45203647e-004,
          1.13029753e-004, -7.01402896e-005, -1.31619352e-004, 0., 0.,
          1.95042318e-004, 3.06570961e-004, 2.70789344e-004,
          1.38092946e-004, 3.71435417e-005, 1.12375848e-004,
          2.71622208e-004, 2.11104532e-004, 2.84441358e-005,
          8.67361738e-019, 1.85798708e-004, -9.24359665e-006,
          1.08470867e-005, 2.48128956e-004, 1.78486647e-004,
          5.44784452e-005, 9.07113281e-005, 1.83628523e-004,
          2.44649098e-004, -1.31619352e-004, -1.31619352e-004,
          -1.31619352e-004, 0., 0., 0., 1.33563255e-004, 5.92932010e-005,
          2.00649069e-004, 1.38092946e-004, 3.71435417e-005,
          1.94000590e-004, 2.82758003e-004, 9.22453255e-005,
          2.84441358e-005, -9.24359665e-006, -5.06319702e-005,
          1.23460384e-004, 1.12708571e-004, 4.02198857e-005,
          1.81635096e-005, 1.83628523e-004, 2.44649098e-004, 0.,
          -1.31619352e-004, -6.14790551e-005, -7.01402896e-005, 0., 0.,
          0., -6.14790551e-005, -5.22354603e-005, 5.92932010e-005,
          2.00649069e-004, 1.38092946e-004, 7.88918987e-005,
          1.94000590e-004, 6.57587807e-005, -8.06830139e-005,
          -2.21878345e-005, 1.23460384e-004, 5.12295119e-005,
          6.48203786e-005, 1.14046816e-004, -1.05905374e-005,
          1.37444513e-005, 0., 0., -1.31619352e-004, 0.,
          -7.01402896e-005, 0., 0., 0., 0., -6.14790551e-005,
          -5.22354603e-005, 5.92932010e-005, 2.00649069e-004,
          3.10596442e-005, 3.13731216e-005, 5.75687336e-005,
          2.62626127e-005, 2.27752753e-005, 7.96736495e-005,
          6.48203786e-005, 2.01945368e-004, -1.05905374e-005,
          -5.76271159e-005, 0., 0., 0., -1.31619352e-004,
          -1.39602798e-005, -1.52339548e-004, 0., 0., 0., 0., 0.,
          -6.14790551e-005, -5.22354603e-005, 1.20772260e-004,
          1.52310176e-005, 3.10596442e-005, 6.62269304e-005,
          6.93676338e-006, 9.34762429e-005, 1.54579189e-004,
          2.30389502e-004, 5.37789929e-005, 1.37444513e-005, 0., 0., 0.,
          0., -8.41005676e-005, 4.75187808e-005, -5.87586946e-005, 0.,
          0., 0., 0., 0., 0., 0., 9.24359665e-006, 5.92932010e-005,
          -3.54009535e-005, 2.48161086e-004, 1.56640162e-004,
          5.20053618e-006, 2.78839958e-004, 2.05070624e-004,
          -2.30904639e-004, 0., 0., 0., 0., 0., -6.92266258e-005,
          3.33091812e-005, 6.05458899e-006, 0., 0., 0., 0., 0., 0., 0.,
          0., -6.14790551e-005, -6.14790551e-005, 0., 0., 0., 0., 0., 0.,
          0., 0., 0., 0., 1.48739446e-005, -3.68311048e-005,
          6.22790103e-005, -1.17794380e-005, 0., 0., 0., 0., 0., 0., 0.,
          0., 0., 0., 0., 0., 0., 0., 0., 0., 0., 0., 0., 0., 0.,
          -8.41005676e-005, 7.01266617e-006, 6.44598476e-005, 0., 0., 0.,
          0., 0., 0., 0., 0., 0., 0., 0., 0., 0., 0., 0., 0., 0., 0., 0.,
          0., 1.48739446e-005, -3.68311048e-005, 6.84917250e-005,
          6.44598476e-005 ]
      - [ 0., 0., 0., 0., 0., 0., 0., 0., 0., 0., 0., 0., 0., 0., 0., 0.,
          0., 0., 0., 0., 0., 0., 0., 0., 0., 0., 0., 0., 0., 0., 0., 0.,
          0., 0., 0., 0., 0., 0., 0., 0., 0., 0., 0., 0., 0., 0., 0., 0.,
          0., 0., 0., 0., 0., 0., 0., 0., 0., 0., -1.89448736e-004,
          -3.13817611e-004, -2.68935401e-004, -2.93864927e-004,
          -3.10305972e-004, -1.61007585e-004, -1.61007585e-004, 0., 0.,
          0., 0., 0., 0., 0., 0., 0., 0., 0., 0., 0., 6.38579586e-005,
          6.38579586e-005, -1.97463072e-004, -1.08904438e-004,
          -5.07563353e-004, -3.78460245e-004, -3.96169344e-004,
          -3.88182903e-004, -1.79072958e-004, -2.41449787e-004,
          -4.28438943e-005, 1.87112219e-005, 1.53057437e-004,
          1.53057437e-004, 0., 0., 0., 0., 0., 0., 0., 1.35005714e-004,
          1.87784986e-004, 3.37535719e-004, 2.98520637e-004,
          1.25208608e-004, 1.31104651e-004, 3.93562368e-005,
          9.43477789e-005, 1.06782209e-004, 9.90136396e-005,
          -2.75446964e-005, 5.32908234e-005, 3.44015163e-004,
          1.36917661e-004, 2.25372627e-004, 3.94552044e-004,
          2.82219378e-004, 1.53057437e-004, 0., 0., 0., 0., 0.,
          1.35005714e-004, 1.35005714e-004, 2.65701383e-004,
          5.00137103e-004, 4.33526351e-004, 3.00004671e-004,
          4.91289946e-004, 3.06333706e-004, 3.83156352e-004,
          2.65630661e-004, 1.72212400e-004, 2.62322137e-004,
          4.11848858e-004, 4.66195779e-004, 4.60237439e-004,
          4.94108885e-004, 4.07409301e-004, 3.84521176e-004,
          1.53057437e-004, 1.53057437e-004, -4.53060020e-005, 0., 0., 0.,
          1.35005714e-004, 1.87784986e-004, 3.37535719e-004,
          5.00137103e-004, 4.33526351e-004, 4.23095800e-004,
          3.21615051e-004, 3.28783470e-004, 3.20466032e-004,
          2.65630661e-004, 2.79941043e-004, 2.75179395e-004,
          4.19322139e-004, 3.41826904e-004, 3.15670914e-004,
          3.09237919e-004, 2.46401731e-004, 2.23513605e-004,
          1.53057437e-004, 1.53057437e-004, -1.24368889e-004,
          -1.08993976e-004, 0., 0., 1.35005714e-004, 1.87784986e-004,
          3.37535719e-004, 4.01489262e-004, 7.07655781e-005,
          1.35404145e-004, 9.73197311e-005, 1.24649712e-004,
          5.10181126e-005, -2.57498016e-019, 2.36873078e-004,
          1.76531583e-004, 1.76531583e-004, 7.26493745e-005,
          1.11573252e-004, 1.45408572e-004, -9.79276592e-005,
          1.18890515e-004, -5.10181126e-005, 1.53057437e-004, 0.,
          -1.54299982e-004, 0., 0., 1.35005714e-004, 1.35005714e-004,
          6.51489245e-005, -5.41907611e-005, -8.96320489e-006,
          -1.51123983e-004, -7.40860196e-005, -1.65887031e-005,
          -1.53057437e-004, -2.57498016e-019, -2.57498016e-019,
          -1.35005714e-004, 4.90880811e-005, -2.59984390e-005,
          5.41907611e-005, 8.96320489e-006, -2.06921643e-004,
          -3.04078876e-005, -1.12573231e-004, 0., 0., -1.08993976e-004,
          0., 0., 0., -1.01867372e-004, -1.79997442e-004,
          -2.16792105e-004, -1.79225550e-004, -2.42326059e-004,
          -2.25372627e-004, -1.80445626e-004, -1.53057437e-004,
          -1.53057437e-004, -1.35005714e-004, -1.35005714e-004,
          -1.00662648e-004, -1.88599792e-004, -1.16071584e-004,
          -3.43367021e-004, -2.41886257e-004, -3.16706981e-004,
          -2.65630661e-004, 0., -4.53060020e-005, 0., 0., 0., 0.,
          -2.36873078e-004, -1.76531583e-004, -1.79997442e-004,
          -2.62098125e-004, -3.03594425e-004, -1.98773021e-004,
          -2.25372627e-004, -1.21211800e-004, -2.88063136e-004,
          -2.88063136e-004, -3.37535719e-004, -1.29006890e-004,
          -4.33526351e-004, -2.45561649e-004, -2.41886257e-004,
          -3.64356034e-004, -2.65630661e-004, -2.65630661e-004, 0., 0.,
          0., 0., 0., 0., 0., -2.36873078e-004, -2.75179395e-004,
          -1.79997442e-004, -2.62098125e-004, -3.15670914e-004,
          -7.38930903e-005, -2.41621747e-004, -1.91580242e-004,
          -1.16273484e-004, -3.94568517e-004, -1.27952240e-004,
          -9.62632403e-005, -2.41886257e-004, -3.64356034e-004,
          -1.79485069e-004, -2.65630661e-004, -4.30679756e-005, 0., 0.,
          -4.53060020e-005, 0., 0., 0., 0., 0., -2.36873078e-004,
          -1.76531583e-004, -8.13496299e-005, 2.59984390e-005,
          7.78754838e-005, 1.48854633e-005, -4.37259150e-005,
          1.21838129e-004, 1.71241103e-004, 1.66197147e-004,
          1.19671291e-004, -6.30946015e-005, -1.20764889e-005, 0., 0.,
          0., 0., -4.53060020e-005, -4.07748994e-005, 0., 0., 0., 0., 0.,
          0., 0., 1.35005714e-004, -6.68541679e-006, -2.07655088e-004,
          -1.28325075e-004, 2.17513616e-006, -1.37310461e-004,
          -1.82421558e-004, -2.17947978e-004, -4.14929062e-004,
          -5.10181126e-005, 0., 0., 0., 0., 0., -4.53060020e-005,
          -4.07748994e-005, 0., 0., 0., 0., 0., 0., 0., 0.,
          -2.36873078e-004, -3.11537297e-004, -7.46642108e-005, 0.,
          -1.20764889e-005, -1.20764889e-005, -1.20764889e-005, 0., 0.,
          0., 0., 0., 0., 0., -4.53060020e-005, -4.07748994e-005, 0., 0.,
          0., 0., 0., 0., 0., 0., 0., 0., 0., 0., 0., 0., 0., 0., 0., 0.,
          0., 0., 0., 0., 8.35939863e-005, 3.82879807e-005, 0., 0., 0.,
          0., 0., 0., 0., 0., 0., 0., 0., 0., 0., 0., 0., 0., 0., 0., 0.,
          0., 0., 0., -4.14408023e-005, -1.20503682e-004 ]
      - [ 0., 0., 0., 0., 0., 0., 0., 0., 0., 0., 0., 0., 0., 0., 0., 0.,
          -8.88420709e-006, 0., 0., 0., 0., 0., 0., 0., 0., 0., 0., 0.,
          0., 0., 0., 0., 0., 0., 0., 0., 0., 0., 0., 0., 0., 0., 0., 0.,
          0., 0., 0., 0., 0., 0., 0., 0., 0., 0., 0., 0., 0., 0.,
          -2.26310760e-004, -1.52427208e-004, -1.78211209e-004,
          -2.28415724e-004, -2.28190562e-004, -2.00002731e-004, 0., 0.,
          0., 0., 0., 0., 0., 0., 0., 0., 0., 0., 0., 0.,
          6.84635961e-005, 6.84635961e-005, -1.04732724e-004,
          -2.03892501e-004, -6.40655577e-004, -6.73158560e-004,
          -4.16936324e-004, -2.68637494e-004, -2.63735390e-004,
          -2.86488037e-004, -4.91988103e-005, 1.50803928e-004,
          1.61111442e-004, 1.61111442e-004, 0., 0., 0., 0., 0., 0., 0.,
          1.64914920e-004, 2.04750031e-004, 4.98399604e-004,
          6.56001153e-004, 4.64554236e-004, 3.83117760e-004,
          1.20602708e-004, 2.52531812e-004, 2.30488498e-004,
          -1.72042550e-004, 2.42574111e-004, 2.03755713e-004,
          5.70541481e-004, 3.69983376e-004, 4.18813492e-004,
          4.91972372e-004, 2.91080767e-004, 1.61111442e-004, 0., 0., 0.,
          0., 0., 1.64914920e-004, 2.04750031e-004, 3.12614313e-004,
          6.84311148e-004, 6.03163266e-004, 3.89838591e-004,
          4.01736965e-004, 3.64702166e-004, 3.36672325e-004,
          3.28733790e-004, 6.21639920e-005, 4.10130306e-004,
          4.89522296e-004, 5.78241830e-004, 5.58026193e-004,
          5.31094847e-004, 3.07921990e-004, 4.87638725e-004,
          1.61111442e-004, 1.61111442e-004, 0., 0., 0., 0.,
          1.64914920e-004, 2.04750031e-004, 4.85884288e-004,
          3.47816211e-004, 4.17061849e-004, 3.26895504e-004,
          2.63360853e-004, 3.61472426e-004, 2.94393307e-004,
          9.43905688e-005, 1.53082627e-004, 1.71579988e-004,
          4.89522296e-004, 4.32250410e-004, 3.79814970e-004,
          3.02679109e-004, 7.97314133e-005, 1.93245418e-004,
          1.61111442e-004, 1.61111442e-004, 0., 0., 0., 0.,
          1.64914920e-004, 2.04750031e-004, 3.32801661e-004,
          3.00485059e-004, 2.79593005e-005, 1.32183341e-004,
          3.49451475e-005, 1.33281850e-004, 1.33281850e-004,
          -7.28448335e-020, -7.28448335e-020, -1.18322978e-005,
          1.31744877e-004, 2.08388054e-004, 2.27387762e-004,
          5.83269284e-005, 7.97314133e-005, 1.93245418e-004,
          -3.88912886e-005, 1.61111442e-004, 0., 0., 0., 0.,
          1.64914920e-004, 5.16674045e-005, 7.81210838e-005,
          8.30585195e-005, -1.24467901e-004, -1.15347444e-004,
          -1.97579080e-004, 3.31254137e-006, -1.61111442e-004,
          -7.28448335e-020, -7.28448335e-020, -1.64914920e-004,
          -5.16674045e-005, 1.61056902e-004, 9.96121344e-006,
          5.83269284e-005, -1.48684310e-004, -3.49451475e-005,
          -1.33281850e-004, 0., 0., 0., 0., 0., 0., -1.71579988e-004,
          -1.05760540e-004, -1.02853017e-004, -6.93686816e-005,
          -3.02679109e-004, -3.24422930e-004, -1.93245418e-004,
          -1.61111442e-004, -1.61111442e-004, -1.64914920e-004,
          -2.04750031e-004, -9.84007966e-006, -2.48546403e-005,
          -3.11526819e-004, -3.26895504e-004, -2.63360853e-004,
          -3.61472426e-004, -2.94393307e-004, 0., 0., 0., 0., 0., 0.,
          -3.36494908e-004, -1.97511632e-004, -1.14644747e-004,
          -1.02853017e-004, -2.47579883e-004, -4.09904140e-004,
          -3.24422930e-004, -2.91080767e-004, -3.26026347e-004,
          -3.65861459e-004, -1.56486902e-004, -4.19793905e-005,
          -3.46342684e-004, -2.31791913e-004, -4.41572076e-004,
          -5.89888135e-004, -5.22583839e-004, -2.94393307e-004, 0., 0.,
          0., 0., 0., 0., -1.53082627e-004, -3.36494908e-004,
          -1.97511632e-004, -1.14644747e-004, -1.02853017e-004,
          -2.47579883e-004, -3.43763153e-004, -1.71995736e-004,
          -3.17619590e-004, -6.40559942e-004, -1.77962254e-004,
          -2.80201697e-004, -2.31791913e-004, -4.41572076e-004,
          -3.61472426e-004, -1.33281850e-004, -2.94393307e-004,
          -9.43905688e-005, 0., 0., 0., 0., 0., 0., 0., -1.53082627e-004,
          -1.53082627e-004, -1.71579988e-004, 7.76517409e-005,
          1.49389380e-004, 3.00485059e-004, 1.27812236e-004,
          3.25961009e-005, 1.68361279e-004, 2.49497767e-004,
          3.66153487e-004, 3.03588342e-004, 1.61111442e-004,
          -9.43905688e-005, -9.43905688e-005, 0., 0., 0.,
          1.25153019e-005, 2.90162570e-005, 0., 0., 0., 0., 0., 0., 0.,
          1.64914920e-004, -7.98288893e-005, -1.54520429e-004,
          7.32540284e-005, 5.20170906e-005, -1.24191676e-004,
          -7.60521725e-005, -3.14129400e-004, -2.94393307e-004,
          -1.33281850e-004, 0., 0., 0., 0., 1.25153019e-005,
          3.63109484e-006, 1.65009551e-005, 0., 0., 0., 0., 0., 0., 0.,
          -1.53082627e-004, -3.36494908e-004, -3.62426537e-004,
          -2.09343925e-004, -2.59316457e-005, 0., 0., -9.43905688e-005,
          -9.43905688e-005, -9.43905688e-005, 0., 0., 0.,
          1.25153019e-005, 1.25153019e-005, -8.88420709e-006,
          2.90162570e-005, 0., 0., 0., 0., 0., 0., 0., 0., 0., 0., 0.,
          0., 0., 0., 0., 0., 0., 0., 0., 0., 1.25153019e-005, 0.,
          2.01320508e-005, 2.90162570e-005, 0., 0., 0., 0., 0., 0., 0.,
          0., 0., 0., 0., 0., 0., 0., 0., 0., 0., 0., 0., 0.,
          1.25153019e-005, 1.25153019e-005, 2.90162570e-005,
          2.90162570e-005 ]
      - [ 0., 0., 0., 0., 0., 0., 0., 0., 0., 0., 0., 0., 0., 0., 0., 0.,
          0., 0., 0., 0., 0., 2.27333861e-004, 1.71499967e-004,
          -1.48824212e-004, 0., 0., 0., 0., 0., 0., 0., 0., 0., 0., 0.,
          0., 0., 0., 0., 0., 0., 0., 0., 0., 0., 2.27333861e-004,
          -5.58338943e-005, 1.34343558e-004, 0., 0., 0., 0., 0., 0., 0.,
          0., 0., 0., -2.69795855e-004, -3.41111037e-004,
          -1.01676203e-004, -1.45766462e-004, -2.62934918e-004,
          -1.61853910e-004, -1.99869144e-004, 0., 0., 0., 0.,
          2.27333861e-004, 1.71499967e-004, 7.85096563e-005, 0., 0., 0.,
          0., 0., 0., 0., 0., -6.77043980e-004, -3.26544512e-004,
          -2.39007000e-004, -6.73364091e-004, -6.72577880e-004,
          -3.85376246e-004, -3.82186903e-004, -1.77975890e-004,
          -1.83081342e-004, -1.99869144e-004, 0., 0., 0.,
          2.27333861e-004, 1.71499967e-004, 7.85096563e-005, 0., 0., 0.,
          0., 0., 0., -3.35352175e-004, -3.43648455e-004,
          -4.70208965e-004, -7.66886573e-004, -4.43844212e-004,
          -3.26881243e-004, -6.16961217e-004, -4.88832360e-004,
          -3.13108671e-004, -1.23415986e-004, -1.60822339e-004,
          -1.83081342e-004, 0., 0., 0., 2.27333861e-004, 1.71499967e-004,
          7.85096563e-005, 0., 0., 0., 0., 0., 0., -2.28275181e-004,
          -2.03956093e-004, -3.18363163e-004, 5.57147359e-007,
          -1.20469231e-004, -3.69106303e-004, -2.45283318e-005,
          -4.02323407e-004, -3.53637770e-005, -1.92181455e-004,
          -3.61531493e-005, -1.83081342e-004, 3.80152305e-005, 0., 0.,
          2.27333861e-004, 1.71499967e-004, 7.85096563e-005, 0., 0., 0.,
          0., 0., 1.07076994e-004, -1.58416704e-004, -2.25372845e-004,
          7.25406790e-005, 1.41245459e-004, -8.76698105e-005,
          -1.16836083e-004, 6.22920779e-005, 1.93594329e-004,
          -6.67911954e-005, 3.02928111e-005, -1.13381975e-005,
          -3.61531493e-005, 4.85740966e-005, -1.61853910e-004, 0.,
          2.27333861e-004, 1.00184770e-004, 4.30675063e-005, 0., 0., 0.,
          0., 0., 3.28830414e-004, -3.74962081e-004, -1.01057281e-004,
          5.35071340e-005, -1.00830010e-004, -9.75908551e-006,
          -2.10427999e-004, 3.85750551e-004, 2.51650963e-005,
          -5.33587241e-004, -4.32190514e-004, -8.73998506e-005,
          -4.60053343e-005, -5.33066996e-005, -1.83081342e-004,
          -4.31524561e-004, 2.27333861e-004, -5.58338943e-005,
          4.30675063e-005, 0., 0., 0., 0., -2.84109061e-004,
          -3.66856897e-004, -2.97420811e-005, -2.24237752e-004,
          -3.24416789e-004, -1.34428265e-004, -2.48443219e-004,
          2.78504433e-018, -1.07076994e-004, -2.46769341e-004,
          -1.47692472e-005, -5.26247080e-004, -2.40389156e-004,
          -3.13108671e-004, -2.48085184e-004, -1.60822339e-004,
          -2.21096561e-004, 2.27333861e-004, 1.71499967e-004,
          4.30675063e-005, 0., 0., 0., -3.35352175e-004,
          -2.73789978e-004, -3.66856897e-004, -7.82358329e-005,
          -2.98689294e-004, -4.26031213e-004, -2.11838924e-004,
          -4.41283657e-004, -2.48443219e-004, -1.07076994e-004,
          -1.76935471e-004, 1.64070865e-004, -5.26247080e-004,
          -3.42003594e-004, -3.90519330e-004, -3.94261297e-004,
          -3.91677982e-004, -4.31524561e-004, 2.27333861e-004,
          1.71499967e-004, -9.29903108e-005, 0., 0., 0.,
          -3.35352175e-004, -2.68209522e-004, -2.96946411e-004,
          -6.36988145e-004, -3.11740907e-004, -4.79532551e-004,
          -4.26031213e-004, -4.43494355e-004, -4.41283657e-004,
          -4.25378705e-004, -2.95263104e-004, -3.94681440e-004,
          -6.27861475e-004, -6.60650549e-004, -5.56451152e-004,
          -5.51659556e-004, -4.31524561e-004, -4.31524561e-004,
          2.27333861e-004, -5.58338943e-005, -9.29903108e-005, 0., 0.,
          0., 0., -3.35352175e-004, -3.43648455e-004, -2.96946411e-004,
          -6.14906428e-004, -4.57917020e-004, -3.06269998e-004,
          -2.27883502e-004, -3.49980226e-004, -2.30522186e-004,
          -4.88004880e-004, -4.32484550e-004, -4.90069157e-004,
          -5.56451152e-004, -6.26111112e-004, -5.77700674e-004,
          -4.31524561e-004, -2.31655431e-004, 2.27333861e-004,
          1.71499967e-004, 1.34343558e-004, 0., 0., 0., 0., 0.,
          -3.35352175e-004, -2.68209522e-004, -3.55851022e-004,
          -5.96822938e-005, 2.37520624e-004, -3.14649369e-004,
          -7.57130911e-005, 1.77226597e-004, 2.30328165e-004,
          1.67900958e-004, -9.82907150e-005, -2.10868573e-004,
          6.42518789e-005, 0., 0., 0., 2.27333861e-004, -5.58338943e-005,
          7.19446007e-006, 0., 0., 0., 0., 0., 0., 0., 1.07076994e-004,
          -8.85828194e-005, 2.58080981e-004, 1.83944940e-004,
          -1.36685339e-004, -2.64493108e-004, -4.59841744e-004,
          -1.16852963e-004, -1.60822339e-004, -2.21096561e-004, 0., 0.,
          0., 0., 2.27333861e-004, 1.71499967e-004, 7.19446007e-006, 0.,
          0., 0., 0., 0., 0., 0., 0., -3.35352175e-004, -3.75286530e-004,
          -3.49988625e-003, -7.44515419e-005, -1.55521804e-004,
          -1.08049804e-004, -1.46176128e-004, 0., 0., 0., 0., 0., 0.,
          2.27333861e-004, 1.71499967e-004, 7.19446007e-006, 0., 0., 0.,
          0., 0., 0., 0., 0., 0., 0., 0., 0., 0., 0., 0., 0., 0., 0., 0.,
          0., 0., 2.27333861e-004, 1.71499967e-004, 7.85096563e-005, 0.,
          0., 0., 0., 0., 0., 0., 0., 0., 0., 0., 0., 0., 0., 0., 0., 0.,
          0., 0., 0., 0., 2.27333861e-004, -4.07453813e-003,
          7.19446007e-006 ]
      - [ 0., 0., 0., 0., 0., 0., 0., 0., 0., 0., 0., 0., 0., 0., 0., 0.,
          0., 0., 0., -2.99844633e-005, 0., 2.12944899e-004,
          2.12944899e-004, 0., 0., 0., 0., 0., 0., 0., 0., 0., 0., 0.,
          0., 0., 0., 0., 0., 0., 0., 0., 0., 0., 0., 2.12944899e-004,
          0., 2.12944899e-004, 0., 0., 0., 0., 0., 0., 0., 0., 0., 0.,
          -1.13762268e-004, -9.33891934e-005, -4.30630716e-005,
          -9.77537638e-005, -1.33449348e-005, -9.30164024e-005, 0., 0.,
          0., 0., 0., 2.12944899e-004, 2.12944899e-004, 2.12944899e-004,
          0., 0., 0., 0., 0., 0., 0., 0., -1.90267616e-004,
          7.51657644e-005, -1.22544938e-004, -3.66256747e-004,
          -1.60804833e-004, -1.00528967e-004, -1.75108100e-004,
          -1.40886783e-004, 3.08589297e-005, 0., 0., 0., 0.,
          2.12944899e-004, 2.12944899e-004, 2.12944899e-004, 0., 0., 0.,
          0., 0., 0., 2.12944899e-004, -6.46204498e-005,
          -2.63312773e-004, -4.67044360e-004, -1.80960895e-004,
          -8.28722696e-005, -3.85856954e-004, -2.35701053e-004,
          -3.52745046e-005, -1.04571038e-004, -1.40886783e-004,
          3.08589297e-005, 0., 0., 0., 2.12944899e-004, 2.12944899e-004,
          2.12944899e-004, 0., 0., 0., 0., 0., 0., -6.46204498e-005,
          -2.63312773e-004, -3.41397215e-004, -2.03471209e-004,
          -2.66109942e-004, -3.21734347e-004, -1.85874116e-004,
          2.52870450e-006, -5.52625097e-005, -2.06022727e-004,
          -1.04571038e-004, -2.05099757e-004, -9.30164024e-005, 0., 0.,
          2.12944899e-004, 2.12944899e-004, 2.12944899e-004, 0., 0., 0.,
          0., 0., -2.77565356e-004, -3.47383291e-004, -3.47715308e-004,
          -2.03471209e-004, -1.05542327e-004, -2.26377990e-004,
          -2.68624659e-004, -4.53031244e-004, 2.26700577e-005,
          -1.32811503e-004, -1.65163990e-004, -2.06022727e-004,
          -1.81528871e-004, -2.05099757e-004, -9.30164024e-005, 0.,
          2.12944899e-004, 2.12944899e-004, 2.12944899e-004, 0., 0., 0.,
          0., -2.67148454e-004, -2.33621031e-004, -2.54326122e-004,
          -3.49585986e-004, -2.83716035e-005, -2.83489673e-004,
          -1.47551109e-005, -1.23875332e-004, -1.60567593e-004,
          -3.85908585e-004, -2.42491806e-004, -1.32811503e-004,
          -3.60846636e-004, -3.11339187e-004, -1.60945827e-004,
          -1.34643153e-004, -2.05180200e-004, 2.12944899e-004, 0.,
          2.12944899e-004, 0., 0., 0., -2.67148454e-004,
          -2.68541480e-004, -2.18033980e-004, -3.06522910e-004,
          -3.13372700e-004, -2.77474843e-004, -1.12741451e-004,
          -2.36039137e-004, 1.85407787e-014, -1.25647159e-004,
          -2.44638126e-004, -3.29155911e-004, -2.06199664e-004,
          -2.78926251e-004, -2.67457450e-004, -3.25387780e-004,
          -1.81761439e-004, -2.46806943e-004, 2.12944899e-004,
          2.12944899e-004, 2.12944899e-004, 0., 0., 0., -1.90267616e-004,
          -2.33621031e-004, -2.97740247e-004, -2.76548875e-004,
          -4.59487463e-004, -3.88806133e-004, -1.12741451e-004,
          -3.41126783e-004, -2.36039137e-004, -1.25647159e-004,
          -1.60567593e-004, -1.36671544e-004, -5.09881298e-004,
          -3.58632533e-004, -4.82675387e-004, -4.43220284e-004,
          -3.58138233e-004, -3.70682275e-004, 6.57765631e-005,
          6.57765631e-005, -1.47168335e-004, 0., 0., 0.,
          -2.47020304e-004, -2.68541480e-004, -3.79451987e-004,
          -5.29923185e-004, -4.29513428e-004, -5.83058980e-004,
          -3.88806133e-004, -4.83423733e-004, -3.41126783e-004,
          -3.96606745e-004, -2.08345984e-004, -4.89753147e-004,
          -5.08827739e-004, -6.55770826e-004, -5.55310166e-004,
          -5.15660737e-004, -4.82013565e-004, -3.70682275e-004,
          6.57765631e-005, -1.47168335e-004, -1.47168335e-004, 0., 0.,
          0., -2.67148454e-004, -2.47020304e-004, -4.18736687e-004,
          -3.79451987e-004, -4.07641724e-004, -4.23195335e-004,
          -5.05888253e-004, -2.95416947e-004, -5.66007802e-004,
          -5.85764879e-004, -6.03114138e-004, -7.12748733e-004,
          -7.00649573e-004, -5.58058615e-004, -6.04979170e-004,
          -5.42614784e-004, -3.70682275e-004, -1.65502075e-004,
          6.57765631e-005, 6.57765631e-005, 6.57765631e-005, 0., 0., 0.,
          0., -2.67148454e-004, -1.10956229e-004, -2.71568337e-004,
          -4.56332811e-004, -1.46711114e-004, 5.92021570e-005,
          -1.47265484e-004, -6.21952786e-005, -2.14184824e-004,
          1.05855461e-005, -9.31870309e-005, -1.35162278e-004,
          1.84181008e-005, -4.16267467e-005, -1.65502075e-004, 0., 0.,
          6.57765631e-005, -1.47168335e-004, 6.57765631e-005, 0., 0., 0.,
          0., 0., 0., 0., 1.25647159e-004, 1.15484516e-004,
          2.70230812e-004, -3.56656456e-005, -1.72808854e-004,
          -2.71890633e-004, -1.39788506e-004, -9.41187609e-005,
          -1.81761439e-004, -2.46806943e-004, 0., 0., 0., 0.,
          6.57765631e-005, 6.57765631e-005, 6.57765631e-005, 0., 0., 0.,
          0., 0., 0., 0., -2.67148454e-004, -3.94188624e-004,
          -4.26517159e-004, -1.66370359e-004, -1.89607745e-004,
          -2.81834014e-004, -1.18430421e-006, -3.37434612e-004,
          -1.65502075e-004, -1.65502075e-004, 0., 0., 0., 0.,
          6.57765631e-005, 6.57765631e-005, 6.57765631e-005, 0., 0., 0.,
          0., 0., 0., 0., 0., 0., 0., 0., 0., 0., 0., 0., 0., 0., 0., 0.,
          0., 0., 6.57765631e-005, 6.57765631e-005, 6.57765631e-005, 0.,
          0., 0., 0., 0., 0., 0., 0., 0., 0., 0., 0., 0., 0., 0., 0., 0.,
          0., 0., 0., 0., 6.57765631e-005, -1.47168335e-004,
          6.57765631e-005 ]
      - [ 0., 0., 0., 0., 0., 0., 0., 0., 0., 0., 0., 0., 0., 0., 0.,
          -2.34838517e-004, -2.97726569e-004, -6.44858083e-005, 0.,
          -1.41365163e-004, 0., 0., 4.92361687e-005, 4.92361687e-005, 0.,
          0., 0., 0., 0., 0., 0., 0., 0., 0., 0., 0., 0., 0., 0., 0., 0.,
          0., 0., 0., 0., 0., 4.92361687e-005, 0., 0., 0., 0., 0., 0.,
          0., 0., 0., 0., 5.87431205e-005, 7.09575397e-005,
          1.12895411e-003, 7.81525392e-004, 2.37332515e-005,
          5.36979525e-004, -4.86172503e-004, 4.45204700e-004, 0., 0., 0.,
          0., 0., 4.92361687e-005, 4.92361687e-005, 0., 0., 0., 0., 0.,
          0., 0., 0., 9.26193548e-004, 1.01045531e-003, 6.36289595e-004,
          1.28666160e-003, 1.25515647e-003, 9.21285420e-004,
          1.28094980e-003, 1.04111829e-003, 4.53486806e-004,
          4.45204700e-004, 0., 0., 0., 0., 4.92361687e-005,
          4.92361687e-005, 0., 0., 0., 0., 0., 0., 6.19440514e-004,
          8.33612226e-004, 7.73125270e-004, 8.89405143e-004,
          1.20032544e-003, 1.90295139e-003, 8.15755979e-004,
          1.04452169e-003, 1.14405958e-003, 3.74624098e-004,
          8.35347339e-004, 4.53486806e-004, 0., 0., 0., 0.,
          4.92361687e-005, 4.92361687e-005, 0., 0., 0., 0., 0., 0.,
          1.71999418e-004, -2.51565856e-004, -7.51833897e-004,
          -7.87641504e-004, -9.77141783e-004, 3.34873272e-004,
          -3.51194292e-004, -3.07514070e-004, -5.93789213e-004,
          -7.30939093e-004, -4.56489797e-004, -3.73174611e-004,
          -9.31377173e-004, 0., 0., 0., 1.63066026e-004, 4.92361687e-005,
          0., 0., 0., 0., 0., -1.29557215e-003, -1.21136324e-003,
          -1.20400661e-003, -1.33621553e-003, -9.10379458e-004,
          -9.49843321e-004, -1.23291381e-003, -1.25297147e-003,
          -1.14379672e-003, -1.14116061e-003, -9.68360808e-004,
          -1.51233666e-003, -8.83661094e-004, -1.31283398e-003,
          -4.86172503e-004, 0., 6.93741531e-005, 5.06151817e-004,
          3.97548371e-004, 0., 0., 0., 0., -4.23511548e-004,
          -6.81782840e-004, -6.12801407e-004, -4.34407120e-004,
          -6.95118622e-004, -1.01812254e-003, 3.07091104e-004,
          2.14129929e-018, -6.19440514e-004, -1.89873460e-003,
          -3.93946160e-004, -2.39347224e-004, -8.50542565e-004,
          -4.70749277e-004, -2.50718847e-004, 1.59398231e-004,
          -1.55140922e-004, 0., 4.92361687e-005, 5.11378224e-004, 0., 0.,
          0., -4.23511548e-004, -3.53067415e-004, 1.78850110e-004,
          -4.57927235e-004, 1.59805975e-004, -3.10017708e-006,
          -1.10630288e-004, 2.14129929e-018, 2.14129929e-018,
          2.14129929e-018, 2.14129929e-018, -6.71178394e-004,
          -2.09129066e-005, -1.75251873e-004, 1.85475088e-004,
          -2.53483682e-004, 8.67362833e-005, 2.52768688e-004, 0.,
          4.92361687e-005, 3.97548371e-004, 0., 0., 0., 1.71999418e-004,
          2.34365696e-004, 3.10177682e-004, 2.49645218e-005,
          -4.42222547e-004, -1.59398231e-004, 3.07091104e-004,
          2.14129929e-018, 2.14129929e-018, 2.14129929e-018,
          2.14129929e-018, 2.26340475e-004, 3.01500113e-004,
          -2.69196753e-004, -2.97857856e-004, -9.06626301e-005,
          4.89176673e-005, 1.59398231e-004, -6.91591631e-005,
          9.39068632e-005, -4.37281939e-004, 0., 0., 0.,
          -6.85981795e-005, 4.43182333e-004, 1.09155255e-004,
          5.45885305e-005, -2.53731123e-004, -8.35347339e-004,
          -2.52768688e-004, -4.45204700e-004, 2.14129929e-018,
          2.14129929e-018, 4.22269426e-004, 2.26340475e-004,
          5.24597184e-004, 6.51036680e-005, -6.38611615e-004,
          -1.59805975e-004, -2.98411433e-005, 1.10630288e-004,
          -6.91591631e-005, -1.99229926e-005, -3.88045766e-004, 0., 0.,
          0., -4.23511548e-004, -8.24047747e-005, 1.38139614e-004,
          -2.43801609e-004, -5.27624143e-005, 4.90458973e-004,
          -2.89792551e-005, 1.08676504e-004, -3.70928901e-004,
          -1.13660994e-003, 4.64746990e-004, -7.49017810e-004,
          -4.14089300e-004, 2.61361129e-005, -1.90657316e-004,
          5.34849300e-004, 8.86382986e-005, 1.79081399e-004,
          -6.91591631e-005, 4.94511587e-005, -2.54077953e-004, 0., 0.,
          0., 0., -4.23511548e-004, 6.71178394e-004, 3.93946160e-004,
          4.09088010e-004, 3.09216499e-004, 3.12933495e-004,
          -7.68648024e-005, -3.54405274e-005, -5.30681980e-004,
          -2.46072159e-004, -5.38296648e-004, -9.08935472e-005,
          4.22127487e-004, 3.34206445e-004, -3.64848529e-004, 0., 0.,
          2.14988162e-007, 9.39068632e-005, 6.88698638e-005, 0., 0., 0.,
          0., 0., 0., 0., 0., -2.00882234e-004, 1.09375957e-004,
          8.38641718e-005, -2.84761976e-004, 4.55652626e-004,
          2.68758013e-004, -2.23529438e-004, 2.51173071e-004,
          -3.07091104e-004, 0., 0., 0., 0., 2.14988162e-007,
          -3.83553343e-005, 4.38405550e-006, 0., 0., 0., 0., 0., 0., 0.,
          -4.23511548e-004, -1.51563931e-004, -2.01821647e-004,
          2.62006011e-004, 1.06588368e-005, -8.55869512e-005,
          -8.14744999e-005, -2.45746749e-004, -2.94088590e-004,
          -1.51950167e-004, 0., 0., 0., 0., 2.14988162e-007,
          -2.73193844e-004, 4.38405550e-006, 0., 0., 0., 0., 0., 0., 0.,
          0., 0., 0., 0., 0., 0., 0., 0., 0., 0., 0., 0., 0., 0.,
          -6.91591631e-005, -3.87023698e-004, -2.56936590e-004, 0., 0.,
          0., 0., 0., 0., 0., 0., 0., 0., 0., 0., 0., 0., 0., 0., 0., 0.,
          0., 0., 0., 1.56113310e-004, 3.23498854e-004, 9.81194535e-005 ]
   decision_functions:
      -
         sv_count: 1
         rho: 3.7090592833355300e+000
         alpha: [ 1. ]
         index: [ 0 ]
      -
         sv_count: 1
         rho: 1.9402247875659145e-001
         alpha: [ 1. ]
         index: [ 1 ]
      -
         sv_count: 1
         rho: 3.3645339202552910e-001
         alpha: [ 1. ]
         index: [ 2 ]
      -
         sv_count: 1
         rho: -4.1406019766129782e+000
         alpha: [ 1. ]
         index: [ 3 ]
      -
         sv_count: 1
         rho: -4.7093119288639018e+000
         alpha: [ 1. ]
         index: [ 4 ]
      -
         sv_count: 1
         rho: -2.6878806638349952e+000
         alpha: [ 1. ]
         index: [ 5 ]
